-0.045842 0.033370 0.000029 0.099434 -0.061453 -0.064571 -0.012708 -0.015409 0.092046 0.029104 0.019797 0.025667 0.003155 -0.039561  
-0.000115 -0.015824 -0.046681 0.031688 -0.053501 -0.054893 -0.000372 -0.017067 -0.028896 0.013912 0.036066 0.032364 -0.020611 0.003047  
-0.040567 0.021881 0.024121 0.012375 0.114267 -0.030477 -0.031977 -0.065080 -0.041843 -0.048895 0.031493 0.004656 -0.012867 0.017952  
0.013273 -0.031805 0.023585 -0.004462 0.036610 0.021573 -0.036922 0.013304 -0.016300 0.015682 0.024392 0.043502 -0.001159 -0.029519  
-0.023646 -0.099963 -0.128261 0.076858 0.054868 0.008451 -0.013869 -0.075131 0.032401 0.009750 -0.050730 -0.038279 0.001025 0.003138  
-0.058100 -0.023082 -0.066718 -0.056031 0.052822 0.037481 0.032759 -0.024472 0.013490 0.064348 -0.011319 0.000472 0.041794 -0.005556  
0.076255 -0.095388 0.111486 -0.001707 -0.002854 -0.104354 0.028815 -0.041893 -0.114046 0.049421 -0.048171 0.008171 -0.033536 0.004951  
-0.087725 -0.026058 0.038353 -0.030112 -0.009429 0.034943 -0.077676 -0.008711 0.058301 -0.038366 -0.015558 -0.027026 -0.042637 -0.044009  
0.014840 -0.089130 0.003128 0.074542 -0.083932 0.015305 -0.019857 0.026947 -0.049148 0.136817 -0.046795 -0.034049 -0.009021 0.025286  
-0.055815 -0.019193 -0.008334 -0.002264 0.013987 -0.033486 -0.007178 -0.047127 -0.043912 -0.054481 -0.020500 -0.040572 -0.051555 -0.071215  
0.020607 -0.087602 -0.074432 -0.083347 0.061937 0.118781 -0.041087 -0.012146 0.018034 -0.029367 0.012148 -0.015359 0.014854 -0.049720  
0.038031 0.029544 0.004531 -0.033369 -0.097895 -0.057361 0.045462 0.026536 -0.083757 -0.073688 0.014012 0.036503 -0.032152 -0.053698  
-0.021439 0.072167 -0.029202 -0.080500 0.037703 -0.041790 0.081300 -0.066171 -0.031696 0.057462 -0.038700 0.036628 -0.000664 -0.020693  
0.029186 -0.009391 -0.010201 0.019202 0.049368 0.018291 -0.043636 0.046741 -0.019070 -0.071624 0.031683 -0.029823 -0.028647 -0.042781  
0.043620 -0.062013 -0.016804 -0.046473 -0.066015 0.031373 0.049419 -0.000622 0.010669 -0.088002 0.010495 -0.027312 0.016521 0.027619  
-0.106962 -0.009987 -0.012621 -0.044190 0.035165 -0.078232 0.032157 0.002670 0.100942 0.056076 -0.034416 0.011571 -0.003335 0.011757  
0.022745 -0.001584 -0.078332 -0.074242 0.113932 0.020060 0.037023 -0.039072 -0.063706 0.026411 -0.009592 0.043926 0.015446 0.006532  
-0.042625 -0.010812 -0.051794 0.102279 -0.042751 0.067288 -0.032579 0.028863 -0.057624 -0.007387 0.044004 -0.024504 0.043458 0.036694  
-0.112345 -0.021411 -0.036057 0.099631 0.013371 0.007517 -0.009283 0.018011 -0.105093 -0.030898 -0.035910 -0.015984 0.019018 0.018443  
-0.037529 0.009653 0.105079 -0.035228 0.022642 -0.049372 -0.024878 -0.088007 0.000233 -0.033908 0.018880 -0.007645 0.022408 -0.061456  
-0.069123 0.029927 0.042694 0.048401 -0.015913 -0.025381 0.021812 -0.049278 -0.000842 -0.108067 0.035110 0.026335 0.014074 0.027116  
-0.091422 -0.017409 -0.029152 -0.037924 -0.051812 -0.019718 -0.069376 0.000856 -0.022285 -0.024656 -0.000454 -0.030888 -0.034905 -0.029436  
0.000668 0.025634 -0.010873 -0.050498 -0.042805 0.011698 -0.010079 0.024236 -0.002359 0.030383 -0.032191 0.037472 0.019464 -0.038155  
0.074785 -0.012333 0.040684 0.009968 0.025135 -0.138332 -0.063189 0.033639 0.010231 -0.116501 0.007787 -0.046380 -0.051314 -0.054318  
-0.041413 0.061479 -0.065689 -0.043417 -0.010547 -0.027073 -0.052375 0.048346 -0.074181 -0.065975 0.027753 0.034299 -0.037609 -0.035004  
-0.019593 -0.024402 -0.087964 0.043657 0.011608 -0.010823 0.049411 -0.000308 0.039972 -0.051777 0.004344 -0.024096 0.024243 -0.021488  
0.036158 -0.016757 0.047782 -0.081859 -0.056359 0.019502 0.062379 -0.105939 -0.031692 0.038973 -0.065548 -0.012536 -0.040378 -0.055080  
0.089182 0.036797 -0.043213 -0.027933 -0.076515 0.031096 -0.054992 -0.007361 -0.057120 -0.010624 0.044613 -0.049074 0.020848 0.016342  
-0.054601 -0.021520 -0.001826 -0.090384 0.158628 0.086301 0.028293 -0.111349 -0.059160 -0.001824 -0.052802 -0.015936 0.013228 0.005672  
-0.063737 0.019704 -0.078691 -0.014016 0.070103 -0.004252 -0.003974 0.057962 0.018158 0.058630 0.025907 -0.025877 -0.052038 0.001087  
-0.009600 -0.066515 0.023447 -0.163990 -0.004821 -0.019783 0.014559 0.067885 0.094341 -0.012182 -0.038686 0.037836 0.001192 -0.001549  
-0.039496 0.024787 -0.005613 0.067807 0.006671 -0.050008 0.005810 0.072400 -0.031108 -0.092947 0.003380 -0.033450 -0.037758 0.018181  
-0.094934 -0.015878 0.019528 0.050044 0.008539 0.034564 0.035164 -0.028003 -0.131968 -0.079531 -0.048298 0.027385 -0.050153 0.027927  
-0.020176 -0.052080 -0.018015 -0.050723 -0.026194 0.068742 0.014376 0.043961 -0.035141 -0.088070 0.021773 0.011548 -0.050310 0.010741  
-0.033150 0.078979 0.042926 -0.025469 0.035277 0.012304 -0.026491 0.066155 -0.074897 0.011255 0.004512 -0.021731 0.022434 0.031299  
-0.098045 0.023458 0.105518 0.006834 -0.123013 -0.035665 0.063405 0.068842 -0.068447 -0.040162 0.015373 -0.021776 -0.037101 -0.005437  
-0.054469 -0.025778 0.053905 -0.038152 0.000413 0.028181 -0.013552 0.041987 0.008777 -0.013995 0.006289 -0.015267 -0.049863 -0.025734  
0.051400 0.007664 0.086868 0.025124 -0.034999 -0.137811 -0.011426 -0.073680 -0.015060 0.079267 -0.022349 0.035291 -0.037237 0.016013  
-0.020353 -0.086070 0.014255 -0.026820 -0.039462 0.006884 0.017364 0.004074 0.011143 -0.106992 -0.018874 -0.027925 -0.005352 -0.012894  
-0.065639 -0.022445 -0.049089 0.017489 0.015107 0.001063 -0.035155 0.005245 -0.043525 -0.012274 -0.067439 -0.034204 -0.020642 -0.034048  
0.000784 -0.064621 0.002486 0.040248 -0.041904 -0.058116 -0.053104 0.027443 -0.042289 0.007457 0.011315 0.005608 -0.017935 -0.001775  
0.065417 0.043385 -0.085196 0.036981 -0.054052 -0.059496 0.022515 0.064393 0.012871 -0.029597 0.006102 -0.038149 -0.053395 0.018563  
0.041755 -0.087638 0.008184 0.066827 -0.017982 0.016784 0.043207 0.043067 0.028086 -0.026120 -0.010232 -0.046451 0.006970 -0.059093  
-0.047133 -0.047788 -0.039486 0.002234 0.001794 0.015326 -0.006658 0.022815 0.055532 -0.003395 0.027975 -0.042028 -0.026376 -0.002885  
-0.000745 0.033642 0.014740 0.040435 -0.049504 0.029368 -0.026647 -0.057695 -0.038635 0.021630 -0.057792 -0.050464 0.011327 -0.049215  
-0.018305 -0.054601 -0.026024 0.060010 0.015908 -0.019694 -0.051622 0.038265 0.079858 -0.067512 -0.031637 -0.027794 -0.009308 -0.007895  
0.000319 -0.022180 -0.074425 -0.059695 -0.043501 -0.008641 0.067468 -0.011876 0.068706 0.014044 0.004225 -0.047943 -0.007912 -0.034849  
0.039386 0.046518 -0.053900 0.005611 -0.051492 0.044308 -0.048281 -0.041075 -0.045256 -0.018498 -0.010007 0.013038 0.019915 -0.010711  
-0.028179 -0.009774 0.001997 0.100150 -0.016693 0.011801 -0.041011 -0.052631 -0.086192 0.010017 -0.018421 -0.033429 0.019216 -0.007688  
-0.073160 -0.034560 -0.051750 0.086074 -0.092886 0.029582 -0.064520 0.013869 -0.015774 -0.000124 -0.052191 -0.052927 0.035803 0.011154  
-0.118304 0.013726 -0.050480 0.035591 0.032464 -0.029387 -0.029810 0.023711 0.034098 -0.064674 -0.046971 -0.044295 0.022118 0.012867  
-0.055821 -0.018757 0.008382 0.028034 0.032966 0.053026 0.024924 -0.007747 -0.053599 -0.036096 -0.026669 -0.009039 -0.034955 -0.051644  
0.072700 -0.072797 -0.011161 -0.142297 0.055308 -0.063836 -0.041687 0.062814 -0.001672 -0.110178 0.036407 0.013978 -0.005452 0.016582  
-0.075202 -0.005129 -0.011493 -0.002275 0.037725 0.023842 -0.064501 -0.018628 0.057839 -0.001075 0.028422 -0.023039 -0.019488 0.010870  
0.014640 0.046776 -0.095923 0.059609 0.021755 0.021125 -0.085150 0.033417 0.018890 -0.053119 0.011300 -0.060160 -0.007134 -0.017276  
-0.031655 0.028208 0.017743 0.018156 0.021683 0.042677 0.069985 -0.054069 -0.010517 -0.058238 0.023736 0.013779 -0.016874 -0.015927  
-0.063238 -0.049233 -0.051604 -0.019662 0.131276 0.055542 0.003993 0.016847 0.064899 -0.093751 0.032012 -0.034722 0.008967 -0.053753  
0.074724 0.035863 0.019348 -0.012088 -0.063567 -0.035697 -0.001060 -0.045163 -0.110910 0.011962 -0.044434 -0.001337 -0.029964 0.003678  
0.033191 -0.060730 0.034187 0.031164 -0.001589 -0.040900 0.071676 -0.107000 -0.020222 -0.128112 0.008393 -0.044512 -0.010178 -0.052785  
-0.102314 -0.000106 0.023847 -0.059313 -0.048092 0.001103 0.082776 -0.056779 -0.122070 -0.012012 0.024416 -0.015550 0.037988 0.007079  
-0.000349 -0.046328 -0.040823 -0.041690 -0.012658 -0.043459 0.049521 -0.064956 0.058289 0.080745 0.017854 0.015796 0.014581 -0.053090  
0.034577 -0.089876 -0.026174 0.020757 -0.082571 0.015540 0.045685 -0.045600 0.094624 -0.128774 0.006000 -0.043443 -0.008581 0.003885  
0.059689 0.045735 -0.087626 0.083990 -0.106529 0.074673 -0.026414 -0.098066 0.014620 -0.003943 -0.045091 -0.009406 -0.027956 -0.045556  
-0.073380 -0.019609 -0.075313 0.078479 -0.001431 0.067427 -0.018554 -0.037031 0.068004 -0.014661 -0.033960 -0.017282 -0.035317 0.003535  
0.089990 0.034281 0.028314 0.005681 -0.002897 -0.097146 -0.002450 0.050308 -0.034101 -0.058792 -0.051908 -0.005009 0.039063 0.008067  
0.006757 0.029663 0.054299 -0.021619 -0.165020 0.052769 0.037874 -0.057352 0.076638 -0.063980 0.023003 -0.038646 -0.052967 0.006803  
0.026993 0.005262 -0.036841 -0.048972 0.066897 -0.047160 0.028246 -0.000543 -0.071976 -0.097222 -0.046404 -0.051235 -0.022012 -0.008419  
-0.000402 0.044187 -0.057481 -0.016640 0.016173 0.030419 -0.048084 -0.036072 -0.005151 -0.051881 0.027786 -0.040821 -0.045276 -0.052306  
-0.046573 0.068932 0.052440 -0.057274 0.045232 -0.004576 0.086835 -0.064319 -0.020400 -0.069310 -0.039213 -0.050243 0.013536 0.027773  
-0.042663 -0.057253 -0.063164 -0.085914 0.053332 -0.014790 -0.043565 -0.049482 0.043904 -0.013473 -0.026011 -0.002487 -0.014643 -0.013195  
0.034241 -0.039992 -0.043278 -0.076358 -0.007175 -0.003624 -0.053220 0.060833 -0.090451 -0.023274 -0.009197 -0.039561 -0.002636 0.022266  
-0.016851 -0.047970 -0.022513 -0.049574 -0.040266 0.008762 0.019985 -0.003343 -0.066159 0.002250 -0.027342 -0.050231 0.014522 0.011919  
0.080642 0.034880 -0.064638 -0.048439 -0.108366 -0.025841 -0.017555 0.080334 -0.120686 -0.073382 0.011431 -0.027284 -0.031909 -0.005555  
-0.025406 -0.070146 0.058870 0.071415 -0.047942 -0.075316 -0.044086 0.055451 -0.108407 0.013884 0.022109 -0.026407 0.007571 0.033329  
-0.025149 0.011446 -0.055765 -0.023815 -0.016830 0.015029 -0.061960 -0.043653 -0.062697 -0.033394 0.002669 0.012845 -0.067434 -0.022380  
0.008935 0.067876 -0.100073 -0.056205 0.005812 0.006196 -0.057743 0.052644 0.007655 0.060646 -0.049427 0.024047 -0.018193 0.028584  
-0.013801 -0.004660 -0.113541 -0.052060 0.066852 0.050044 -0.033095 0.015496 0.013444 0.061284 0.005070 -0.041663 0.006675 0.017223  
-0.025820 0.003150 -0.008090 -0.001710 -0.032900 -0.011815 -0.056739 -0.058173 0.001218 0.024028 -0.053791 -0.039176 -0.021802 -0.049484  
-0.068817 0.030811 -0.054958 -0.063123 0.145350 -0.086786 -0.092337 0.043821 -0.091208 0.104431 0.014121 -0.043758 0.015586 0.006886  
-0.046485 0.005192 -0.006920 -0.037959 -0.019786 -0.016533 0.051045 -0.035989 -0.029446 0.027988 0.026704 -0.032390 0.024613 0.018083  
-0.052639 -0.099825 -0.033991 0.021570 -0.037635 0.020922 -0.091364 0.031482 0.038825 -0.069791 -0.069503 -0.028295 0.003068 -0.011208  
-0.064665 0.034050 -0.005385 0.037918 -0.085212 0.034558 0.028141 -0.025709 -0.054973 0.017813 0.008515 0.033999 -0.019619 0.014841  
0.045008 -0.058983 -0.052517 -0.013394 0.086689 -0.086592 0.023533 -0.005399 0.067927 0.047817 -0.038781 0.008026 -0.016059 0.009076  
0.007651 0.008478 0.046846 0.044043 0.013126 -0.045372 -0.026543 -0.008879 -0.040713 -0.034674 -0.045134 -0.009079 0.042198 -0.047331  
0.082965 -0.114531 0.034891 0.005913 -0.016115 0.014412 -0.085208 -0.046961 -0.061566 0.057776 -0.030916 0.014583 0.017668 -0.038616  
0.019192 -0.026287 -0.018308 -0.062569 -0.044069 0.038138 -0.025457 0.031635 -0.021857 -0.033229 0.013576 0.021070 0.011608 0.021032  
-0.106318 -0.039619 -0.069082 0.034100 0.018862 -0.008133 -0.072416 -0.041165 0.049495 0.072551 0.033362 -0.041045 -0.048347 0.004585  
0.049627 -0.043313 -0.145385 0.069580 0.005356 0.037324 -0.156243 0.036677 0.076318 -0.058542 0.016186 0.024996 -0.028163 -0.014822  
0.047217 -0.068574 -0.026978 0.055728 -0.004502 -0.058330 -0.144973 0.025443 0.057018 0.101482 -0.059882 -0.055851 -0.034276 0.030165  
-0.061697 -0.018784 0.071804 0.072534 0.033898 -0.042437 -0.087281 0.023116 -0.073792 0.086859 0.017313 -0.011882 -0.054852 -0.030560  
-0.037943 -0.093057 -0.027913 -0.036594 -0.037392 0.063844 0.034138 -0.016284 0.021912 -0.074679 -0.025649 -0.059566 0.017358 -0.013956  
-0.054433 0.031802 0.082889 -0.023956 0.042328 -0.046566 0.051688 0.026317 -0.133929 -0.005434 -0.060261 -0.029518 -0.002854 0.013879  
-0.051859 0.037457 0.071047 0.015950 -0.101968 0.024505 0.024738 0.010015 0.037260 -0.057299 -0.045645 0.022415 0.032908 -0.001565  
0.062546 -0.075624 -0.019602 -0.010881 -0.064392 0.020005 -0.005660 -0.000830 -0.001982 -0.079357 0.014210 -0.044067 -0.004104 -0.003374  
0.058839 0.062848 -0.036184 -0.032994 -0.052956 0.060604 -0.050677 -0.041723 -0.066900 0.024250 -0.043364 0.029758 -0.047545 -0.023812  
-0.065039 0.011851 -0.016059 -0.004886 0.074816 -0.062281 0.032492 -0.003758 -0.093498 0.034719 -0.048144 -0.051271 -0.007416 -0.047198  
-0.023385 -0.023735 -0.022781 -0.087591 0.049623 0.056207 -0.018688 -0.079002 0.072786 -0.096042 -0.012149 0.018342 -0.027425 0.017342  
0.021184 -0.044349 0.006301 0.039509 -0.040124 -0.038563 0.096456 -0.029674 -0.042576 -0.005123 -0.047193 0.042438 0.021914 -0.035279  
-0.004626 0.021818 0.034630 -0.002886 -0.144002 -0.004152 -0.112707 -0.001011 0.092194 -0.033174 0.000594 -0.003662 -0.000755 -0.048781  
0.046329 -0.000802 -0.029637 -0.051773 0.004160 -0.083036 -0.022760 0.015227 0.010467 -0.068844 -0.034712 -0.044183 -0.064152 0.029502  
-0.066890 -0.064052 0.048962 0.012889 -0.055599 0.026656 0.030855 -0.057713 0.030940 0.020427 -0.043486 -0.057659 0.025862 -0.060529  
-0.051800 -0.027497 -0.107247 0.050778 0.034560 0.104158 -0.064123 -0.025841 -0.099324 0.097615 -0.017452 -0.000287 0.027565 -0.058231  
-0.074471 0.064836 -0.034674 0.040761 0.042617 -0.023845 -0.066439 0.045216 -0.055865 -0.035907 -0.055027 -0.011095 0.015295 -0.025799  
0.066421 -0.029117 -0.094613 0.036620 -0.035943 -0.037970 0.029976 0.007231 0.093326 -0.076544 -0.055884 -0.013183 -0.055601 0.013857  
0.010348 0.044480 -0.069571 0.007681 0.027740 0.031693 -0.006769 -0.043351 0.059887 -0.015965 0.031185 -0.041757 -0.047038 0.003008  
0.094316 0.034877 -0.018755 0.020582 0.012096 -0.120111 -0.062983 -0.035559 -0.053887 -0.014380 -0.034950 0.027306 0.030602 -0.038035  
-0.054623 0.145774 -0.080173 -0.051358 0.012494 0.032165 -0.066390 0.016785 -0.043397 0.005241 -0.029503 0.034001 -0.014368 0.041835  
0.005161 0.004540 -0.146066 0.042865 0.030105 -0.063682 0.067444 0.013907 -0.002618 0.015831 -0.031983 0.008971 0.008981 -0.025522  
-0.057473 -0.009885 -0.067233 0.015818 -0.004524 0.074845 -0.014844 -0.002649 0.000401 -0.073574 0.032656 -0.022569 -0.037023 -0.024207  
-0.062559 -0.044951 -0.029641 -0.014524 0.010557 -0.024281 -0.052898 -0.029691 -0.006069 0.012992 -0.041479 -0.036708 -0.054409 -0.004437  
0.001304 -0.015449 0.003227 0.016423 -0.031386 0.085213 -0.023049 0.046909 0.016449 0.016413 -0.015873 0.000147 -0.002127 0.001637  
-0.119885 -0.027030 -0.049998 -0.025379 0.100036 -0.001028 -0.064858 0.101644 0.029782 0.119495 0.017330 -0.040781 0.025427 0.027953  
0.116994 -0.049465 -0.008805 -0.055677 0.005678 -0.085616 -0.055696 -0.060189 -0.041466 -0.034164 0.006756 0.016457 0.034386 -0.042609  
0.011888 0.019550 -0.024463 0.004717 0.033984 0.133035 -0.090426 -0.009732 -0.022681 -0.005273 -0.022828 -0.017970 0.028487 -0.012687  
-0.072387 -0.082776 0.012034 -0.041746 0.071355 0.047994 0.010070 0.000149 -0.040057 -0.078576 -0.039410 -0.054916 0.016601 -0.020138  
-0.083403 0.036892 -0.145430 -0.147003 0.093599 0.061724 0.016154 -0.090772 -0.003572 0.036915 -0.026931 0.037358 0.037537 0.009700  
0.007991 -0.009298 -0.013231 -0.024197 0.015662 0.065917 -0.056075 -0.015154 0.060277 0.016046 -0.044551 -0.041676 -0.022341 -0.033644  
-0.051320 0.001971 -0.058440 -0.070534 0.053206 -0.027194 0.039229 -0.056361 0.039644 -0.081255 -0.002454 -0.023203 -0.049572 -0.041996  
0.023744 -0.066378 0.008791 -0.090128 -0.078539 -0.059420 -0.020479 -0.067277 0.060378 0.048626 -0.062846 -0.026673 0.016579 0.008524  
0.004147 -0.032930 -0.119180 -0.091163 0.100999 0.007564 -0.034139 -0.049746 0.037381 0.055582 0.010858 0.022934 -0.005136 -0.044525  
0.063359 -0.041080 0.009651 0.082961 -0.031113 -0.018597 0.026351 0.007442 -0.074816 -0.059094 0.042431 -0.002802 -0.008221 0.005408  
-0.085243 0.069438 -0.062458 -0.003757 -0.074349 0.017016 -0.053311 0.097836 0.067137 -0.031698 -0.043360 0.012971 -0.042685 -0.029613  
-0.038752 -0.011394 -0.021443 0.047553 -0.006013 -0.079603 -0.079396 0.066019 -0.073334 0.035840 0.017023 -0.038136 -0.020242 0.021727  
-0.059610 -0.064727 -0.035868 0.036529 0.050828 0.019368 0.069032 -0.009590 0.053084 -0.078120 0.014872 -0.036480 -0.054555 0.028225  
-0.036757 0.000148 -0.040916 0.001494 -0.124747 0.022101 0.037437 -0.012282 0.032316 0.025793 0.006390 -0.033986 0.016306 0.018102  
0.038378 -0.051861 -0.076448 -0.080043 -0.028771 0.061212 -0.077981 0.021473 0.035061 0.036878 -0.018473 -0.049746 -0.027472 -0.042220  
-0.016653 0.055026 -0.102909 -0.065410 0.035917 -0.023380 0.050247 0.048911 -0.083815 -0.011702 0.003678 -0.029681 0.031772 -0.013092  
-0.054262 -0.030098 0.036615 -0.029341 0.049355 -0.029719 -0.011545 -0.016221 -0.038508 -0.090052 -0.004020 -0.059899 -0.010600 0.006577  
-0.053318 0.061060 -0.080030 -0.055030 0.095861 -0.047641 -0.002160 -0.049747 -0.076978 0.065498 -0.014696 -0.018049 -0.043032 0.014998  
-0.013722 -0.009456 -0.021900 0.048271 -0.028405 -0.014720 0.004952 -0.018715 0.004285 -0.119175 -0.036074 -0.029391 -0.009748 -0.053673  
0.029033 -0.075420 0.115358 0.075001 -0.010482 -0.081542 -0.039473 -0.032708 -0.003183 0.018705 -0.003629 -0.022681 0.019414 0.031646  
-0.050478 0.003956 0.010064 -0.084750 0.063039 -0.058337 -0.001050 -0.044794 -0.000178 -0.025338 -0.050762 -0.016152 0.024268 -0.039228  
-0.049926 -0.001616 0.049484 0.036851 0.082228 -0.001517 -0.082102 -0.042820 -0.070293 0.033561 -0.013067 -0.048798 -0.022456 0.003322  
-0.059550 0.032071 0.041137 -0.098606 -0.077401 -0.079424 0.011095 0.003574 0.015141 0.040678 -0.045210 -0.022217 -0.015661 -0.059234  
-0.072528 0.040746 0.022720 -0.026269 0.035433 0.028762 -0.030601 -0.070716 0.019736 -0.091665 -0.021081 -0.047647 -0.027138 -0.028501  
-0.019551 0.013080 -0.004004 -0.022537 0.032058 0.018974 0.011070 -0.079137 0.043935 -0.016961 -0.017420 0.006684 0.026711 -0.023680  
0.054234 -0.087010 -0.032998 0.003568 -0.028312 -0.051981 0.023544 0.006303 -0.030957 0.017700 -0.037572 0.032800 -0.043532 0.035425  
-0.051932 0.057050 0.030285 0.022248 0.008205 -0.042336 0.007394 -0.029673 -0.045571 -0.020607 -0.007268 -0.001573 -0.022799 0.004988  
0.016909 0.043169 0.016761 -0.021914 0.029282 0.046792 -0.016253 0.011591 -0.022981 -0.074214 0.040893 0.040978 0.023746 0.030194  
-0.018530 -0.059191 0.023278 -0.062506 0.056503 -0.050394 -0.001829 -0.010372 -0.015984 0.054689 -0.036488 -0.035958 0.005372 0.006566  
0.005596 0.014195 -0.035789 0.046375 0.043110 -0.006806 0.036367 -0.029047 0.014252 0.024208 -0.007411 -0.046404 0.004196 -0.002590  
-0.049235 0.052016 -0.014202 0.016667 -0.005258 -0.110183 -0.023791 -0.045086 0.039854 0.008440 0.006612 0.025469 -0.004748 0.010719  
0.087203 -0.014258 0.014928 -0.123757 -0.063554 -0.116422 0.068668 -0.056393 0.042757 0.066087 -0.064472 -0.012763 -0.045451 0.023203  
-0.062465 -0.043455 -0.084650 -0.049152 0.056845 0.041860 0.049392 0.038112 -0.085874 -0.122887 -0.004249 0.007666 -0.032340 -0.050650  
-0.133408 0.066564 -0.081969 0.014493 0.049398 0.093741 0.064617 -0.075631 0.083363 -0.012642 -0.011983 -0.000004 0.030322 -0.014617  
-0.094825 -0.006744 0.069304 -0.093675 0.007137 -0.083341 0.073867 0.036153 0.069818 -0.106695 0.027509 -0.033489 -0.032312 -0.020252  
-0.011384 0.041323 0.072631 -0.022865 -0.023043 -0.019616 -0.055196 -0.079784 0.036544 0.028653 -0.033579 -0.005551 -0.064115 -0.023196  
-0.096899 0.016213 -0.006207 -0.122691 0.039203 -0.155299 0.073213 0.027435 0.076151 0.073401 -0.006965 0.011820 -0.057928 -0.015394  
-0.009883 0.071483 -0.081407 -0.062465 -0.008487 -0.015840 0.056819 -0.008439 -0.053500 0.034069 0.026751 0.025191 -0.034710 -0.050578  
0.029910 -0.037248 0.095027 0.003619 -0.077607 0.046003 -0.023763 -0.014333 -0.023274 0.033940 -0.049319 0.028965 -0.042624 0.040937  
0.029347 0.020046 -0.050449 -0.087278 -0.081718 0.050777 0.095765 0.016262 -0.081646 -0.130182 -0.029014 -0.050992 -0.026902 0.016270  
-0.075286 -0.113082 0.067611 0.005485 0.053059 -0.105909 -0.014612 0.050865 -0.145495 0.076837 0.017232 -0.022399 0.009790 -0.022393  
-0.041201 -0.107341 0.049506 0.004359 -0.026976 -0.059277 0.061571 0.115239 -0.038953 -0.028605 0.031836 0.009821 -0.027289 -0.046344  
-0.027021 -0.003334 0.038385 0.027834 -0.041549 0.042386 0.027318 -0.046714 -0.049258 -0.021785 -0.009828 0.037610 -0.054180 -0.033752  
0.076115 -0.078643 -0.049975 0.061420 -0.068399 0.017784 -0.029782 0.017924 -0.015246 0.017731 -0.007564 0.011225 0.019874 0.005423  
0.036421 0.007116 -0.022325 -0.114789 -0.022418 -0.012814 -0.029079 0.035425 -0.086957 0.030945 0.000597 -0.038243 -0.032700 0.020919  
0.079367 -0.091419 0.065943 -0.096110 0.038572 -0.030490 -0.079861 0.041171 0.064935 0.042247 0.025730 -0.051053 -0.004293 -0.063373  
-0.031226 -0.076711 -0.028251 -0.115449 0.053082 -0.050259 -0.060981 0.069492 0.064972 0.102387 0.007688 -0.052153 -0.029637 -0.006281  
0.038926 -0.028588 0.079681 0.035278 -0.010557 -0.078591 0.071052 -0.046733 -0.036102 -0.012130 -0.048314 -0.010264 -0.023892 0.007186  
-0.052650 0.038398 -0.063862 -0.074122 -0.017269 0.061537 -0.095532 0.009841 -0.015596 0.040654 -0.026733 0.016814 -0.011342 0.024273  
-0.034012 0.014861 -0.048855 -0.011954 -0.071791 0.041307 -0.040689 0.025234 0.015834 -0.042247 0.001607 0.034281 0.000826 -0.038100  
-0.002834 -0.053181 0.038460 -0.049133 -0.079286 0.069137 -0.000491 -0.024956 -0.057612 -0.053191 -0.005199 0.021233 -0.052435 -0.054934  
-0.062621 -0.024627 -0.054984 -0.002912 0.004903 -0.005326 -0.018465 -0.042367 -0.075182 0.002991 0.018628 0.032368 -0.053992 -0.047861  
0.077649 -0.071964 -0.085058 0.096553 -0.039613 -0.057021 -0.063644 -0.038779 0.131413 -0.016063 -0.034917 0.024295 -0.019640 -0.025765  
-0.068484 0.005697 0.072046 0.029465 -0.082171 0.007781 -0.076739 -0.100476 0.051421 0.104155 0.009821 -0.054871 0.027623 0.000936  
-0.015833 0.038547 0.023544 -0.064088 -0.018095 -0.021788 -0.034966 0.006794 -0.013530 0.006005 0.046383 -0.000276 0.039990 -0.029566  
0.016697 -0.105963 0.032479 0.007865 0.014150 -0.043643 0.081879 0.000535 -0.038499 0.036632 0.030466 -0.013289 -0.047462 0.002583  
-0.084585 0.052800 -0.087216 0.011194 -0.086629 -0.087022 0.034991 0.011544 -0.073950 0.072244 -0.059602 -0.033167 -0.008280 -0.038304  
-0.048143 -0.089553 0.020955 -0.049746 0.039861 0.061012 0.022984 -0.039084 -0.084230 -0.077586 0.020949 -0.033315 0.001440 -0.008194  
0.002475 0.012260 0.047708 -0.040215 0.051576 0.007723 -0.061073 -0.014621 -0.056565 -0.059293 -0.062759 -0.004412 0.003174 0.018128  
0.007548 -0.001686 0.074166 -0.010692 -0.015335 -0.034483 -0.083851 0.043796 0.015354 -0.051073 -0.002909 -0.039406 -0.002724 -0.028810  
-0.001306 -0.066922 0.051284 0.042189 0.023499 0.036644 -0.056342 -0.013715 0.038680 -0.007360 -0.029265 0.013533 -0.064191 0.009898  
-0.006644 -0.022937 0.000606 -0.069782 0.139897 -0.031340 -0.049929 -0.029514 -0.012740 -0.118252 0.022970 0.004445 0.005267 -0.023563  
0.042692 -0.067813 -0.049503 0.024046 -0.074471 0.105966 -0.110560 -0.031201 0.051627 0.041149 0.013567 -0.054367 0.017802 -0.032505  
-0.083187 -0.040443 -0.011364 0.036267 0.040303 -0.060715 -0.112621 0.069413 -0.046189 0.039768 -0.047462 -0.018522 -0.026050 0.025905  
-0.015372 -0.004996 0.123191 0.030297 0.043214 0.014984 0.043359 0.007924 -0.161098 -0.119516 -0.021013 -0.028397 -0.041960 -0.008890  
-0.085741 -0.047518 -0.037707 -0.006133 0.054230 0.032490 -0.058728 0.017564 0.034695 -0.017273 -0.035694 -0.032810 -0.052482 0.014526  
-0.021605 -0.037027 -0.038849 0.031078 -0.035683 0.016552 0.022154 -0.003754 0.034961 -0.047612 0.043618 0.023523 -0.001367 -0.001321  
0.028332 -0.040298 -0.052832 -0.007867 -0.015960 -0.053704 0.057670 0.085684 -0.102129 -0.057206 -0.008770 0.034945 -0.033920 -0.013352  
0.022533 -0.053827 -0.001775 0.046092 -0.108178 -0.002277 0.048446 -0.003819 -0.037973 -0.031974 0.009489 -0.061196 0.009866 -0.053240  
0.009930 0.027023 0.008639 -0.009793 0.068626 0.008897 -0.121751 -0.030527 0.023980 0.003107 0.006813 -0.024800 -0.020639 0.013459  
0.059684 -0.091348 0.038782 0.000986 0.005685 0.033734 -0.078211 -0.001729 0.033862 -0.042149 0.018164 0.012474 -0.002545 -0.023174  
-0.055077 0.086649 -0.053061 0.093600 0.010301 0.130116 -0.096351 -0.078746 -0.120374 -0.011355 -0.029388 0.020060 0.019450 -0.055503  
-0.037314 0.001253 -0.056637 -0.038363 0.072595 -0.058614 0.082201 -0.018105 0.018602 0.086650 -0.007073 -0.053356 -0.015069 0.027978  
-0.018527 -0.057319 0.021525 -0.006166 -0.017871 -0.046402 -0.035744 -0.034895 0.004228 0.021561 0.029382 -0.018918 -0.047192 -0.000497  
-0.029794 -0.027695 -0.015836 0.010902 -0.039038 0.027137 0.023772 -0.043439 -0.027253 -0.056521 -0.000076 -0.047930 -0.067197 -0.045829  
0.005806 -0.067690 0.029493 0.039006 -0.052499 -0.017898 -0.043622 0.030842 -0.086240 0.023759 0.000852 -0.014489 0.039937 0.021659  
0.055743 -0.059775 -0.002966 -0.068222 -0.101745 -0.063540 -0.000836 0.082701 0.016314 0.038085 -0.043505 -0.007612 -0.055320 0.004167  
-0.045371 -0.001727 -0.003414 0.073416 0.038802 -0.051140 -0.005232 -0.001975 -0.038327 -0.010514 0.036682 -0.025106 -0.045530 -0.005266  
-0.047583 -0.079330 -0.135898 0.048285 0.033330 0.077105 0.051750 -0.056266 -0.131568 0.060796 -0.051500 -0.031317 -0.037402 0.018484  
0.124348 -0.072586 -0.000995 -0.011286 -0.102106 0.064487 -0.008716 -0.074686 -0.029390 0.026510 -0.006847 -0.040123 -0.052233 0.002894  
0.080107 -0.082526 0.092856 -0.050510 -0.027082 -0.002439 0.037842 -0.060806 -0.039609 -0.068936 0.008415 -0.005926 0.027893 -0.012710  
-0.028390 -0.056654 -0.006964 -0.023957 0.068620 -0.000568 0.027364 -0.105859 -0.014084 0.028059 -0.021153 -0.052452 -0.021651 -0.049145  
0.047387 0.022118 0.079470 -0.051541 0.054640 -0.107336 -0.050933 0.064395 -0.029457 -0.026409 -0.033421 -0.020884 -0.021220 0.031099  
0.009676 0.050117 -0.031488 -0.030085 -0.049376 0.057760 -0.055254 0.022100 -0.088838 -0.051913 -0.043842 0.017714 -0.012411 0.004466  
-0.001764 -0.019576 0.020322 0.059812 -0.068229 0.069316 -0.036817 0.078944 -0.020637 0.066276 0.002433 -0.043444 -0.013592 0.037836  
0.046158 0.018646 0.039592 -0.031525 -0.027699 -0.034594 0.016257 0.012993 -0.017800 -0.044950 -0.028711 0.004088 -0.013838 0.012696  
0.003440 0.100989 -0.009481 -0.034695 -0.045858 -0.059384 0.017716 -0.022729 -0.011652 -0.017424 -0.052506 -0.028748 0.036879 -0.027503  
0.025228 0.096300 -0.091017 -0.101592 -0.009985 -0.108559 0.036338 0.050650 -0.053729 -0.087754 -0.058197 0.031376 -0.056976 0.014377  
-0.026872 0.075382 0.027290 0.066665 -0.058567 0.003537 -0.028077 0.075275 -0.017300 -0.036896 -0.056634 -0.021100 -0.002126 0.014162  
-0.065771 0.008494 0.049723 -0.007953 -0.011588 -0.052652 0.042232 0.032832 0.032991 0.038708 -0.032543 -0.029262 0.038000 0.019449  
-0.092945 -0.016703 0.021407 0.042136 -0.059177 0.015130 -0.085972 0.153347 -0.082988 -0.094808 0.004688 -0.025648 -0.053584 -0.009147  
-0.033582 0.011074 -0.013508 0.056854 0.008709 -0.018572 0.021980 0.062693 0.038276 0.009177 -0.043223 -0.036072 0.044367 0.045272  
-0.016782 -0.039714 -0.097305 0.068293 0.019965 -0.018312 -0.098490 0.012077 0.039935 0.028464 -0.032904 0.004246 -0.019898 -0.026420  
-0.027857 0.022389 -0.064916 -0.031193 -0.001273 0.031669 -0.162367 0.046238 -0.030732 0.043690 -0.049608 0.018890 0.008383 -0.024290  
-0.036612 -0.022149 -0.003523 0.026345 -0.015402 0.021501 0.006469 -0.031782 -0.066089 -0.042186 0.021497 0.006061 -0.035536 -0.006394  
-0.012902 -0.058611 0.016590 0.047532 0.050610 -0.004522 0.054043 0.002170 -0.101530 -0.021698 0.035294 -0.028778 -0.016780 0.019413  
0.057750 -0.084733 0.049209 -0.072781 0.010870 -0.019260 -0.099560 0.041516 0.002225 0.013396 0.011031 0.009951 -0.057166 0.009433  
0.025336 -0.068748 -0.002295 -0.022147 -0.002512 0.152264 0.062592 0.023791 -0.056436 -0.122023 -0.024887 -0.027984 0.026605 0.031555  
-0.029747 0.001541 0.038052 -0.102808 0.049940 0.047294 -0.024813 0.023985 -0.018831 0.047009 -0.029232 0.034528 -0.045655 -0.007344  
-0.007434 0.023761 0.082330 -0.070835 -0.034020 0.082191 -0.069107 0.014626 -0.022330 0.026421 0.045629 -0.005108 0.044465 -0.039768  
0.069057 -0.024995 -0.018688 0.085527 -0.011334 -0.035099 -0.068294 0.062716 0.001733 -0.040396 -0.053201 -0.003063 0.043124 0.038858  
-0.070624 -0.021259 -0.020554 0.012376 -0.001798 -0.073278 -0.056174 0.160173 -0.032912 -0.024324 -0.060643 -0.029526 -0.045800 -0.049767  
0.042781 -0.057610 0.002284 -0.052404 -0.000359 0.072702 -0.056641 0.036956 -0.017802 -0.036646 -0.018877 -0.057839 0.007546 -0.057176  
-0.033236 -0.000695 0.012350 -0.025883 0.034693 -0.028128 0.016864 -0.077736 -0.030338 0.077768 0.014935 -0.017006 -0.052577 0.024054  
-0.007543 -0.068351 -0.026363 -0.012348 -0.079056 0.006174 -0.107613 -0.011219 0.028610 0.071597 -0.053536 -0.054616 -0.019398 0.026590  
0.006752 0.019463 -0.065866 -0.067818 -0.047514 -0.065591 0.112986 -0.026242 -0.081740 -0.023751 -0.013265 0.027695 -0.047291 -0.018212  
0.019726 0.039433 0.069188 0.067728 0.004121 -0.041488 0.004602 -0.012246 -0.101260 -0.040569 -0.066430 -0.013036 0.029363 0.026117  
-0.000699 0.030685 0.015616 0.009941 -0.024591 0.050200 -0.012681 -0.025540 -0.090670 0.001806 -0.034054 0.009796 -0.050815 -0.039462  
0.036459 -0.050897 0.013905 -0.069864 -0.027535 0.059736 0.070100 -0.049825 -0.021675 0.047887 0.030632 -0.022870 -0.013886 -0.043845  
-0.012261 -0.010956 -0.070790 0.053946 0.072179 -0.000943 0.024500 -0.058813 0.010647 0.026448 -0.031029 -0.039897 -0.020816 0.009982  
-0.007533 -0.024991 -0.060659 0.038420 -0.033255 0.042492 -0.047121 -0.051689 0.008059 0.136788 0.030625 -0.050576 -0.017292 -0.044088  
-0.054230 0.014317 -0.047171 -0.002790 -0.069035 0.064886 -0.007267 -0.001419 0.021324 0.028740 0.009196 0.013066 -0.058124 0.017511  
0.070335 0.001454 -0.029420 -0.089871 -0.035430 0.116792 -0.068298 0.037824 -0.063068 -0.023619 0.019214 -0.042714 -0.038786 -0.039606  
-0.005451 0.053175 -0.053058 0.050749 -0.008639 -0.143898 -0.062675 -0.051911 0.007709 -0.055246 -0.055869 -0.031175 -0.046001 -0.046686  
-0.084263 -0.066852 0.072554 0.014962 -0.121984 0.069383 -0.051381 -0.011241 0.024354 -0.037946 0.028565 0.038372 -0.054836 -0.031599  
0.004919 -0.008281 -0.009081 -0.091931 -0.036031 -0.014501 0.013611 0.010251 0.089345 0.028568 -0.017501 0.035826 0.015457 0.012682  
-0.025874 -0.054771 0.013364 0.039251 0.048211 0.027370 0.042168 -0.023184 -0.018832 0.023653 -0.003368 -0.035328 0.023184 -0.036522  
-0.012780 0.062610 0.001311 -0.004767 -0.027548 -0.044965 -0.050711 0.023976 -0.027138 -0.073431 -0.043489 0.005547 -0.029363 0.023892  
0.043524 -0.035576 0.119120 -0.055708 -0.108971 -0.066856 -0.017316 -0.015231 0.055400 0.059769 -0.000568 -0.012762 -0.015856 -0.043585  
-0.066946 0.016394 -0.064344 0.006806 -0.007508 -0.029658 -0.007187 0.018780 -0.067051 0.001785 0.018971 -0.036132 -0.035569 -0.018322  
0.011022 -0.046385 -0.078370 0.009742 -0.011646 0.052229 -0.033098 -0.002674 0.046760 -0.017541 -0.051939 0.000014 -0.069221 -0.062075  
-0.042928 -0.007953 -0.071218 -0.063192 0.097487 -0.032273 -0.058049 0.027578 -0.045679 -0.009708 0.022160 -0.001445 0.021458 -0.040911  
-0.014593 0.020436 0.040224 -0.036516 0.013519 0.028647 0.017020 -0.066957 0.023528 0.001347 -0.031341 -0.054456 0.024568 0.029313  
-0.004650 -0.005421 -0.056401 0.032641 -0.020048 -0.028237 -0.004563 0.017602 -0.005294 0.022033 -0.057589 -0.009068 -0.019431 -0.059192  
-0.048512 0.032236 -0.009857 0.005038 -0.049159 0.051746 0.045937 0.046585 0.024643 0.044274 -0.047560 0.017872 -0.042638 0.047462  
0.064207 -0.035116 0.078326 -0.023551 0.023077 0.044004 0.047175 -0.089825 0.079118 -0.093696 -0.035652 0.037134 -0.044753 -0.034793  
-0.001960 0.046522 0.036742 -0.014203 -0.074408 -0.003154 -0.019188 0.056113 -0.066774 -0.084006 0.015495 0.000180 -0.038710 0.016645  
0.051723 0.058680 -0.058898 0.018659 -0.011450 -0.094800 -0.038258 -0.149485 -0.023248 -0.048940 -0.047573 0.008300 0.006484 0.017022  
0.036862 -0.032525 -0.010376 -0.039119 -0.042719 0.057792 0.004732 -0.031556 0.053190 0.001997 0.006276 -0.034023 -0.039822 -0.049731  
0.028079 -0.098791 0.037278 -0.144715 0.035365 0.018317 0.006128 0.055147 -0.007517 -0.072197 -0.000326 -0.031655 0.021207 -0.057782  
0.048751 0.006356 0.093646 -0.006977 -0.012298 -0.083253 -0.060324 0.030019 0.044118 -0.083556 0.017664 0.025799 -0.016596 0.018911  
0.038786 -0.092247 0.025559 -0.007903 -0.076327 0.060302 0.010777 0.041139 -0.080654 0.021364 -0.005873 -0.027517 0.011226 0.003083  
-0.008963 0.033230 -0.061997 -0.031331 0.040401 -0.085142 0.003212 -0.027789 -0.043894 -0.061685 -0.009465 -0.011271 -0.020643 -0.039473  
-0.052878 0.093154 -0.029840 -0.077548 -0.020158 0.016777 0.050066 0.014363 -0.061494 -0.041433 0.009041 0.044037 0.034183 0.008396  
-0.013372 0.034654 -0.024656 -0.139070 -0.031541 -0.017935 0.035181 0.011315 0.038977 -0.002667 0.005812 -0.042557 -0.021396 -0.059195  
0.020250 0.045024 -0.050644 -0.003465 0.046230 0.000423 -0.020356 0.065451 -0.002879 -0.044810 -0.002016 0.005077 -0.016341 0.036951  
-0.029984 0.012740 -0.018632 0.080181 -0.016774 0.005696 -0.013495 0.027244 -0.053739 -0.049476 0.009665 0.014057 0.031686 0.021619  
0.063702 0.021297 0.067940 0.010291 -0.043097 0.024084 0.001082 -0.124355 0.017490 -0.046853 0.028790 0.020255 -0.016481 0.033510  
-0.077702 -0.036255 -0.045139 -0.046824 -0.000153 0.038624 0.044746 0.023271 0.008862 -0.055916 -0.009540 -0.042455 -0.012654 -0.040921  
-0.022424 -0.084057 -0.009860 0.106001 -0.005082 -0.007737 -0.055582 0.025644 -0.108212 -0.044506 -0.053133 0.027542 -0.020625 -0.054443  
-0.009221 -0.043078 0.022761 -0.041111 0.044368 -0.025196 -0.055380 0.000589 -0.020231 0.030112 -0.009721 -0.005682 -0.000459 0.012130  
-0.013905 0.018258 0.029670 -0.028783 -0.044642 -0.042524 -0.069603 0.002909 0.022402 -0.027296 -0.066703 0.020344 -0.000393 0.008740  
-0.121976 -0.047759 0.048806 0.038533 0.035603 0.021587 0.019795 0.075738 -0.128417 -0.080983 0.015877 -0.020264 0.023930 0.008777  
-0.036106 -0.087944 -0.024716 0.041913 -0.005296 0.014804 -0.045434 -0.020097 0.024200 0.071160 -0.026642 -0.013023 0.033266 -0.041668  
-0.083773 -0.038325 0.046541 -0.051217 -0.073328 0.079051 0.090770 -0.061377 -0.005774 -0.069667 0.038180 -0.004838 0.017055 -0.039696  
0.048404 -0.018946 0.036993 0.045139 -0.012286 0.050677 0.009253 0.034185 0.028955 0.032542 -0.050663 0.033272 0.044218 0.001839  
-0.027924 -0.005427 -0.096675 0.058741 -0.021498 -0.042331 -0.054300 0.026964 -0.049408 0.015320 -0.040303 -0.054625 -0.030819 -0.067533  
0.020637 0.019444 -0.016419 -0.079352 -0.038300 0.123431 -0.052508 -0.050035 -0.081368 0.033834 -0.023949 -0.015648 0.017471 0.029525  
-0.067962 0.057588 0.096060 -0.043230 -0.015507 -0.040440 -0.008388 -0.024778 0.021443 -0.056905 -0.030855 -0.026842 0.025506 -0.034620  
-0.022861 -0.018385 0.026305 0.041318 -0.038026 0.103439 -0.038205 -0.115787 -0.065676 0.050489 0.007345 -0.049594 0.001055 -0.011335  
0.016570 -0.030628 -0.031713 -0.052629 -0.091004 0.057709 0.054232 -0.037544 0.047571 0.049431 0.013067 -0.033512 -0.008107 -0.004825  
-0.078787 0.031708 0.069727 0.052374 -0.014254 -0.045478 -0.067989 -0.043834 0.031567 0.008485 0.026310 0.009788 0.006379 0.011825  
-0.049094 0.067026 -0.054324 -0.017903 0.019984 0.035746 -0.040415 0.005420 -0.073365 -0.090836 -0.035248 -0.050507 -0.024280 -0.021269  
0.048648 -0.065144 -0.050385 0.000672 -0.070281 0.016801 -0.045525 0.023200 -0.085828 -0.025252 -0.051050 -0.056541 -0.016703 0.012487  
0.027322 -0.110254 -0.015371 0.021183 -0.068847 0.073562 -0.049364 0.035553 0.002176 -0.009151 0.014881 0.005103 -0.020110 0.010233  
0.046320 -0.044775 -0.019190 -0.063169 -0.006091 0.043362 -0.061580 -0.028395 -0.005152 -0.037459 -0.012270 -0.046898 -0.047567 0.035569  
-0.027936 -0.040951 -0.039977 0.014871 0.032885 -0.042177 0.019557 0.081434 -0.061309 -0.070440 -0.029782 0.006136 0.015199 -0.001810  
-0.048841 -0.052020 -0.006994 -0.051598 -0.037715 0.024028 0.015625 0.080031 0.038673 -0.031546 -0.006270 -0.000973 -0.038001 0.034799  
-0.069636 -0.009338 -0.051949 0.001440 -0.027088 0.049145 0.075690 -0.003466 -0.045307 -0.036677 -0.009093 -0.030954 0.032800 -0.008904  
-0.036330 0.041599 0.064467 0.050132 0.023866 -0.032085 0.018502 -0.037728 -0.036029 -0.012770 0.019522 -0.055060 -0.048239 0.018868  
-0.094051 -0.040918 -0.103005 0.045357 -0.087816 0.027803 0.035444 -0.037424 -0.003879 0.047439 -0.011756 -0.026320 -0.002610 -0.018360  
0.057792 -0.050597 -0.066584 0.006322 -0.011298 -0.077213 -0.105802 0.060437 -0.081273 0.066654 -0.000923 0.000600 -0.007633 -0.042755  
-0.057731 -0.017203 0.037585 0.053385 0.034886 0.000762 -0.014712 -0.038000 -0.055541 -0.056464 0.040783 -0.047728 0.014583 0.015624  
0.086702 0.011033 0.062179 0.030412 -0.096954 -0.115050 -0.103813 -0.043766 -0.136087 -0.069315 -0.058002 0.004645 -0.035083 0.036137  
0.026398 0.028335 0.049781 -0.045313 0.042990 0.019375 -0.111934 -0.049755 -0.035638 -0.044636 -0.051475 0.031237 0.015297 0.005182  
-0.018463 -0.052062 -0.009709 0.046678 -0.062067 -0.013857 -0.071837 -0.017828 0.061550 0.055137 -0.045728 0.021776 0.012957 -0.023415  
-0.046981 0.023248 -0.066795 0.017313 0.053413 0.021829 -0.074940 0.021963 -0.024724 -0.052606 -0.026035 -0.010973 0.001497 -0.016021  
-0.013201 -0.002815 0.003366 0.018107 -0.024575 -0.054594 0.028587 0.001342 -0.050869 0.033049 -0.019289 -0.049017 -0.043469 -0.017321  
-0.020217 0.009933 -0.021357 0.005714 0.058362 -0.007810 -0.088280 -0.061174 -0.019971 0.024907 -0.000838 -0.045478 -0.064903 0.006655  
-0.044236 0.016489 -0.027929 0.030527 -0.053153 -0.021829 0.026165 0.055462 -0.081154 0.039130 -0.053131 -0.060087 -0.010754 -0.018896  
-0.066377 0.042924 0.039612 -0.007895 0.091211 -0.005377 -0.100572 0.090025 -0.054758 -0.057822 -0.027339 -0.042101 0.008347 0.029290  
0.052931 -0.085931 -0.039663 0.031734 0.066735 -0.061788 0.093282 -0.000407 0.012662 0.056769 0.019457 -0.012730 -0.038631 0.006184  
-0.004557 -0.035622 0.020101 0.033722 0.057300 0.069068 -0.023090 0.012004 0.033407 -0.041051 0.030591 -0.009770 0.047147 -0.017500  
-0.010044 0.001737 0.076797 -0.009924 0.068435 -0.001897 -0.049862 -0.078509 -0.000818 -0.084041 -0.010845 -0.032220 0.006379 0.001224  
-0.010981 0.043604 -0.038237 0.041632 -0.038838 0.091601 -0.083747 -0.046397 0.079805 -0.034364 0.036897 -0.002737 -0.049262 -0.002542  
-0.073304 -0.062383 -0.010254 0.015720 -0.002711 0.042794 -0.015295 0.039106 0.038506 0.019193 0.036314 -0.036835 -0.042642 0.033933  
-0.026900 -0.028222 0.032327 0.028169 -0.047053 0.027460 0.013398 -0.039721 -0.029776 0.031296 0.034808 0.042965 -0.032366 -0.011494  
0.022001 0.023378 0.047292 -0.069816 -0.045153 0.041851 -0.003945 -0.037567 -0.049089 -0.052083 -0.024361 -0.008983 -0.049994 0.017361  
0.000759 0.012208 0.058831 -0.012568 -0.065105 -0.090393 -0.012191 -0.026637 -0.107253 -0.040012 -0.036371 0.045418 0.011846 0.033429  
0.011632 0.017180 0.015277 0.056991 0.032313 -0.035313 0.020100 -0.155013 0.071831 -0.040936 -0.044568 -0.045861 -0.031142 -0.015616  
-0.028824 -0.037121 -0.057983 0.070330 -0.090069 0.114732 -0.050017 -0.058623 -0.028351 0.031996 0.012673 0.031124 0.020820 -0.003313  
-0.030370 -0.098155 -0.036314 -0.095175 0.019901 0.136245 0.054685 -0.102305 0.052758 -0.034621 -0.024362 -0.058822 0.036359 -0.041593  
-0.037715 -0.018617 -0.033625 0.019789 0.067862 -0.108204 0.030252 0.010867 0.045557 0.006831 0.006667 -0.038584 -0.002677 0.002731  
-0.046037 -0.037924 -0.043840 -0.049038 -0.019350 -0.014190 -0.010507 0.031663 0.019651 0.029961 -0.070013 -0.048676 0.013339 0.025721  
0.001961 -0.051095 -0.052684 -0.027809 0.040658 -0.018692 0.010318 0.034626 0.043066 -0.147124 -0.000958 -0.003434 0.021192 -0.004024  
-0.059684 -0.031078 -0.026767 -0.094970 0.009092 -0.020347 0.010502 0.028893 0.032508 -0.093728 0.035368 0.024948 0.030313 -0.012949  
0.044301 0.001533 -0.045327 0.045780 0.056957 -0.165713 -0.037544 0.000401 0.003657 -0.050259 0.005784 0.015808 -0.025725 -0.022256  
0.009894 -0.021979 -0.092354 0.048240 0.011264 -0.051073 -0.012887 0.051077 0.023995 -0.064418 0.000530 0.035301 -0.049641 -0.060611  
-0.034867 0.038182 0.044277 0.030109 -0.029445 0.044221 0.017239 -0.038849 0.004342 -0.016193 0.044751 0.020860 0.016039 0.009507  
0.057403 0.038903 -0.012689 -0.106005 0.044285 -0.011641 -0.017385 -0.009014 -0.002886 0.060695 -0.014221 -0.018891 -0.066699 -0.005042  
-0.098357 -0.040012 -0.044218 0.007022 -0.042152 -0.061815 -0.006838 -0.009789 -0.065305 0.011205 -0.057362 -0.059696 -0.066058 0.005201  
-0.054115 0.071213 -0.019535 0.023472 -0.069366 0.013471 -0.035638 -0.074585 0.023570 -0.035461 -0.020635 -0.006213 -0.053395 -0.019242  
-0.075026 -0.031865 0.013427 -0.092263 -0.001444 -0.073188 0.055101 0.000351 0.017569 -0.004921 -0.055849 0.019804 0.039812 -0.009575  
-0.072003 0.005584 0.044569 -0.033528 -0.044635 -0.051131 -0.031509 -0.052435 0.088240 -0.102930 0.000088 0.035463 -0.054770 0.006610  
-0.047154 -0.025048 -0.008269 -0.008322 0.008419 -0.099553 -0.039088 0.057867 -0.078032 0.072990 -0.032137 -0.008135 -0.047672 -0.006849  
0.073708 -0.000154 -0.073955 0.013686 -0.023846 -0.068755 -0.009905 -0.050876 -0.009396 -0.078941 -0.048557 -0.052409 -0.032213 -0.020887  
0.051166 0.039480 0.040420 0.023116 -0.050115 -0.025489 0.014816 -0.068479 -0.065670 -0.034576 0.041049 -0.003502 0.038348 0.022510  
0.047591 -0.022547 -0.069061 0.031899 -0.002605 0.053932 -0.025382 0.027552 -0.030514 -0.075672 -0.031796 -0.034472 -0.059168 0.030476  
0.007866 0.026142 -0.049170 -0.007434 0.021070 -0.035086 -0.006656 -0.052700 -0.081372 -0.009464 0.015760 -0.047067 0.028624 -0.019798  
0.012302 0.025924 0.026247 -0.039159 -0.004067 -0.033672 -0.009408 0.009166 -0.024186 -0.072045 -0.061231 -0.000852 -0.055327 -0.023296  
0.044945 0.004507 0.000660 0.041588 -0.066215 -0.053932 -0.024226 -0.009545 0.013336 -0.124521 -0.039397 -0.055272 0.032993 0.008929  
-0.003163 -0.096935 -0.046159 0.012838 -0.014194 -0.069994 0.035422 0.043229 0.013765 -0.026468 -0.011288 -0.044388 -0.031079 -0.008111  
0.085585 -0.084440 -0.122157 -0.109691 -0.066549 0.046684 -0.007017 0.037130 0.005549 0.014867 -0.037715 0.002934 -0.028423 0.006780  
0.012153 0.009341 0.029352 -0.008667 0.086908 0.058120 -0.013637 -0.110160 0.047044 0.004522 -0.007281 -0.009510 -0.031824 0.035033  
0.015765 -0.055818 0.081347 -0.055511 0.033365 -0.057104 -0.046350 0.015186 0.025206 0.036874 -0.046407 0.017709 -0.048032 -0.021290  
-0.056407 -0.023395 0.016756 -0.020140 -0.073027 -0.006975 -0.017846 0.007560 0.006745 0.014229 0.010480 -0.055147 -0.001728 -0.051842  
0.088854 -0.058704 0.037483 -0.087930 -0.119350 0.059690 -0.053958 0.110084 -0.087674 -0.103641 0.028498 -0.027526 0.016046 -0.008648  
-0.009810 -0.092150 -0.018466 -0.167311 -0.048469 0.085489 0.055028 0.027859 0.072426 -0.001057 0.004515 -0.024225 -0.053265 0.004706  
-0.094796 -0.050581 0.016166 0.031938 0.014950 -0.008204 -0.045591 -0.004849 -0.015542 -0.029363 -0.009581 0.029676 -0.034956 0.010095  
0.021908 0.007336 0.038245 0.101368 -0.124086 0.090491 0.023798 -0.065406 -0.026158 -0.113849 -0.053427 -0.010031 -0.048621 0.016978  
0.105047 -0.096643 -0.011827 -0.044775 0.065923 -0.022031 -0.036656 -0.098392 -0.045129 0.022174 0.011606 -0.006274 -0.016771 0.026331  
0.013308 -0.070821 0.102904 0.107712 -0.024053 -0.089027 -0.005166 -0.093992 -0.020860 0.016149 -0.040887 0.031537 -0.022323 -0.028591  
-0.042301 0.088307 0.031128 -0.051631 0.035834 0.032803 -0.029482 -0.044976 -0.074589 0.006499 0.025723 0.040224 -0.000826 -0.020763  
-0.028724 -0.029553 0.020339 -0.032027 0.101928 -0.033409 -0.021870 -0.016853 -0.061110 -0.004199 -0.003223 0.028062 0.009324 -0.011254  
0.012274 -0.043166 0.024118 -0.041981 -0.030391 -0.030675 -0.063554 -0.007862 -0.021587 0.028744 -0.013231 -0.046878 0.031478 0.025278  
-0.084137 0.054233 -0.017462 0.000589 -0.062336 0.067540 0.062739 -0.054626 0.037865 0.045382 0.011237 -0.011116 0.011146 -0.017475  
-0.029983 0.022920 -0.062230 0.002402 0.012199 -0.034454 -0.008477 -0.065509 -0.089251 0.105300 -0.036051 -0.020775 -0.054371 -0.022973  
0.037876 -0.022592 -0.005718 0.088617 -0.058482 -0.056312 0.027613 0.021299 -0.157752 0.056456 0.024554 -0.053424 0.005132 -0.010537  
0.009756 -0.012709 -0.042301 0.066865 -0.071733 0.063904 0.005939 -0.004212 -0.025866 0.019850 -0.034623 -0.020649 0.004004 0.004373  
0.043973 -0.019268 -0.086118 -0.065383 0.035527 -0.054007 0.064187 0.024568 -0.068434 -0.006735 -0.027097 0.019962 -0.042049 0.015668  
0.001198 -0.019423 0.031529 -0.041463 -0.035329 -0.116392 -0.012177 0.022032 -0.006762 -0.013632 -0.000637 0.032204 -0.019370 -0.009718  
0.038736 0.036620 -0.049785 0.026625 0.006920 0.013658 -0.034261 0.016489 0.009917 -0.049090 0.005810 0.021055 -0.065960 -0.053830  
0.006294 -0.044231 -0.021830 -0.096388 0.045669 0.054952 0.025589 -0.020062 -0.012285 0.005592 -0.005727 -0.037876 -0.037366 0.027722  
-0.032595 0.000564 0.012300 0.022734 -0.017213 -0.031121 0.019815 -0.016422 -0.010042 0.023414 -0.006561 -0.038776 -0.043160 -0.010813  
0.004504 -0.001955 -0.003200 -0.008422 -0.028134 -0.045279 -0.061727 -0.059890 -0.017804 -0.011715 -0.068866 -0.053799 -0.023606 -0.052816  
0.033559 0.030452 0.044474 -0.019640 -0.029849 0.002477 -0.016219 -0.016461 -0.031350 0.013231 -0.028232 0.025589 0.025476 0.041904  
0.073511 -0.040679 -0.026321 0.052622 -0.036564 0.029401 -0.049721 -0.015903 0.029171 0.027413 -0.048960 -0.004819 -0.026928 -0.052799  
-0.066545 0.027002 0.043334 -0.051525 -0.044371 0.022902 -0.034101 -0.020297 0.016518 -0.043915 -0.023060 0.019156 -0.070180 -0.025994  
0.058902 -0.023414 -0.037870 -0.119727 -0.072668 0.080216 0.078673 -0.048259 0.077670 0.028090 0.005695 -0.048770 -0.055687 -0.008974  
0.008194 0.054690 -0.165882 0.033683 0.058976 -0.051114 0.047021 -0.141341 0.058986 0.039967 -0.042416 -0.052079 -0.043782 -0.064659  
-0.090233 -0.044932 0.100120 0.098044 -0.030077 -0.015605 -0.076466 0.017629 0.021580 -0.096077 -0.044188 -0.026621 0.025423 -0.043949  
0.005208 -0.056673 0.063290 -0.003535 0.058896 0.093168 -0.062655 -0.072608 0.077025 -0.053273 0.015167 0.035245 -0.009617 0.009381  
-0.012992 -0.012441 -0.031228 -0.026919 -0.040069 0.039770 -0.004085 0.074643 -0.039121 0.002227 0.017216 0.000579 0.001268 -0.060549  
-0.042483 0.041076 0.044058 -0.134904 -0.049234 -0.022218 -0.000408 0.017528 0.078952 -0.021620 0.026895 0.013753 -0.054937 0.023752  
-0.078170 -0.005526 -0.097999 0.032541 0.039145 -0.025748 0.076627 -0.028064 -0.056630 0.132297 -0.023612 -0.000082 0.004206 -0.056170  
0.098112 0.025149 -0.012123 -0.071018 -0.029260 0.027230 0.012179 0.029481 -0.091144 -0.016152 -0.023701 0.021731 -0.018330 -0.021408  
0.030715 0.078226 0.087081 0.030626 -0.033948 -0.018066 -0.092413 -0.077995 0.046317 -0.063120 0.010847 -0.027324 -0.008725 0.008573  
0.023486 -0.060103 0.003198 -0.016093 -0.042622 0.035995 -0.050126 0.048804 0.020154 0.032837 -0.061317 0.019005 0.015803 -0.023340  
0.020868 -0.015644 -0.044582 -0.054687 0.038425 0.076871 -0.085024 -0.048936 -0.001982 0.063037 0.026777 -0.018857 -0.006776 0.016149  
0.028576 -0.068745 -0.059664 -0.020408 0.065695 0.071443 -0.070037 0.025141 -0.050662 0.034639 -0.047399 -0.044792 0.024292 0.032727  
0.033712 0.049654 0.043497 -0.032145 -0.094063 -0.036675 -0.066853 -0.018249 0.003326 0.013627 -0.060435 -0.003209 -0.025539 -0.033581  
-0.043411 -0.047392 -0.037005 -0.072269 0.054635 0.041417 -0.015412 0.007178 -0.044078 -0.047266 0.031462 -0.033608 0.044231 -0.026502  
-0.043051 0.008273 -0.006262 -0.064546 0.015419 0.003250 -0.024429 0.013839 0.004933 -0.018140 -0.030858 0.013322 0.006005 -0.067925  
-0.034067 -0.036209 0.069567 -0.055319 -0.098287 -0.060680 0.040619 -0.112423 0.034243 -0.014115 0.016678 -0.021170 -0.005898 0.010087  
-0.034863 -0.067939 -0.055909 0.009636 -0.014251 -0.041410 0.055154 -0.086136 0.103120 -0.054844 0.024717 -0.018012 -0.022773 -0.036388  
0.038860 -0.000032 -0.046947 -0.097168 -0.060804 -0.061291 0.061856 -0.009073 -0.082769 0.019315 -0.065829 -0.047138 -0.012035 -0.028596  
0.159196 -0.021961 0.000515 0.051955 -0.064612 -0.133651 0.017025 -0.006614 -0.027648 -0.031184 0.022983 -0.050358 -0.006462 0.012367  
-0.052798 0.025099 0.025870 0.017386 -0.044421 -0.004293 -0.088987 0.017223 -0.052830 0.009223 -0.067778 -0.042813 0.007490 0.012855  
-0.085424 -0.027199 0.039064 -0.039808 0.007726 0.017284 -0.045891 0.040017 0.003579 0.015876 -0.024006 0.010184 0.028941 0.001433  
0.018885 0.008311 0.003298 -0.020522 -0.005508 -0.062470 0.020374 -0.061085 -0.056176 0.023589 0.010760 -0.051303 0.012199 -0.033043  
-0.076449 -0.075946 -0.020544 -0.001967 0.019751 -0.040520 -0.008802 -0.032496 0.034635 0.034946 0.012033 -0.056509 -0.061015 -0.059292  
-0.131085 0.045181 -0.061462 0.000095 -0.039164 -0.021108 -0.001758 0.007864 0.041553 -0.019783 -0.014654 -0.032588 0.009647 0.006390  
-0.056280 0.031679 0.037314 0.021579 -0.043726 0.036581 -0.020405 -0.050522 -0.051300 0.013796 -0.048130 0.017253 -0.050592 0.005645  
0.020765 0.014718 -0.038123 -0.062464 -0.041788 0.020974 -0.076232 -0.011785 -0.037024 -0.062112 0.004968 0.027226 -0.022062 -0.001200  
-0.076698 0.020649 0.046936 -0.001568 0.037718 0.033901 -0.035470 0.015428 -0.043000 -0.007750 -0.021930 -0.060808 -0.065719 -0.045757  
-0.070795 -0.015400 -0.051998 -0.048618 -0.003027 -0.047676 -0.005686 0.044629 -0.041638 0.074997 0.018236 -0.000969 -0.028083 0.032273  
-0.039622 -0.057349 -0.028691 -0.041112 0.006160 0.012698 0.054920 0.066440 -0.065576 0.047638 0.009626 0.020086 -0.050879 0.002344  
0.031176 -0.044598 -0.064848 0.040175 0.044540 -0.085121 0.067965 0.068542 -0.080090 -0.009078 -0.017927 0.027660 -0.050365 -0.025596  
-0.064012 0.085865 -0.067960 0.079311 -0.052409 -0.080178 -0.097285 0.050841 0.050625 -0.066081 -0.009468 -0.020248 -0.053958 0.025847  
-0.078562 0.012666 0.026759 -0.081904 0.033945 0.050415 0.037811 -0.083080 0.035625 -0.004408 0.034705 0.032954 -0.001482 -0.012500  
0.049648 -0.082065 -0.127040 0.091261 0.026226 -0.053334 0.012242 -0.037485 -0.000555 0.045279 0.004036 -0.025377 -0.051263 -0.049762  
0.056433 0.034140 -0.031340 0.076304 -0.053122 0.030246 0.018145 -0.005092 -0.095725 -0.021938 -0.056217 -0.041284 0.040852 0.008604  
-0.049254 -0.052756 0.045264 -0.011706 -0.049083 -0.073291 0.061836 -0.009687 0.056325 -0.039207 0.010004 -0.011511 -0.014386 -0.023394  
0.019869 -0.063123 0.030673 0.011403 -0.128340 -0.062107 -0.052684 -0.004515 -0.024706 0.037762 0.000343 -0.037732 -0.043480 -0.015714  
0.015311 0.042211 -0.127944 0.024668 -0.023632 0.009249 0.037451 0.043767 -0.017172 -0.042694 -0.042221 -0.047419 0.007346 0.003034  
-0.070435 -0.099663 0.088373 0.042836 0.010922 -0.006861 -0.027074 -0.004072 0.009037 0.053848 -0.017824 -0.052091 -0.060028 -0.008707  
-0.033588 0.050822 -0.062559 -0.007527 -0.011119 -0.064381 -0.027891 -0.023695 -0.102808 0.013591 0.001509 -0.001445 0.041760 -0.007873  
-0.092903 -0.055899 0.056284 0.096283 0.042408 -0.045187 -0.016081 -0.007205 -0.057577 -0.054814 0.003686 -0.051224 0.036815 -0.008924  
-0.003670 -0.009661 0.013726 -0.113849 -0.039336 -0.035013 -0.018021 0.016430 0.075599 -0.049546 0.009663 -0.048667 -0.019767 -0.015008  
-0.088278 -0.084622 -0.085916 0.096632 -0.008095 0.049698 0.022173 0.011286 -0.008194 0.080341 -0.013479 0.027610 0.013326 -0.025740  
0.022365 -0.047757 -0.005322 -0.077393 -0.040828 0.001421 0.005475 0.042830 0.048066 -0.046187 0.005460 -0.014939 -0.045374 -0.021944  
-0.019551 -0.061622 -0.098984 0.000560 0.014644 -0.004410 0.072944 -0.131503 0.113211 -0.001013 0.001757 -0.034834 0.028115 -0.006147  
-0.015482 -0.099319 -0.025882 0.021417 -0.019924 -0.052993 0.012715 -0.096206 0.093822 0.015937 -0.051809 0.023983 0.004830 -0.048859  
-0.054296 -0.042240 0.005397 0.013785 -0.039834 0.025819 -0.029657 -0.015969 0.064294 0.016152 -0.052760 0.018045 -0.036106 -0.060011  
0.028007 -0.040730 0.033397 0.044688 0.012674 0.020254 0.023394 0.066173 0.025745 -0.056649 -0.008796 0.015641 0.045939 -0.052205  
-0.068544 0.031591 0.037293 -0.051632 0.005286 0.021967 0.068262 -0.019409 -0.049145 0.029253 0.044582 -0.006184 -0.051240 -0.042891  
-0.030953 -0.010598 0.001281 -0.003710 -0.059420 -0.036981 -0.047927 0.018995 -0.023938 0.016167 -0.027434 0.008403 0.024733 0.021229  
0.047327 0.063817 -0.016270 0.040092 -0.063889 -0.062042 -0.058465 -0.058216 -0.014234 0.020418 -0.021914 -0.036897 -0.038376 0.013109  
-0.021739 0.014321 -0.070329 -0.045080 0.014592 -0.093132 0.098049 -0.026202 0.017160 0.036115 -0.045920 -0.002329 0.039656 0.042758  
-0.033687 0.000500 0.070355 0.013259 -0.012063 -0.012046 -0.055346 0.051466 -0.075637 -0.038504 -0.047262 -0.036058 -0.029211 0.028936  
-0.089712 0.023638 0.027074 -0.050752 -0.044104 -0.001867 -0.025117 -0.032820 -0.078102 0.027502 -0.037571 -0.058978 -0.028369 -0.015978  
0.017959 0.052152 0.043558 0.082194 -0.080561 0.027210 0.021989 -0.082850 0.064228 -0.125934 -0.012410 -0.021084 -0.009823 -0.030263  
-0.020447 -0.022537 0.064569 -0.041756 -0.012571 -0.009691 -0.005384 0.051595 -0.087227 -0.071514 -0.023739 0.026527 0.039596 -0.032430  
-0.044320 -0.044774 -0.036331 -0.025414 -0.017486 0.117343 0.072227 -0.057895 -0.006581 0.072746 -0.017353 0.040490 -0.040982 -0.004426  
-0.071841 0.064519 -0.104519 -0.116183 0.015595 -0.016770 0.106832 -0.035110 0.013479 -0.051490 0.031362 0.011799 0.017289 -0.039767  
0.028557 -0.039045 0.031495 0.007190 0.016906 0.056394 0.023497 -0.002579 0.058673 0.017769 -0.034821 -0.023992 0.034962 0.042453  
0.010118 0.001861 0.014340 -0.003535 -0.032358 -0.053102 -0.008352 0.014027 0.026280 0.025934 -0.019321 -0.024089 -0.037179 0.016064  
-0.026199 -0.019988 0.044285 -0.034446 0.049061 -0.048068 -0.075436 -0.023498 -0.025812 -0.013485 -0.045668 -0.001404 -0.024743 -0.061733  
-0.037041 -0.021741 0.045032 0.065363 -0.087272 -0.051446 0.030978 0.082818 -0.082008 -0.110185 0.016783 0.022423 0.007736 -0.056173  
0.020132 -0.080780 -0.032046 0.041321 -0.098306 -0.050527 -0.034190 0.038080 0.082950 0.054442 -0.047071 -0.026091 -0.026211 -0.009002  
0.006784 -0.101598 0.049101 0.045703 0.070778 -0.035377 0.043980 -0.112376 -0.018608 -0.076667 -0.019942 -0.004935 -0.041870 0.012258  
-0.001625 -0.042368 0.018779 0.003386 0.086185 0.069616 0.015758 -0.028990 -0.050385 -0.100870 0.034227 -0.007901 -0.052471 0.031761  
-0.014643 -0.014338 -0.008255 -0.028963 -0.058335 0.060573 -0.006572 -0.089823 0.016338 0.082794 -0.047505 -0.044190 0.036985 -0.027590  
-0.081471 0.010170 -0.031953 0.025718 0.039288 -0.088252 0.011942 0.065624 -0.120720 -0.017111 0.006607 0.018970 -0.018296 -0.004036  
-0.005736 0.013361 0.067276 0.043741 -0.069722 -0.021439 -0.066383 -0.056280 -0.072342 -0.040411 -0.036153 -0.044520 -0.022139 -0.026765  
-0.120700 0.038614 -0.027372 -0.044133 0.064202 -0.063122 0.018953 -0.056770 0.031875 0.014832 -0.042552 -0.054575 0.003895 -0.032312  
-0.059869 -0.008282 0.064466 0.013949 -0.135503 -0.046650 0.036466 0.032527 -0.040541 0.016403 0.031896 0.023873 -0.030796 0.012469  
-0.118966 -0.082917 -0.037668 -0.137645 0.074514 0.101684 0.080463 -0.067329 -0.018851 0.067337 -0.014712 -0.054183 -0.040377 0.022162  
-0.083832 -0.019610 0.044639 0.049432 0.078168 -0.049015 0.003548 -0.075087 -0.056504 0.027411 -0.060186 0.002275 0.013521 -0.021886  
0.024119 -0.034351 -0.109247 -0.100107 0.009505 -0.082972 0.035568 0.019634 0.059295 -0.026657 0.027510 -0.002087 0.040267 0.038579  
-0.036501 0.082941 -0.032899 0.023317 -0.035790 -0.066284 0.053377 -0.026037 0.010215 -0.061551 0.001575 0.026972 0.006730 0.016595  
0.008940 -0.014995 -0.074122 -0.080287 0.094490 0.125553 -0.089268 0.036366 -0.071685 -0.008585 -0.010929 -0.003203 -0.017296 0.028862  
-0.064556 -0.059082 0.075618 0.004367 -0.041894 0.020074 -0.028884 0.054909 0.002833 0.045271 -0.034369 -0.008330 -0.052449 0.019076  
0.056216 -0.039837 0.037038 0.009757 -0.055259 0.021925 0.075625 -0.075907 0.005742 -0.117060 -0.029326 -0.005516 0.031068 -0.025358  
0.085120 -0.006282 -0.089783 0.002335 0.060171 0.073493 0.001015 0.033109 -0.121407 -0.074030 -0.042763 -0.057571 0.013354 -0.062867  
-0.044133 -0.029221 0.050552 0.057403 -0.031219 0.014180 -0.098038 0.023802 -0.091883 0.045989 -0.045439 -0.023042 0.016254 -0.034093  
-0.097973 0.071793 0.068229 0.013357 0.048406 -0.015817 0.040958 0.014351 -0.110832 -0.044104 -0.014896 -0.025985 0.029115 0.016743  
0.057557 0.052452 -0.026332 -0.022159 -0.006256 -0.009081 0.048538 0.066757 -0.008737 -0.105097 -0.032009 0.031243 -0.055717 -0.066099  
0.027941 -0.054024 -0.079226 0.099300 -0.042919 0.097363 -0.017476 -0.051272 -0.114199 0.028927 -0.028871 0.025796 -0.005494 0.036455  
-0.016848 -0.036652 0.071147 0.017805 -0.003850 -0.045598 -0.055296 -0.055648 0.039624 -0.020888 -0.012079 -0.052409 -0.014544 -0.060136  
-0.003740 -0.002213 0.024982 -0.001365 0.035684 -0.056802 -0.096490 0.084869 -0.046617 -0.024231 -0.025696 0.006779 0.003727 0.026856  
0.040439 -0.035194 -0.081794 -0.018530 0.023607 0.091441 0.073454 -0.007535 -0.121652 0.023663 0.015226 -0.019045 -0.024374 -0.044185  
-0.032781 0.056036 -0.063421 -0.003436 0.039630 -0.011567 -0.054624 0.031736 -0.056238 -0.049304 0.034026 -0.040954 0.027696 -0.042060  
-0.111156 0.054659 0.018614 0.065414 0.062138 -0.003017 -0.018767 -0.009446 -0.082476 -0.160282 -0.038533 -0.046995 0.011534 -0.040786  
0.022528 0.049385 -0.041119 0.034482 0.027493 -0.027716 0.011850 -0.000765 -0.039462 -0.002947 -0.045322 -0.033775 0.023348 0.016170  
0.131737 0.063006 0.041881 0.061873 -0.030550 -0.085058 -0.039401 0.009587 -0.038682 -0.137228 -0.023301 -0.034161 -0.054733 -0.009072  
0.020865 -0.063105 0.029826 -0.041252 0.025331 0.013854 0.041923 0.005227 -0.040639 -0.077089 0.028147 -0.013376 -0.011102 -0.028681  
-0.061058 0.006530 -0.045984 -0.058890 -0.072387 -0.016634 -0.014407 0.029729 0.029667 -0.042149 -0.004514 0.019302 -0.040224 -0.034342  
-0.065640 -0.028102 0.073691 -0.133015 0.034475 -0.071576 0.011023 -0.033323 0.140266 0.029505 0.007486 -0.059094 -0.018667 -0.027392  
0.009644 0.032701 -0.022355 0.030573 0.006929 -0.111744 0.036458 -0.098822 0.032882 -0.033095 -0.002544 0.026162 0.030454 0.027136  
0.029483 0.037068 0.028606 -0.011544 -0.088358 0.069455 -0.051199 0.000125 -0.022310 -0.075438 -0.027674 -0.036125 -0.014739 -0.065953  
-0.013235 0.045315 -0.080970 0.038841 0.092209 -0.042738 -0.052752 0.059984 -0.041680 -0.006407 -0.000086 -0.048434 -0.019672 -0.043486  
-0.060267 -0.014741 -0.059332 0.036535 0.010300 0.058595 -0.029880 0.060454 -0.106359 0.055330 -0.033685 -0.053339 -0.022591 -0.053109  
-0.053745 0.063899 0.106153 -0.047245 -0.003508 -0.010031 0.007490 -0.006311 -0.072317 -0.030155 -0.059412 0.009175 0.006263 -0.046738  
0.042007 -0.072216 -0.043148 -0.049378 0.082380 0.062572 -0.006703 -0.044565 -0.080855 0.035532 0.028137 -0.045682 -0.021494 0.036059  
0.058690 0.032204 0.003688 0.109349 -0.064149 -0.002642 -0.098600 -0.019570 -0.095301 0.002683 -0.027874 0.026072 -0.000094 -0.016748  
-0.110983 0.046433 0.024993 0.007139 -0.065293 -0.018198 -0.009040 -0.036047 -0.047021 0.036632 0.016508 -0.053939 0.002191 -0.053226  
-0.055952 -0.023274 -0.023041 0.067321 -0.056960 -0.012698 0.046788 0.033893 -0.093619 0.068449 -0.009492 -0.037879 -0.039753 -0.047332  
-0.023479 0.074133 -0.103906 -0.069716 0.007324 0.054651 0.077208 0.009404 -0.071212 0.057175 -0.048357 0.030475 0.012617 0.016810  
-0.084079 -0.023528 -0.058451 0.030743 0.084558 0.038293 -0.030505 0.068825 -0.092123 -0.082632 -0.037347 -0.012856 0.018145 -0.060113  
0.011329 -0.068641 -0.021488 -0.005194 0.025909 0.038030 -0.043535 -0.048132 -0.055939 -0.018706 0.034511 -0.007547 -0.053878 0.035902  
-0.003675 -0.062070 -0.049674 -0.109857 0.036675 -0.076617 0.054247 0.051223 -0.061224 0.105323 -0.044962 -0.010610 -0.013962 0.008162  
0.054941 -0.084863 0.014731 0.022510 -0.026816 0.069022 -0.073410 0.072419 0.098519 -0.064448 -0.023281 0.002399 0.000761 0.028251  
0.002981 -0.016431 -0.019889 -0.004064 -0.040918 0.049805 -0.033435 0.038242 -0.057532 0.004613 0.016033 0.007880 -0.020918 -0.007556  
-0.001287 -0.035930 -0.004088 0.007963 -0.041279 0.055482 -0.034568 -0.034935 0.031647 -0.036493 -0.057493 0.001314 0.030764 0.004669  
0.085774 0.016907 -0.040502 -0.000134 0.039556 -0.004429 0.015808 0.010510 -0.002692 0.007931 0.033725 0.000002 -0.049701 0.008433  
0.078004 -0.075882 0.055675 -0.122765 0.049978 0.038743 0.030049 -0.087893 0.032982 0.018667 0.020897 0.024143 -0.020265 -0.043567  
-0.075686 -0.026857 -0.036237 -0.054857 0.020519 0.013871 0.037770 -0.014622 0.007414 0.019773 -0.038593 -0.013944 0.025023 0.013039  
-0.068466 0.034198 0.103720 0.046456 0.003801 -0.008720 -0.103206 -0.021991 -0.072557 0.005983 0.017686 -0.037472 0.027835 0.032900  
-0.040800 0.004554 0.097400 0.025701 -0.064062 -0.018080 -0.125187 0.045271 0.055349 -0.021402 0.028195 -0.004024 -0.052740 -0.063759  
-0.031556 0.022914 -0.050932 -0.014279 0.011918 0.039170 -0.050418 0.019957 -0.000288 0.023914 0.005905 -0.046185 -0.014878 -0.023334  
0.047278 -0.046739 0.040164 0.018585 0.076058 -0.033856 -0.156734 -0.001945 0.050372 0.033908 -0.008563 0.030131 0.001625 -0.023460  
0.041198 -0.010572 0.027370 0.008823 -0.011413 0.076068 0.042056 0.044185 -0.061127 0.007016 -0.003862 0.024900 0.035162 0.034195  
-0.035219 0.123336 -0.011558 -0.096038 -0.020078 -0.073297 -0.054691 0.056592 -0.049859 0.001383 0.017310 0.023077 -0.005150 0.009794  
0.030216 0.015473 0.010926 -0.069243 -0.075082 0.009932 -0.040766 0.035578 0.012067 -0.012368 -0.053572 0.015612 -0.039246 -0.060003  
-0.061894 -0.010990 -0.107128 -0.099705 -0.019993 0.023168 0.064888 0.008046 -0.009093 -0.069189 -0.029969 0.011381 0.008227 0.033844  
-0.064654 0.046669 -0.047740 -0.046522 -0.008754 -0.017223 -0.046020 0.082764 -0.011252 0.121444 0.021117 0.029363 -0.010425 0.011841  
0.091111 0.074379 -0.117534 -0.045394 -0.081860 -0.034354 0.024724 -0.041895 -0.103091 -0.043138 0.029926 0.000721 0.039300 0.035073  
0.006902 0.027140 0.008272 -0.098708 -0.006882 -0.076297 -0.042725 -0.045939 0.006239 -0.010001 0.009871 0.009957 -0.046487 -0.053888  
-0.064875 -0.004555 0.024554 -0.024095 -0.037383 -0.041718 -0.051484 -0.033387 -0.071597 -0.047041 -0.004317 -0.027970 -0.000059 -0.045551  
-0.049038 -0.043900 0.042179 0.014460 0.042225 -0.004427 0.012535 -0.008058 0.010844 0.043430 0.009884 0.002750 0.045086 0.032513  
-0.057818 -0.035439 0.007472 -0.059505 -0.020803 0.074577 0.025514 -0.001312 0.081598 0.011268 0.006243 0.031032 0.039437 -0.024475  
-0.056045 -0.039753 -0.002767 -0.003275 0.092377 -0.023397 0.074368 0.007982 -0.036949 -0.033005 0.039954 -0.042840 -0.017721 -0.010217  
0.023615 0.019514 -0.058779 0.029467 -0.054508 -0.032428 0.001520 0.061945 -0.071269 0.022770 -0.029575 -0.015594 -0.038452 -0.043203  
-0.001542 -0.013778 -0.088057 0.103214 0.063226 0.037014 0.008275 0.020076 -0.001915 -0.061370 -0.035423 -0.054340 -0.055313 -0.054975  
-0.045198 0.083699 0.023236 -0.113955 0.072339 -0.010103 0.004827 -0.087127 0.007845 -0.056448 -0.039787 0.023948 -0.021459 0.024199  
-0.070674 -0.024169 0.028368 0.014986 -0.004934 -0.049303 -0.031148 0.069190 -0.061112 0.071253 0.000824 -0.027228 -0.040058 -0.005835  
0.069600 -0.061494 0.038571 -0.012890 -0.054436 0.009353 -0.004795 -0.027515 0.038077 -0.053818 -0.003755 0.002063 -0.049740 -0.007948  
-0.073274 0.057518 -0.063124 0.023815 -0.001075 -0.008274 -0.052017 -0.035879 0.044885 -0.018150 0.026272 -0.026469 0.018691 -0.017783  
-0.073111 0.009182 -0.021358 -0.032593 0.091589 0.022270 0.016208 -0.023368 -0.029735 -0.087532 0.001640 -0.028759 0.007984 -0.010565  
-0.083991 -0.007320 0.034605 0.027323 0.024843 -0.005339 -0.051508 0.016780 -0.104641 0.067485 0.028605 -0.034247 0.010672 -0.062408  
-0.042398 0.095445 -0.095468 0.093896 0.085535 0.040390 -0.070160 -0.071387 0.008880 0.025862 -0.059942 -0.029781 -0.041802 -0.061259  
-0.073547 0.045559 0.030199 0.007553 -0.056719 -0.062872 0.061125 0.052669 -0.008292 -0.018292 -0.001198 -0.015682 0.033009 0.021144  
0.053951 0.003784 0.011671 -0.033082 0.052892 -0.116130 -0.043560 0.016247 0.063342 0.042808 -0.047940 -0.048274 0.012678 0.013932  
-0.025345 0.010033 -0.008065 -0.085670 -0.002432 0.084842 0.036173 -0.035590 -0.041493 -0.047210 0.029645 0.022217 -0.004864 -0.021569  
-0.073818 -0.026714 -0.055686 0.010467 -0.032991 0.036507 0.000092 -0.071360 0.010979 0.099513 -0.003578 -0.055805 0.009422 -0.046520  
0.027814 -0.053725 0.068271 0.040689 -0.052806 -0.113238 -0.094295 -0.067532 -0.030243 0.076820 0.016830 -0.033911 0.031070 0.008546  
0.042162 -0.022130 -0.015760 -0.074141 0.012737 -0.004290 0.004957 -0.122972 -0.059082 -0.046161 -0.030040 -0.054502 -0.031601 -0.062677  
-0.051007 0.019232 -0.096592 0.090433 0.001924 0.036834 -0.014411 -0.033171 -0.026440 -0.014358 -0.019722 -0.038533 -0.032352 -0.017540  
-0.003877 0.049218 0.061011 -0.033313 0.029479 0.064751 -0.052907 0.073259 -0.064255 -0.081105 -0.043696 -0.013577 0.010036 0.001387  
-0.095569 -0.005553 -0.056635 0.042785 0.007419 -0.070192 0.038511 -0.003391 0.028240 -0.031965 -0.009067 -0.010653 -0.060535 -0.033064  
-0.016999 0.042295 0.017397 -0.047475 -0.075021 -0.134780 -0.097433 0.006665 -0.009200 0.101632 -0.055310 0.014112 -0.016252 0.031700  
-0.043367 -0.039859 -0.031379 -0.009289 -0.215609 -0.009126 0.038174 -0.009127 -0.041768 0.130566 -0.034003 -0.007897 -0.051674 -0.022577  
0.010896 0.004016 -0.001441 -0.044905 -0.025383 0.003337 0.002076 -0.072217 -0.046786 0.041634 -0.010620 -0.005735 -0.037508 -0.033010  
0.007928 0.043275 -0.005390 -0.020584 -0.050177 -0.079901 0.018418 0.041942 -0.030412 -0.067622 -0.024012 -0.064009 -0.004920 -0.048769  
-0.045399 0.031188 -0.061080 -0.041345 0.053262 0.082737 -0.039210 0.006240 -0.104952 -0.068349 -0.049793 -0.022393 0.034228 0.012511  
-0.144702 -0.083153 -0.021587 -0.027737 0.088236 0.026719 -0.017785 -0.111155 -0.024941 0.011730 -0.026896 -0.007943 0.019481 -0.043954  
-0.029714 -0.045303 -0.092753 -0.014707 0.026218 0.053850 0.017741 0.040962 0.030768 0.021776 0.011101 0.042550 0.022092 -0.020410  
-0.096770 0.047123 -0.006196 0.071641 -0.053445 -0.097704 -0.063990 0.044711 -0.018164 0.113990 0.031797 0.042604 -0.048383 -0.026275  
-0.002667 -0.017086 -0.021652 -0.144156 0.056204 0.001360 0.011890 0.003968 0.034339 -0.003167 -0.068229 -0.043360 -0.024669 -0.007627  
0.091567 -0.029118 0.031450 -0.046575 0.028918 -0.042456 -0.015996 0.005877 -0.091641 -0.073485 0.013259 -0.000368 0.031476 0.032655  
0.060316 0.017277 -0.142544 0.019675 -0.005092 -0.110776 0.007761 -0.002683 0.017308 0.092215 0.015475 0.022929 -0.058554 0.015691  
-0.125257 -0.013390 0.049399 0.065982 -0.063274 0.100575 -0.041305 -0.036455 0.057230 -0.053336 0.003872 0.030266 -0.015045 -0.034142  
0.002264 -0.004265 -0.004296 0.017470 0.016593 -0.069512 -0.004706 -0.044531 -0.061299 -0.089849 -0.003674 -0.048160 -0.026871 -0.046938  
0.015702 0.078785 -0.048626 0.014813 -0.089398 0.041698 -0.041619 0.023414 -0.048920 -0.092485 0.011101 0.002814 -0.036630 -0.021578  
-0.043848 0.040727 0.016112 -0.070965 -0.005883 0.018891 -0.010712 -0.012919 -0.035202 -0.016445 0.027701 -0.042344 -0.035848 0.021728  
0.006170 -0.021622 -0.063859 -0.011961 0.102535 -0.042174 0.040584 -0.050402 -0.012181 0.150507 0.010251 -0.052213 -0.015457 -0.057339  
0.036900 -0.056805 0.004794 -0.038401 -0.088166 -0.043405 0.064643 0.029101 -0.007137 -0.006822 -0.039366 0.005691 -0.031161 0.004265  
-0.059557 0.022943 -0.066758 0.041403 -0.037494 -0.073406 -0.015552 0.029069 -0.051228 -0.022293 -0.060990 -0.055849 -0.035322 -0.000347  
-0.064484 -0.006879 -0.029287 0.020908 -0.012726 -0.039443 -0.023990 -0.017220 -0.017949 -0.066723 -0.050590 -0.019634 -0.040635 -0.025845  
0.036423 -0.117827 0.006360 0.086576 -0.097223 -0.067751 -0.050930 0.064039 -0.075217 0.007251 -0.029570 0.033350 0.010469 -0.007367  
-0.100753 0.054768 -0.048595 -0.039096 -0.018272 -0.059648 0.022112 0.050107 -0.094475 0.103573 0.032046 0.001143 -0.004212 0.025040  
-0.021684 -0.013532 -0.005220 0.041995 0.021535 -0.010411 -0.010779 -0.008339 -0.032099 0.014085 -0.016012 -0.047096 -0.008741 0.022406  
0.053702 -0.052669 0.030975 0.027180 -0.055249 -0.048608 0.086422 -0.051159 -0.075721 -0.065952 -0.007534 -0.033874 -0.035818 -0.058059  
-0.020957 -0.069030 -0.000852 0.031911 -0.028999 -0.119162 0.012456 0.019281 -0.049415 0.031519 -0.013269 -0.015476 -0.059361 -0.051002  
-0.000104 -0.005597 -0.023390 -0.072500 0.060894 0.083422 0.044855 -0.028088 -0.046104 -0.062313 0.039147 0.006920 0.022056 0.005516  
0.041968 0.039507 -0.141420 -0.005169 0.053067 0.022998 0.027861 -0.027965 0.035794 -0.020964 0.027493 -0.050752 -0.015536 0.002476  
-0.024181 -0.023594 0.028639 -0.023861 0.033639 -0.054806 -0.035758 -0.027236 -0.067940 -0.013756 0.010473 0.036852 0.018389 0.020234  
0.013402 -0.042163 0.071748 -0.018984 -0.045203 0.007279 0.026708 -0.061276 0.041945 0.034401 -0.046793 0.003536 -0.030647 -0.037311  
-0.001373 -0.019003 0.030796 0.020733 0.057883 0.059474 0.005664 0.039954 0.001459 -0.025633 0.019492 -0.005014 0.004885 0.039685  
-0.071944 0.011703 0.046317 -0.090159 0.056621 -0.024450 -0.086901 0.051334 -0.077063 -0.069866 -0.020612 0.039319 -0.004500 0.001038  
-0.003861 -0.050293 -0.056895 -0.045317 0.011864 -0.104845 0.016284 0.020263 -0.015279 0.060031 -0.034347 -0.018460 -0.014021 -0.000797  
0.021475 -0.015416 -0.066672 0.059356 -0.024843 -0.004343 0.032983 0.019660 -0.027903 0.004811 0.018719 0.006825 -0.057379 -0.019522  
-0.097402 0.037405 -0.051861 -0.018054 -0.147219 0.060939 -0.067646 0.096177 -0.130706 0.013105 -0.042438 0.033171 -0.051068 0.029670  
-0.082906 -0.005886 -0.014846 0.084956 -0.047462 -0.151030 0.010801 0.004884 0.067181 -0.046015 -0.030306 -0.058543 -0.049465 -0.017412  
0.062121 -0.010129 0.057224 0.058996 -0.029221 0.038456 -0.014808 -0.085714 0.015775 -0.045710 -0.032528 -0.038370 0.014853 -0.038946  
0.006904 0.042884 0.078820 0.020165 -0.076480 -0.011092 -0.067832 0.006992 -0.046535 0.035424 -0.045079 0.021727 -0.018989 -0.042724  
0.054373 0.025524 0.018578 0.036962 -0.066240 -0.009110 0.033701 -0.005148 -0.075468 -0.097504 -0.034645 -0.039151 0.035108 -0.034218  
-0.026552 -0.051288 0.010879 0.032775 -0.005884 0.063328 -0.042606 -0.039100 0.026808 -0.009474 -0.059648 -0.056668 0.012826 -0.037806  
-0.069394 0.006999 0.063555 0.005347 -0.025581 -0.033932 0.041668 -0.137646 -0.018195 0.072901 0.032180 0.012707 0.003970 -0.022671  
-0.029238 0.064020 -0.004044 0.059483 0.018309 -0.063441 0.009111 -0.044158 -0.039180 0.031112 0.005882 0.048317 0.019420 0.044205  
-0.042750 -0.055365 0.014590 -0.023254 0.051197 -0.120526 0.028948 -0.112720 -0.051778 0.026903 -0.039780 -0.040068 -0.000166 -0.027644  
-0.040579 0.033488 0.054335 0.022483 0.012398 0.037664 0.034324 -0.153007 0.013443 -0.044675 -0.051806 -0.018284 0.021580 -0.010847  
0.033550 -0.051360 0.012867 0.031764 -0.119393 -0.009206 -0.064239 0.069333 -0.076403 -0.054898 -0.045347 -0.057896 -0.047704 -0.006488  
0.004086 0.069714 0.077122 -0.092955 -0.011092 -0.101730 0.013282 -0.047358 -0.029499 -0.062708 0.025162 0.023082 0.012302 -0.059295  
0.023275 0.033689 -0.086770 -0.063298 0.074057 0.051074 0.072429 -0.077157 -0.023538 -0.056118 -0.044772 0.015090 0.001371 0.002293  
-0.032699 0.054153 0.010849 -0.052949 -0.006657 0.055007 0.072294 -0.068176 -0.004907 -0.001172 -0.059273 0.016466 -0.029245 -0.033360  
-0.020794 0.018095 -0.000201 0.007830 -0.044722 0.038388 -0.004789 -0.016531 0.035269 0.002879 -0.023626 -0.002277 0.012650 0.021759  
0.027913 -0.105401 0.070824 -0.072197 0.051332 -0.024824 0.051350 -0.015375 0.004426 -0.018100 0.028983 0.006601 -0.030010 0.021124  
-0.038244 0.038955 0.049372 -0.068174 0.040574 0.066174 -0.054869 -0.040865 -0.032386 0.019160 -0.043706 0.020377 0.011510 0.044519  
-0.038212 -0.043849 -0.048998 0.019608 0.062883 0.066992 -0.038323 0.056881 -0.077322 -0.022849 0.039822 -0.022058 -0.039744 0.000853  
-0.004697 -0.005638 -0.002102 -0.011897 -0.074232 0.000754 -0.001675 0.038535 -0.010026 -0.014347 -0.006377 0.029043 0.007505 -0.039362  
-0.002251 -0.058945 0.071060 -0.017309 0.023241 0.000355 -0.090947 -0.056988 0.072220 -0.009497 0.031843 -0.054637 -0.059459 0.018454  
-0.063344 0.066608 -0.035464 0.054918 -0.012513 -0.007042 -0.061168 -0.060836 -0.036756 0.026516 0.015278 -0.038596 -0.027002 0.011817  
-0.066782 -0.007248 0.071970 0.040625 -0.022008 -0.058016 0.023791 -0.080247 0.026341 -0.082093 0.022323 0.031583 -0.007013 -0.031318  
-0.004902 -0.046419 -0.002418 0.053088 -0.022643 -0.069662 -0.063245 -0.054992 -0.013043 0.035356 -0.035886 -0.030464 0.035161 -0.016562  
-0.088947 0.072917 -0.130934 -0.040471 0.034859 -0.012143 0.090907 -0.019778 0.074571 0.026625 0.016302 0.003983 0.027853 0.024741  
0.007126 -0.125802 -0.052156 0.023922 -0.025982 0.089025 0.053888 -0.058223 0.002986 0.075012 -0.007565 0.031918 -0.047406 -0.051048  
0.025675 -0.086356 0.039389 -0.087066 0.061990 0.070197 0.054323 -0.098145 0.095258 -0.086769 -0.055375 -0.024859 -0.004121 -0.030122  
-0.054943 0.013216 -0.021330 -0.049672 -0.049103 0.063478 0.056239 -0.007578 0.021186 0.010638 -0.010389 0.023345 -0.004641 -0.057908  
0.016908 0.082623 0.014557 -0.008207 0.017064 -0.009632 -0.062512 -0.030795 -0.090863 -0.043658 -0.014739 -0.024957 0.007806 0.026765  
-0.009667 0.012240 0.057069 0.013435 -0.001411 -0.143356 -0.021541 0.036270 0.102683 -0.040949 -0.028808 -0.011443 0.016954 -0.016113  
0.016202 -0.034870 -0.061290 -0.034857 0.044921 0.030225 0.074813 -0.027361 -0.121163 -0.038536 -0.040075 -0.022513 0.031318 -0.040042  
-0.013412 -0.033305 0.047329 0.072447 0.096477 -0.050570 -0.108829 -0.013929 -0.076672 -0.069466 -0.005804 0.033442 -0.027791 -0.040533  
0.021938 -0.017893 0.036105 -0.032323 0.017850 -0.057773 -0.066213 -0.033804 0.008465 0.041541 -0.005609 -0.010951 0.018337 -0.030806  
0.004448 0.002888 0.030226 0.038621 0.073258 -0.017607 -0.086001 -0.001870 0.075397 -0.039809 -0.037771 0.024594 0.020476 -0.047205  
0.046603 -0.024010 0.028306 -0.086688 0.010481 0.067717 -0.073434 -0.054327 -0.108827 -0.060595 -0.000861 0.033505 0.026267 0.030200  
0.002292 -0.007361 -0.028416 0.076861 -0.008852 -0.082829 0.037280 -0.032037 -0.083006 0.030367 0.007370 -0.056070 0.018780 0.021451  
0.023351 -0.002197 -0.111311 -0.001587 -0.009229 0.074881 -0.049014 -0.087595 0.020240 0.038445 -0.016683 -0.013897 -0.027112 0.007850  
-0.023171 0.023405 0.044797 -0.085754 -0.019410 0.058737 0.084384 -0.032049 0.044967 -0.021360 0.022545 0.033428 0.023129 -0.062692  
0.098398 -0.079296 -0.040268 -0.049211 -0.029939 0.052914 0.110413 -0.056495 0.012825 -0.069534 0.017665 -0.034763 -0.002149 0.034981  
0.060792 -0.063813 -0.010724 -0.093006 -0.058500 -0.041150 -0.036162 0.040362 -0.075320 0.050849 0.023018 -0.003751 0.009360 -0.030144  
-0.047633 0.048613 -0.102088 -0.006375 0.041818 0.037503 -0.063685 0.041102 0.029967 -0.064640 -0.005069 -0.005350 0.016166 0.011608  
0.013332 0.033555 -0.029837 -0.071285 0.113016 0.001840 -0.043431 0.015219 -0.082798 -0.012571 -0.020409 0.035782 0.006147 -0.025872  
-0.096361 0.074729 -0.046678 -0.042991 -0.027749 -0.003237 0.017734 -0.017581 0.011129 0.056173 -0.003783 -0.048562 0.018195 -0.000717  
0.051390 -0.095475 -0.060109 0.004691 0.001992 -0.054557 0.070091 -0.048950 0.020712 -0.089024 -0.028978 -0.051913 0.017535 0.012870  
-0.089154 -0.049202 0.036436 -0.094337 -0.003372 -0.106187 0.024411 0.074727 -0.058400 0.062120 -0.055088 0.032068 -0.039687 -0.034057  
-0.038991 0.013232 -0.107290 0.060696 -0.009225 0.095447 0.006734 0.038017 -0.052229 -0.072110 0.015293 -0.037631 -0.038468 0.030501  
-0.019143 0.025810 0.032567 0.014220 -0.062388 -0.022207 -0.040485 -0.050274 -0.018010 -0.039008 -0.043701 0.024641 -0.038273 -0.041430  
-0.014145 0.023535 -0.015031 -0.008690 0.024482 -0.059623 -0.015244 -0.008418 -0.025950 -0.043637 -0.012118 0.021215 -0.061338 -0.048871  
0.007807 -0.062898 0.038996 0.001135 0.036826 0.005417 -0.121136 0.001909 -0.076285 -0.025542 0.027916 -0.059434 -0.045038 -0.061620  
-0.019194 0.023882 0.042723 -0.037515 -0.060467 0.066551 0.103071 -0.048413 -0.035885 -0.066322 -0.032350 0.033133 0.014382 0.018201  
0.028191 -0.000351 -0.023062 -0.021050 0.078020 0.073940 -0.021414 -0.098358 0.012519 -0.126240 0.032880 -0.027432 0.028289 -0.009667  
-0.061161 -0.023285 -0.012709 -0.055980 -0.014006 -0.007130 0.008728 -0.020655 -0.020633 -0.048110 -0.010364 -0.038068 -0.034396 -0.008291  
-0.085913 0.067948 0.084304 0.053562 -0.115279 -0.091052 -0.043646 0.026125 0.009936 -0.079610 0.031007 -0.008916 0.033244 -0.048031  
-0.047528 0.060975 -0.016920 -0.061484 0.061639 0.072600 -0.026464 0.087983 -0.049833 -0.058475 -0.027856 -0.040008 0.036592 -0.046197  
-0.024964 -0.005931 -0.133844 0.070062 -0.012019 0.061532 -0.064823 0.096537 -0.054112 0.011829 0.013344 0.009048 -0.028236 -0.022669  
0.112989 -0.112431 -0.105127 -0.054538 -0.085213 0.041834 -0.061487 0.031025 0.007521 0.100236 0.021139 0.001050 0.013800 -0.000899  
0.011100 -0.008937 -0.039439 0.059637 -0.077531 0.003307 -0.065052 0.002948 -0.054481 -0.003803 -0.007747 -0.027322 -0.024989 -0.053522  
0.060548 -0.049906 -0.032085 -0.026016 0.045501 -0.011596 0.037579 -0.019325 -0.074632 -0.029928 -0.014660 -0.030762 0.025909 -0.022130  
-0.034415 -0.015273 -0.020504 0.020951 0.034749 -0.116120 0.022589 -0.154795 0.039434 0.092900 -0.004587 -0.054783 0.021550 0.033203  
0.001966 0.043315 0.040730 0.060804 -0.108711 -0.040674 -0.045241 0.086904 -0.042430 -0.059415 0.005972 -0.027490 -0.000768 0.015233  
-0.006593 0.099056 -0.016789 -0.022373 0.053067 -0.046537 0.077581 -0.050154 -0.073846 -0.065577 0.033490 0.018751 -0.005104 -0.016033  
0.027183 -0.076922 -0.030589 -0.038094 -0.013166 0.017748 -0.062723 0.034323 -0.040655 -0.015735 -0.012590 -0.010977 -0.057286 0.001707  
-0.058218 -0.005364 0.023398 -0.026053 -0.050865 -0.116487 -0.012252 -0.000141 0.049912 -0.053293 -0.049202 -0.055536 -0.043186 -0.070735  
-0.018918 -0.052969 0.024120 0.010462 -0.099215 0.049394 0.022595 -0.077641 0.062892 -0.013781 -0.020361 -0.025322 -0.044805 -0.020339  
0.028633 -0.042799 -0.089835 -0.029871 0.049567 -0.061163 0.020764 0.000258 0.058958 0.065078 -0.020227 -0.023983 0.005301 -0.061800  
0.000596 -0.067536 -0.127793 -0.009642 0.096641 0.000253 0.012890 -0.011172 -0.019458 0.011557 -0.037369 -0.029101 -0.025700 -0.035177  
-0.046957 -0.005042 -0.033934 -0.007474 -0.046793 -0.039842 -0.000757 0.022464 0.039257 -0.022542 0.002546 0.027408 -0.030032 -0.027977  
0.087125 0.026424 0.012291 -0.044223 -0.002350 -0.014991 0.051493 -0.061265 -0.016023 -0.126137 0.029085 -0.021111 -0.046735 -0.052803  
-0.072766 0.034449 -0.071306 -0.079859 -0.089019 -0.000312 -0.042111 -0.023845 -0.032168 0.111617 -0.061551 0.033647 -0.034671 0.008456  
-0.133730 0.017801 0.106860 0.038276 0.015537 -0.021274 -0.103619 -0.065524 0.047854 -0.053830 -0.035366 0.009242 0.022470 -0.015786  
-0.016488 0.103457 -0.075396 0.030385 -0.062698 0.015719 -0.072748 0.041181 -0.119483 -0.064809 -0.017906 -0.040582 -0.033582 0.003433  
-0.095687 0.075432 0.053686 0.065172 -0.014760 -0.078699 0.026371 -0.095758 0.037710 -0.025441 -0.012744 -0.024762 -0.040113 0.012252  
0.043313 0.067393 -0.063533 -0.097721 -0.000690 -0.053417 -0.004942 -0.069229 -0.032224 0.079600 0.031404 0.013607 -0.001847 -0.006220  
-0.007267 0.014427 -0.036069 0.014115 -0.045156 -0.028808 0.004192 0.040428 0.023209 0.048384 0.014970 0.010063 -0.008723 0.003786  
-0.079290 0.065828 0.014494 -0.040752 -0.031640 0.038898 -0.012995 0.042092 -0.073545 -0.058882 -0.051659 0.007163 0.032248 0.010808  
0.035184 0.003723 -0.056758 0.009236 0.032060 -0.019791 0.015696 0.047931 -0.012139 -0.056969 0.001170 0.008372 -0.019693 0.024953  
0.069247 -0.047467 0.053507 -0.030707 -0.023598 -0.004757 -0.007473 0.017211 0.024767 0.040244 -0.005798 -0.026112 0.027713 0.000964  
0.027532 0.025995 -0.008231 -0.013685 -0.010822 0.016221 0.043971 -0.043387 -0.059160 -0.008869 -0.024370 -0.003400 0.005675 0.048680  
-0.030969 -0.045779 0.060005 0.064820 -0.037453 0.023431 0.048410 -0.063876 0.081170 -0.000676 0.034914 -0.001815 -0.031391 0.031381  
0.037884 -0.056750 -0.046713 -0.116581 -0.038001 0.046063 -0.076416 0.010199 0.098780 -0.007056 -0.029155 0.020509 -0.007324 -0.063100  
0.054430 -0.069086 -0.001255 -0.062282 -0.050239 -0.057452 -0.010747 0.011447 0.052830 -0.041438 -0.048620 0.023721 0.037024 -0.006858  
0.096903 -0.066577 0.067683 -0.100022 -0.021915 -0.090352 0.066824 -0.014000 0.047050 -0.073214 -0.012659 -0.005051 -0.002710 -0.036658  
0.028654 0.010055 -0.089055 0.051785 0.079948 -0.054520 -0.126150 0.046721 0.046727 0.075057 0.035812 -0.029872 0.031478 -0.020719  
-0.109119 -0.036884 0.068402 0.035535 0.030853 0.077307 -0.096845 -0.080986 -0.020768 0.055104 0.003488 -0.060529 -0.023365 -0.049281  
-0.016353 0.014521 -0.063773 0.003865 -0.083723 0.010202 0.002692 0.040402 -0.023479 0.052777 -0.031220 0.022059 -0.014820 0.008232  
-0.097670 0.044107 0.006264 -0.097588 0.065025 0.012937 0.015090 -0.022475 -0.022234 -0.117394 0.022993 0.017265 -0.029771 -0.027306  
-0.074537 -0.013621 0.114960 0.048785 -0.062143 0.028851 -0.023308 -0.015597 -0.051454 -0.012675 0.038554 -0.014825 -0.033465 0.027475  
-0.022158 0.019449 -0.017545 0.007114 0.030945 0.059265 -0.060281 -0.057009 -0.009685 -0.012991 -0.027887 0.021266 -0.032394 -0.035188  
0.000861 -0.033444 0.071115 0.042876 -0.008677 0.054581 0.036254 -0.003212 0.076054 -0.128976 -0.041645 -0.047792 0.030874 -0.034109  
0.076173 -0.022791 -0.012145 -0.023818 0.017230 0.008527 0.064285 0.008962 -0.035024 0.034119 0.012633 0.032214 -0.040137 0.000355  
0.023995 -0.021901 -0.004010 -0.040420 0.008814 0.016928 -0.016400 -0.022723 0.010304 -0.032496 -0.012990 -0.024094 -0.048618 -0.041489  
-0.009005 0.037444 -0.065453 0.045788 0.002383 -0.081502 0.011013 0.123717 -0.117229 0.014807 0.005286 -0.022304 0.014740 0.025197  
-0.045620 -0.030809 -0.039929 -0.098757 0.077491 -0.087310 0.090147 -0.029245 -0.092057 0.108744 0.025227 0.037015 -0.056724 -0.006455  
0.041620 -0.025534 -0.099626 0.010162 0.005875 -0.095780 -0.036444 0.054918 0.018627 0.026796 0.016142 0.043857 -0.048846 0.027695  
-0.031328 -0.035174 -0.038187 0.030944 -0.023459 -0.001926 0.030384 -0.081612 -0.000330 0.037836 -0.054499 -0.049997 0.005679 -0.027996  
-0.021273 -0.089389 -0.001395 -0.033890 0.065436 0.042804 0.097928 -0.077220 -0.101729 0.053918 -0.039633 0.026248 0.022632 -0.023050  
-0.048979 0.008124 0.037260 -0.026271 0.032552 0.053419 0.099362 -0.046042 -0.003771 0.009640 -0.039831 -0.008212 -0.028750 -0.036690  
0.095059 0.004895 0.027492 -0.101966 0.012706 0.078607 0.011537 -0.067565 -0.055240 0.068841 -0.017408 -0.042520 0.042473 -0.024203  
-0.011723 0.012121 -0.029533 -0.039664 -0.002647 -0.048953 0.004258 -0.019664 0.025489 -0.004459 -0.050417 -0.052970 -0.020207 -0.066453  
-0.089153 -0.005793 0.076908 -0.039405 0.008342 -0.093278 0.046544 0.058720 0.114429 0.000223 -0.029473 -0.000237 0.003277 0.023503  
-0.099695 0.077234 -0.017499 -0.012897 0.063872 0.074870 -0.010363 -0.012256 0.055402 -0.072593 0.021855 0.019234 -0.014569 -0.058701  
0.005749 -0.051172 0.071294 0.006204 -0.037315 -0.133473 0.028089 0.046991 0.027390 -0.012566 -0.064231 -0.030236 -0.006841 -0.018108  
0.014799 0.023612 -0.015956 0.003537 0.025517 -0.087289 -0.082293 0.020111 0.024455 -0.028185 -0.002091 -0.060110 -0.063483 -0.014268  
0.005476 0.047634 -0.097182 0.019032 -0.027704 0.018090 -0.009106 -0.014896 -0.049438 -0.023718 -0.069763 -0.007474 -0.058752 -0.023563  
0.035284 -0.051468 0.013886 -0.083465 0.004441 -0.008803 0.010491 -0.003574 -0.063898 -0.034894 -0.026865 0.027202 0.022823 -0.039714  
0.013038 -0.028443 -0.073991 -0.151974 -0.061941 0.008477 0.012953 0.076779 0.025098 -0.046727 -0.030509 -0.036013 -0.060777 -0.036814  
0.048492 0.054456 0.064433 0.004686 -0.035108 -0.102445 0.075716 -0.015753 0.084981 0.068977 -0.038696 -0.005635 0.002650 -0.029571  
0.018834 0.002222 -0.037877 -0.081739 0.056501 0.084573 0.041682 -0.029654 -0.002568 -0.060662 0.018850 -0.031048 0.024449 -0.028211  
-0.039608 0.050143 0.033996 0.032381 -0.019952 0.043069 -0.045141 -0.001713 -0.042223 -0.001417 -0.013740 0.032943 -0.047968 -0.018182  
0.001834 -0.062992 0.018354 -0.061243 0.032756 0.064306 -0.038882 0.014548 -0.058489 -0.110959 0.034840 0.039908 -0.048902 -0.005904  
0.043846 -0.021933 -0.019384 0.064915 -0.002772 0.040136 0.013572 0.016710 -0.004720 -0.021435 0.011516 0.008798 -0.001722 0.006597  
-0.059699 -0.019591 -0.100630 0.004278 0.076108 0.000376 0.076133 -0.003629 -0.029621 -0.088496 0.021450 -0.008528 -0.007464 0.000994  
-0.033173 0.080676 -0.066870 -0.002131 -0.032996 0.082004 -0.016949 -0.044947 -0.060303 0.036366 -0.009812 0.013293 0.025187 0.037462  
0.090077 -0.024040 -0.070168 -0.052069 -0.064637 0.077560 -0.019024 0.044513 0.005217 -0.020522 -0.048599 0.020050 0.041813 0.022660  
-0.021232 -0.001459 -0.076409 0.026894 -0.069790 -0.039938 -0.018722 -0.015815 -0.086134 0.001236 -0.056595 -0.020892 0.032567 -0.000372  
-0.008682 -0.002198 0.068402 0.013461 0.025317 -0.057974 -0.043071 0.063039 0.026824 -0.049185 -0.017162 0.028191 0.015790 0.016541  
0.037847 -0.018683 -0.056351 -0.067417 -0.004321 -0.039937 -0.075537 0.088437 0.037969 -0.023737 -0.031874 -0.044907 0.034655 -0.003083  
0.021440 0.040816 0.024448 -0.040933 -0.047824 -0.042824 0.029384 -0.014593 0.052584 -0.061671 -0.036464 -0.015127 0.034091 -0.032815  
-0.001294 -0.055155 0.031755 -0.079425 0.075243 -0.028514 0.063892 -0.103178 -0.066734 0.067437 -0.025280 0.024925 0.033907 0.017444  
-0.015507 -0.009168 -0.004584 -0.030549 -0.045323 0.024979 0.021597 0.009745 -0.039003 -0.004364 -0.047742 -0.062025 0.016060 -0.055298  
0.053381 -0.014614 -0.020573 -0.065600 0.046804 0.007202 -0.059814 0.068644 -0.050991 -0.046417 0.018282 0.007364 -0.031695 0.028315  
-0.050341 -0.005762 -0.068583 0.005775 -0.055276 0.021452 -0.042839 -0.013007 0.017936 -0.047127 -0.001807 0.011234 0.022955 -0.058654  
-0.006605 -0.001674 -0.013217 0.005332 0.007619 0.058121 0.002040 0.009652 0.048096 -0.063437 -0.003645 -0.001455 -0.017778 -0.014882  
0.073241 -0.024168 0.084929 -0.033508 -0.030817 -0.021337 0.014684 -0.035483 -0.085574 0.001533 0.020900 -0.027367 0.016952 0.032182  
0.055652 0.018105 0.056217 0.036043 -0.048291 0.015231 0.044455 -0.053894 -0.020713 -0.043127 0.001826 0.027959 -0.035731 -0.017811  
-0.023677 -0.010676 -0.009111 -0.052464 0.041611 0.009308 -0.000873 -0.038847 0.025865 0.000854 0.011008 -0.037329 0.042802 -0.016677  
0.024491 0.011233 0.011328 -0.055759 -0.063328 -0.015201 0.085269 -0.016346 0.077021 -0.009576 -0.002355 -0.046516 -0.027006 0.008312  
0.006396 0.058129 -0.020036 -0.066978 -0.050582 -0.102301 0.063227 -0.072880 0.083131 0.109768 -0.011575 -0.041394 -0.053076 -0.055047  
-0.077543 0.003081 -0.012675 -0.054554 0.035262 0.010827 -0.027781 0.049727 -0.031159 -0.062612 0.026072 -0.023518 -0.005757 -0.007686  
0.001221 0.022214 -0.031670 -0.042363 -0.030602 -0.037473 -0.042368 0.060083 0.007956 -0.053314 -0.003088 -0.031933 0.000518 0.004323  
-0.007495 0.019442 -0.051793 -0.081268 -0.090184 -0.010218 0.065176 0.103297 -0.047791 -0.010759 0.017040 -0.013609 -0.011847 0.000800  
-0.075016 0.017664 -0.030355 -0.011155 0.008997 -0.022251 -0.041972 -0.026110 0.069838 -0.121917 0.029686 -0.034381 -0.052657 0.026099  
-0.009660 -0.026474 -0.015753 -0.051179 -0.078123 0.015120 -0.002891 -0.000548 -0.070466 -0.069681 -0.056277 0.031194 0.027820 0.007962  
0.003562 0.009279 -0.063785 0.045261 -0.055579 0.019418 -0.038275 0.037200 -0.000914 0.011274 -0.057986 0.023001 0.014960 -0.000995  
0.051554 -0.058557 -0.057808 0.070089 -0.030800 0.015494 -0.061570 -0.015530 0.026789 -0.105128 -0.013358 -0.004033 0.018182 -0.042903  
-0.059669 0.017984 0.048840 -0.001595 -0.039329 -0.052235 0.017468 -0.076182 0.062593 -0.024313 0.007443 -0.020624 0.028498 0.041474  
-0.048083 -0.003459 -0.071949 -0.035340 0.011085 -0.014384 0.082925 -0.030256 -0.028607 0.001011 -0.015035 0.035031 0.019910 -0.023671  
0.010365 -0.008417 0.006814 -0.025847 -0.070760 0.002617 0.013389 0.091742 -0.112575 -0.066846 -0.019853 0.007675 0.027190 0.036942  
-0.000598 0.051967 -0.057215 -0.076621 -0.098716 0.010206 -0.058062 -0.040520 0.085185 0.092090 -0.043124 -0.010663 0.031837 0.019064  
-0.012250 0.068411 0.012853 -0.033944 -0.052725 -0.019074 -0.020361 -0.059778 0.039835 0.034124 0.006819 0.026564 -0.030876 -0.016573  
0.094753 -0.054612 -0.091579 0.001454 -0.110505 0.131025 -0.033221 0.083001 -0.073821 0.079858 0.029172 -0.015081 -0.020074 -0.012052  
0.056456 0.012572 0.009776 -0.097395 0.020579 -0.039085 -0.045843 -0.032970 -0.097687 0.048398 -0.001609 0.045585 0.042245 0.025565  
-0.035491 -0.064764 -0.035708 -0.074896 -0.083966 0.078782 0.034521 0.005530 0.039677 0.015124 -0.037778 -0.026990 0.020645 -0.024777  
0.000181 -0.006328 0.001502 -0.008813 0.011732 0.046891 -0.053922 -0.063949 -0.075416 -0.022591 -0.001027 0.031320 -0.020544 -0.029452  
-0.015624 0.010378 0.038735 -0.025302 -0.030984 -0.005238 -0.015093 0.016040 0.014746 -0.041388 -0.062926 -0.057871 -0.026031 -0.052474  
-0.107541 -0.086620 0.051324 0.040057 -0.122011 0.054443 -0.000859 0.033657 0.046400 0.065872 -0.023574 -0.047451 0.022946 0.024898  
0.026694 0.030843 0.049373 0.005377 0.013900 -0.033599 -0.050010 -0.037642 0.022785 -0.013835 -0.011078 0.031591 -0.035173 0.023088  
0.010264 0.010551 -0.026364 -0.033098 -0.034731 -0.045662 -0.048496 0.026774 -0.021730 -0.024870 -0.043698 -0.039416 0.028328 0.033041  
0.034864 0.037053 -0.013645 0.027438 0.036982 -0.049657 -0.017680 -0.050306 -0.055096 0.027826 0.039603 0.011324 0.019172 -0.006939  
0.002451 0.032418 0.002342 0.048244 -0.065489 -0.012105 0.100268 0.015649 -0.033972 -0.002623 -0.011928 0.045486 -0.049074 -0.047073  
-0.067008 0.045880 0.009109 0.098843 0.032536 -0.063755 -0.001184 0.067185 -0.050152 -0.050706 -0.010495 -0.019601 0.041473 0.032780  
-0.026625 0.017579 -0.089052 0.003581 -0.113025 0.054553 0.010599 -0.021954 0.031879 0.027115 0.006742 0.013942 -0.064497 0.016406  
0.008742 -0.019840 0.052540 -0.069922 -0.016118 -0.018979 -0.058766 -0.035077 0.031341 0.027200 0.021873 -0.012784 0.003128 -0.013105  
0.068730 0.042888 -0.073341 0.036328 -0.025219 0.021493 0.023607 -0.020528 -0.029478 -0.063563 0.004169 -0.039303 -0.010654 0.012021  
-0.013408 -0.006795 0.066436 -0.043725 0.050751 0.078050 0.093929 -0.086609 -0.108751 -0.075134 0.024790 0.036459 0.022616 -0.042132  
-0.011170 -0.054952 -0.012430 -0.067972 -0.011139 0.109434 0.074154 -0.065235 0.100849 -0.114426 0.037455 -0.030260 -0.012446 0.036114  
-0.005568 -0.052695 0.080257 -0.029163 0.022611 0.004981 -0.031658 -0.013996 -0.009054 -0.072318 0.021938 0.011338 -0.035146 -0.053710  
-0.015104 -0.057780 0.056539 0.067233 0.055569 -0.052619 -0.113034 0.000166 -0.014875 -0.000278 0.017814 -0.043629 -0.017192 -0.065319  
-0.020587 -0.016386 -0.106250 -0.004580 -0.111851 0.092343 0.026640 -0.066773 0.122166 -0.064133 -0.052747 -0.030500 -0.049993 -0.008586  
-0.011824 -0.099247 0.037419 -0.028941 -0.068107 0.115243 0.018861 -0.041994 -0.077179 -0.092896 -0.043376 -0.016110 -0.042411 -0.035359  
-0.055238 0.014332 -0.019086 0.013612 -0.049595 -0.112999 0.037172 0.003600 -0.060167 0.065633 -0.015609 0.036760 0.008171 -0.062202  
-0.065885 0.048694 -0.037398 -0.073211 -0.045006 -0.012391 0.123232 -0.074244 -0.072625 -0.081861 -0.018713 -0.041501 0.001064 0.025206  
-0.044158 -0.018220 0.009231 0.019183 -0.024521 -0.013576 0.043402 0.001515 0.003803 -0.034351 0.015912 0.015212 -0.015998 0.006125  
-0.079941 -0.048173 -0.016748 0.032284 -0.041669 -0.042183 -0.010813 0.054724 0.016982 0.034206 0.015548 -0.024771 0.025973 -0.018258  
0.051428 -0.128868 0.097550 -0.040483 0.016978 -0.055193 0.039658 0.013534 -0.004314 0.024110 0.006955 -0.018871 -0.035874 0.025775  
-0.053676 -0.047273 0.114201 0.040046 -0.057042 0.020130 0.046037 -0.070626 -0.147653 -0.008402 0.035763 -0.029270 -0.032749 -0.049974  
-0.097509 -0.045210 -0.067201 0.018781 -0.018908 0.058663 0.011689 0.073045 -0.028130 -0.079658 -0.055285 -0.047914 -0.053332 -0.045212  
0.048520 -0.040548 0.020637 0.043054 -0.029488 -0.074791 -0.010774 0.021421 -0.023141 0.053145 0.025770 -0.048434 0.009983 -0.034485  
0.075348 0.016946 0.009351 0.048110 -0.075243 0.023230 -0.077640 0.024629 -0.007191 -0.140037 0.033067 0.011741 -0.001423 -0.053020  
0.003894 0.057983 -0.065518 0.009539 -0.032330 0.020707 -0.125554 0.027359 -0.037471 -0.074804 -0.001992 0.007939 -0.009789 -0.044050  
-0.024727 -0.069433 -0.107316 -0.034966 0.069930 0.044478 -0.008347 -0.080213 -0.076568 0.070033 -0.045465 0.035021 0.028741 -0.044714  
-0.042529 -0.019207 -0.032331 -0.028540 -0.032464 0.044747 0.006734 -0.058183 -0.090354 -0.015920 0.035608 0.039863 0.046371 -0.030452  
0.042020 0.032531 -0.013574 0.040161 0.046430 0.016034 0.047888 -0.007901 0.049271 0.032288 -0.012758 0.006160 -0.023715 -0.010666  
0.072641 -0.089034 0.005554 -0.119730 0.066330 0.054365 0.096226 -0.019494 -0.039736 -0.111476 -0.017363 0.039063 -0.029015 0.041927  
-0.002907 0.094206 -0.003939 -0.089565 -0.002836 0.026378 -0.011251 0.007924 0.065017 -0.079790 -0.037371 0.032252 -0.052466 -0.003116  
-0.033647 0.002552 -0.102834 0.023235 0.056727 -0.029327 0.037044 -0.023108 0.054207 -0.058738 -0.050013 -0.020644 -0.022770 0.003820  
-0.027212 0.007674 -0.074343 -0.006535 0.067029 0.032859 -0.083343 0.044712 -0.052423 -0.008084 0.033126 0.006508 -0.042067 -0.047584  
0.029953 -0.025710 -0.043553 -0.010342 0.008091 -0.031628 -0.019268 -0.032532 -0.026272 -0.107440 -0.044238 0.017800 0.011151 -0.018534  
0.020917 0.009819 0.120800 0.024447 -0.099051 0.007381 -0.014119 0.042579 -0.028998 -0.105259 -0.054285 -0.048802 -0.007072 -0.054842  
-0.085894 -0.008936 -0.033462 0.011899 -0.074757 0.041167 -0.037988 0.003885 -0.066200 -0.017991 0.007695 0.010094 -0.044229 0.014168  
0.018635 -0.125951 0.050798 -0.072946 -0.035321 -0.090325 -0.032492 -0.034984 0.001110 0.010567 -0.055646 -0.041410 0.013428 -0.001488  
-0.041317 -0.065553 -0.119925 -0.045217 0.004310 0.144254 -0.055637 0.022445 -0.011842 -0.038135 0.000376 -0.055376 -0.018423 0.029883  
0.039792 -0.009435 0.086979 -0.080043 -0.067581 -0.046730 0.045934 -0.022544 -0.096589 0.026593 -0.040786 0.025221 0.040597 0.013025  
0.048661 0.089820 0.082877 -0.041295 -0.070261 -0.103812 -0.003741 0.057870 -0.081402 -0.102223 0.021382 0.015912 0.020548 -0.008685  
0.025533 -0.071082 0.028479 0.010325 -0.039404 0.072544 -0.107781 -0.076883 0.078533 -0.029502 0.012784 -0.053181 0.028779 0.027349  
0.028834 -0.033064 0.044000 -0.057279 0.062109 0.100011 0.012120 0.034637 -0.055327 -0.103536 0.030253 -0.043055 -0.015337 -0.021123  
-0.008706 -0.063504 0.034764 -0.006715 -0.085382 0.081672 0.041797 -0.034779 0.010855 -0.080119 0.000807 0.011222 -0.042363 0.002540  
-0.114411 0.039953 0.055665 0.074296 -0.013731 -0.142777 0.036468 0.036321 -0.077967 0.038211 -0.015439 0.007632 -0.021116 -0.011099  
-0.058780 -0.052271 -0.019857 0.034599 -0.043657 0.027455 -0.039712 0.014274 0.006662 -0.055106 0.005818 -0.007843 -0.034079 -0.050167  
-0.056842 -0.009505 0.033358 -0.042844 0.001586 -0.008176 0.002815 -0.064112 -0.085123 0.028738 0.017982 -0.018360 0.024794 0.014929  
-0.051264 0.033040 0.013847 0.060751 -0.043181 0.010686 -0.120670 0.050215 0.043518 0.012819 -0.056528 -0.029627 -0.020716 -0.001557  
-0.110305 0.098258 0.009240 -0.047537 0.109284 0.079613 -0.037835 -0.046581 -0.137708 -0.037518 -0.023850 0.022517 0.023826 -0.027019  
-0.042458 0.022847 -0.096004 -0.039745 0.014462 0.019766 0.133280 -0.060725 -0.091094 -0.028249 -0.013942 -0.028318 0.031839 0.022828  
0.023591 -0.005153 -0.041435 0.020401 -0.042671 -0.038101 -0.007854 0.011886 -0.065088 -0.051328 -0.008245 -0.045104 -0.064958 -0.050900  
-0.077251 -0.005550 -0.065954 0.061218 -0.054788 0.051122 0.008972 0.009094 0.000517 0.026143 -0.030083 -0.030002 -0.052479 0.017950  
-0.004628 -0.043651 0.076783 -0.020023 -0.044454 -0.053886 -0.000929 -0.033257 -0.096553 -0.035087 -0.005464 -0.036132 -0.009072 -0.059129  
-0.057067 0.031082 0.071695 0.007916 -0.049541 -0.005333 -0.035047 -0.004375 0.049355 0.007065 -0.015048 -0.055521 -0.006438 -0.040304  
-0.056658 0.000604 -0.053557 -0.051028 -0.034747 -0.022199 -0.048405 -0.056025 -0.062998 -0.052708 -0.050530 -0.064173 0.014430 -0.036067  
-0.110566 0.006107 0.034647 0.005021 0.021289 0.075551 0.034356 -0.118580 0.069298 -0.030700 0.007571 -0.034444 -0.047262 -0.031411  
0.012407 0.028276 0.016849 -0.063961 -0.036291 0.021189 0.046490 -0.054945 0.018133 0.064815 -0.040867 -0.029752 0.026279 -0.004226  
0.009168 0.009242 -0.041567 0.003679 -0.033377 -0.030554 0.033994 -0.043670 -0.057683 -0.045959 0.005987 -0.020115 -0.019397 -0.055999  
0.009718 -0.044933 -0.067734 -0.084518 -0.031865 0.038898 0.037067 0.001979 -0.035214 0.054468 -0.040669 -0.060189 -0.056740 -0.004685  
0.033679 -0.069626 -0.110610 -0.009334 -0.012798 -0.007995 0.025078 -0.028311 0.013989 0.025146 0.029569 0.037744 0.025090 0.025722  
0.001777 0.054896 -0.025887 -0.084838 -0.043320 -0.099560 0.036433 0.021536 0.093480 -0.002376 -0.044263 -0.030854 0.027829 0.006401  
-0.013696 -0.070363 -0.064120 0.022533 0.022380 -0.033062 -0.017583 0.043334 -0.084697 -0.135165 -0.062526 -0.006561 0.030982 0.003481  
-0.119280 -0.011034 0.055235 -0.012875 0.045090 -0.117521 0.004560 -0.003499 0.114752 0.067791 -0.041332 0.017920 -0.029181 0.007680  
-0.033026 -0.099602 0.036881 -0.026601 -0.056908 0.043184 0.021595 -0.027680 -0.010953 0.019719 -0.030803 -0.047239 -0.016486 -0.045364  
0.041403 -0.030821 0.057657 -0.041973 0.003367 -0.077525 0.008352 0.034056 0.014603 -0.063102 -0.036679 0.022533 -0.015282 -0.026872  
-0.032026 -0.049390 0.022978 -0.059640 -0.013881 -0.029925 -0.023072 0.023265 -0.034499 -0.005777 -0.058555 0.031749 -0.042582 0.000339  
0.020537 -0.021340 0.004672 -0.042543 -0.068766 0.074570 -0.015611 -0.052993 -0.047520 -0.000760 0.018766 -0.025272 -0.044127 -0.000963  
0.023688 0.051718 -0.084304 -0.043146 -0.024424 0.021073 0.023574 0.003121 -0.058254 0.057137 -0.035360 0.009132 -0.005608 -0.006877  
0.028184 0.039234 0.025365 0.077825 -0.034778 0.099535 -0.103418 0.012549 -0.085043 -0.066274 0.027911 -0.052476 -0.015494 -0.029362  
-0.056313 -0.046720 -0.006972 -0.037529 -0.015632 0.052795 -0.013031 0.084025 -0.009516 0.047766 -0.039669 0.007206 0.015082 -0.053710  
-0.034974 0.037524 -0.053009 0.022327 0.011526 0.073322 -0.028837 0.035003 -0.000515 -0.100576 -0.028257 0.040695 -0.003210 0.018573  
0.052498 -0.112454 -0.021487 -0.054101 0.058072 -0.011628 0.067250 0.009371 -0.039214 0.106759 0.032678 0.018560 -0.055600 0.003795  
-0.066740 0.048218 0.109380 0.063080 -0.055367 -0.096539 -0.051506 -0.073277 -0.082011 -0.012291 0.000549 0.041211 0.005295 -0.044258  
0.028631 -0.057242 -0.079243 -0.059589 0.030715 0.011434 0.072673 -0.000687 0.004948 -0.018415 0.012940 -0.023279 0.037710 0.010523  
0.056649 0.048065 -0.122965 -0.017707 -0.101829 0.059544 -0.069543 -0.025630 0.082421 0.001622 -0.052194 -0.022165 0.032218 0.025868  
0.048603 -0.005679 -0.013488 0.077329 -0.023381 -0.081134 0.051801 0.087959 -0.173597 0.030145 0.026761 0.004903 -0.046505 0.027128  
-0.026728 -0.014744 -0.113978 -0.012875 0.052403 0.034898 -0.025894 0.032170 -0.040931 0.015811 0.029937 -0.041712 -0.063000 -0.014379  
0.003221 0.008798 -0.072808 -0.004600 0.073957 0.027920 -0.033023 -0.073717 0.029494 0.039618 0.011125 0.008034 -0.000163 -0.025563  
-0.053033 -0.001949 0.003317 -0.004758 -0.035736 -0.066320 0.039911 0.092547 -0.027338 -0.024329 -0.008915 -0.045417 0.010505 -0.026962  
