-0.062560 0.032751 -0.071320 0.008849 -0.014187 0.048394 -0.059261 0.015473 0.082527 0.079031 0.020259 0.028121 0.006297 -0.037715  
0.002222 -0.019927 -0.042058 0.006663 -0.027238 -0.015895 0.040768 -0.025677 -0.030463 -0.028745 0.035963 0.031988 -0.021248 0.002323  
-0.067075 0.048109 0.063624 -0.024395 0.019783 0.051986 -0.021224 -0.045057 -0.088861 -0.065395 0.028246 0.001825 -0.015324 0.013777  
-0.009963 -0.018756 -0.002297 -0.042266 0.099228 0.058520 -0.027404 0.004790 -0.002456 -0.001925 0.022009 0.041460 -0.003178 -0.032118  
-0.047575 -0.111332 -0.006559 0.008120 0.019453 -0.001574 -0.019914 -0.064853 0.028984 -0.037987 -0.052362 -0.041363 0.000225 0.001321  
-0.116318 0.017258 -0.072356 -0.015819 -0.020210 0.115065 -0.009735 0.023911 -0.021923 0.020941 -0.019316 -0.005713 0.034104 -0.014528  
0.004252 -0.036824 0.060231 0.002962 -0.077270 -0.053934 -0.001958 -0.043232 -0.053297 0.034294 -0.053522 0.003870 -0.037909 -0.001224  
-0.073035 -0.019963 0.056973 -0.053640 0.029573 0.014904 -0.073812 0.028131 0.010509 -0.025534 -0.011423 -0.023195 -0.038075 -0.039958  
-0.002957 -0.095961 0.039739 -0.025590 0.029514 0.029065 0.002668 0.049492 -0.040757 0.057335 -0.049651 -0.036740 -0.009689 0.022397  
-0.050664 -0.003651 -0.007903 0.008629 0.000718 -0.020123 -0.010259 -0.083608 -0.037227 -0.037958 -0.019603 -0.040533 -0.049703 -0.070444  
-0.001371 -0.044922 -0.057670 -0.051441 0.022569 0.123242 -0.017207 -0.047027 0.010408 -0.077921 0.014929 -0.013764 0.016976 -0.047572  
0.008460 0.002325 -0.034868 -0.001683 -0.041540 0.004835 -0.018103 -0.002949 -0.055806 -0.064489 0.007925 0.031469 -0.035812 -0.059242  
-0.003451 0.002597 -0.027939 -0.090858 -0.025256 -0.027784 0.064044 -0.054223 0.033331 0.120608 -0.041773 0.035192 -0.003376 -0.023378  
0.051329 -0.037587 -0.039502 0.053482 0.065212 0.003719 -0.033452 0.031155 -0.041930 -0.054904 0.030814 -0.031435 -0.030009 -0.043458  
0.048653 -0.045665 -0.005599 0.030458 -0.100793 0.046876 0.020900 0.031780 -0.033960 -0.178599 0.009190 -0.028250 0.014954 0.026203  
-0.117222 -0.037494 -0.059203 -0.018352 0.043489 0.010360 -0.034626 0.040812 0.104227 0.055977 -0.035403 0.011969 -0.000955 0.012514  
0.019599 0.000847 -0.025580 -0.062413 0.053109 0.011409 0.063332 -0.049524 -0.064955 0.031573 -0.008258 0.044804 0.016776 0.006919  
-0.037257 -0.019439 -0.029632 0.016250 -0.022372 0.022622 0.018280 0.046079 -0.010290 -0.000552 0.044659 -0.022795 0.045543 0.038320  
-0.047218 -0.022296 0.003311 -0.003117 0.056706 -0.037483 0.053132 -0.041809 -0.032218 -0.026289 -0.029620 -0.011036 0.026075 0.026445  
-0.038205 0.048928 0.037841 0.042402 0.041102 -0.124444 0.015863 -0.032277 -0.002104 -0.138450 0.015463 -0.011716 0.019965 -0.065905  
-0.048922 0.016000 -0.018560 0.050754 -0.005833 -0.019275 0.016753 -0.026847 0.001400 -0.040254 0.041764 0.031743 0.020899 0.032653  
-0.090573 -0.025436 -0.027563 -0.024600 0.035790 -0.086912 -0.072659 0.040751 -0.035017 -0.038343 0.004902 -0.026543 -0.028604 -0.023450  
0.079628 0.022630 -0.039388 -0.071271 -0.009917 -0.057730 -0.024477 0.046500 -0.055071 0.060077 -0.029614 0.040842 0.022947 -0.035671  
0.016577 0.005752 -0.000042 -0.038324 0.001034 -0.040525 -0.049764 0.010915 0.011306 -0.085491 0.004796 -0.049636 -0.053919 -0.057225  
-0.088589 0.042830 -0.036513 0.011804 -0.073419 -0.059502 -0.094382 0.010765 0.057811 -0.032170 0.017579 0.026913 -0.046908 -0.045901  
-0.058123 0.062383 -0.076128 0.022853 -0.001609 0.020217 0.007320 0.020262 0.060736 -0.094634 0.008548 -0.023087 0.027964 -0.016409  
0.023213 -0.005681 -0.025400 -0.102719 0.009576 0.029115 0.012709 -0.022933 -0.014163 0.028351 -0.064192 -0.013295 -0.037920 -0.053824  
0.063111 0.091603 -0.094773 -0.012332 -0.080369 0.003121 -0.063369 -0.005463 -0.085310 -0.020768 0.043797 -0.050407 0.019361 0.014182  
-0.031799 0.005843 0.004066 -0.058255 0.040897 0.086181 -0.054932 -0.067605 -0.022673 0.006029 -0.061532 -0.023209 0.005774 -0.003834  
-0.029031 0.082534 -0.028222 -0.030296 -0.032795 -0.056380 -0.085295 0.060467 0.091240 0.058146 0.026693 -0.024777 -0.050351 0.002351  
-0.030534 -0.052953 0.002991 -0.030096 0.059745 -0.052870 -0.067279 0.071203 0.029744 -0.043005 -0.040733 0.036466 0.000378 -0.004236  
-0.047180 0.038942 0.044873 -0.035736 -0.001900 -0.031985 0.033910 -0.004054 0.012392 -0.002598 0.004771 -0.032145 -0.036014 0.019804  
-0.089653 -0.006881 0.055713 0.112739 0.018183 -0.054341 -0.059808 0.016455 -0.101066 -0.032991 -0.046441 0.029165 -0.046499 0.031150  
-0.001346 -0.076912 0.036433 -0.134555 -0.013402 0.092108 0.069545 -0.022885 -0.007302 -0.052457 0.022600 0.011452 -0.047905 0.011532  
-0.049788 0.052053 0.061028 -0.020819 0.032244 0.059482 -0.010632 0.032482 -0.068745 0.012219 0.004735 -0.021365 0.022562 0.031350  
-0.067475 0.023922 0.005723 -0.002658 -0.054117 -0.006483 0.057155 0.061988 -0.052093 -0.049417 0.016137 -0.021560 -0.035742 -0.003972  
-0.071111 0.017048 0.055820 -0.025541 -0.033283 0.012188 -0.045532 0.031675 0.062131 0.020055 0.005765 -0.015866 -0.049820 -0.026342  
0.080410 0.003404 0.009837 -0.050773 0.094957 -0.090084 0.041710 -0.058943 -0.056238 0.003530 -0.017917 0.038235 -0.033154 0.020061  
0.008177 -0.053677 0.060221 -0.077112 -0.076878 -0.093460 0.043314 -0.000075 0.000655 -0.031540 -0.012540 -0.024427 0.000783 -0.006985  
-0.099545 0.042115 -0.082969 0.041863 0.059715 -0.085891 -0.087893 0.046448 -0.043847 0.080816 -0.058391 -0.026984 -0.011700 -0.024976  
-0.004159 -0.040672 -0.024098 0.048746 -0.017230 -0.030603 -0.109519 0.038211 -0.047777 0.038860 0.014145 0.008027 -0.014541 0.000611  
0.068174 0.053587 -0.064898 -0.027802 -0.024894 -0.060724 0.097936 -0.004020 -0.043476 -0.023633 0.008649 -0.036360 -0.051056 0.021014  
0.081477 -0.025574 -0.018229 -0.013331 -0.022113 -0.016889 0.078723 0.086751 0.005376 -0.062238 -0.006484 -0.043964 0.010986 -0.055785  
-0.047832 -0.057567 -0.034874 0.092484 -0.036204 -0.045700 0.001005 0.077931 0.056667 -0.046882 0.030266 -0.041119 -0.023879 -0.000094  
-0.036524 0.041541 -0.022204 0.086921 -0.083770 0.078819 -0.050431 -0.031518 -0.094515 -0.007361 -0.058214 -0.052616 0.011341 -0.049672  
-0.029700 -0.084534 -0.000534 0.083331 0.032991 0.018749 -0.098091 0.039816 0.076170 -0.102414 -0.032362 -0.027866 -0.009622 -0.008529  
0.008914 0.055946 -0.096840 -0.049050 -0.058506 -0.075733 0.106976 0.024963 -0.022188 0.005061 0.011881 -0.042382 -0.000984 -0.027940  
0.032241 -0.012752 -0.053879 0.034011 -0.029262 0.062140 -0.072810 -0.037937 -0.004923 -0.056699 -0.015334 0.009616 0.015877 -0.015856  
-0.018517 -0.017592 0.015960 0.045395 0.013514 0.027839 -0.039385 -0.166548 -0.012730 0.063779 -0.024961 -0.038918 0.014923 -0.012746  
-0.031340 -0.040901 -0.098288 -0.008141 -0.008668 -0.102839 -0.037489 0.030827 0.039474 0.065403 -0.050875 -0.052094 0.038879 0.013879  
-0.088945 0.034156 -0.138490 0.025058 0.088101 -0.027143 -0.035365 0.051513 -0.017386 -0.051909 -0.041200 -0.040420 0.028119 0.018377  
-0.054952 -0.009254 0.032754 -0.054833 0.017165 0.094638 0.039134 -0.007061 -0.015695 -0.064555 -0.027723 -0.010464 -0.035240 -0.053229  
0.014024 -0.086885 -0.007093 -0.074651 -0.002710 -0.022362 -0.012291 -0.019984 0.036397 -0.035715 0.031428 0.009261 -0.009939 0.011471  
-0.085990 -0.019292 0.021392 -0.065179 0.093492 0.001226 -0.016785 -0.039778 0.007594 0.069807 0.027531 -0.024131 -0.018228 0.010081  
0.018077 0.031281 -0.102928 0.027975 -0.001034 -0.009461 -0.003793 0.028251 0.003093 -0.071370 0.009295 -0.060760 -0.007732 -0.019299  
-0.039736 0.016926 0.030346 0.045446 0.020321 0.034484 0.035927 -0.046321 -0.026086 -0.052872 0.023236 0.013604 -0.017176 -0.016342  
-0.101593 -0.035650 -0.013449 0.033846 -0.065925 0.075463 -0.005651 -0.002714 0.096126 -0.018838 0.025090 -0.040023 0.002972 -0.060287  
0.074827 0.020063 -0.034720 0.028580 -0.050656 -0.098116 0.029419 -0.050209 -0.050165 0.034809 -0.040544 0.001293 -0.025795 0.008623  
0.029300 -0.024518 0.027435 0.020092 0.025209 -0.096432 -0.000982 -0.079945 -0.032735 -0.050894 0.007723 -0.044901 -0.009589 -0.053878  
-0.084905 -0.053136 0.036843 0.055750 0.009769 -0.073944 0.052600 -0.063609 -0.115441 -0.078903 0.023983 -0.015578 0.037752 0.006611  
-0.022737 -0.071806 -0.033541 0.010602 -0.015202 -0.024689 0.034579 -0.035223 -0.002861 0.070926 0.015209 0.014486 0.014612 -0.055729  
0.062635 -0.078617 -0.072891 0.050051 -0.067392 -0.040181 0.058336 -0.071089 0.014153 -0.033130 0.007582 -0.042116 -0.006660 0.005479  
0.021664 0.057579 -0.062721 0.094478 -0.069112 0.037815 -0.047580 -0.089372 0.039236 -0.026936 -0.041213 -0.007148 -0.024163 -0.041089  
-0.050451 0.016088 -0.107647 0.049640 0.051840 0.033493 -0.076764 -0.031239 0.090634 -0.001846 -0.038482 -0.020748 -0.038417 -0.001321  
0.074165 0.074978 0.046635 -0.048018 0.002711 0.003096 0.012217 0.000991 -0.100989 -0.095493 -0.053957 -0.008595 0.035765 0.004391  
-0.014897 0.026591 0.045938 -0.048861 -0.108505 0.032039 -0.006203 0.000527 0.078404 -0.061831 0.024253 -0.036550 -0.049743 0.009160  
0.012183 0.025368 -0.078842 -0.015855 0.017657 -0.034212 -0.056054 0.036905 -0.060230 -0.068329 -0.050138 -0.054271 -0.023970 -0.011840  
-0.007345 0.097249 -0.091965 0.018908 0.033251 0.022585 -0.077520 -0.004261 -0.056344 -0.033729 0.033971 -0.034099 -0.038931 -0.045939  
-0.005546 0.047498 0.073933 -0.086465 0.000828 -0.014456 0.059396 -0.070047 0.035350 -0.012200 -0.043135 -0.052568 0.010148 0.023858  
-0.047234 -0.024788 -0.038303 -0.059548 0.008694 -0.037430 -0.061362 -0.035301 -0.003237 -0.051027 -0.030991 -0.008086 -0.019761 -0.019900  
0.019754 -0.119235 -0.028722 -0.012367 0.032219 -0.011096 -0.069479 -0.026155 -0.105587 0.086829 -0.015449 -0.044255 -0.007636 0.016488  
-0.019210 -0.042973 -0.028385 -0.055815 -0.039226 0.009234 0.017826 -0.000268 -0.065787 0.005416 -0.027208 -0.050507 0.016074 0.012336  
0.073140 -0.068051 -0.081767 -0.091427 -0.014521 0.055045 -0.033623 -0.018536 -0.014286 -0.012094 0.009902 -0.027631 -0.032232 -0.006661  
-0.063724 -0.024537 0.007729 0.109939 -0.112659 -0.116639 -0.054559 0.098537 -0.096890 0.040113 0.025533 -0.023115 0.010928 0.037320  
-0.030410 0.042071 -0.072713 0.017441 0.047517 0.015653 -0.094055 -0.015941 -0.154480 -0.031935 0.007582 0.016718 -0.061687 -0.018147  
0.051277 -0.011574 -0.096192 0.000775 0.050384 -0.074749 -0.036639 -0.039058 0.098309 0.116749 -0.051214 0.022303 -0.019523 0.027130  
-0.029650 0.024783 -0.047473 -0.103529 0.026180 0.087092 0.012295 0.001787 0.002478 0.002318 0.010735 -0.036888 0.011396 0.022579  
-0.015781 0.003855 0.023128 0.010448 -0.114406 -0.029976 -0.037337 -0.029548 0.001552 0.095707 -0.051501 -0.037979 -0.018777 -0.046954  
-0.107558 0.068029 -0.123912 -0.013455 0.074537 -0.030096 -0.005123 0.046760 -0.072810 0.033388 0.014605 -0.045452 0.016024 0.007832  
-0.037128 -0.025638 0.008968 -0.018882 -0.015617 0.006681 0.030476 -0.033410 -0.013916 0.031298 0.027447 -0.031642 0.025172 0.018855  
-0.054787 -0.049773 -0.076073 -0.005335 -0.023934 -0.019474 -0.033539 0.032548 -0.005689 -0.056986 -0.070429 -0.030102 0.003582 -0.012056  
-0.057683 0.016868 -0.125078 0.098198 0.021850 0.003385 -0.055139 0.024979 -0.052282 0.064587 0.011180 0.037489 -0.015495 0.019007  
0.001621 -0.043529 -0.088029 -0.022519 0.055552 -0.099646 0.049037 0.025501 0.031421 0.051081 -0.043452 0.003772 -0.020487 0.004639  
0.005514 0.070984 0.047923 0.083831 0.006221 -0.100053 -0.074909 0.008242 -0.037358 -0.034697 -0.047030 -0.009890 0.040394 -0.050436  
0.079976 -0.088999 0.032568 -0.011074 0.004706 0.014200 -0.091415 -0.076713 -0.052807 0.035380 -0.031024 0.013716 0.017870 -0.039541  
0.029494 -0.076119 0.003976 -0.068542 -0.040199 0.030223 -0.004120 0.044317 -0.025979 -0.041032 0.015431 0.022636 0.015208 0.022748  
-0.089388 -0.020271 -0.081018 -0.062843 -0.007479 0.040788 -0.026445 -0.029357 0.008593 0.023760 0.030851 -0.045178 -0.049932 0.001910  
0.034149 -0.047770 0.004373 -0.010854 -0.023297 0.026417 -0.077524 0.006146 0.032874 -0.092443 0.020229 0.026538 -0.024410 -0.010096  
0.058846 -0.038244 -0.051027 -0.018258 0.058352 -0.048745 -0.063782 -0.000544 0.038262 0.046364 -0.051379 -0.050884 -0.027214 0.037592  
-0.050940 -0.004235 0.029520 0.028646 0.040484 -0.042146 -0.025627 -0.002735 -0.047477 0.036097 0.018556 -0.011505 -0.052835 -0.028455  
-0.016043 -0.024284 -0.053974 -0.042743 -0.111515 -0.011384 0.030568 0.015838 0.055927 -0.005999 -0.025049 -0.060180 0.017736 -0.014706  
-0.067189 0.025543 0.011556 -0.033852 0.023905 -0.054680 0.041054 0.039108 -0.107274 0.028694 -0.058815 -0.028348 -0.000329 0.014940  
-0.027182 0.032989 0.057137 0.015985 -0.044355 0.055047 -0.025240 -0.001962 0.005476 -0.046805 -0.036264 0.031359 0.042546 0.008922  
0.074381 -0.112793 -0.036685 0.048617 -0.139198 0.013768 -0.044000 0.031196 0.034614 0.034696 0.009023 -0.049559 -0.008334 -0.008954  
0.065334 0.056098 -0.039168 -0.029316 -0.045820 0.006857 -0.040414 -0.053518 -0.032697 0.043457 -0.037233 0.035171 -0.041055 -0.016758  
-0.053560 -0.003146 0.046444 0.043896 -0.069839 -0.087050 0.018839 0.048170 -0.073245 0.079934 -0.053179 -0.055638 -0.012584 -0.052627  
-0.021639 -0.014327 -0.059026 0.000362 0.008806 0.020457 -0.116699 -0.033674 0.068175 -0.010725 -0.013853 0.015966 -0.027652 0.014862  
0.015383 -0.057019 0.071833 0.018841 -0.044431 -0.042920 0.011149 -0.027193 -0.010689 -0.046854 -0.058651 0.033945 0.012625 -0.045945  
-0.012344 -0.041453 -0.002678 -0.025494 -0.073601 -0.048814 -0.030508 -0.044751 0.079016 0.041952 0.003302 -0.001734 0.003363 -0.044462  
0.063986 -0.036456 0.015296 -0.091863 -0.014487 -0.118248 0.005826 0.059100 -0.027918 -0.016535 -0.033966 -0.042856 -0.061614 0.030514  
-0.034100 -0.037489 -0.033046 0.025420 -0.047869 0.042022 0.019624 -0.038858 -0.034058 0.037272 -0.047483 -0.062097 0.022812 -0.064725  
-0.063856 0.018576 -0.048987 -0.063961 0.035169 0.131266 0.029704 -0.089653 -0.040520 0.045971 -0.019978 -0.003965 0.024664 -0.060792  
-0.053647 0.075360 0.010903 -0.038011 0.069406 -0.031760 -0.034470 0.029402 -0.041066 -0.071174 -0.045699 -0.003959 0.025408 -0.014320  
0.099025 0.044856 -0.129090 -0.037679 -0.026745 0.009168 0.075534 -0.036523 0.013258 -0.072574 -0.049239 -0.009230 -0.050213 0.019023  
0.004203 0.070045 -0.045519 0.081057 -0.008563 0.031447 -0.046041 -0.081550 0.029962 0.010487 0.032751 -0.039970 -0.044163 0.006123  
0.023959 0.058142 -0.034698 0.016019 0.034163 -0.063951 -0.057252 -0.002172 -0.061344 -0.026909 -0.030858 0.029790 0.034413 -0.034476  
-0.045414 0.081406 -0.039806 -0.026953 0.045883 0.015429 -0.040347 -0.001402 -0.064433 -0.022305 -0.026607 0.037536 -0.011369 0.044522  
0.007069 0.035517 -0.064370 0.010184 0.006479 -0.050222 0.067509 0.037326 0.005741 -0.073663 -0.023041 0.016243 0.016589 -0.017616  
-0.068136 -0.001122 -0.090074 0.106964 -0.089991 0.072824 -0.067084 0.080071 -0.041303 -0.128006 0.029072 -0.024583 -0.040576 -0.027565  
-0.036994 -0.081664 0.004518 -0.060586 0.018564 -0.000766 -0.020210 -0.078164 0.040179 0.065036 -0.035834 -0.031603 -0.046574 0.002499  
-0.036409 -0.016303 0.037663 0.063657 -0.048977 0.121653 -0.073257 -0.004287 0.086022 -0.022474 -0.022646 -0.005726 -0.007906 -0.004733  
-0.100512 -0.037341 0.006388 0.062078 0.040417 -0.056809 -0.029749 0.052213 -0.000955 0.059856 0.013505 -0.045616 0.021963 0.023768  
0.106802 -0.064954 -0.007237 -0.053650 -0.011939 0.026210 -0.075097 -0.070705 -0.067575 -0.042527 0.004265 0.013698 0.030967 -0.046582  
0.003410 0.058592 -0.053022 0.030220 -0.081813 0.090385 -0.122079 0.009192 -0.035897 0.082897 -0.029904 -0.023893 0.020740 -0.020614  
-0.058538 -0.111174 0.005048 0.007231 0.060827 0.037205 0.029682 -0.036780 0.004642 -0.071611 -0.041024 -0.057575 0.016117 -0.022452  
-0.060924 0.024043 -0.095872 -0.020997 0.008973 -0.019065 0.001095 -0.054242 -0.049444 0.020752 -0.029832 0.034744 0.035255 0.005992  
0.020880 -0.049173 -0.051716 -0.038001 0.057484 0.048551 -0.064347 0.009759 0.075724 0.030272 -0.042232 -0.038540 -0.019862 -0.030488  
-0.068179 -0.034409 -0.057051 -0.035472 0.019110 -0.032281 0.012274 -0.045227 0.033033 -0.044715 -0.008080 -0.026727 -0.053623 -0.047273  
-0.005540 -0.065108 -0.001862 -0.041355 -0.110746 -0.034741 -0.050306 -0.019464 0.018785 0.051371 -0.064065 -0.028047 0.015858 0.006583  
0.025728 -0.011596 -0.030847 -0.028675 0.034526 -0.041716 -0.042873 -0.029296 0.004044 0.031070 0.014010 0.024726 -0.002697 -0.041864  
0.065390 0.010450 -0.053439 0.059294 -0.090885 0.029737 0.029867 0.037489 -0.043911 -0.094917 0.036318 -0.008056 -0.013101 -0.000554  
-0.074466 0.068495 -0.037143 -0.115875 -0.012536 0.083576 -0.013878 0.037160 0.109210 -0.030868 -0.043022 0.012571 -0.041896 -0.027943  
-0.035562 0.001487 0.010857 -0.077834 0.031378 -0.025659 -0.037778 0.035753 0.003114 -0.029185 0.019687 -0.037470 -0.016097 0.026074  
-0.077237 -0.059670 0.005784 0.053057 0.017135 0.031409 0.016361 -0.021102 0.012232 -0.057520 0.010864 -0.040992 -0.056902 0.024723  
-0.042400 -0.022506 -0.056529 -0.004088 0.006997 0.027801 0.005545 0.007376 0.016006 -0.041222 0.013337 -0.026284 0.024155 0.027294  
0.035464 -0.035041 -0.055116 -0.070574 -0.018996 -0.043361 -0.045336 -0.008720 0.028987 0.029568 -0.016542 -0.050399 -0.025567 -0.040522  
-0.033867 -0.044817 -0.070950 -0.062418 0.104177 -0.054349 0.071626 0.033872 -0.137121 -0.035554 0.000918 -0.030631 0.030096 -0.015142  
-0.050473 -0.017185 -0.000488 -0.055463 0.053803 -0.004550 -0.044766 0.083745 -0.076307 -0.099642 0.002680 -0.055064 -0.003437 0.013487  
-0.054141 0.070081 -0.048867 -0.071341 0.074194 -0.075036 0.019992 -0.037951 -0.062769 0.026320 -0.014605 -0.017285 -0.042386 0.014264  
0.033521 0.049557 0.034838 0.090059 -0.089475 -0.090811 -0.094687 0.021255 0.053103 -0.126776 -0.035139 -0.028287 -0.008511 -0.053651  
0.020959 -0.023937 0.124579 0.093193 -0.015829 -0.001083 -0.066983 -0.065939 -0.005348 -0.043485 -0.003766 -0.021700 0.020318 0.030930  
-0.028456 0.009443 0.045554 -0.069262 -0.032645 -0.046285 0.006467 -0.048453 0.007720 -0.031091 -0.050933 -0.017825 0.024651 -0.039344  
-0.072006 0.013135 0.112275 -0.030942 -0.007756 0.054599 -0.040413 -0.016845 -0.064077 0.020518 -0.017319 -0.053203 -0.026722 -0.001976  
-0.057433 -0.002624 0.034226 -0.105069 -0.005453 -0.076618 -0.019121 0.009336 0.063294 0.040330 -0.048346 -0.024424 -0.016026 -0.061031  
-0.047730 0.041937 0.005315 0.018529 0.010822 -0.021936 -0.066552 -0.095544 0.009993 0.026159 -0.018547 -0.045834 -0.023598 -0.026013  
-0.010945 -0.023251 -0.022530 0.005405 0.024740 0.014149 0.028994 -0.048098 0.018489 0.057241 -0.012102 0.011350 0.032781 -0.017311  
0.054621 -0.061883 0.048074 0.022241 -0.107088 -0.056783 0.106630 0.007032 -0.082258 -0.045195 -0.039842 0.030632 -0.045534 0.031753  
-0.026758 0.025083 0.029870 0.053832 -0.027031 -0.042680 0.032482 -0.055851 -0.049834 -0.028269 -0.007925 -0.001843 -0.022651 0.005950  
0.018561 0.074941 -0.003808 -0.007479 0.031918 0.038950 -0.025181 -0.003306 -0.033909 -0.052716 0.042453 0.042000 0.025411 0.033219  
-0.025156 -0.012423 -0.004381 -0.069177 0.016295 -0.042383 -0.002453 -0.024134 -0.006929 0.032828 -0.038116 -0.039483 0.004272 0.005218  
-0.023440 0.008267 -0.085247 0.036341 0.013731 0.011514 0.094208 -0.037988 -0.011653 0.034099 -0.008816 -0.047350 0.003043 -0.003958  
-0.061825 0.062176 0.045673 0.001107 -0.134185 -0.050416 -0.032931 -0.049343 0.065251 0.072462 0.001871 0.021266 -0.010115 0.004569  
0.030879 0.024160 -0.000300 -0.091544 -0.024693 -0.130827 0.027022 0.013592 -0.036661 0.078038 -0.061291 -0.012288 -0.042516 0.025326  
-0.058046 -0.013557 -0.058142 -0.049401 -0.045462 0.024200 0.012740 0.007380 -0.066681 -0.052677 -0.008368 0.001233 -0.036652 -0.056438  
-0.090161 0.077275 -0.059809 -0.053058 0.087533 0.018293 0.041665 -0.048188 0.076948 0.058592 -0.008831 0.002535 0.035181 -0.010846  
-0.077229 -0.028170 0.024288 -0.066663 -0.002313 -0.022377 0.042810 0.031799 0.036810 -0.057243 0.026464 -0.033947 -0.033217 -0.022292  
-0.016387 0.066685 0.047956 -0.009844 0.017329 -0.077291 0.018349 -0.078077 0.003997 0.002997 -0.026911 -0.000653 -0.057001 -0.016588  
-0.074616 0.050359 -0.049916 -0.097860 -0.003640 -0.107719 0.025814 0.076732 -0.108001 0.117299 -0.002372 0.014356 -0.053656 -0.010870  
-0.032740 0.047363 -0.133504 0.001946 0.025899 -0.073451 0.045218 0.061608 -0.045449 0.014170 0.026082 0.023585 -0.035016 -0.049339  
0.042945 -0.026704 0.041379 0.046928 -0.108653 0.022131 -0.071873 -0.008336 0.070264 0.087929 -0.054548 0.023950 -0.047257 0.035443  
0.032392 0.004893 -0.084793 -0.079777 0.027566 0.022469 -0.011419 0.029581 -0.107255 -0.067569 -0.028507 -0.051388 -0.026029 0.017404  
-0.073772 -0.074398 0.109369 -0.053426 0.031257 -0.023724 0.079076 -0.042615 -0.104661 -0.068200 0.019160 -0.021705 0.010824 -0.022221  
-0.076339 -0.160989 0.060372 0.051782 0.004370 -0.044948 0.031692 0.020035 0.035833 -0.018138 0.023261 0.003879 -0.033373 -0.055099  
-0.106325 0.031362 0.031878 0.025188 -0.084747 0.052727 0.033708 -0.061872 -0.004652 -0.007889 -0.018730 0.029758 -0.061216 -0.041225  
0.080566 -0.079255 -0.112389 0.076459 -0.074629 0.013267 -0.076500 0.010752 0.091456 0.037952 -0.007490 0.011076 0.019261 0.004797  
0.038767 0.020063 -0.081434 -0.100018 0.056544 -0.008904 -0.046595 0.049158 -0.086777 0.012614 0.006331 -0.035626 -0.027022 0.026789  
0.048013 -0.139179 0.062216 -0.017386 -0.048302 -0.034435 -0.017207 0.023965 0.015490 0.039061 0.023961 -0.051953 -0.005493 -0.065449  
0.030969 -0.103570 0.038396 -0.128088 0.065688 -0.122325 -0.014798 0.065449 0.067561 0.074647 0.005097 -0.056139 -0.031258 -0.008026  
0.031850 -0.018865 0.100632 -0.007720 0.044919 -0.018816 0.041331 -0.017332 -0.071707 -0.043712 -0.046457 -0.009864 -0.020997 0.009199  
-0.029812 0.001228 -0.009458 -0.064536 0.054785 0.006128 -0.056555 -0.104544 -0.003165 0.082732 -0.028326 0.016017 -0.010798 0.024097  
-0.051064 0.012033 -0.064806 -0.024270 0.050727 0.102107 -0.060069 0.055007 -0.014547 -0.080519 0.010181 0.042204 0.009450 -0.028848  
-0.010642 -0.085764 0.007709 -0.030844 -0.028539 0.049720 -0.008087 -0.032629 -0.070105 -0.028695 -0.009099 0.017630 -0.054316 -0.056715  
-0.062508 -0.020556 -0.043806 -0.001794 0.018055 -0.021709 -0.024087 -0.025543 -0.084594 -0.015362 0.018898 0.032447 -0.052164 -0.047328  
0.046937 -0.008347 -0.056564 0.031749 -0.026460 -0.030302 -0.040168 -0.031679 0.033320 -0.051157 -0.029860 0.027975 -0.014616 -0.020852  
-0.069700 0.023813 0.072093 -0.065521 0.049420 0.033068 -0.101183 -0.074926 0.080253 -0.072838 0.015641 -0.051426 0.034033 0.007140  
-0.041170 0.015965 0.016936 -0.065666 -0.076149 -0.069792 -0.016517 0.051039 -0.046209 0.078464 0.044811 -0.001333 0.039150 -0.030147  
0.026720 -0.091420 0.037539 -0.033276 -0.048727 0.006770 0.079740 -0.011832 0.017958 0.050230 0.028377 -0.014889 -0.048680 -0.000951  
-0.072101 0.049180 -0.059067 0.024111 -0.079254 -0.065390 -0.006208 -0.008038 -0.100604 0.033845 -0.066665 -0.037956 -0.012381 -0.044795  
-0.112640 -0.091089 0.076456 0.026753 -0.084219 0.095501 0.033317 -0.067528 -0.107353 -0.068849 0.020219 -0.034010 0.000565 -0.009408  
-0.000385 -0.032397 0.025066 0.009383 0.021827 -0.069710 -0.052608 0.036821 0.023709 0.005959 -0.067937 -0.008975 -0.000616 0.013181  
0.037949 -0.040517 0.028278 0.007353 -0.061837 -0.036662 -0.103069 0.080012 -0.027836 0.048947 0.000783 -0.036930 0.000945 -0.025238  
0.035367 -0.020878 -0.061730 -0.146120 0.052219 0.097472 0.045799 -0.011444 0.073134 0.011437 -0.023526 0.015897 -0.058416 0.015452  
0.042329 0.019238 0.062089 -0.107698 0.007188 -0.105133 -0.056046 -0.038066 0.035450 -0.055370 0.021919 0.002429 0.003543 -0.026550  
0.041137 -0.069746 -0.035384 0.022038 -0.088012 0.110913 -0.123244 -0.011345 0.086074 -0.013445 0.012589 -0.055962 0.017233 -0.034569  
-0.083933 -0.012948 -0.023020 0.078959 -0.039377 -0.094237 0.001418 0.068332 -0.105960 0.042692 -0.049649 -0.020711 -0.027238 0.025143  
-0.044894 -0.002484 0.094337 0.089325 -0.018119 -0.059048 -0.034148 0.081238 -0.112035 -0.063682 -0.022625 -0.029157 -0.041807 -0.010201  
-0.069651 -0.066523 -0.054538 -0.088356 0.066587 0.076675 -0.011371 -0.017276 0.068636 0.016904 -0.034767 -0.032146 -0.050587 0.015107  
-0.022844 -0.032728 -0.038104 0.032033 -0.036454 0.020920 0.025220 -0.013264 0.036127 -0.052278 0.044027 0.023790 -0.001391 -0.000484  
-0.006048 0.035586 -0.077655 -0.010836 -0.029366 -0.011347 -0.057630 0.102823 -0.098069 -0.040445 -0.009621 0.033157 -0.034370 -0.014853  
0.004599 -0.055588 0.070336 0.037894 -0.016939 -0.022956 0.019688 -0.028730 -0.113099 -0.004431 0.014384 -0.056387 0.015931 -0.048367  
0.033587 0.024900 0.026939 -0.102932 0.132054 -0.020407 -0.040347 -0.052648 0.065434 -0.087700 0.013722 -0.019689 -0.012790 0.019790  
0.030335 -0.048145 0.019000 0.028792 -0.010659 0.014067 -0.036803 0.026365 0.038172 -0.037277 0.023578 0.016279 0.002059 -0.018937  
-0.045418 0.036827 -0.070503 0.134003 0.012898 0.056712 -0.075252 -0.086894 -0.101201 0.061262 -0.030027 0.021402 0.020822 -0.054410  
-0.080088 0.038853 -0.100424 -0.065549 0.098590 -0.058672 0.121085 -0.006928 -0.103856 0.069478 -0.003935 -0.051854 -0.012463 0.030049  
-0.038482 -0.077372 0.038824 -0.023713 -0.018739 -0.049022 -0.034513 -0.069904 0.032743 0.009289 0.019830 -0.025876 -0.054605 -0.009059  
0.017668 0.035827 0.019737 0.032149 -0.138930 -0.005712 0.077101 -0.078879 0.051202 -0.127144 0.003715 -0.043446 -0.063215 -0.041895  
-0.007857 -0.043818 0.015759 0.068134 -0.047427 -0.031752 -0.046873 0.044872 -0.064415 0.038875 0.002143 -0.014312 0.040828 0.022391  
-0.003179 -0.061491 -0.042143 -0.072179 -0.050700 -0.013735 0.021592 0.057211 0.026456 -0.000239 -0.047889 -0.011252 -0.058094 -0.000036  
-0.103532 -0.020104 0.068576 0.047906 0.030757 -0.016368 0.044059 -0.076664 0.035892 -0.046409 0.031680 -0.031667 -0.049729 -0.010763  
-0.024652 -0.068672 -0.084938 0.012633 0.043554 0.100398 0.036112 -0.068980 -0.077451 0.038212 -0.047717 -0.029882 -0.033664 0.023079  
0.101292 -0.054740 -0.088610 0.055268 -0.086176 0.030668 -0.033743 -0.011053 -0.056237 0.028993 -0.003025 -0.037380 -0.049304 0.006350  
0.035404 -0.113658 0.067163 -0.047019 0.026321 0.048986 -0.025039 -0.029103 0.012820 -0.057476 0.002544 -0.010232 0.025888 -0.017971  
-0.039196 0.024670 -0.020043 -0.082072 0.084030 -0.028807 0.078589 -0.080969 -0.092752 -0.015225 -0.011764 -0.046373 -0.013385 -0.041130  
0.067396 0.046853 0.029496 0.040423 0.022276 -0.067599 -0.150345 0.034148 0.006824 -0.021120 -0.030655 -0.019844 -0.018601 0.033857  
0.044329 -0.056893 -0.050518 0.080448 -0.036584 0.004472 -0.113866 -0.012800 -0.087019 0.051399 -0.044503 0.019020 -0.011870 0.004264  
-0.022270 0.042693 -0.015493 -0.053730 -0.025905 0.072087 -0.028277 0.047454 0.085480 0.063214 -0.001160 -0.046799 -0.017347 0.033265  
0.056626 0.082244 0.044307 0.028632 -0.109272 -0.096108 -0.053309 0.088269 -0.039793 -0.056824 -0.035082 -0.001734 -0.019439 0.005800  
0.010894 0.033082 0.030574 0.000223 -0.017348 -0.028951 0.030911 -0.037860 -0.001043 -0.013353 -0.050406 -0.025982 0.040214 -0.023700  
0.011847 0.046346 -0.046022 0.011741 -0.047266 -0.002842 -0.037666 -0.001002 -0.131702 -0.107421 -0.060287 0.030046 -0.058991 0.011916  
-0.046975 0.056483 0.147181 -0.031260 -0.050284 0.003086 0.016837 0.055204 0.065406 -0.025204 -0.057924 -0.021434 -0.003237 0.012839  
-0.073280 -0.005552 0.029545 -0.020924 0.033848 -0.123783 0.043026 0.014042 0.087178 0.067882 -0.040419 -0.036076 0.031186 0.011981  
-0.089508 -0.017547 -0.016863 -0.012541 -0.008024 -0.019633 -0.056180 0.112103 -0.056395 -0.015299 0.006306 -0.025685 -0.052930 -0.008027  
-0.038936 0.031036 -0.026806 0.075736 0.042867 -0.027921 0.024921 0.027108 0.019452 0.006946 -0.041887 -0.036092 0.045230 0.046612  
0.014281 -0.015093 -0.045067 0.058191 -0.085899 -0.040220 -0.000985 -0.004626 0.030970 -0.020510 -0.034432 0.000710 -0.021235 -0.027960  
-0.035555 -0.006846 -0.055667 -0.051086 -0.046644 0.001571 0.005104 0.040831 -0.050585 0.042230 -0.036199 0.028582 0.020842 -0.009549  
-0.026921 -0.088937 0.017758 0.069355 0.000032 0.052232 -0.036060 -0.020307 -0.045896 -0.017617 0.023317 0.007653 -0.031602 -0.004297  
-0.010732 -0.034918 0.014787 0.051461 0.040528 0.080569 0.036069 -0.007664 -0.097473 -0.112604 0.035023 -0.029428 -0.017036 0.018701  
0.034246 -0.089380 0.104933 -0.109536 -0.012463 -0.035191 0.025629 0.044633 0.002592 -0.074506 0.011434 0.009344 -0.056672 0.009255  
0.031687 -0.069989 -0.043690 0.008491 -0.049961 0.128983 0.068681 0.038251 -0.128001 -0.100711 -0.021414 -0.025568 0.030389 0.035074  
-0.024453 -0.001862 0.037269 -0.021812 0.048383 0.044026 -0.079485 0.076100 -0.129991 0.004498 -0.024744 0.038495 -0.041537 -0.003949  
-0.007416 0.002150 0.081490 -0.035085 -0.046127 0.028016 -0.029922 0.013678 0.010435 0.040544 0.043445 -0.005560 0.042155 -0.041798  
0.047184 -0.015286 -0.007546 0.058419 0.059092 -0.040807 0.019605 -0.022884 0.030955 -0.106778 -0.054805 -0.004297 0.041201 0.038419  
-0.037618 -0.104915 -0.011745 0.001882 0.067323 -0.050785 -0.058464 0.093310 0.038939 0.055617 -0.063898 -0.032150 -0.048033 -0.053688  
0.051742 0.012826 -0.065986 -0.069633 0.016249 0.065557 -0.053636 0.089489 -0.110724 -0.042494 -0.011490 -0.054292 0.015190 -0.050254  
-0.086120 0.026629 0.028025 -0.038002 0.091754 -0.010400 0.052012 -0.140881 -0.031689 0.050251 0.017580 -0.014217 -0.048282 0.026912  
-0.016849 -0.042979 -0.004554 -0.065878 -0.071270 0.004455 -0.012616 -0.014812 0.015791 0.018091 -0.046800 -0.049546 -0.013356 0.032708  
-0.002411 0.102002 0.001213 -0.048693 -0.105455 -0.025882 0.032672 0.012984 -0.122574 -0.049576 -0.012530 0.027599 -0.046602 -0.017678  
0.014757 0.016676 0.144011 0.038065 0.004171 -0.018183 -0.014265 -0.034268 -0.088230 -0.016137 -0.061712 -0.008641 0.034146 0.030657  
-0.004235 0.054379 0.014824 0.079692 -0.022075 0.004114 -0.062322 0.036270 -0.089451 -0.050857 -0.035924 0.008232 -0.052044 -0.041068  
0.014369 -0.041222 0.010251 0.006616 -0.121217 0.015144 0.012919 -0.063603 -0.012121 0.110901 0.025272 -0.026944 -0.019281 -0.049283  
-0.059373 0.023585 -0.063770 0.044918 0.020602 -0.006996 0.053591 -0.052354 0.004162 0.041580 -0.041249 -0.048678 -0.029343 -0.000586  
-0.066751 0.032167 -0.090052 0.038626 -0.003116 0.092470 -0.113072 -0.025765 0.096820 0.027995 0.027453 -0.053696 -0.019092 -0.047127  
-0.054078 -0.003806 -0.135939 0.027673 0.010620 0.068690 0.004678 -0.046363 0.030272 0.077130 0.014683 0.017284 -0.052730 0.025202  
0.035170 0.040669 -0.085609 -0.085931 -0.117313 0.058238 -0.046658 0.038704 0.034399 0.069720 0.015738 -0.046977 -0.041819 -0.042222  
-0.000282 0.033717 0.000752 0.003570 -0.111431 -0.039685 -0.055556 -0.021375 -0.040418 -0.041789 -0.059446 -0.034094 -0.048047 -0.049724  
-0.057932 -0.060453 0.065940 -0.058722 0.038981 0.060105 0.030474 -0.053043 0.054187 -0.081788 0.034137 0.041480 -0.048847 -0.025314  
0.033248 -0.065594 0.023282 -0.118923 -0.027977 0.012979 0.068938 -0.043863 0.022336 0.073031 -0.019924 0.034864 0.014502 0.009558  
-0.026837 -0.063231 -0.051792 0.073134 0.066359 0.040233 -0.015411 0.019002 -0.014050 0.032153 -0.004720 -0.036371 0.023464 -0.037578  
-0.008264 0.044131 0.000584 -0.071496 -0.002413 -0.047898 0.013555 0.020095 0.049183 -0.113284 -0.049649 -0.000084 -0.033760 0.017506  
0.060203 0.053422 0.034294 0.012631 -0.158884 -0.034583 -0.078273 0.034988 0.011794 0.046420 0.000547 -0.012254 -0.013965 -0.041891  
-0.038857 -0.035382 -0.088195 -0.010024 0.025152 -0.000220 0.008903 0.011798 -0.098674 0.027984 0.019663 -0.034385 -0.032544 -0.015732  
0.005533 -0.013132 -0.068445 0.000867 -0.011716 0.039116 -0.042118 -0.008606 -0.021201 -0.025116 -0.052384 -0.000904 -0.068433 -0.062268  
-0.072842 0.037522 -0.058279 -0.091319 -0.083204 0.020650 -0.084835 0.098747 -0.060908 0.082751 0.016186 -0.006789 0.015057 -0.047576  
-0.011946 -0.016123 0.039910 -0.021740 0.045575 0.016502 -0.072792 -0.040791 0.057502 0.033506 -0.039807 -0.062808 0.019136 0.022270  
0.006081 0.031090 -0.033421 0.020722 -0.053087 -0.024652 -0.011770 0.022729 -0.036953 0.039905 -0.057820 -0.009398 -0.019054 -0.059975  
-0.056863 0.030622 -0.022703 0.009099 -0.066975 0.068145 0.039744 0.043341 0.006379 0.062760 -0.047509 0.017749 -0.042333 0.047540  
0.065981 -0.046139 -0.047774 0.081182 0.062567 0.071584 -0.079657 -0.022051 0.017883 -0.068574 -0.035828 0.035776 -0.045400 -0.035717  
0.018797 0.000649 -0.011849 -0.072901 0.036221 0.057122 0.013981 -0.007261 -0.072494 -0.098673 0.015811 0.000861 -0.037562 0.018180  
0.064418 0.061664 -0.059919 -0.009858 -0.048218 -0.066682 -0.006449 -0.075137 -0.061095 -0.056333 -0.045437 0.010409 0.009684 0.018302  
0.029226 0.012914 0.001972 -0.069005 -0.023127 0.055079 -0.030552 -0.006244 0.117853 -0.004084 0.009433 -0.033205 -0.037455 -0.047486  
0.011942 -0.066831 0.064857 -0.047433 -0.028992 -0.005108 -0.010657 0.012890 -0.012062 -0.086800 -0.004201 -0.036598 0.016737 -0.064113  
0.022941 0.002721 0.025011 -0.025573 0.034300 -0.051976 -0.017444 0.025484 0.027363 -0.040790 0.023328 0.029986 -0.010053 0.026085  
0.031962 -0.074265 -0.000287 -0.047017 0.024333 0.084595 0.038215 0.051873 -0.111068 -0.038244 -0.003451 -0.027620 0.013655 0.005344  
0.002400 0.031234 -0.064659 -0.004901 0.023927 -0.075937 0.005184 -0.039602 -0.054494 -0.061462 -0.009060 -0.011310 -0.019049 -0.038982  
-0.045024 0.047853 -0.011643 -0.045660 -0.013421 -0.014607 0.039521 0.013599 -0.014196 -0.039956 0.009237 0.045211 0.034749 0.008526  
-0.021769 0.045004 -0.012161 -0.044829 -0.093024 0.015262 -0.001334 0.082774 -0.065570 -0.076292 0.009148 -0.039650 -0.018654 -0.057183  
-0.001963 0.050795 0.013877 -0.048890 0.041377 0.012554 -0.043681 0.089461 0.022726 -0.105677 -0.004661 0.002999 -0.018367 0.033844  
-0.039175 0.033205 -0.065718 0.096322 0.020266 -0.026763 -0.024660 0.052425 -0.089069 -0.016007 0.011679 0.014439 0.034738 0.023842  
0.045387 0.054234 0.062612 -0.009085 -0.020992 0.079150 -0.029462 -0.102907 0.066859 -0.114934 0.031805 0.022736 -0.011906 0.036764  
-0.053507 -0.032050 -0.060549 -0.040726 0.007057 0.013584 0.063745 0.029645 -0.018942 -0.044354 0.003650 -0.033727 -0.000037 -0.027690  
-0.072297 -0.048073 0.061314 0.029070 -0.082363 0.063393 -0.008021 0.017513 -0.059347 -0.065035 -0.056365 0.024328 -0.024598 -0.059729  
-0.025366 -0.084910 0.084192 -0.042771 -0.022092 -0.001764 -0.038896 -0.005925 0.005263 0.035478 -0.016116 -0.009179 -0.004697 0.006681  
0.052053 0.032312 0.107456 -0.055158 -0.051250 -0.018411 -0.120407 0.028290 0.039925 -0.107163 -0.061538 0.024214 0.005204 0.013836  
-0.081350 -0.083698 0.033834 -0.084853 0.128992 0.098634 0.131396 -0.027779 -0.091144 -0.148169 0.019400 -0.016993 0.028046 0.012122  
-0.010926 -0.022498 0.046841 0.012405 -0.094706 -0.070706 0.000573 -0.014820 0.023780 0.026552 -0.029080 -0.014406 0.032112 -0.044153  
-0.119520 -0.034066 0.044530 -0.008919 -0.025979 0.103870 -0.024861 -0.038589 0.005576 -0.026732 0.034867 -0.008192 0.015761 -0.042715  
0.033813 -0.039014 -0.007446 0.113846 -0.003506 0.083662 -0.082992 0.051736 0.039327 0.052636 -0.058179 0.027391 0.038343 -0.004350  
-0.056391 0.000057 -0.036999 0.016230 -0.059028 -0.050646 -0.038238 0.018007 -0.041333 -0.000713 -0.041305 -0.057624 -0.030864 -0.068367  
-0.019234 0.023896 -0.029427 -0.050778 -0.081200 0.092229 -0.083032 0.025559 -0.067969 0.014489 -0.024539 -0.017983 0.016563 0.029367  
-0.030026 0.025316 0.033967 -0.035925 -0.059558 -0.013275 0.000217 -0.065327 0.037592 0.022290 -0.036808 -0.031960 0.021533 -0.039421  
0.001340 -0.031732 -0.002224 0.060851 -0.005012 0.040590 -0.054406 -0.047851 -0.030717 0.029204 0.012166 -0.043919 0.007992 -0.006309  
0.025004 -0.031365 -0.058866 -0.033138 -0.049595 0.072831 0.029673 -0.010083 -0.000091 0.000877 0.012137 -0.032565 -0.007776 -0.005393  
-0.068676 0.029720 0.057061 0.058696 -0.074524 0.003386 -0.009791 -0.061050 -0.050786 -0.013845 0.027619 0.011246 0.008225 0.013053  
-0.038782 0.070582 -0.114842 -0.042819 0.004033 0.035311 -0.049521 0.040960 -0.102132 -0.010983 -0.038556 -0.052773 -0.026870 -0.024641  
0.065711 -0.042353 0.011719 -0.063174 -0.101183 0.023089 0.019910 -0.018732 -0.091178 -0.037444 -0.047829 -0.055804 -0.014322 0.014574  
0.023495 -0.051533 -0.004234 0.024105 -0.066675 0.033657 -0.055742 0.033321 -0.026335 -0.021490 0.012688 0.002336 -0.021670 0.007617  
0.098224 -0.048280 -0.007403 -0.109569 0.059303 0.032166 -0.047469 -0.063744 -0.000531 -0.077579 -0.005345 -0.040943 -0.041396 0.042789  
-0.016063 -0.059837 0.076269 0.016441 -0.039998 -0.046311 0.034027 -0.005302 -0.021175 -0.105672 -0.032626 0.004101 0.011894 -0.005542  
-0.043170 -0.040969 0.011496 -0.062874 -0.074872 0.013115 0.027307 0.079171 0.054100 -0.029842 -0.006561 -0.004694 -0.038420 0.034108  
-0.077782 0.033378 -0.041766 -0.011149 -0.021221 0.017462 0.078511 0.044048 -0.064752 -0.118509 -0.008309 -0.031240 0.033689 -0.007324  
-0.021744 0.048639 0.070956 0.067002 -0.027164 -0.058318 -0.003615 -0.031215 -0.029293 -0.018224 0.017895 -0.055492 -0.048741 0.016353  
-0.038922 -0.031899 -0.045391 0.038482 -0.046518 -0.019689 0.005053 -0.052463 -0.046098 0.037038 -0.008780 -0.022674 0.001652 -0.016501  
-0.001030 -0.095903 -0.018181 0.006096 -0.015114 -0.049879 -0.071643 0.013666 -0.008803 -0.008998 -0.005390 -0.003356 -0.011731 -0.047437  
-0.063564 0.017274 0.030939 0.047192 0.009850 -0.040879 -0.042319 -0.032261 -0.019720 -0.007013 0.041442 -0.047065 0.016964 0.017822  
0.085232 0.002496 0.044221 -0.013595 -0.066789 -0.068885 -0.086608 -0.046628 -0.067332 -0.066197 -0.058198 0.004396 -0.034529 0.036755  
-0.009483 0.032399 0.005225 -0.046580 0.034299 0.058600 -0.039961 -0.037687 -0.049755 -0.089080 -0.049850 0.031702 0.018132 0.006757  
-0.011434 -0.046854 -0.042972 0.029209 0.068757 -0.018724 -0.024039 -0.018305 0.054734 -0.060411 -0.039695 0.026384 0.019704 -0.016135  
-0.050934 0.018779 -0.050318 -0.010512 0.022313 0.039912 -0.058692 0.013056 -0.038710 -0.065629 -0.027068 -0.011859 0.001744 -0.016891  
-0.041333 0.008839 -0.002246 0.091110 -0.101818 -0.142181 0.057759 0.019263 -0.002280 0.119406 -0.016698 -0.045315 -0.039625 -0.014497  
0.017645 0.031151 0.074276 -0.026597 0.017466 0.023816 -0.070193 -0.092362 -0.121967 -0.032902 0.008612 -0.038520 -0.055508 0.016721  
-0.031631 0.039036 -0.057366 0.010365 -0.004526 -0.031055 0.029316 0.024301 -0.037602 0.016112 -0.053049 -0.061871 -0.009410 -0.019019  
-0.055796 0.083740 0.038827 -0.004459 0.090062 -0.002475 -0.093645 0.061922 -0.026545 -0.063158 -0.028202 -0.042780 0.006779 0.028609  
0.062231 -0.080870 -0.037484 0.076013 -0.003482 -0.083655 -0.033994 0.086121 -0.033536 0.119816 0.013825 -0.016095 -0.041928 0.001224  
-0.004687 0.014005 0.057663 0.063682 0.025512 0.007427 -0.072440 0.052039 -0.026183 -0.058193 0.026966 -0.012582 0.043848 -0.021137  
-0.018146 0.033910 0.085956 -0.042316 -0.010836 -0.032127 0.022112 -0.053368 -0.048516 -0.025242 -0.006620 -0.029527 0.011380 0.005062  
0.059707 -0.042901 -0.075408 0.098904 0.051063 0.047151 -0.037961 -0.094193 0.052087 0.068951 0.037073 -0.001853 -0.047139 -0.000663  
-0.076009 0.039912 -0.011618 -0.008306 0.122619 0.016278 -0.046066 0.056856 -0.029695 -0.090205 0.044722 -0.030761 -0.034755 0.042336  
-0.096992 0.017937 0.049377 0.060751 -0.023698 -0.003833 -0.011819 -0.059859 -0.030083 0.025837 0.028865 0.038550 -0.036701 -0.017459  
0.063220 0.039573 0.043134 -0.106839 -0.094209 -0.044069 0.042311 -0.058086 -0.025548 0.031710 -0.027459 -0.013497 -0.053240 0.013808  
0.000062 -0.015473 -0.014230 -0.016440 -0.048543 -0.040833 -0.025327 -0.024472 -0.042436 0.008630 -0.034385 0.048028 0.014252 0.035829  
0.036134 -0.021558 0.008116 0.063858 0.078745 -0.033773 -0.048652 -0.091810 0.069902 -0.088198 -0.041701 -0.042193 -0.026870 -0.014259  
-0.015559 -0.027675 -0.042321 0.073416 -0.105503 0.027764 -0.041711 -0.020174 -0.020465 0.005507 0.014225 0.031908 0.023446 -0.000343  
-0.022623 -0.060895 -0.056670 -0.056932 -0.000250 0.040860 0.020240 -0.048157 0.005181 -0.028503 -0.029301 -0.064605 0.032178 -0.047131  
-0.048287 0.010448 -0.015091 0.023543 0.024285 -0.177582 0.067977 -0.022570 0.059799 -0.008101 0.002591 -0.041965 -0.005392 -0.000840  
-0.103356 -0.063511 -0.067536 -0.096041 0.001301 -0.002370 0.072563 0.028339 0.064216 0.070302 -0.066855 -0.046649 0.017562 0.028627  
0.005664 -0.105457 -0.015355 -0.064939 0.025062 -0.001546 0.055671 -0.010751 0.026418 -0.071693 0.002195 -0.000051 0.026027 -0.000752  
-0.057421 -0.074596 -0.034435 -0.109702 -0.021368 0.061365 0.055081 0.003832 0.013154 -0.085823 0.032301 0.022504 0.026424 -0.017749  
0.021650 -0.085312 -0.021319 0.061502 0.056759 -0.136509 -0.016488 -0.027701 0.044364 -0.062966 0.003897 0.014662 -0.025970 -0.023521  
0.008331 -0.036908 -0.047076 0.028650 -0.024482 -0.045662 0.010495 0.016972 -0.025813 -0.054146 -0.007799 0.028668 -0.054946 -0.069099  
-0.033662 0.049635 0.040173 0.026065 -0.016710 0.041816 0.013286 -0.038996 0.001129 -0.019627 0.045306 0.020936 0.015830 0.010043  
0.047474 0.005451 -0.038074 -0.022522 -0.001642 -0.034331 -0.062134 0.025817 -0.006148 0.089794 -0.012898 -0.017762 -0.064388 -0.004230  
-0.094836 -0.031473 -0.073976 0.000000 0.029068 -0.071788 -0.001631 0.001552 -0.121223 0.046008 -0.046368 -0.051277 -0.056000 0.015599  
-0.048067 0.049344 -0.039577 0.010553 -0.051205 -0.055014 -0.022654 -0.046388 0.027665 -0.030028 -0.026428 -0.010381 -0.056695 -0.024704  
-0.034128 -0.028385 0.008667 -0.027097 -0.035967 -0.016696 -0.043086 0.008488 0.030156 -0.024733 -0.047189 0.026483 0.047407 -0.002152  
-0.050575 0.007039 -0.050959 0.035545 0.000848 0.010993 -0.114845 0.000609 0.058226 -0.061266 -0.002273 0.032659 -0.055929 0.004580  
-0.031461 -0.032788 -0.057260 -0.095746 0.070907 -0.011249 0.002921 0.048193 -0.054731 0.012475 -0.026030 -0.003434 -0.041573 -0.000748  
0.028004 -0.063624 -0.045189 0.015350 -0.012664 -0.002049 -0.023380 -0.074707 0.049509 -0.068315 -0.049797 -0.052744 -0.031556 -0.021645  
0.027248 0.100290 0.060390 -0.030478 -0.057810 -0.029870 0.000682 -0.075652 -0.103644 -0.024048 0.040592 -0.004220 0.037001 0.020831  
0.029974 -0.052031 -0.029068 0.032961 -0.008859 0.071093 -0.018197 -0.023535 0.036832 -0.078006 -0.038907 -0.039836 -0.064262 0.023918  
-0.010322 0.002178 -0.115342 -0.033004 0.145887 -0.014650 0.029336 -0.009122 -0.056498 -0.070250 0.025515 -0.038450 0.038976 -0.009095  
0.043000 -0.018726 0.076540 -0.055171 0.010086 -0.063306 0.009827 -0.002971 0.053265 -0.082999 -0.058344 0.001432 -0.050498 -0.020265  
0.122097 -0.005436 -0.041088 0.027525 -0.053234 -0.018228 -0.040960 -0.003800 -0.087938 -0.080910 -0.032230 -0.049211 0.040965 0.016073  
-0.002206 -0.035880 -0.033982 0.013604 -0.062204 -0.039042 0.020438 0.086927 -0.026565 -0.066014 -0.001094 -0.037421 -0.022765 0.000346  
0.062100 -0.059125 -0.098018 -0.106901 0.005890 0.081500 0.012218 -0.030241 -0.005982 -0.023308 -0.032652 0.005202 -0.024631 0.011471  
0.040077 0.037174 0.041509 -0.013449 0.035854 0.045011 -0.006770 -0.050740 0.017522 0.013153 -0.001021 -0.005509 -0.027157 0.040731  
0.043527 -0.032888 0.085806 -0.058975 0.046394 -0.110903 -0.010705 -0.038039 0.057328 0.036047 -0.048845 0.013775 -0.049329 -0.023975  
-0.044963 -0.007169 0.033839 -0.030350 -0.114309 -0.028695 -0.031182 0.022513 0.026065 0.028932 0.006216 -0.057231 -0.005069 -0.057587  
0.124361 -0.064791 0.044258 -0.085196 -0.060764 -0.036126 -0.020311 0.076746 -0.095494 -0.094727 0.030341 -0.026953 0.018019 -0.006596  
-0.016498 -0.060347 -0.012663 -0.099666 -0.047655 -0.000921 0.038208 0.037776 0.001871 -0.043023 0.003245 -0.027436 -0.054275 0.001528  
-0.087858 -0.003719 0.020211 0.094825 -0.039796 -0.080996 -0.076696 0.046626 -0.052028 -0.032566 -0.002035 0.036028 -0.027542 0.017146  
0.014228 -0.030653 -0.007962 0.071095 -0.078539 0.042610 0.033433 -0.063866 0.016146 -0.059032 -0.057119 -0.011784 -0.049934 0.014680  
0.085317 -0.076377 -0.097351 0.006785 0.082107 -0.044190 -0.068638 0.004814 0.000212 0.053442 0.013242 -0.007101 -0.014946 0.028456  
-0.005425 -0.022022 0.077982 0.103636 -0.016409 -0.094858 -0.018355 -0.043260 -0.054862 0.021087 -0.036770 0.034382 -0.017440 -0.025340  
-0.043953 0.073449 -0.019938 -0.080119 0.067262 0.039611 0.004745 -0.054113 -0.150283 0.100370 0.024913 0.039764 -0.000877 -0.020807  
-0.058395 -0.010577 0.009002 -0.047983 -0.035497 0.078885 -0.024967 0.027636 -0.084009 0.010998 -0.005098 0.025816 0.006930 -0.013392  
0.029737 -0.005367 0.095558 -0.142199 0.030304 -0.005465 -0.051394 -0.075372 0.065806 -0.049930 -0.010550 -0.045568 0.033630 0.027483  
-0.049202 0.069683 -0.024258 -0.066872 -0.068580 0.052825 0.073127 -0.108458 0.047350 0.086808 0.013728 -0.008645 0.013783 -0.014856  
-0.071707 -0.041690 0.036871 -0.070883 0.032162 -0.017245 0.011884 -0.099519 -0.017751 0.062902 -0.042162 -0.024144 -0.058194 -0.027976  
0.023990 0.013697 0.008191 0.065135 -0.062752 -0.103917 0.005257 0.074161 -0.074901 0.016799 0.028489 -0.049758 0.009285 -0.006340  
0.003984 -0.031412 -0.046520 0.066754 0.051835 0.007482 0.023397 -0.009826 -0.051734 -0.013887 -0.027545 -0.014570 0.012107 0.012742  
0.027701 -0.018876 -0.001590 -0.057960 -0.027268 -0.043309 0.029814 0.007090 -0.042021 -0.036639 -0.032202 0.014937 -0.046636 0.010076  
-0.019963 -0.027204 0.020316 -0.048015 -0.047739 -0.037715 -0.022377 0.021322 -0.024862 -0.027877 -0.001408 0.031554 -0.018374 -0.010126  
0.067571 0.053289 -0.003355 -0.003915 -0.044065 0.000249 -0.016047 -0.021843 -0.036086 0.049665 0.007460 0.021717 -0.062668 -0.052168  
-0.019636 -0.052224 -0.079083 -0.005494 0.102268 -0.031391 0.036189 -0.000644 -0.126159 0.007624 -0.005133 -0.038296 -0.035724 0.027766  
-0.053096 -0.077455 0.010823 -0.023586 0.059468 -0.045588 0.137047 -0.146845 -0.020969 0.122623 0.000546 -0.034015 -0.035860 -0.002364  
-0.007053 0.001298 0.004787 -0.003388 -0.033707 -0.067265 -0.049407 -0.039119 -0.014416 -0.039708 -0.067272 -0.053540 -0.020633 -0.051140  
0.033215 0.031544 0.033252 -0.019780 -0.024217 -0.001437 0.000491 -0.024073 -0.026118 0.016311 -0.027087 0.025868 0.026421 0.043053  
0.066651 -0.029545 -0.047901 0.033071 -0.015743 -0.011532 -0.032266 0.043581 0.031056 -0.026928 -0.046968 -0.004466 -0.023353 -0.050021  
-0.049022 0.023702 0.022919 -0.050894 -0.036809 0.014421 -0.030681 -0.020621 0.025648 -0.037591 -0.020613 0.020471 -0.066431 -0.022596  
0.046320 0.026765 -0.105580 0.015672 -0.077784 0.048978 -0.042720 0.072320 0.003855 0.005809 0.005117 -0.048404 -0.055275 -0.010523  
-0.010209 0.046988 -0.154791 0.020007 -0.029515 0.014642 0.010696 -0.101560 0.099405 0.086928 -0.042763 -0.052426 -0.043103 -0.064994  
-0.070794 -0.060493 0.090897 0.064881 -0.029823 0.004883 -0.041771 -0.052952 -0.004686 -0.046641 -0.040639 -0.022482 0.028450 -0.041918  
-0.023078 -0.039785 0.031656 0.002575 0.050364 0.039744 -0.001385 -0.067977 0.067451 -0.060672 0.015052 0.035889 -0.008369 0.008255  
-0.018969 -0.049147 -0.039247 -0.020819 0.046067 0.095307 -0.058419 0.121792 -0.033671 -0.102074 0.019549 0.001745 0.004396 -0.059673  
-0.066520 -0.049987 0.018137 -0.034569 -0.067462 0.023120 -0.050541 0.053402 -0.017595 0.093624 0.024380 0.013493 -0.055068 0.022176  
-0.078678 0.024074 -0.085960 -0.011019 -0.002875 0.007648 0.087864 -0.051569 -0.014158 0.052839 -0.027207 -0.001699 0.001990 -0.060685  
0.119431 0.031219 0.001321 -0.087164 -0.005565 -0.080842 0.062933 -0.016817 -0.075072 0.044218 -0.022871 0.021817 -0.017997 -0.020998  
-0.015979 0.037600 0.041036 0.032287 -0.042917 -0.024784 -0.065249 -0.075677 -0.002237 -0.003107 0.002549 -0.032152 -0.013447 0.001438  
0.031165 -0.010082 0.009691 -0.050228 -0.062803 0.097169 -0.032714 0.023047 0.008304 -0.014455 -0.057766 0.021100 0.018889 -0.021394  
0.024181 -0.013005 -0.021545 -0.053793 0.008451 0.061604 -0.070411 -0.089682 0.023356 0.053700 0.023350 -0.022342 -0.010356 0.011938  
0.026454 -0.036708 -0.025065 -0.006952 0.031988 0.069122 0.003496 -0.004738 -0.020362 0.021757 -0.042506 -0.040861 0.028719 0.037807  
0.079088 0.005682 0.048225 0.000150 -0.067549 -0.097659 -0.033921 -0.017077 -0.024110 0.039823 -0.053767 0.001780 -0.019238 -0.027060  
-0.023039 -0.048443 -0.030745 -0.112517 0.061269 0.045307 0.000229 -0.014106 -0.094985 -0.058740 0.029016 -0.036332 0.042863 -0.028252  
-0.043601 0.020543 0.005261 -0.058609 -0.017469 0.023331 -0.007117 0.045648 0.012125 -0.014095 -0.028457 0.014880 0.009237 -0.065341  
-0.049070 -0.043143 0.024160 0.035369 -0.061143 -0.068682 -0.062816 -0.046017 0.053117 -0.002459 0.015029 -0.021707 -0.005272 0.008863  
-0.013742 -0.095943 -0.104476 0.060486 -0.059219 -0.077747 0.040628 -0.068322 0.074180 0.041906 0.025493 -0.018329 -0.020837 -0.035543  
0.048064 0.002453 -0.054747 -0.020892 -0.065456 -0.087194 -0.003830 0.009613 -0.081228 0.095643 -0.062072 -0.043249 -0.007592 -0.024615  
0.122787 0.026919 -0.005604 -0.019468 -0.031494 -0.063282 0.060105 -0.076506 0.011962 -0.083712 0.019431 -0.053448 -0.009063 0.009198  
-0.043759 0.018834 0.025262 -0.002451 -0.042940 0.003206 -0.088470 -0.010556 -0.043406 -0.000233 -0.069472 -0.043763 0.007346 0.011824  
-0.031716 -0.022619 -0.047429 -0.106683 0.069376 0.024849 -0.052986 0.077957 0.060334 0.039617 -0.018967 0.013956 0.034533 0.007773  
0.005019 -0.000324 0.031771 0.005971 0.013432 -0.122921 0.042193 -0.018467 0.004336 -0.066488 0.012171 -0.049683 0.015347 -0.032268  
-0.053960 -0.047885 -0.038143 -0.008389 0.016087 -0.019360 -0.031342 -0.050888 -0.011218 0.035424 0.011425 -0.056998 -0.060820 -0.060065  
-0.085325 0.036510 -0.058718 -0.050454 -0.051309 -0.026862 0.008962 -0.007713 0.032347 -0.027484 -0.016890 -0.035275 0.009904 0.005297  
-0.074974 0.032845 0.035693 0.031331 -0.098706 -0.022274 -0.000285 -0.074722 -0.015297 0.055298 -0.047960 0.017610 -0.049873 0.006609  
0.036342 0.017025 -0.036135 -0.105771 -0.046553 0.049614 -0.022066 -0.021419 -0.046891 -0.069190 0.009398 0.029982 -0.017845 0.002008  
-0.041431 -0.000036 0.039770 -0.030897 0.062059 0.021792 0.069392 -0.005153 -0.059900 -0.027576 -0.008089 -0.049665 -0.051708 -0.031152  
-0.084923 -0.052012 -0.052523 -0.053507 0.067272 -0.059494 -0.006792 0.034179 -0.036317 0.032336 0.019235 0.000304 -0.025868 0.033868  
-0.090721 -0.046664 0.043126 -0.001836 -0.080411 0.054061 0.055072 0.044077 -0.107862 0.034598 0.005834 0.017912 -0.054145 -0.001050  
-0.011209 -0.044704 -0.077359 0.024813 0.011261 -0.051228 0.077574 0.002723 -0.015005 0.022301 -0.018469 0.026815 -0.050939 -0.026932  
-0.009463 0.013967 -0.014998 -0.053849 0.069467 0.001858 -0.084580 -0.021880 0.053650 -0.082340 -0.007961 -0.018024 -0.050783 0.029939  
-0.069598 -0.037067 0.007540 0.051149 -0.002252 0.054852 -0.002278 -0.055380 -0.061087 0.039719 0.035744 0.034793 0.000373 -0.012079  
0.052173 -0.015887 -0.025437 0.035143 0.036733 -0.078744 0.020617 -0.125309 -0.015926 0.033304 0.003912 -0.027147 -0.050438 -0.050266  
0.059046 0.039774 -0.095954 0.009498 -0.045199 0.065514 0.088096 -0.073300 -0.029993 -0.002036 -0.055611 -0.040521 0.041502 0.009700  
-0.033731 -0.075466 0.085715 -0.019389 -0.048346 -0.074732 0.039223 0.037903 0.103612 -0.066541 0.010440 -0.010166 -0.011696 -0.020993  
0.011034 -0.042612 -0.031729 0.026659 -0.006166 -0.037337 -0.123142 0.017905 -0.047557 -0.000139 0.004032 -0.035123 -0.038871 -0.011227  
0.016866 0.038840 -0.035748 0.050074 -0.093677 -0.066633 0.081288 0.040169 -0.070028 -0.042470 -0.034166 -0.040468 0.015610 0.012289  
-0.106895 -0.011731 0.081123 0.056713 -0.040372 -0.008741 0.018361 0.018579 -0.091035 0.018409 -0.017565 -0.052718 -0.059652 -0.009236  
-0.012422 0.016354 -0.027533 -0.021133 -0.019425 -0.033003 0.006912 -0.036552 -0.046868 -0.028166 0.004159 0.000441 0.044783 -0.004799  
-0.100906 -0.070970 0.019346 0.090965 0.073591 -0.003801 -0.018082 0.020943 -0.073519 -0.074712 0.007265 -0.048457 0.041492 -0.004585  
-0.020289 -0.049669 -0.032288 -0.026966 -0.016045 0.007942 -0.053853 0.012273 0.021703 -0.011657 0.010116 -0.049027 -0.017978 -0.014645  
-0.103475 -0.095685 -0.132157 -0.026072 0.040241 0.103388 0.063820 0.045110 0.023835 0.051750 -0.013679 0.026161 0.014706 -0.024753  
0.034111 -0.048015 -0.032669 -0.039069 -0.073136 -0.023152 0.000300 0.053020 0.074253 -0.035889 0.004568 -0.017503 -0.045987 -0.023770  
-0.019720 -0.013085 -0.156088 0.034743 0.015905 -0.056563 0.069177 -0.091247 0.070167 -0.011588 0.001546 -0.036353 0.028845 -0.007005  
-0.054364 -0.062287 -0.029571 0.035559 0.002100 0.003774 0.022537 -0.053055 0.052856 -0.075168 -0.049240 0.023897 0.006815 -0.046939  
-0.020405 -0.024995 0.015912 -0.034076 -0.032314 0.018051 -0.021247 -0.026993 0.022154 0.021946 -0.052031 0.019237 -0.034110 -0.059806  
0.019667 -0.072431 0.038966 0.005631 0.031671 0.066016 0.092609 0.001256 0.002872 -0.126212 -0.016028 0.010383 0.039434 -0.058517  
-0.060970 0.011724 0.059104 -0.046314 0.021465 0.029762 0.058507 -0.005871 -0.114235 0.064889 0.044774 -0.006022 -0.050637 -0.042673  
-0.031291 -0.008377 0.000304 -0.014744 -0.094814 -0.050569 -0.014942 0.074722 -0.041704 0.019349 -0.019960 0.013299 0.032075 0.027875  
0.019779 0.026224 -0.031288 -0.001447 -0.013102 -0.000172 -0.021450 -0.083338 -0.000525 0.056226 -0.025351 -0.040123 -0.040176 0.010515  
0.000909 0.013598 -0.033249 -0.000221 -0.033570 -0.097055 0.063902 -0.016531 0.064799 0.000047 -0.051257 -0.007478 0.034598 0.036620  
-0.013764 0.011582 0.008075 0.018195 0.020519 -0.060307 -0.061277 0.075468 -0.063384 -0.033451 -0.046741 -0.036440 -0.028817 0.030944  
-0.082620 -0.015314 -0.035973 -0.020381 0.028961 0.035864 -0.106651 -0.042126 -0.033744 0.062622 -0.036002 -0.056626 -0.025627 -0.013849  
-0.010592 -0.012742 -0.033140 0.070079 0.065550 0.032733 -0.016114 -0.027797 0.008560 -0.067533 -0.011658 -0.019016 -0.006905 -0.028141  
-0.032786 -0.020367 -0.002313 -0.072281 0.040781 0.010289 -0.001288 0.018645 -0.064104 -0.026419 -0.028237 0.021829 0.035773 -0.037028  
-0.065517 0.000726 -0.127759 -0.001565 -0.047577 0.111711 0.103634 -0.027176 -0.029868 -0.014236 -0.017522 0.038441 -0.042762 -0.006095  
-0.080789 -0.026659 -0.055005 -0.040337 -0.043108 0.017851 0.020069 -0.032129 0.060489 0.008219 0.019545 0.003623 0.007666 -0.052509  
0.017660 -0.034624 -0.000744 -0.011610 0.057663 0.115124 0.071026 0.014929 0.001297 -0.048749 -0.033581 -0.023023 0.035732 0.043208  
-0.021687 0.000633 0.003164 -0.001591 -0.032720 -0.039478 -0.002369 0.004765 0.027174 0.042854 -0.020445 -0.024793 -0.038318 0.014148  
-0.001085 -0.028613 0.093561 -0.062607 0.041033 -0.085521 0.011912 -0.074462 -0.096327 0.026599 -0.038270 0.005068 -0.016478 -0.053775  
-0.027651 -0.014792 0.015388 -0.020108 -0.050634 -0.048379 0.022237 0.025713 -0.022733 -0.072177 0.013009 0.020095 0.005445 -0.058697  
-0.001257 -0.047947 -0.048476 -0.090662 -0.051591 0.077327 -0.012330 0.051167 0.064944 0.007818 -0.042955 -0.022990 -0.021381 -0.004296  
-0.001399 -0.064715 -0.059789 0.065697 0.016893 -0.014289 -0.091717 -0.014239 0.050289 0.022237 -0.022247 -0.008088 -0.042774 0.008987  
-0.026113 0.010545 -0.045314 0.045443 0.034624 0.056876 -0.014556 0.033149 -0.046758 -0.084276 0.034819 -0.006940 -0.051381 0.032332  
-0.024541 -0.022917 -0.033801 0.074846 -0.042473 0.018097 -0.034602 -0.022006 -0.055018 0.022692 -0.042887 -0.039167 0.042651 -0.023609  
-0.076693 -0.005214 -0.014927 -0.020351 0.022403 -0.022755 -0.007302 -0.012113 -0.057809 -0.030980 -0.002756 0.011847 -0.026690 -0.014602  
-0.015186 -0.005823 0.018350 -0.009053 -0.071882 0.029987 -0.018985 -0.061813 -0.007940 -0.004151 -0.042495 -0.049745 -0.026477 -0.031876  
-0.118047 0.054681 -0.043131 -0.072748 0.088740 0.011566 -0.005978 -0.083491 0.023306 0.013103 -0.039460 -0.052200 0.007749 -0.029211  
-0.085372 -0.038310 0.078174 0.009187 -0.029098 0.019437 -0.071358 0.022240 -0.040083 -0.002204 0.027552 0.021663 -0.033172 0.008834  
-0.091436 -0.081527 -0.063082 -0.071151 -0.014220 0.054111 -0.015355 0.051818 -0.068987 0.168999 -0.011070 -0.052948 -0.036632 0.026160  
-0.046990 -0.038255 0.053053 0.085552 0.024011 -0.046803 -0.040813 -0.004647 -0.082869 0.026250 -0.058302 0.004090 0.016860 -0.019672  
0.006812 0.014494 -0.046711 -0.063760 -0.107345 -0.062831 -0.053636 -0.000481 0.037294 0.049388 0.021375 -0.006904 0.034431 0.031195  
-0.018682 0.037940 -0.009353 0.038094 -0.039943 -0.041572 0.020077 -0.025493 0.036348 -0.019477 0.003337 0.027918 0.008352 0.018692  
0.022671 0.001310 -0.089440 -0.033412 0.009743 0.093803 -0.083776 0.024880 -0.082419 0.004545 -0.012617 -0.005762 -0.019446 0.027073  
-0.034342 0.003111 0.058911 -0.007987 -0.053332 0.005401 -0.026815 -0.015985 -0.003813 0.042918 -0.035908 -0.010149 -0.053647 0.016906  
0.018784 0.029944 -0.016874 -0.014163 -0.063027 0.043182 0.037328 -0.040324 0.116342 -0.120829 -0.030011 -0.005860 0.030750 -0.025114  
0.044771 0.027020 -0.032125 -0.074425 -0.019996 0.048694 0.016405 -0.025981 -0.022502 -0.000512 -0.045506 -0.061342 0.011262 -0.065858  
-0.069520 -0.026106 0.013337 0.039769 0.066971 0.014552 -0.075825 0.009448 -0.100412 0.029050 -0.040538 -0.019501 0.020942 -0.026986  
-0.043346 0.029821 0.038030 -0.008931 0.036801 0.010340 0.010718 0.033550 0.011325 0.009280 -0.005891 -0.017489 0.038657 0.026312  
0.075610 -0.047506 0.037736 -0.016050 0.023324 -0.059948 0.058787 -0.020381 0.025157 -0.039687 -0.032423 0.031161 -0.054246 -0.065699  
0.041970 -0.049162 -0.050642 0.053017 -0.071044 0.139778 0.018137 -0.076458 -0.084730 -0.027773 -0.028475 0.025783 -0.005457 0.036711  
-0.005141 -0.045169 0.042113 0.032255 0.035939 -0.020496 -0.086788 -0.038813 -0.005712 -0.043236 -0.013364 -0.053617 -0.013756 -0.059801  
-0.004751 -0.020163 0.065703 -0.037317 0.069066 -0.065308 -0.077808 0.030402 -0.032271 -0.023580 -0.026223 0.007080 0.003314 0.026705  
0.053172 -0.076626 -0.034687 -0.011998 -0.018555 0.077129 0.019018 0.039570 -0.080210 0.087222 0.012253 -0.022559 -0.026647 -0.047464  
-0.027041 0.022578 -0.050437 0.003321 0.039468 -0.018175 -0.046808 0.019994 -0.029414 -0.032503 0.034567 -0.040090 0.028403 -0.041161  
-0.077126 0.053825 0.018333 -0.007929 0.040221 -0.108608 -0.017230 0.060218 -0.076739 -0.094243 -0.035031 -0.043932 0.016499 -0.037725  
0.035857 0.040730 -0.031617 0.025593 0.037181 -0.037001 0.035027 0.000907 -0.006227 -0.008326 -0.042096 -0.029132 0.026160 0.019854  
0.063851 0.051170 0.029909 0.004830 0.010356 -0.041333 0.037747 0.008391 0.012945 -0.138271 -0.029155 -0.039046 -0.059443 -0.015208  
-0.005294 -0.018524 0.042898 -0.070078 -0.016204 0.074931 0.007911 0.020471 -0.037819 -0.063156 0.030635 -0.012541 -0.010131 -0.027939  
-0.059017 -0.001536 -0.051996 -0.043145 -0.027114 -0.023593 -0.023440 0.018058 0.030561 -0.009238 0.008793 0.030470 -0.027312 -0.020681  
-0.041331 -0.092234 0.104410 0.020417 -0.015102 -0.093925 -0.104699 0.000652 0.111734 0.061740 0.007418 -0.059374 -0.017467 -0.027814  
0.009673 -0.001151 -0.011154 -0.015080 0.041432 -0.040988 0.035653 -0.044013 0.008615 -0.049410 0.007044 0.035197 0.041212 0.037963  
0.034702 -0.007487 -0.045457 0.011320 -0.057553 0.076643 -0.062593 -0.013629 -0.033935 0.024456 -0.027540 -0.035534 -0.012247 -0.064245  
-0.025417 0.087945 -0.078218 -0.014628 0.028952 -0.069731 0.109107 0.035788 -0.049435 -0.067874 0.003952 -0.045426 -0.017590 -0.040189  
-0.050311 0.001239 -0.037226 -0.025554 0.030419 0.086047 -0.036199 0.057362 -0.110215 -0.029532 -0.030691 -0.052799 -0.020468 -0.050723  
-0.078484 0.105548 0.036947 0.011295 0.015337 0.045364 -0.069632 -0.020600 -0.051185 -0.047403 -0.056275 0.011597 0.008356 -0.044183  
0.029256 -0.085276 -0.078635 -0.016353 0.096598 0.082368 -0.051559 -0.068405 -0.030306 -0.000328 0.026222 -0.048047 -0.022490 0.034645  
0.049474 0.045419 0.021978 -0.006244 -0.020008 -0.059780 -0.028015 -0.032459 -0.019485 0.021389 -0.023723 0.029011 0.003072 -0.012354  
-0.114923 0.043845 0.025565 0.012857 -0.023677 -0.071009 -0.006405 -0.106519 0.008106 0.112190 0.015716 -0.055076 0.003125 -0.053068  
-0.072421 -0.035855 -0.050791 0.008305 0.004489 0.033481 -0.003627 0.061455 -0.047569 0.082867 -0.011028 -0.038169 -0.039661 -0.048400  
-0.017236 0.035191 -0.119613 -0.046758 0.043964 0.084335 0.031220 0.021528 -0.092805 0.064992 -0.049569 0.030871 0.013283 0.017017  
-0.030221 -0.012074 -0.051297 0.027474 0.027618 -0.002614 -0.033255 0.033638 -0.093903 -0.059794 -0.043100 -0.018438 0.013990 -0.065685  
0.038060 -0.085674 -0.020806 0.017407 -0.051057 -0.014813 -0.061028 -0.024743 -0.013795 0.034908 0.026791 -0.014638 -0.060080 0.027712  
0.011356 -0.074382 -0.013115 -0.087446 0.053734 -0.048199 -0.028516 0.026623 -0.073589 0.100192 -0.043575 -0.009455 -0.011521 0.009821  
0.065454 -0.063419 0.004239 0.057897 -0.114497 0.062507 -0.125037 0.125561 0.068589 -0.012205 -0.024700 0.001068 0.000337 0.026334  
-0.031326 -0.048015 -0.063763 0.044219 -0.056051 0.125968 -0.026664 0.006238 -0.086618 0.009450 0.014938 0.007544 -0.020376 -0.007154  
-0.007609 -0.037555 -0.016582 0.020471 -0.048371 -0.004916 -0.048929 -0.027999 0.010962 -0.038966 -0.066557 -0.007470 0.022860 -0.004350  
0.075549 0.024345 -0.039313 -0.008533 0.024522 -0.031613 0.037169 0.002734 -0.034475 0.026391 0.033081 -0.001240 -0.050347 0.008019  
0.047385 -0.033405 0.010668 -0.043555 0.061758 0.018226 -0.025673 -0.027693 -0.018507 0.009445 0.020400 0.021100 -0.019920 -0.043759  
-0.075870 -0.069600 -0.093865 -0.005222 0.036162 0.041440 0.005335 0.004707 0.019253 0.046209 -0.043737 -0.017339 0.020738 0.008919  
-0.040303 0.010495 0.091409 0.039036 -0.035828 -0.023256 -0.070474 0.004496 -0.077012 0.025339 0.019711 -0.034468 0.030797 0.035223  
-0.003965 -0.021699 0.055388 -0.006096 0.052574 -0.025574 -0.120534 -0.010978 0.066957 -0.013331 0.030013 -0.003001 -0.049868 -0.063325  
-0.022626 0.013577 -0.074062 -0.023311 0.020597 0.033700 -0.043724 0.005916 0.006141 0.045256 0.004659 -0.046896 -0.014652 -0.024698  
0.035300 -0.013930 0.012580 -0.040810 0.096340 -0.101465 -0.064227 0.005808 0.089300 0.021612 -0.005845 0.031503 0.005111 -0.021350  
0.048001 -0.008547 0.052745 0.024790 -0.004638 0.044376 0.039649 0.022680 -0.061877 -0.046116 -0.008701 0.019854 0.030882 0.029614  
-0.063735 0.067858 0.027805 -0.056469 -0.107074 -0.120342 -0.056370 0.073728 -0.041429 0.110350 0.014486 0.022211 -0.005533 0.008594  
0.130027 -0.020499 0.043240 -0.110369 -0.077776 -0.003945 -0.083298 0.075429 -0.017206 0.017060 -0.047309 0.019737 -0.031163 -0.052112  
-0.032900 -0.062514 -0.112347 -0.052107 0.050701 -0.066089 -0.022452 0.075306 -0.031432 0.017714 -0.031300 0.010097 0.008797 0.034233  
-0.033275 0.073394 -0.058490 -0.009028 0.050515 -0.017617 -0.002692 0.049476 0.032632 0.015022 0.028374 0.033031 -0.003500 0.020560  
0.120787 0.020053 -0.104495 -0.135374 -0.018002 0.048710 -0.006424 -0.039244 -0.118654 -0.015764 0.029273 0.001783 0.039721 0.035664  
0.007415 0.021735 -0.005862 -0.016132 0.004164 -0.055423 -0.110992 -0.051948 -0.012801 -0.028724 0.010958 0.010131 -0.044368 -0.052421  
-0.058551 -0.010294 0.024119 -0.025325 -0.020763 -0.020201 -0.073689 -0.026115 -0.052698 -0.067505 -0.003280 -0.027828 0.002196 -0.043554  
-0.065511 -0.066253 0.009101 -0.006202 0.116391 -0.018139 0.054528 -0.064746 -0.011669 0.095894 0.007815 0.001276 0.043651 0.030790  
-0.051542 -0.023254 0.042524 -0.045047 -0.038361 0.070207 0.021665 0.105167 0.013176 -0.069526 0.007906 0.033200 0.041270 -0.023787  
-0.075451 -0.015910 -0.003862 0.030036 0.038055 -0.030728 0.037804 0.043642 -0.023726 0.000083 0.035102 -0.047775 -0.020762 -0.014651  
0.049831 0.013245 -0.024333 0.040887 -0.022545 -0.074376 -0.034786 0.029190 -0.080869 0.021018 -0.030911 -0.016671 -0.038046 -0.042765  
0.029755 -0.051704 -0.027607 0.000338 0.100273 0.027933 0.129719 0.008945 -0.053686 -0.127599 -0.028183 -0.048547 -0.048129 -0.047112  
0.014891 0.047818 0.008992 -0.022631 0.079028 -0.119633 -0.031190 -0.064038 -0.029069 0.028904 -0.040852 0.023116 -0.020025 0.023826  
-0.050340 0.037137 0.092486 0.031330 -0.062810 -0.055205 -0.040869 0.024993 -0.106135 0.011636 -0.000910 -0.029793 -0.042141 -0.009544  
0.039252 0.001379 -0.032311 0.000675 -0.101445 -0.018019 -0.021849 0.013984 0.089124 -0.039225 -0.008743 -0.002124 -0.053162 -0.012672  
-0.072942 0.076131 -0.098907 -0.033254 0.019042 0.032603 0.006688 -0.056904 0.007470 0.015942 0.026978 -0.026472 0.019476 -0.017657  
-0.068450 0.070611 -0.000860 0.059036 0.000432 -0.028911 -0.017351 -0.023072 -0.034267 -0.075982 -0.002134 -0.032066 0.003556 -0.014578  
-0.077053 0.015223 0.098845 -0.012021 -0.016517 0.024544 -0.031531 -0.032935 -0.081204 -0.018506 0.030599 -0.033368 0.011978 -0.061654  
0.037535 0.067479 -0.012466 -0.032892 0.049642 -0.011864 0.065168 -0.084407 0.064671 -0.052416 -0.057414 -0.027362 -0.038432 -0.057676  
-0.024678 0.024504 0.050581 0.045821 -0.022122 -0.062491 0.041231 0.009232 -0.005301 -0.038630 0.003032 -0.011539 0.036793 0.026082  
0.035435 0.043069 0.073692 -0.027339 0.015468 -0.073242 -0.086907 0.018252 0.007014 0.059665 -0.040609 -0.043310 0.019835 0.020086  
-0.029408 0.000121 0.011697 -0.037305 -0.081819 0.006041 -0.005782 0.074166 -0.044100 -0.036556 0.025155 0.018542 -0.008740 -0.026649  
-0.108197 -0.009110 -0.064869 0.066354 -0.035955 0.039430 -0.017642 -0.028052 -0.040857 0.069857 0.000561 -0.052624 0.014068 -0.041329  
0.015196 -0.045102 0.003481 -0.058094 -0.001118 -0.051170 -0.043175 -0.075111 0.005913 0.045382 0.017187 -0.033462 0.032959 0.010817  
0.054483 -0.009308 -0.137287 0.020892 -0.012299 -0.011345 -0.069942 -0.052368 -0.066116 0.080273 -0.027517 -0.054504 -0.029170 -0.060611  
-0.012097 0.029370 -0.107317 -0.004030 0.018279 0.016238 0.019469 -0.039537 0.026531 -0.024894 -0.023910 -0.043475 -0.036890 -0.021300  
-0.002513 0.071082 -0.000391 -0.035242 -0.054768 0.067830 -0.020391 0.087120 -0.032003 -0.044538 -0.043946 -0.014247 0.009519 0.000961  
-0.133954 0.001401 -0.028526 0.028260 -0.019370 -0.006565 0.058009 -0.049845 0.058433 -0.019061 -0.008671 -0.011259 -0.059169 -0.031674  
-0.050404 -0.003939 0.000287 -0.027790 -0.025128 -0.063500 -0.072205 -0.035131 -0.024014 0.018292 -0.059090 0.011340 -0.019004 0.028393  
-0.057671 -0.074391 0.002367 0.026077 -0.053914 0.003026 -0.038098 -0.059684 -0.044511 0.046094 -0.034371 -0.008612 -0.050578 -0.021073  
0.008899 0.005853 -0.006816 -0.036036 -0.021153 -0.007371 -0.007037 -0.040062 -0.083696 0.024259 -0.011458 -0.006645 -0.036416 -0.033550  
0.062771 0.015890 -0.030480 -0.026151 -0.047534 -0.096026 0.024607 0.129114 -0.056783 -0.141342 -0.011150 -0.053865 0.007433 -0.035627  
-0.041393 -0.009385 -0.053793 -0.078825 -0.003777 0.093519 0.021506 -0.039602 -0.050607 -0.029050 -0.050144 -0.023751 0.032811 0.011916  
-0.124830 -0.048014 -0.013311 -0.016314 0.031601 0.058682 -0.073302 -0.073420 -0.011818 -0.029016 -0.030862 -0.011686 0.016502 -0.049546  
-0.021282 -0.081471 -0.110665 -0.019481 -0.001968 0.067650 0.053506 0.000223 0.067207 0.028526 0.002862 0.036653 0.014475 -0.027642  
-0.090305 0.119506 0.029291 -0.027917 -0.032935 -0.034754 0.018709 0.026724 -0.081270 -0.039448 0.035964 0.046112 -0.045294 -0.022203  
-0.017238 -0.011147 -0.062116 -0.056972 0.031201 0.015708 -0.014003 0.035396 -0.029584 -0.041447 -0.070486 -0.045676 -0.025645 -0.010389  
0.051376 -0.055314 -0.000276 0.006523 0.074169 -0.006676 -0.051122 -0.024839 -0.102492 -0.077599 0.010153 -0.004003 0.028576 0.027882  
0.019769 0.041444 -0.032782 -0.015147 -0.109343 -0.070496 0.018490 0.015738 -0.040364 0.078346 0.013174 0.019336 -0.059687 0.013903  
-0.082230 -0.069421 0.105258 0.065465 -0.059706 0.083293 -0.090356 -0.082486 0.079876 -0.030983 0.006495 0.033733 -0.011583 -0.030765  
-0.035534 0.004766 -0.025971 0.027309 -0.115191 -0.058281 0.041059 -0.017261 -0.047806 0.051589 -0.005135 -0.049550 -0.027649 -0.049005  
0.005692 0.046105 -0.056065 0.067167 -0.079433 -0.000527 -0.051363 0.040422 -0.058059 -0.034836 0.007132 -0.000099 -0.038548 -0.024638  
-0.045066 0.006393 -0.005031 -0.052868 -0.014460 0.043495 0.002834 -0.027362 -0.018320 -0.066440 0.015326 -0.052491 -0.046430 0.010499  
0.012556 0.051982 0.019572 0.060551 -0.022589 -0.093051 0.035891 -0.063712 0.008774 0.047801 0.003985 -0.057421 -0.021815 -0.064633  
0.037100 -0.015870 -0.007412 -0.037820 0.006947 -0.078307 0.042195 0.030340 -0.061059 -0.047524 -0.043616 0.001953 -0.033458 0.000061  
-0.034629 0.028473 -0.036273 0.066276 -0.022154 -0.081673 -0.055417 0.043255 -0.045842 -0.041210 -0.060643 -0.055386 -0.033550 0.000486  
-0.002763 -0.014536 -0.036539 0.015338 0.004464 -0.053391 -0.043181 0.010481 0.003079 -0.053090 -0.035278 -0.007483 -0.025633 -0.009555  
0.029740 -0.112277 0.005040 0.065642 -0.053202 0.000193 -0.083276 0.053214 -0.032798 -0.047921 -0.029402 0.032180 0.012113 -0.006560  
-0.086803 0.047547 -0.012869 -0.074756 -0.040541 0.039684 0.000737 0.053444 -0.019502 0.064270 0.034482 0.002713 -0.001409 0.026273  
-0.066614 0.022047 0.006776 0.012338 0.022918 -0.041790 -0.038564 -0.042580 0.013346 0.014077 -0.027444 -0.057778 -0.018228 0.010968  
0.026319 -0.060306 -0.008006 0.006907 -0.044075 -0.017255 0.023194 -0.041244 -0.076452 -0.051041 -0.017558 -0.042867 -0.043357 -0.067931  
-0.017257 -0.044678 -0.014421 -0.007904 -0.011614 -0.073217 0.039963 -0.048406 -0.028137 0.010779 -0.015148 -0.017579 -0.060535 -0.053324  
-0.014374 -0.006064 -0.025363 -0.094474 -0.025350 0.070493 0.005737 0.037283 0.050940 -0.027661 0.031508 0.001327 0.015463 -0.002008  
0.042879 0.028637 -0.059952 -0.003290 0.006635 0.022758 0.011704 -0.002686 0.021552 -0.044251 0.031674 -0.048115 -0.011300 0.006563  
0.007932 -0.047813 0.071736 -0.059771 0.090039 -0.005511 -0.025882 0.002583 -0.107193 -0.099099 0.019704 0.045532 0.027260 0.029590  
0.020140 -0.085026 0.142040 -0.063076 -0.023266 -0.008401 0.058442 -0.068708 0.014716 0.017269 -0.042331 0.008287 -0.025568 -0.032774  
-0.038004 0.041564 0.092578 0.114799 -0.001689 0.081452 -0.045580 0.007249 -0.074071 -0.074999 0.022455 -0.003460 0.006449 0.042532  
-0.040915 -0.007501 -0.020929 -0.023332 0.027971 -0.099908 -0.057104 -0.002724 -0.060769 0.008690 -0.025620 0.034880 -0.007806 -0.003835  
0.056588 -0.101701 -0.116477 -0.099158 0.044749 -0.055311 0.038239 0.004465 -0.010167 0.035522 -0.032492 -0.017562 -0.011191 0.000935  
0.008056 -0.068289 -0.052196 0.040133 0.001084 0.055228 0.029914 -0.068869 -0.014632 0.057052 0.016628 0.005766 -0.057777 -0.021322  
-0.053329 0.048799 0.083691 -0.084652 -0.047050 -0.022580 -0.038270 0.061282 -0.127216 -0.115123 -0.041395 0.033706 -0.049563 0.032126  
-0.042384 0.028771 -0.037250 0.068573 -0.072505 -0.097432 0.013851 -0.008701 0.087166 -0.103312 -0.027390 -0.055094 -0.045437 -0.014919  
0.079764 0.025577 0.057544 0.077023 -0.078162 0.009030 -0.054795 -0.079237 -0.003311 -0.068621 -0.032498 -0.038294 0.014307 -0.040837  
-0.009493 0.087523 0.060634 -0.059621 0.035084 -0.001508 -0.009850 -0.005899 -0.083891 -0.038501 -0.037674 0.028185 -0.011182 -0.034788  
0.052103 0.073072 0.025775 -0.012647 -0.023092 -0.041622 -0.047967 -0.020022 -0.068782 -0.043152 -0.031519 -0.037030 0.038600 -0.031210  
-0.026645 0.000467 -0.005984 0.032308 0.001206 0.028974 -0.030806 -0.024057 -0.010776 -0.020880 -0.058739 -0.056737 0.014523 -0.037207  
-0.046026 0.030783 0.035935 -0.072807 -0.067967 -0.008062 0.058212 -0.058619 0.012130 0.062548 0.038744 0.018795 0.011087 -0.015734  
-0.020512 0.004487 0.061222 0.043988 0.002361 -0.047655 -0.017632 -0.056343 0.031769 0.018846 0.004955 0.047580 0.018600 0.042861  
-0.027240 -0.059924 0.055128 -0.116863 0.062569 -0.087712 0.042879 -0.097487 -0.027795 0.002470 -0.035697 -0.038087 0.004699 -0.024802  
-0.006989 0.034974 0.011601 0.046159 0.033940 -0.026805 0.005229 -0.056140 -0.044978 -0.021567 -0.045641 -0.012526 0.028969 -0.003633  
0.043483 -0.094136 0.047204 -0.028436 -0.037662 0.004607 0.025426 0.051621 -0.047021 -0.097004 -0.043511 -0.057566 -0.044335 -0.004128  
0.023242 0.015049 0.044370 -0.107726 0.001771 -0.063632 -0.042286 -0.036853 -0.019074 0.006919 0.025892 0.024975 0.014456 -0.058609  
0.009369 0.044286 -0.031374 -0.038286 -0.033295 0.102778 0.005409 -0.041661 -0.011678 -0.075477 -0.049007 0.011670 -0.003262 -0.003509  
-0.030391 0.087614 0.005270 -0.108764 -0.005619 -0.021369 0.062025 -0.067738 0.082646 0.054737 -0.057480 0.017164 -0.025930 -0.031761  
0.007148 0.034978 0.021759 0.012783 -0.133458 0.008627 0.028139 -0.073645 0.066563 0.004486 -0.030547 -0.008606 0.005639 0.014746  
-0.022095 -0.073066 0.018903 0.038128 -0.000116 -0.124655 0.003933 0.037263 0.065947 0.009500 0.024974 0.001665 -0.033422 0.016237  
-0.031341 0.055715 0.011606 -0.047623 0.051457 0.035101 -0.064018 -0.030614 -0.012154 -0.017972 -0.047601 0.016843 0.007699 0.040201  
-0.045901 -0.060034 -0.042254 0.061241 0.013434 0.059870 -0.015039 0.017483 -0.073532 -0.011246 0.037481 -0.022514 -0.041813 -0.001260  
0.013148 -0.100508 0.057726 -0.052361 -0.033200 0.043639 0.017587 -0.018521 0.038702 0.054626 -0.013004 0.022268 0.001730 -0.045824  
-0.027264 0.008673 0.074473 -0.090143 0.034554 -0.083503 -0.040056 -0.046965 0.153851 -0.019025 0.033397 -0.053003 -0.057098 0.020162  
-0.076536 0.082001 -0.041495 0.096089 0.045228 0.027624 -0.065698 -0.079240 -0.111912 -0.010302 0.019089 -0.032773 -0.022860 0.016468  
-0.071385 0.013194 0.065845 -0.050474 0.046998 -0.071147 0.008589 -0.088068 -0.014284 -0.035101 0.028433 0.037537 0.000505 -0.025283  
0.029301 -0.046627 0.016263 -0.028656 0.037037 -0.052942 -0.071416 -0.081410 -0.029859 0.024339 -0.034413 -0.030023 0.037243 -0.014908  
-0.058706 0.075909 -0.084781 -0.052705 0.038010 -0.045364 0.045100 0.075686 -0.049662 -0.041423 0.014337 0.002742 0.026470 0.023063  
0.017878 -0.019981 -0.029814 0.016318 -0.108498 0.064778 0.053025 0.000502 -0.025537 -0.015783 -0.006366 0.031997 -0.046153 -0.050935  
0.068965 -0.073074 0.036025 -0.011401 0.003748 0.064710 -0.064400 -0.081740 0.051593 -0.032224 -0.052841 -0.024779 -0.001661 -0.028614  
-0.060199 0.065687 -0.012737 -0.029506 -0.028872 0.030766 0.016594 0.032820 -0.050911 -0.069154 -0.011382 0.021081 -0.006140 -0.059362  
-0.013999 0.032164 0.013019 -0.004059 0.016328 0.012282 -0.070088 -0.045448 -0.032220 -0.056250 -0.026224 -0.034180 -0.002623 0.015248  
0.031236 0.001574 0.015455 -0.002138 0.020241 -0.113955 0.026507 0.061425 0.048712 -0.099557 -0.024055 -0.008755 0.021840 -0.009931  
0.037443 -0.064791 -0.027818 -0.003245 0.028189 0.033630 0.032745 -0.035596 -0.132993 -0.039713 -0.044496 -0.026837 0.028322 -0.044704  
-0.010362 -0.053090 0.079819 0.052171 0.020743 -0.000439 -0.117383 -0.052257 -0.052938 0.022695 -0.010573 0.029166 -0.031858 -0.045783  
0.065717 -0.108802 0.086672 0.010154 0.034419 -0.078536 -0.084743 -0.066819 0.047437 0.053692 -0.002751 -0.008178 0.023130 -0.026760  
0.016368 0.009926 0.003795 0.050145 0.028477 -0.025738 0.008869 -0.019356 0.024762 -0.014442 -0.032233 0.029415 0.025159 -0.042480  
0.033789 -0.027487 0.057900 -0.048883 -0.089095 -0.027109 -0.033379 -0.076485 -0.051996 -0.016287 -0.011168 0.023977 0.016535 0.019021  
0.007853 -0.003183 0.026091 -0.015438 0.047568 0.039553 0.077429 -0.089390 -0.054096 -0.074695 0.012479 -0.053406 0.022922 0.025889  
0.044137 -0.048286 -0.034738 0.035723 -0.019199 0.003089 -0.030345 -0.049224 0.019968 -0.005503 -0.012762 -0.009274 -0.023031 0.011317  
-0.027286 0.014416 0.027410 -0.074186 0.063963 0.056103 0.066753 -0.038936 0.028855 -0.086134 0.027920 0.037983 0.029729 -0.056698  
0.062545 -0.086537 -0.097371 0.043145 -0.000197 0.083996 0.044542 -0.042464 0.017173 -0.061005 0.014727 -0.037154 -0.003916 0.031652  
0.019875 -0.026512 -0.059225 -0.077155 -0.037267 -0.037718 -0.064874 0.146274 -0.113443 0.001868 0.028764 -0.001017 0.014826 -0.024911  
-0.051636 0.079224 -0.070744 -0.074476 -0.018370 0.093791 -0.057069 0.093605 0.028535 -0.095646 0.003786 0.001360 0.025333 0.021552  
0.008878 0.072220 0.029365 0.029947 0.036714 -0.060939 -0.058753 0.001263 -0.123506 0.004676 -0.017115 0.037996 0.008429 -0.023967  
-0.098502 0.045264 -0.059057 -0.014984 -0.034072 -0.022369 0.066514 -0.043623 0.073530 0.071374 0.000729 -0.044955 0.022588 0.005632  
0.097285 -0.032937 -0.052182 -0.011552 -0.027252 -0.122313 0.082675 -0.101353 0.042504 -0.093538 -0.023338 -0.048714 0.023400 0.018643  
-0.080563 -0.059828 -0.024163 -0.096633 0.071146 -0.067384 0.016314 0.035103 -0.038079 0.029097 -0.054996 0.032042 -0.038307 -0.033616  
-0.067344 0.051292 -0.056709 0.010084 -0.048156 0.121101 0.049287 0.018411 -0.013719 -0.079165 0.017252 -0.035996 -0.037524 0.033146  
0.028208 0.007123 0.046103 -0.040989 -0.078597 0.088185 0.005934 -0.114541 0.038451 -0.059856 -0.036095 0.029791 -0.031067 -0.033497  
-0.031484 0.002033 -0.032042 -0.049859 0.083358 -0.087772 0.025392 0.042808 -0.051095 -0.012132 -0.002983 0.028830 -0.050960 -0.038486  
0.001230 -0.053734 0.055725 -0.099097 0.034589 -0.011487 -0.034779 -0.015484 -0.033068 -0.040456 0.029956 -0.060259 -0.042962 -0.058837  
0.002219 0.023533 0.001134 -0.024683 -0.084240 0.104940 0.032340 0.015026 -0.005070 -0.047821 -0.028892 0.035850 0.017405 0.021283  
0.049187 -0.018788 -0.051659 0.036722 0.057588 0.068113 -0.105965 -0.048955 0.032239 -0.070051 0.029827 -0.030520 0.026984 -0.012908  
-0.060007 0.013128 -0.035641 -0.140767 -0.029578 0.054926 0.040598 -0.021216 0.060029 -0.074374 -0.007390 -0.035668 -0.030660 -0.005195  
-0.040463 0.057112 -0.011146 0.005717 -0.070657 -0.012972 -0.043903 0.043109 -0.057175 -0.019269 0.035151 -0.004595 0.038915 -0.043252  
-0.022862 0.060191 -0.026546 -0.054767 0.052782 0.054801 0.000130 0.053074 -0.042117 -0.044429 -0.026537 -0.038858 0.037410 -0.045184  
-0.029085 -0.034284 -0.042391 0.008699 -0.034588 0.022600 0.043385 0.011294 -0.071626 -0.003290 0.017842 0.013752 -0.024642 -0.017947  
0.106263 -0.093715 -0.053732 -0.033612 -0.078436 -0.021597 -0.058230 0.009451 0.027569 0.074688 0.021916 -0.000117 0.014227 -0.001880  
0.009558 0.011290 -0.002014 0.098646 -0.116623 0.023178 -0.124878 -0.014146 -0.029215 -0.046229 -0.009729 -0.027921 -0.026621 -0.054788  
0.124437 -0.024231 -0.030294 0.006832 0.022128 -0.113402 0.009594 -0.028597 -0.049327 -0.000724 -0.007888 -0.026472 0.032640 -0.015667  
-0.068570 -0.012400 -0.055810 -0.045415 0.071560 -0.062707 0.069899 -0.144073 0.108119 0.046588 0.000848 -0.050024 0.027735 0.039549  
0.029065 -0.004150 0.024309 0.054795 -0.072031 -0.088460 -0.002250 -0.029251 0.039249 0.021320 0.002861 -0.029000 -0.000731 0.014788  
-0.024503 0.067600 0.055385 0.071340 -0.039203 -0.080357 0.016233 -0.052169 -0.018836 -0.010705 0.027932 0.016349 -0.009397 -0.020872  
0.050819 -0.089899 0.043201 0.021211 -0.077086 -0.017841 -0.060829 0.074924 -0.046275 -0.058605 -0.012521 -0.009666 -0.056202 0.001042  
-0.110884 0.039258 0.037805 -0.164634 -0.064781 -0.112667 0.063114 0.011907 0.115915 -0.079967 -0.047112 -0.053532 -0.040404 -0.068988  
-0.003345 -0.024853 -0.043428 0.011412 -0.037710 -0.011978 0.017031 -0.040889 -0.031754 0.037619 -0.025986 -0.031183 -0.048578 -0.024983  
0.024539 0.005568 -0.059949 -0.098704 -0.047336 -0.080003 0.116151 0.011630 -0.038286 0.077342 -0.014815 -0.020579 0.009243 -0.057610  
0.001897 -0.044685 -0.152842 -0.038925 0.047885 0.017698 0.021838 -0.010930 0.034755 0.008652 -0.041699 -0.034073 -0.029995 -0.040060  
-0.058059 0.026517 -0.063419 0.006901 0.029371 -0.088744 -0.023320 0.063449 0.045085 -0.060322 0.005687 0.030651 -0.025611 -0.022956  
0.054782 0.035341 0.033842 -0.014475 0.009247 0.021410 -0.022447 -0.060235 -0.019082 -0.067400 0.031710 -0.019180 -0.044554 -0.051741  
-0.024138 0.002693 0.031483 -0.101511 -0.090588 0.012125 -0.000928 -0.075033 -0.034433 0.061225 -0.061129 0.033283 -0.033825 0.008770  
-0.126158 0.001365 0.105582 0.053378 -0.012537 -0.036391 -0.086898 -0.092661 0.020157 0.050521 -0.036174 0.010386 0.024130 -0.014742  
0.020159 0.003182 -0.018074 0.063977 -0.055966 0.080596 -0.111775 0.021095 -0.034597 -0.152556 -0.022541 -0.042715 -0.036435 0.000026  
-0.095385 0.035094 0.058273 0.031304 0.060951 -0.079158 0.028469 -0.094010 0.044837 -0.004678 -0.012721 -0.024998 -0.038183 0.013186  
0.017983 0.068944 -0.027379 -0.059183 -0.040457 -0.048240 -0.026742 -0.048712 -0.054916 0.045567 0.030338 0.012426 -0.002238 -0.007044  
-0.011893 0.003842 -0.031187 0.030968 -0.045756 -0.048607 -0.006626 0.043883 0.015440 0.066991 0.013373 0.009751 -0.009011 0.002093  
-0.101295 0.090953 -0.062024 0.060271 0.008239 0.054874 -0.051539 0.021947 -0.025135 -0.081006 -0.052996 0.006207 0.031854 0.009360  
0.028400 0.013014 -0.105871 -0.024953 0.039056 -0.068362 0.056677 0.053341 0.031230 -0.033008 -0.005206 0.002319 -0.025005 0.019669  
0.108892 -0.033012 0.030213 0.008625 0.059379 -0.127702 0.020235 0.049174 -0.040324 -0.036306 0.003340 -0.019838 0.036989 0.009845  
0.027718 0.029126 -0.010713 -0.012909 -0.009044 -0.012889 0.043375 -0.040247 -0.029378 -0.001229 -0.023866 -0.003201 0.005942 0.049102  
-0.018910 -0.008226 0.042305 0.037703 -0.020659 0.087691 -0.000921 -0.002286 0.016799 0.019282 0.040962 0.002626 -0.025140 0.036618  
0.015392 -0.067042 -0.018172 -0.084251 -0.028369 0.008192 -0.019772 -0.004949 0.088304 -0.040300 -0.029364 0.020101 -0.007381 -0.062419  
0.035055 -0.075884 -0.014564 -0.047998 -0.064225 -0.084572 -0.028886 0.028958 0.010626 0.027940 -0.057155 0.016360 0.030462 -0.015697  
0.074687 -0.052209 0.106519 -0.101874 -0.088792 -0.112226 0.088904 -0.074561 0.006395 -0.026869 -0.014268 -0.005894 -0.004133 -0.040366  
0.010595 0.054147 -0.049363 0.007143 0.013807 -0.013310 -0.049059 0.029775 0.006442 0.026568 0.042387 -0.025261 0.036637 -0.015885  
-0.056037 -0.058739 0.003758 0.067591 0.070384 0.009028 -0.101079 0.034488 -0.123127 0.025045 0.010035 -0.054775 -0.015185 -0.041914  
-0.029376 0.002151 -0.068605 -0.025249 -0.004013 0.007933 0.019739 0.019598 -0.028447 0.009442 -0.033819 0.019975 -0.015677 0.006241  
-0.081862 0.007305 0.001036 0.028720 0.037568 -0.082908 -0.032614 -0.015189 -0.058846 -0.049036 0.022471 0.018195 -0.029243 -0.027773  
-0.030508 -0.037080 0.031365 -0.053199 0.012892 0.035989 0.019020 -0.015057 0.032909 0.008779 0.041240 -0.012580 -0.029791 0.031161  
-0.011861 -0.004933 -0.098587 -0.011147 0.084073 0.077230 -0.055530 -0.074776 0.047752 -0.035558 -0.035899 0.013649 -0.039208 -0.042982  
-0.002187 -0.030272 0.009744 0.027407 -0.028737 0.010245 0.027148 0.026130 0.044430 -0.032928 -0.042294 -0.049399 0.030942 -0.033893  
0.065228 -0.099792 0.029482 0.043828 -0.005083 -0.037351 -0.013212 0.035611 0.047144 0.097788 0.008192 0.028385 -0.043304 -0.003786  
-0.030539 0.023093 0.070263 -0.059980 0.027404 -0.038096 0.000496 -0.031896 0.020079 -0.097383 -0.018269 -0.028296 -0.052896 -0.046749  
-0.015938 0.027029 -0.055324 -0.034798 -0.010206 -0.071186 0.140420 0.039897 -0.057272 -0.006319 0.006042 -0.021205 0.014983 0.025775  
-0.038764 -0.013660 -0.030461 -0.085922 0.024389 -0.111571 0.018825 0.037271 -0.069124 0.068113 0.024068 0.036438 -0.057801 -0.008138  
0.003016 -0.016249 -0.031157 -0.023719 -0.031267 -0.092917 -0.004027 -0.019005 0.017894 0.021034 0.003362 0.033468 -0.060479 0.013871  
-0.048420 -0.043177 -0.067081 0.006556 0.002889 -0.020562 0.033246 -0.035265 -0.002187 -0.000451 -0.056120 -0.051004 0.006897 -0.029139  
-0.019539 -0.025911 -0.022562 -0.006582 0.031466 0.010402 0.032343 -0.048307 -0.061218 -0.009721 -0.034342 0.030577 0.027222 -0.019394  
-0.075923 0.025562 -0.018489 -0.048630 0.098138 0.008040 0.067604 -0.010236 0.032403 0.023355 -0.041219 -0.009639 -0.028957 -0.038247  
0.085867 -0.010868 -0.041455 -0.096414 -0.060258 0.115589 0.013181 0.036027 -0.001334 0.060673 -0.018910 -0.044609 0.040840 -0.026213  
-0.018142 -0.000643 -0.021393 -0.058989 -0.004601 -0.017331 -0.009522 -0.020414 0.002495 0.014537 -0.052049 -0.054261 -0.020102 -0.068774  
-0.057482 0.021264 0.088732 0.040053 -0.007588 -0.045756 -0.002086 0.077591 0.003445 -0.075693 -0.023113 0.004870 0.008761 0.029403  
-0.089238 0.041539 -0.020553 -0.095962 0.052371 0.042101 0.033069 0.027945 0.083556 -0.024215 0.023011 0.020267 -0.012309 -0.056302  
0.055221 -0.054453 0.113406 -0.029355 0.001789 -0.163621 -0.001765 0.093918 -0.021913 -0.035795 -0.056894 -0.025067 0.002089 -0.010428  
0.043986 0.024921 -0.039387 0.027698 0.063228 -0.137741 -0.035109 -0.000118 0.035480 -0.030769 -0.002544 -0.060703 -0.063503 -0.014674  
0.016641 0.032677 -0.044437 0.004176 -0.031202 0.023763 -0.016786 -0.024138 -0.067691 -0.010484 -0.068640 -0.007137 -0.056535 -0.022709  
0.013022 -0.072090 0.050753 -0.129783 0.047213 0.084326 0.032272 -0.027125 -0.045476 -0.104879 -0.024541 0.029836 0.025211 -0.038371  
0.022700 -0.063002 -0.043378 -0.092134 -0.023876 -0.019859 0.040272 0.054829 -0.005456 -0.075013 -0.028790 -0.035035 -0.059456 -0.036125  
0.013455 0.024733 -0.001487 0.061888 0.073468 -0.041340 -0.014505 0.060247 0.059340 0.034584 -0.040405 -0.005765 0.002232 -0.030938  
-0.009219 0.052772 -0.044099 -0.043963 0.042757 0.080055 -0.008670 0.022420 -0.037303 -0.054931 0.019943 -0.031364 0.024306 -0.028403  
-0.047827 0.022266 0.099386 0.017998 -0.048090 0.052677 -0.052535 -0.033861 -0.017850 -0.031190 -0.023385 0.026610 -0.055605 -0.028066  
0.040699 -0.033628 0.013564 -0.082538 -0.022671 -0.024345 0.002554 0.024700 -0.037886 -0.037383 0.040529 0.042684 -0.044411 -0.000065  
0.039873 0.029894 -0.040259 0.049467 0.003139 0.006637 0.021355 0.007547 0.024615 -0.002833 0.013219 0.009755 -0.000540 0.008347  
-0.061054 -0.004937 -0.021874 0.033760 -0.073760 -0.043459 0.083322 -0.010478 -0.050935 -0.001678 0.015646 -0.013008 -0.011976 -0.004257  
-0.018594 0.027891 -0.023049 -0.054388 0.008014 0.054893 -0.051248 -0.060354 0.015244 0.030916 -0.014271 0.009527 0.021054 0.033303  
0.072944 -0.045736 -0.081667 -0.097675 0.018054 0.129032 -0.015440 -0.002533 -0.083399 0.007829 -0.051679 0.017147 0.039226 0.018744  
-0.051212 -0.020509 -0.102519 -0.000212 -0.043731 0.006928 -0.052172 -0.031534 -0.049481 -0.023740 -0.061331 -0.024334 0.030690 -0.003137  
-0.042281 0.002128 -0.053752 -0.017415 0.113295 -0.059659 -0.033373 0.112782 -0.039326 0.009937 -0.012228 0.030780 0.020668 0.022270  
0.025162 -0.028752 0.010236 -0.028078 -0.006760 -0.083001 -0.023378 -0.025801 0.030971 0.006286 -0.032913 -0.046059 0.033631 -0.004440  
0.040692 0.054843 0.074015 0.039334 -0.078787 -0.114742 -0.011228 0.012488 0.068069 -0.098379 -0.040102 -0.019095 0.031213 -0.036369  
-0.025758 0.012151 0.021062 -0.070220 0.036765 -0.070776 0.045994 -0.079052 -0.115451 0.013552 -0.032432 0.018864 0.027317 0.007680  
-0.002971 -0.022106 0.024960 0.001660 -0.063425 0.057586 0.039564 -0.032898 -0.019688 -0.004830 -0.044689 -0.059166 0.020232 -0.052246  
0.050241 -0.048940 -0.029089 -0.108672 0.023033 0.057690 -0.045089 0.052658 0.003794 0.010279 0.012055 0.001712 -0.037038 0.021679  
-0.062296 -0.000594 -0.103010 0.037171 -0.063242 0.032687 -0.015094 0.023468 0.010443 -0.059513 -0.001179 0.011546 0.024760 -0.057925  
0.008376 0.012855 -0.040000 0.001703 0.039775 0.044146 0.056500 -0.001271 0.030307 -0.075187 0.000343 0.001409 -0.013626 -0.010767  
0.064313 -0.015377 0.048380 0.048843 -0.103925 0.030556 -0.020577 0.019640 -0.036028 0.033372 0.015597 -0.032320 0.013049 0.026771  
0.089374 0.025571 0.115532 0.013093 -0.101323 0.062192 0.039313 -0.072239 -0.077811 -0.087771 -0.005882 0.021564 -0.042816 -0.025158  
0.014466 -0.019039 0.034411 -0.124669 0.033747 -0.095494 0.025734 -0.044803 0.114272 -0.009918 0.004423 -0.042637 0.037058 -0.023085  
0.040293 0.045556 -0.025629 -0.010061 -0.093382 -0.008490 0.106949 -0.035754 0.055785 -0.055828 -0.000771 -0.046447 -0.025156 0.010006  
0.014325 0.064358 -0.068806 0.002455 -0.032066 -0.025183 0.022147 0.006313 -0.029895 0.022554 -0.005096 -0.034838 -0.046225 -0.048495  
-0.069738 -0.027975 0.017929 -0.059484 0.034534 0.033400 -0.026817 -0.003511 -0.042791 -0.035135 0.024694 -0.024922 -0.006134 -0.008453  
-0.023473 0.022358 -0.031800 -0.027175 -0.038058 -0.020542 -0.035307 0.070359 0.014594 -0.102050 -0.003463 -0.031909 0.000143 0.003954  
0.033676 -0.006257 -0.100200 -0.065767 -0.019418 -0.057679 0.096813 0.053316 -0.062188 0.041911 0.020966 -0.011083 -0.007639 0.006295  
-0.129883 0.043173 -0.052969 0.092472 -0.110350 -0.054882 -0.092739 0.034708 0.097609 -0.071744 0.026441 -0.036477 -0.054846 0.022433  
-0.010361 -0.044785 -0.017343 -0.032811 -0.011762 -0.038046 -0.018215 -0.061057 -0.095091 0.015653 -0.052306 0.035161 0.031721 0.011752  
-0.004765 -0.044675 -0.031585 -0.000199 -0.115056 0.046480 -0.026501 -0.001469 0.050796 0.058967 -0.068372 0.015248 0.007449 -0.009183  
0.024168 -0.032547 -0.054428 0.046018 -0.156173 -0.014475 0.027119 -0.073204 0.136202 -0.115211 -0.017700 -0.006881 0.014336 -0.047268  
-0.039300 -0.020335 0.019327 0.001034 0.035458 -0.047826 -0.027112 -0.057232 0.007037 -0.015616 0.005118 -0.020145 0.028329 0.039683  
-0.061140 0.077133 -0.061157 -0.055872 0.006313 -0.036255 -0.033670 0.069790 -0.062183 -0.021343 -0.016162 0.033567 0.018760 -0.025501  
-0.008078 -0.000075 0.053743 -0.050416 -0.069512 0.028849 -0.009626 0.053303 -0.090869 -0.042230 -0.021532 0.006751 0.025765 0.034332  
-0.003489 0.048017 -0.046220 -0.030364 -0.029693 0.028994 -0.027569 -0.096322 0.081400 0.034458 -0.046002 -0.011040 0.031412 0.018116  
-0.012456 0.075950 0.030568 -0.079996 -0.023151 0.069905 -0.031691 -0.058007 0.080536 -0.008935 0.009160 0.030203 -0.027581 -0.013553  
0.041571 -0.103272 -0.028090 0.035150 -0.047045 0.050128 -0.012303 0.066324 0.029391 0.038365 0.023887 -0.020392 -0.023835 -0.016440  
0.042532 -0.003319 -0.008330 -0.053750 -0.051869 -0.042928 -0.049801 0.029203 -0.094951 0.105827 -0.002585 0.044978 0.042243 0.025337  
0.004221 -0.012205 -0.081211 -0.120503 -0.090614 0.081200 0.090817 -0.036390 0.100152 -0.016627 -0.031853 -0.022898 0.025794 -0.019943  
0.042507 -0.065146 0.052299 0.022793 0.069523 -0.018523 0.021421 -0.121303 -0.059561 -0.094128 0.001485 0.034917 -0.016016 -0.026253  
-0.012525 0.012254 0.012066 -0.047838 -0.033454 -0.007574 0.004085 0.023955 0.021573 -0.023504 -0.060866 -0.057078 -0.022763 -0.049731  
-0.078575 -0.054487 0.007465 -0.032735 0.112305 0.034840 -0.000368 0.032778 -0.084318 -0.039249 -0.012931 -0.039836 0.033805 0.036006  
0.061293 0.063601 0.080470 0.083752 -0.052382 -0.069521 -0.089676 -0.060654 -0.045355 -0.027459 -0.013903 0.028312 -0.038406 0.020191  
-0.019266 0.028961 -0.003629 0.024816 -0.069418 -0.056428 -0.120527 0.083337 -0.081729 -0.064992 -0.051600 -0.045423 0.021679 0.024539  
0.065245 -0.011932 0.015175 0.025088 0.034719 -0.049534 -0.019258 -0.042461 -0.049649 0.022862 0.039981 0.012212 0.019872 -0.006432  
-0.004791 0.026718 0.021044 0.081991 -0.058417 -0.007530 0.035195 0.082192 -0.055023 -0.035862 -0.014749 0.043771 -0.050255 -0.048990  
-0.034604 0.016072 0.042660 0.046377 0.014859 -0.039371 0.036247 0.013851 -0.053583 -0.024457 -0.009502 -0.018055 0.043104 0.034950  
0.027207 0.000615 -0.117011 -0.106697 0.021072 0.045337 0.031595 -0.106602 0.081487 0.030221 0.015315 0.020883 -0.055132 0.026171  
0.009563 -0.050783 0.107909 -0.012191 -0.090670 0.037361 -0.103591 -0.004583 -0.037580 0.053040 0.023783 -0.009465 0.005624 -0.011315  
0.076146 0.036567 -0.023089 0.063716 -0.101318 0.064861 0.060979 -0.093030 0.014339 -0.119411 -0.005245 -0.045706 -0.018926 0.001951  
0.009529 -0.025355 0.033785 0.004463 0.066422 0.027488 0.067045 -0.089482 -0.066380 -0.144149 0.021470 0.034877 0.019786 -0.045216  
-0.026698 -0.066352 -0.052523 -0.042562 0.038061 0.057336 0.011810 0.006933 0.043176 -0.053287 0.034882 -0.033626 -0.012693 0.033933  
0.037376 -0.060206 0.049608 -0.014391 0.022218 -0.015170 0.004658 -0.061869 0.000131 -0.033844 0.020800 0.010024 -0.036433 -0.054744  
-0.016995 -0.028296 0.026543 -0.048889 0.064284 -0.061701 -0.069622 0.006118 0.090087 0.012954 0.024367 -0.039441 -0.009113 -0.057754  
-0.005131 0.017787 -0.100610 -0.060329 -0.055354 0.082630 0.011889 -0.077075 0.065781 -0.103320 -0.050645 -0.030269 -0.048041 -0.006673  
-0.029418 -0.029903 -0.011225 -0.041225 -0.068582 0.060893 -0.039209 -0.012210 -0.031209 -0.070703 -0.045604 -0.019048 -0.044769 -0.038855  
-0.057980 -0.041351 -0.036171 0.043845 -0.010085 -0.046251 0.046436 -0.001425 -0.027042 0.021310 -0.020701 0.033188 0.005958 -0.066318  
-0.095452 0.001905 -0.105415 -0.111860 0.046249 -0.019214 0.169505 -0.092701 -0.113340 0.029692 -0.016109 -0.039987 0.004338 0.030083  
-0.096013 0.028376 0.015821 -0.020072 -0.090679 0.006450 0.094065 0.036524 -0.062474 -0.036792 0.011957 0.011503 -0.019674 0.002604  
-0.079606 -0.009462 0.010580 0.044374 -0.021339 -0.050582 -0.028295 0.062351 0.015709 -0.057596 0.015477 -0.024065 0.026706 -0.017546  
0.048019 -0.049979 0.079666 -0.051907 -0.000067 -0.083224 -0.016862 0.118085 -0.018451 -0.038432 0.009704 -0.018792 -0.034405 0.026345  
-0.052718 -0.026683 0.066513 0.035820 -0.072209 0.051220 0.015326 -0.040740 -0.104478 -0.000558 0.033859 -0.030329 -0.033748 -0.051761  
-0.062339 -0.054741 -0.043558 -0.000342 -0.031563 0.001630 0.028586 0.009746 -0.002039 -0.063432 -0.065425 -0.055681 -0.061387 -0.054115  
0.032057 -0.009079 -0.031930 0.060421 0.035246 -0.066576 -0.018981 0.054640 -0.072230 0.037048 0.025333 -0.048684 0.010803 -0.035207  
0.088146 0.000117 -0.111210 0.054704 -0.019286 -0.012778 -0.082950 0.120050 -0.067466 -0.028491 0.038976 0.015910 0.005138 -0.047021  
-0.012218 0.050333 -0.084860 -0.040613 0.034987 -0.027450 -0.091953 0.009062 0.015739 -0.020314 -0.000268 0.009329 -0.006266 -0.042095  
-0.042285 -0.046586 0.000570 -0.069781 -0.089252 0.052557 -0.011766 -0.039183 -0.020796 0.026073 -0.048579 0.031148 0.025568 -0.049681  
-0.047356 0.024389 -0.063169 -0.062000 -0.066338 0.049587 -0.010251 -0.026957 -0.133914 0.025216 0.033602 0.037846 0.044105 -0.033321  
-0.004613 0.024730 -0.018017 0.059021 0.034908 0.113104 0.018084 -0.038562 0.008140 0.000816 -0.015985 0.004324 -0.026507 -0.013531  
0.066849 -0.058981 -0.024445 -0.036008 0.004566 0.001342 0.006938 0.038195 -0.043699 -0.084068 -0.013946 0.041832 -0.025545 0.044002  
0.075706 0.012472 -0.012454 -0.051097 0.121050 0.052661 -0.054951 0.013931 -0.081593 -0.079977 -0.035401 0.033750 -0.049954 -0.000233  
-0.056477 0.013852 -0.025463 0.047936 -0.001812 0.005229 0.008933 0.006215 -0.024880 -0.095368 -0.047774 -0.018845 -0.021133 0.005221  
-0.018417 -0.041205 -0.042337 0.029140 0.042013 0.038200 -0.078847 -0.004667 -0.088939 0.011846 0.031791 0.007028 -0.041273 -0.048598  
0.038996 -0.034904 -0.075597 0.028946 0.009661 0.018034 -0.007649 -0.095518 0.028706 -0.035265 -0.047268 0.015730 0.009218 -0.020488  
0.073038 0.000824 0.008881 0.009313 -0.042487 0.013547 -0.010736 0.062217 -0.068651 -0.061193 -0.047225 -0.043225 0.001025 -0.046598  
-0.052059 -0.014414 -0.057755 -0.005431 -0.033570 0.014986 -0.044931 -0.027108 -0.058575 -0.011452 0.006529 0.008373 -0.044043 0.013193  
0.001698 -0.047745 -0.037444 -0.092981 -0.051066 -0.046366 -0.016509 -0.016835 -0.003429 0.037126 -0.052739 -0.040542 0.016187 0.000882  
-0.013862 -0.087010 -0.042700 -0.057471 -0.112035 0.128256 -0.055640 0.029607 0.009136 -0.010193 -0.001157 -0.057353 -0.019051 0.028344  
0.047911 -0.030859 -0.023477 -0.068094 -0.087215 0.080332 -0.030669 0.018755 -0.116625 0.088919 -0.045380 0.022397 0.036695 0.008016  
0.021591 0.036204 0.053032 -0.010105 -0.035891 -0.058633 -0.028285 -0.029675 -0.056914 -0.028328 0.014242 0.011329 0.014981 -0.015994  
0.019666 -0.100742 0.043357 0.005741 -0.051855 -0.011141 -0.028591 -0.032677 0.028754 -0.031750 0.010457 -0.055762 0.028131 0.025728  
0.054664 -0.005711 0.095101 -0.004314 -0.083980 0.138502 0.023482 -0.012605 -0.042602 -0.131880 0.021911 -0.049638 -0.023589 -0.030394  
-0.019005 -0.045322 0.045338 0.023122 -0.027040 0.089894 -0.070303 -0.000324 -0.006499 -0.144635 -0.003331 0.008316 -0.043643 -0.000602  
-0.093428 -0.000206 0.034723 -0.028853 0.035367 -0.056957 0.071438 0.051724 -0.080266 0.006150 -0.012588 0.009929 -0.016508 -0.006583  
-0.042063 -0.066182 -0.044297 0.026101 -0.046728 0.023446 0.106488 -0.035703 -0.041660 -0.074065 0.015929 0.000414 -0.024107 -0.040184  
-0.069323 0.008444 0.098721 -0.078837 0.049303 -0.004210 0.003835 -0.126547 -0.128121 0.057446 0.021087 -0.014308 0.029771 0.018705  
-0.055090 -0.008908 -0.012084 0.028850 -0.045876 0.030035 0.000080 0.021440 0.002437 0.022316 -0.060547 -0.031856 -0.022266 -0.004848  
-0.110963 0.098282 -0.065478 0.038785 0.116557 -0.023690 -0.095765 0.030583 -0.089747 -0.007245 -0.024196 0.022594 0.024393 -0.027852  
-0.037908 0.037282 -0.055493 -0.019493 -0.066334 0.014966 0.041232 -0.063091 -0.064526 0.040187 -0.019974 -0.032231 0.026376 0.015976  
0.036852 0.006498 0.002138 0.032403 -0.134960 -0.075004 -0.003859 0.020701 -0.069366 -0.017125 -0.005484 -0.042943 -0.061211 -0.047975  
-0.056684 -0.022641 -0.022940 0.020480 -0.086265 0.039759 0.018305 -0.068731 0.009695 0.103624 -0.036794 -0.035864 -0.057094 0.012632  
-0.017609 -0.111787 0.066221 0.048032 -0.080668 -0.007485 -0.070722 0.001450 -0.088100 0.031348 -0.007038 -0.036776 -0.009212 -0.060249  
0.004888 0.028171 -0.004390 -0.054255 -0.024325 -0.049771 0.060509 -0.036538 0.071387 0.023516 -0.021517 -0.059535 -0.010880 -0.045871  
-0.077879 0.035933 -0.026781 -0.008349 -0.018773 -0.069878 -0.117540 -0.052686 -0.034844 -0.017836 -0.045967 -0.061387 0.019796 -0.031446  
-0.104881 0.014977 0.022236 0.024187 0.040609 0.055568 -0.019503 -0.081689 0.072649 -0.034718 0.010768 -0.031961 -0.042794 -0.027196  
0.006671 0.034552 -0.024715 -0.062147 0.038018 0.038823 0.033906 -0.045138 -0.049867 0.034616 -0.040484 -0.030009 0.027636 -0.004303  
-0.018237 0.012989 -0.059483 0.011079 0.023352 0.089633 -0.008822 0.016067 -0.059364 -0.134582 0.014591 -0.013276 -0.011098 -0.047628  
0.037984 -0.070381 -0.017538 -0.039008 -0.012131 -0.035818 0.017459 0.014758 -0.048724 0.036805 -0.038246 -0.058839 -0.053087 -0.002050  
0.044983 -0.015979 -0.038902 -0.065772 0.002095 -0.009540 -0.002052 -0.025793 -0.030283 -0.003729 0.037119 0.042872 0.031682 0.032955  
-0.018344 0.067165 0.018948 -0.062044 -0.042631 -0.076487 0.004735 0.051388 0.026825 -0.026871 -0.043024 -0.027754 0.029603 0.007053  
-0.058529 -0.030546 -0.043608 -0.002477 -0.039968 -0.052634 -0.032163 -0.011317 -0.051879 -0.043860 -0.068990 -0.013909 0.024965 -0.004781  
-0.101354 -0.008810 0.043346 -0.068284 -0.019262 -0.062248 0.023712 -0.041993 0.056558 0.071754 -0.042098 0.017620 -0.028410 0.006659  
0.005071 -0.120494 0.043474 0.005096 -0.119729 0.050643 0.070052 -0.010016 -0.022649 -0.025038 -0.028573 -0.045724 -0.013428 -0.043255  
0.034764 -0.012053 0.025623 0.015977 -0.005269 -0.075794 0.007365 0.000494 0.032154 -0.070416 -0.038497 0.020145 -0.016484 -0.029009  
-0.035883 -0.064055 0.018541 -0.052848 -0.003743 -0.030153 -0.038206 0.025940 -0.026125 -0.020145 -0.060374 0.030205 -0.042975 -0.001241  
0.029707 -0.037400 -0.008044 -0.031313 -0.051549 0.058608 -0.033788 -0.043484 -0.038453 0.012149 0.019810 -0.024418 -0.042631 0.000124  
0.026626 0.013693 -0.068263 -0.053670 -0.000161 -0.030254 -0.019550 0.054560 -0.002978 0.087822 -0.035049 0.008691 -0.004536 -0.006255  
0.063257 -0.000016 -0.032897 0.033922 -0.012026 0.144211 -0.026090 -0.020199 -0.127121 -0.047537 0.031107 -0.050172 -0.011829 -0.025678  
-0.066978 0.014857 0.002063 -0.022570 -0.008963 -0.022179 0.021837 0.058935 -0.006691 -0.046456 -0.046773 -0.000408 0.008451 -0.060890  
-0.035854 0.029528 -0.087400 0.042086 0.004920 0.099634 -0.005905 0.027855 -0.015107 -0.069034 -0.024602 0.043779 0.000753 0.023262  
0.010248 -0.048516 -0.004619 -0.048453 0.028376 -0.028036 0.012723 0.025082 -0.011084 0.024110 0.027925 0.012628 -0.059856 -0.002039  
-0.082115 0.059049 0.048687 0.086946 -0.001515 -0.085676 -0.011154 -0.075310 -0.103282 -0.018337 -0.001385 0.038459 0.003619 -0.046433  
0.025428 -0.016094 -0.054745 -0.063440 0.005762 -0.027715 0.034004 0.017442 -0.016196 0.010949 0.012566 -0.023758 0.037113 0.009193  
0.035062 0.024052 -0.096060 -0.029796 -0.077810 0.070230 -0.062184 -0.043848 -0.002919 0.020205 -0.045922 -0.017275 0.038568 0.032395  
0.051669 0.013224 0.065491 0.005896 0.017889 -0.069763 0.074644 0.043216 -0.100761 -0.023730 0.028986 0.005961 -0.045086 0.028884  
0.002808 -0.014755 -0.101884 -0.042510 0.055521 0.009764 -0.101556 0.047566 0.000418 0.058676 0.031128 -0.040307 -0.061904 -0.014075  
0.008933 0.040906 -0.059156 0.025485 0.004956 0.011177 -0.040200 -0.041100 0.035636 0.065428 0.014873 0.010401 0.004392 -0.021551  
