-0.020636 -0.009023 0.040616 -0.000715 -0.034364 0.032125 -0.018925 -0.039960 0.075896 0.038562 -0.046080 -0.022642 -0.013104 0.025462  
-0.077684 0.030043 0.239570 -0.001415 -0.193852 -0.089551 -0.217922 0.005355 0.147560 0.135173 -0.132120 0.000450 0.048281 -0.082902  
-0.038364 0.013973 0.029975 -0.097510 0.071251 -0.024572 0.040203 0.046843 -0.015328 -0.060252 0.038127 -0.016556 -0.053755 0.016829  
-0.067387 -0.011262 -0.110171 -0.065370 0.054552 0.031150 -0.039566 0.017250 -0.095525 -0.001500 -0.034845 0.089689 0.040547 -0.000604  
-0.006740 -0.004920 -0.017174 -0.075320 -0.262958 -0.109965 -0.031064 -0.115186 0.126555 0.086607 -0.014266 -0.051524 -0.057384 0.096150  
-0.080951 0.128312 0.005391 0.051667 0.023883 -0.004542 0.045603 0.057883 -0.065314 -0.058579 -0.012629 -0.070133 -0.052292 0.065432  
0.017585 0.016704 -0.011145 0.066390 -0.018232 -0.009555 0.100083 -0.049551 -0.101098 0.130847 -0.173158 -0.043933 -0.062363 0.111062  
-0.027492 0.082161 -0.053036 -0.022266 0.071120 -0.171758 0.022071 -0.093495 0.043339 0.250948 -0.329809 -0.063861 0.054152 0.072511  
0.127031 -0.057838 0.077043 -0.093920 -0.131759 -0.008913 -0.018575 -0.032011 0.092798 0.089532 0.081075 -0.092581 0.006243 -0.034907  
-0.029181 -0.033999 0.057006 -0.025781 0.017318 -0.040830 -0.007410 -0.026988 0.057084 0.045067 0.093922 -0.034840 -0.054392 -0.038905  
-0.147107 0.157241 -0.294399 0.129875 -0.020340 0.192738 -0.219901 0.113333 0.093666 -0.199044 -0.010810 0.018468 -0.023837 0.113141  
0.095089 -0.015149 -0.077782 0.061566 0.067791 -0.130618 0.083376 0.024613 0.116398 0.067642 -0.065601 0.011204 -0.017024 -0.331554  
-0.145907 -0.145662 -0.065570 -0.149138 -0.043041 0.132171 -0.045551 -0.084879 -0.215726 0.180546 0.081033 -0.011538 -0.015969 0.219850  
0.045730 -0.028296 -0.221628 0.079024 -0.030428 -0.046044 0.175992 -0.089083 -0.204616 -0.160201 0.159934 0.054161 0.069381 -0.038033  
-0.000289 -0.122395 -0.034998 0.066830 0.004073 0.052596 0.008348 0.058366 0.034827 -0.064728 -0.051887 -0.105406 -0.033549 0.064958  
-0.237944 0.071531 -0.224818 0.061518 0.161758 -0.055523 -0.190758 0.052235 -0.021867 0.178479 -0.090071 0.103399 -0.061127 0.143730  
-0.057138 0.005836 0.175375 -0.191887 -0.069333 -0.044100 0.067486 0.000746 0.028277 0.028653 0.031562 -0.143758 -0.044980 0.122077  
-0.012090 -0.093957 0.015702 0.102461 -0.004540 -0.133335 -0.065752 -0.001655 -0.107201 0.023320 0.019281 -0.045691 0.000036 0.032616  
-0.053207 -0.057078 -0.102870 0.006678 0.057532 0.050143 0.001764 -0.059712 -0.016700 -0.100614 0.144422 0.020861 0.007617 -0.029505  
-0.029616 -0.064308 -0.014107 -0.058413 -0.058440 0.025231 -0.040227 -0.061453 -0.055325 0.036143 -0.075958 -0.057272 -0.028366 -0.007643  
0.007253 0.077880 -0.080237 0.033765 -0.037414 0.014194 -0.069937 -0.053162 -0.031384 -0.048855 -0.097845 -0.049265 0.092873 -0.033720  
-0.050251 -0.089265 -0.073930 0.007748 0.002588 0.143819 -0.056941 -0.009428 0.032963 -0.105484 -0.046542 0.077576 -0.035972 0.155450  
0.069479 -0.099759 0.076937 0.047127 -0.031264 -0.082032 -0.085702 0.025482 -0.071073 0.021100 0.027659 -0.044873 -0.081616 -0.036805  
0.005355 -0.069991 -0.077562 -0.068619 0.032646 0.066987 0.117146 -0.100814 0.058772 -0.006627 -0.088317 -0.050718 -0.064634 0.015068  
0.039472 0.077729 0.051319 0.009838 0.118252 0.090015 -0.172971 0.029689 0.105941 0.133687 -0.083272 -0.075596 0.000160 -0.105845  
0.111766 0.105939 0.105511 -0.046809 -0.114900 0.018714 -0.074392 0.023977 0.166313 -0.137590 -0.073850 -0.052531 -0.001709 -0.093062  
0.030052 0.006093 -0.131695 -0.139656 0.043944 -0.010254 0.032956 0.084760 0.082507 -0.073603 -0.037302 0.066246 -0.119664 -0.076352  
0.092584 -0.028274 -0.092203 0.024264 -0.088092 0.093855 -0.032385 0.019271 -0.072914 -0.123615 -0.022030 0.025412 -0.046445 0.018479  
-0.189566 0.216319 -0.209703 0.013786 -0.122425 -0.016474 -0.201329 0.017707 0.080602 0.010462 -0.066825 0.052456 0.004243 0.017133  
-0.244442 0.103852 -0.088696 0.116310 0.044208 0.013697 -0.136929 0.093034 0.043099 0.009914 0.072932 -0.015028 -0.122313 0.118646  
-0.084086 0.035370 -0.062383 0.090828 0.102356 0.154572 -0.008365 0.023396 0.079027 0.087726 0.065481 -0.123512 -0.199208 0.152349  
0.055372 -0.144458 0.025394 0.052207 -0.048307 0.044658 0.084629 -0.091258 0.100878 -0.152784 -0.088514 0.053333 -0.001394 0.082765  
-0.087647 -0.066293 0.088446 0.045071 -0.122759 -0.055465 0.013196 -0.131242 0.075490 0.119272 0.118439 -0.073810 0.034451 -0.029323  
-0.095412 -0.085365 0.058977 -0.127251 0.032802 -0.159497 -0.027942 0.009320 -0.024711 0.140657 0.081543 -0.033176 -0.008269 -0.035499  
-0.005791 -0.012472 0.009671 -0.151918 0.083214 0.155420 -0.019221 -0.047072 0.018385 -0.134506 -0.021194 0.018238 -0.017264 0.032349  
-0.053551 0.079955 -0.011277 -0.122312 0.014105 0.059390 0.216963 -0.065725 -0.120436 -0.255743 0.059978 0.028045 -0.093281 -0.154325  
-0.002195 -0.100155 0.064645 0.111508 0.088797 -0.212052 -0.002748 0.010702 0.070215 0.076899 -0.011930 -0.033430 -0.180975 0.012599  
0.101011 -0.027986 -0.077838 0.033397 0.239555 0.016365 0.203984 -0.097549 -0.113328 -0.245721 -0.119983 0.096625 0.001685 -0.110218  
0.144366 0.004243 0.021173 -0.127282 -0.054229 -0.218623 0.037007 -0.029056 -0.021847 -0.015534 -0.117618 0.014905 0.034062 0.010864  
0.038064 0.058959 -0.064853 0.129948 -0.176131 -0.036037 -0.016222 -0.121487 0.158062 0.143298 0.060888 0.089161 0.101599 -0.111588  
-0.099494 0.168595 -0.141859 -0.189925 -0.030797 0.139690 -0.156835 0.014917 -0.060054 -0.125723 0.143452 0.079557 -0.065528 -0.032800  
-0.077830 0.056784 -0.033591 -0.087945 -0.101131 -0.000342 0.083244 0.003049 -0.077743 -0.044679 -0.013437 0.080940 -0.076238 -0.054596  
-0.070398 -0.068576 -0.002820 -0.063383 -0.064710 -0.054634 -0.018329 -0.079624 -0.075187 -0.037129 -0.000557 0.006945 0.003832 -0.052621  
0.089174 -0.132382 -0.023485 0.127418 -0.046117 -0.092702 0.028148 -0.075861 -0.027032 0.079883 -0.022232 -0.008133 0.156270 -0.067957  
0.050817 -0.010295 0.073658 -0.114545 0.014058 0.056689 -0.026044 -0.017185 -0.098916 -0.001870 -0.046468 -0.102829 0.070453 -0.131361  
0.148863 -0.041977 -0.086379 0.086879 -0.110858 0.207576 -0.046753 0.080504 0.333651 -0.085206 -0.166757 0.003127 -0.059431 -0.135890  
0.038339 -0.059651 -0.032420 0.052043 -0.178935 0.302995 -0.107683 0.113305 -0.102445 -0.132236 -0.008554 -0.019877 -0.030172 -0.066095  
0.093564 -0.013065 0.015999 -0.005521 0.027467 -0.038614 0.068023 0.031050 -0.051447 -0.068560 -0.008358 -0.038722 -0.119974 -0.002368  
-0.073111 -0.120754 -0.047355 0.127052 -0.179203 -0.091540 -0.121461 -0.051749 -0.002455 -0.146082 -0.132848 0.218180 -0.006361 -0.066993  
0.179090 -0.163955 -0.057589 0.001232 -0.053142 -0.196861 -0.033903 -0.002320 0.018441 0.062719 -0.056287 0.024970 0.037475 -0.083401  
0.122150 -0.093915 -0.146288 -0.166131 0.066010 0.008133 -0.032817 -0.134732 -0.054820 -0.026449 -0.033865 0.104295 -0.051226 -0.078466  
-0.185361 0.139319 -0.253875 -0.096811 0.002774 0.055795 -0.141677 0.147445 0.171182 0.178249 0.083765 0.037681 0.094416 -0.158898  
0.051522 0.010070 0.009923 0.017077 0.004150 -0.063182 -0.037326 0.085812 -0.048024 -0.061363 -0.000847 0.005463 0.018096 0.018669  
-0.105430 -0.067849 -0.117019 -0.128043 -0.137030 -0.121440 0.052111 0.002337 0.054909 -0.170280 -0.100659 0.122060 -0.031959 0.207929  
-0.163340 -0.082986 -0.053642 -0.072817 0.239682 -0.212851 -0.047712 0.093472 -0.192861 0.254098 -0.133144 0.062846 0.015027 -0.133389  
0.037279 0.026644 -0.023935 0.091782 -0.048441 0.016589 -0.036597 -0.016864 0.008280 -0.037600 0.022091 -0.019821 0.041347 0.068975  
-0.074178 0.174134 -0.127926 0.056132 -0.133261 -0.025769 -0.077710 0.006606 0.017859 -0.093541 -0.144129 0.096381 0.107467 0.142264  
0.135425 -0.240578 0.251326 0.082023 0.052096 -0.164270 -0.177685 0.046590 0.084670 -0.123863 0.040970 -0.090031 -0.006875 -0.248701  
0.012874 -0.026924 0.028959 -0.024362 -0.018501 -0.072425 -0.112205 -0.112928 0.030287 0.030855 -0.051934 -0.017616 0.009456 -0.040475  
-0.029303 -0.074675 0.044248 0.044238 -0.001234 -0.140138 0.031122 -0.023871 -0.115403 -0.094157 -0.045762 0.033678 -0.063464 -0.067365  
-0.121362 0.048409 0.119431 -0.012298 0.068446 -0.205013 -0.030945 -0.095307 -0.028265 -0.073501 -0.034112 0.062995 -0.070796 0.095456  
0.121523 -0.065522 0.008808 0.144731 -0.049513 -0.001924 0.008086 -0.024032 -0.069332 -0.028699 -0.030435 0.010574 -0.051072 -0.029745  
-0.069542 0.100837 -0.274203 -0.192408 -0.077903 -0.074362 0.135330 -0.044144 -0.124040 -0.165428 0.078085 0.024308 -0.024063 0.089652  
0.025602 0.123073 -0.165846 0.092306 -0.000051 0.133640 -0.111269 0.138259 0.170643 -0.133834 -0.201171 0.005923 -0.132465 -0.187556  
-0.035020 0.041907 -0.025922 -0.063303 -0.092694 -0.014078 -0.076385 -0.050729 -0.075421 0.000392 0.014815 -0.039010 -0.011230 0.032718  
0.067164 0.028666 0.037845 0.113107 -0.102868 -0.061669 -0.045272 0.034770 -0.092711 0.045546 -0.035903 0.067415 0.043556 0.057326  
-0.050395 0.183868 -0.101667 -0.040267 0.103610 0.066885 -0.274778 -0.008051 0.024213 0.115596 -0.038268 0.046973 -0.109196 -0.067068  
0.145411 -0.133763 -0.031185 0.195849 0.094603 0.047613 -0.226273 -0.186958 0.256167 -0.031005 -0.094484 -0.003764 0.134197 -0.191662  
-0.040273 -0.060492 -0.061335 -0.065586 0.014607 0.024141 0.031487 0.042942 -0.005800 0.003216 0.093738 -0.146520 -0.017386 0.028856  
0.046743 0.075640 0.068233 -0.130192 -0.156358 -0.048030 0.111584 -0.010007 -0.009839 -0.076114 -0.226459 0.008197 0.023159 0.036486  
0.117009 -0.087483 -0.128279 0.219746 0.015861 -0.143323 -0.159523 0.045511 -0.195345 0.072006 0.003739 0.011499 -0.003034 -0.173300  
0.038446 -0.101357 -0.026316 0.076691 0.102971 0.043014 -0.195360 -0.039009 -0.041871 0.097859 0.083768 -0.090486 0.021821 -0.087017  
-0.046885 -0.088284 -0.103548 -0.164843 0.070330 0.075090 0.077105 0.105040 -0.001697 0.142381 -0.067858 -0.035378 -0.041408 -0.051861  
-0.168403 0.122810 0.052580 -0.098776 -0.033717 -0.137029 -0.108910 0.144624 -0.125266 0.190932 0.119696 -0.075649 -0.096170 -0.113796  
-0.005361 -0.082130 -0.012639 -0.018010 0.001312 0.005015 0.016037 -0.064885 -0.024670 -0.063083 -0.055922 -0.049306 -0.030388 -0.037835  
0.164509 -0.172498 -0.078268 -0.174185 -0.112151 -0.035332 0.030438 -0.140907 0.122289 -0.123031 0.056218 0.089350 0.108292 -0.187575  
0.213812 -0.162047 0.117768 -0.239677 -0.167216 -0.245510 0.100403 0.195848 0.019719 -0.083798 -0.106141 0.068391 -0.003124 -0.096417  
0.106907 -0.120952 -0.033403 -0.146639 -0.149075 -0.043197 -0.044995 -0.032819 0.113711 0.215903 0.039385 -0.045514 0.075836 0.022224  
-0.259351 -0.044449 -0.003932 0.064618 0.005184 0.136294 0.048320 -0.086363 0.075644 0.092007 -0.074219 0.036967 -0.011333 0.007113  
-0.068759 0.096259 -0.127660 -0.113366 0.006108 0.102255 -0.023953 -0.030448 -0.123367 0.046220 -0.098103 0.020352 0.144441 -0.138769  
-0.022747 -0.050475 0.001849 -0.032730 0.014354 0.003021 0.004652 -0.023247 0.025506 -0.008914 0.017256 -0.015644 -0.022211 0.020258  
-0.023039 0.088528 -0.169743 -0.031663 0.067327 -0.099773 -0.105275 -0.062961 -0.140390 0.082813 -0.168461 0.139781 0.050249 0.042540  
0.021021 0.023697 0.004045 0.076620 0.056153 -0.103872 0.057418 0.054745 -0.001662 -0.184125 0.005963 -0.043446 0.051229 -0.053497  
-0.131832 0.180416 0.038952 0.204422 0.034455 -0.259617 -0.076647 -0.034682 0.035994 -0.083063 0.049686 -0.088074 -0.014948 -0.004596  
0.058074 0.075107 0.088916 -0.030249 -0.105266 -0.107612 -0.116509 -0.065420 0.081298 -0.108026 -0.095968 -0.064004 -0.004091 0.060296  
-0.070710 -0.032655 0.087656 -0.086356 0.130150 0.042671 -0.053347 0.189497 -0.027682 0.036851 -0.101081 0.050069 -0.055068 0.047348  
-0.067834 0.085525 -0.155731 0.057128 -0.084063 0.072559 0.069900 0.078859 0.177036 -0.039445 0.058826 -0.113623 0.051273 -0.061544  
-0.039134 -0.016354 0.008699 0.042141 -0.147174 0.039312 0.020700 -0.047542 -0.085189 0.129076 -0.054152 -0.043063 -0.044158 -0.073498  
-0.001789 0.092392 -0.090803 -0.111753 -0.000987 -0.022803 -0.092508 0.002946 -0.071949 -0.075144 -0.061126 0.103060 0.053974 -0.064245  
-0.058547 -0.047407 0.010912 -0.091705 0.070993 -0.055072 -0.034995 0.031713 0.055650 0.000625 -0.067579 0.033415 -0.082672 0.032389  
0.087832 -0.018123 0.072448 -0.028830 0.112906 -0.045672 -0.127745 -0.004761 0.189868 -0.029698 0.027305 -0.046912 -0.007790 -0.040874  
-0.008836 -0.028926 0.064078 0.013349 0.122089 -0.134816 -0.145142 0.032393 -0.189495 -0.014901 -0.094736 0.060305 -0.020972 0.001313  
-0.072627 0.030196 0.093114 -0.041167 0.080633 -0.063215 -0.097245 0.112150 -0.135302 0.007109 0.007586 0.026053 0.032899 -0.027868  
0.031253 0.005952 -0.113308 0.001095 0.000501 0.145639 -0.012675 0.059796 0.065376 0.091863 -0.037094 -0.010262 -0.027458 -0.028068  
-0.063040 0.138150 -0.161692 -0.020052 -0.085069 0.173638 -0.050764 -0.053911 -0.168961 -0.040391 0.030644 0.085427 -0.053829 -0.057262  
-0.024794 0.014367 0.083918 0.105177 -0.277572 -0.174909 -0.110929 0.309849 -0.189946 0.093643 -0.095770 -0.040083 -0.015820 0.034522  
-0.024945 0.149791 -0.235388 0.103254 -0.249396 -0.006003 -0.274136 0.064905 0.202873 0.130093 0.111368 0.026751 -0.020436 -0.163611  
-0.154073 0.032470 0.034438 -0.115482 0.082261 0.127228 -0.043870 0.022414 0.054961 0.015954 0.135155 -0.070740 -0.026364 0.003918  
0.127137 -0.127334 -0.056041 -0.082156 -0.067166 -0.079949 0.098067 -0.117917 0.030412 0.055382 0.017760 0.030034 0.024680 -0.036725  
-0.015764 -0.143108 0.140956 0.071645 0.020645 -0.002577 -0.124165 0.023557 0.003497 0.084217 0.068191 -0.091134 -0.104835 -0.053570  
-0.080223 0.033369 0.025744 0.104444 0.103687 -0.118975 0.055308 0.061821 0.032632 -0.170469 -0.100910 -0.032215 -0.074962 0.023198  
-0.042718 -0.066562 0.002789 -0.124296 -0.023628 0.077136 0.103361 -0.132229 0.116506 0.143128 -0.004696 0.023046 -0.062114 0.022112  
0.036537 -0.098248 0.108770 -0.072896 0.045641 -0.034912 0.028260 0.006188 -0.013495 0.037479 -0.011819 -0.055651 0.060779 0.004550  
0.088758 -0.102997 -0.226659 -0.033721 0.044282 0.159599 0.160404 -0.196738 0.092708 0.117106 0.074747 -0.012578 0.054064 -0.046538  
-0.044669 0.050341 -0.042879 0.172821 -0.032975 -0.128592 -0.029347 0.038739 -0.126560 -0.069124 -0.072147 -0.015417 0.012036 0.023988  
-0.117033 -0.122186 0.006899 0.085815 -0.151053 0.070322 -0.115164 -0.045724 -0.121083 0.003354 -0.049978 0.041333 0.034055 0.051584  
0.005913 -0.013017 -0.050304 -0.054830 0.068937 0.063519 -0.050156 -0.018592 0.051525 -0.025309 -0.068299 -0.005879 0.020360 -0.050717  
-0.141665 -0.105937 -0.143923 -0.113529 0.197026 -0.047994 0.184669 -0.058042 -0.011245 -0.247412 0.071037 0.063139 0.016064 -0.023520  
-0.039416 0.035889 -0.075614 0.067815 -0.137419 -0.198269 0.037896 0.016063 -0.034222 0.116271 -0.073837 -0.088064 -0.007909 0.031375  
-0.094586 -0.086075 -0.056950 0.007006 -0.003334 0.023548 -0.018561 -0.074107 -0.065901 -0.114767 0.095649 0.049408 -0.058730 -0.049170  
0.074583 -0.001223 0.064212 0.151143 -0.199668 0.046039 0.085764 -0.255547 0.080466 -0.076312 -0.021235 -0.026655 -0.037465 0.047299  
0.092671 -0.018268 -0.208044 0.200847 0.171986 0.148610 -0.175200 0.006336 -0.314958 -0.061254 -0.152435 0.076706 -0.041285 0.128439  
0.060613 0.063690 0.001163 -0.079931 -0.088075 0.168927 -0.010981 -0.020774 -0.098425 -0.109465 0.011574 -0.046238 -0.004850 -0.055802  
0.059157 -0.047292 -0.054832 0.109555 -0.136711 0.198858 -0.134371 0.079209 -0.043421 0.066765 0.070045 0.058126 -0.020712 0.036894  
-0.054238 -0.005595 0.007598 0.015461 0.041393 0.049116 0.029917 -0.008627 -0.046217 -0.032017 0.034506 -0.001708 0.034025 -0.008576  
-0.036180 0.034304 -0.080997 0.160586 -0.222446 0.053555 0.125237 -0.033911 0.104265 -0.095537 0.004370 0.019883 -0.052676 -0.083078  
-0.089632 -0.086168 -0.055450 -0.095369 -0.019865 -0.103265 0.074817 -0.089516 -0.131814 -0.170539 -0.146155 0.174629 0.118064 0.218182  
0.076995 -0.093902 -0.058304 0.103316 -0.222092 -0.113613 0.038796 0.151809 0.074130 0.177453 -0.070407 0.006094 -0.010470 -0.008960  
-0.100524 0.027661 0.121377 0.114864 -0.186884 -0.113677 0.023124 -0.031916 -0.057677 0.115592 -0.054611 0.025621 0.038969 -0.071987  
-0.083176 -0.070171 0.106760 -0.149589 -0.082422 0.006683 -0.040562 0.309143 -0.142687 -0.318025 0.022570 0.009722 -0.031828 -0.073554  
-0.088300 -0.072145 -0.043488 -0.054299 -0.063526 -0.089411 -0.226235 -0.060183 -0.171853 -0.127964 0.292012 0.102666 0.094516 0.033673  
-0.055377 -0.095902 -0.111554 -0.153580 0.108021 0.153862 -0.150488 0.139982 -0.012191 0.095195 0.062310 -0.063591 -0.106904 -0.075134  
0.018289 -0.037556 -0.024060 -0.098029 -0.024105 0.052413 -0.041848 -0.035100 -0.048056 -0.003685 0.087698 -0.077393 0.054979 -0.019622  
-0.062955 0.051480 -0.032403 0.039117 -0.022769 -0.120647 -0.137184 -0.055622 0.028737 0.055029 0.056399 0.070182 -0.102226 -0.148795  
-0.191344 0.110761 0.067936 0.012610 -0.058855 -0.100527 -0.057755 -0.174804 -0.046660 -0.041157 -0.086134 0.089595 0.043717 0.080032  
0.027124 -0.103277 -0.199379 -0.213167 0.116930 -0.051246 0.085477 -0.022947 -0.051881 -0.288692 -0.036062 0.106974 -0.015650 0.132888  
-0.136807 -0.034140 -0.088720 -0.112702 -0.085337 -0.089490 0.080632 -0.018806 -0.136847 0.024449 0.080928 0.073016 -0.001461 0.094701  
0.123853 -0.032857 -0.099525 0.016414 -0.125590 -0.174020 0.098246 0.172626 -0.197717 -0.007806 -0.051931 -0.038615 0.081559 -0.088798  
-0.069282 0.155294 -0.078483 -0.058333 -0.017784 0.230200 0.168213 -0.118313 -0.077906 -0.052391 -0.137727 -0.073220 0.111428 -0.133063  
0.050983 0.018867 0.122405 0.148097 -0.014632 -0.061010 -0.090255 0.091399 0.008614 -0.227198 -0.021141 -0.144012 -0.094820 -0.100888  
-0.033010 0.000782 -0.041479 -0.051375 -0.082808 -0.027639 -0.029919 -0.049010 0.014237 0.018746 -0.083578 0.007529 -0.024841 -0.025508  
-0.144636 0.096382 0.121539 -0.036882 -0.229140 -0.055433 0.150006 -0.069531 -0.125989 -0.182571 -0.104813 0.043440 -0.072140 0.133335  
0.011049 -0.045099 -0.092760 -0.050279 -0.060876 -0.030057 -0.038439 0.039183 -0.111374 0.095525 0.085683 -0.082038 0.019577 0.049990  
-0.000883 -0.053259 -0.060313 -0.077494 0.007018 -0.028026 -0.105783 -0.073109 0.051196 0.125681 -0.027828 0.079278 -0.073344 0.043074  
0.110432 -0.168689 0.026555 0.152997 -0.191229 0.201889 0.149524 -0.174328 -0.172730 -0.175494 -0.010321 -0.069766 -0.016789 -0.044848  
0.082096 -0.121832 -0.169262 -0.088879 -0.089191 -0.160195 -0.153560 -0.108730 0.055421 0.170165 0.095849 0.046612 0.114214 0.037978  
-0.004632 0.011715 0.158996 0.065213 -0.111124 0.082691 -0.015170 -0.033937 -0.221367 -0.129054 0.010990 -0.098227 0.043840 -0.177291  
0.134140 0.058915 0.059295 -0.057033 0.163941 -0.026329 0.063384 0.030399 0.104013 0.106604 0.013913 -0.068862 -0.103702 -0.069552  
-0.048649 -0.046405 -0.045262 0.055207 -0.035526 -0.029061 -0.061617 -0.017281 0.028043 0.066084 -0.082912 -0.038427 -0.021726 0.127847  
-0.084013 -0.057275 -0.036207 -0.056009 -0.019520 0.034023 -0.040821 -0.024132 -0.048883 -0.031241 -0.102957 0.047632 -0.000175 -0.065174  
-0.096788 -0.050394 -0.072518 -0.107155 -0.161654 -0.029822 0.149747 -0.097899 -0.046131 0.133688 -0.037792 0.098841 -0.077714 -0.045265  
0.046463 -0.001954 0.060990 -0.060313 -0.099976 0.028753 -0.011491 -0.009040 -0.060319 -0.019637 0.006516 -0.119295 0.013446 -0.013154  
0.112158 0.027424 0.027626 -0.082129 0.054830 -0.236684 -0.066384 0.093528 -0.022953 0.035072 -0.003843 0.024582 0.041433 0.008697  
0.026056 -0.010564 -0.025589 -0.025093 0.147947 -0.045645 0.051250 -0.065527 -0.027590 0.066582 0.068022 -0.165983 -0.007638 -0.013233  
-0.109032 0.225676 0.043675 -0.152842 -0.097356 -0.006572 -0.117967 -0.003263 -0.154021 -0.189919 0.139911 0.103595 0.056367 -0.020828  
0.008045 -0.096461 0.134500 -0.016497 -0.133082 -0.010870 -0.063099 0.273809 -0.135336 -0.296934 -0.018535 -0.051281 -0.015105 -0.087566  
-0.023555 -0.055978 -0.113501 0.056737 0.097782 -0.042858 0.087704 -0.112274 -0.010129 0.103106 0.021271 -0.049899 -0.067315 -0.023500  
0.009014 -0.045218 0.002850 0.002118 -0.043669 -0.146385 -0.034851 0.035629 -0.117321 0.057680 0.031330 -0.060510 -0.034274 0.025508  
-0.040647 -0.008188 0.009420 0.061473 -0.152234 0.028262 -0.006036 -0.039927 -0.023123 -0.084162 -0.170033 0.201257 -0.057719 -0.021187  
0.073165 0.060269 0.003885 0.139230 -0.135661 -0.051110 -0.156866 0.190554 -0.085875 -0.041922 -0.111397 -0.085655 -0.113766 0.035006  
0.008345 -0.094878 -0.180695 0.137560 0.032366 -0.005191 -0.179033 0.052725 -0.208604 -0.136977 -0.103415 0.092777 0.028277 -0.042362  
-0.138082 -0.144742 -0.026413 -0.038545 0.161284 0.058228 -0.038928 0.049110 -0.063699 0.163773 0.108035 0.042379 -0.081236 -0.172507  
-0.009332 -0.117269 0.011764 -0.080059 0.177436 0.011108 -0.075916 0.053317 -0.126492 -0.089718 -0.019884 -0.085308 0.017404 0.107571  
-0.159150 0.092207 0.108778 0.070187 -0.116717 -0.046554 -0.139745 -0.013291 0.121595 -0.014623 -0.040456 -0.004560 -0.017067 -0.068555  
0.184223 -0.045556 0.062125 0.058418 0.051504 0.021906 -0.051707 0.036037 0.094171 -0.035299 -0.025057 -0.096008 -0.061538 -0.086827  
0.175849 -0.092178 -0.059393 -0.155160 0.054243 -0.217437 -0.084579 0.027932 -0.196288 0.137125 0.039809 0.122809 -0.056221 -0.043912  
0.037048 -0.093083 0.036597 0.015918 -0.103438 -0.018799 -0.069365 0.059357 -0.113262 -0.014581 -0.019898 -0.115088 -0.034232 0.104446  
0.201908 -0.167871 -0.040068 -0.301690 0.045219 -0.174980 0.124625 0.008118 0.110134 -0.017262 0.012918 -0.015691 0.007504 0.019756  
0.088220 -0.075662 -0.049900 -0.065351 0.056954 -0.056176 -0.068124 0.085870 -0.162690 -0.136722 -0.084096 -0.038041 0.009797 -0.027252  
-0.047538 -0.078116 -0.135429 -0.059903 0.087782 0.096210 -0.111123 -0.119634 0.134114 0.024408 -0.041625 0.045313 -0.048691 -0.025573  
-0.158031 -0.080030 -0.080753 -0.041725 0.078300 -0.100690 0.039601 -0.014532 -0.050382 0.145765 -0.022495 -0.022710 -0.017480 0.020380  
-0.053658 0.022842 -0.171038 0.118082 -0.098573 0.167982 -0.167128 -0.099163 -0.047765 -0.085613 0.146329 -0.020110 0.078637 0.078545  
-0.154763 -0.012861 -0.112745 -0.126591 0.063974 -0.169868 0.043605 0.134085 -0.045102 -0.018353 -0.062792 0.027306 -0.061124 -0.060038  
0.145536 -0.081316 -0.263068 -0.222099 -0.035178 0.203192 0.063977 0.065820 -0.214826 -0.004035 -0.103383 -0.083789 -0.094944 0.063255  
0.035074 -0.064937 -0.037151 -0.052106 0.079694 -0.046880 -0.110846 -0.067667 -0.003773 -0.082977 -0.018276 -0.039925 -0.049090 -0.012673  
-0.123122 -0.063894 -0.085875 -0.121573 -0.168913 0.199824 0.121028 -0.043293 -0.144512 -0.150413 0.270057 0.014269 -0.075613 -0.107320  
-0.004808 -0.081904 0.104908 -0.029343 -0.079097 -0.009309 -0.111132 -0.036092 -0.003449 -0.067703 0.055565 0.062080 0.006752 -0.114684  
-0.050856 0.031415 0.023974 0.108190 -0.105749 -0.038196 0.088459 0.057561 -0.085539 -0.023819 -0.072973 -0.033480 -0.122398 0.098769  
0.000576 -0.001510 0.008694 -0.031294 -0.167614 0.000121 0.066296 0.026150 0.025100 0.013699 0.075653 -0.121273 0.025960 0.004470  
-0.106612 -0.152121 0.044147 -0.072217 -0.028917 -0.018773 -0.085994 -0.036791 -0.102714 -0.008615 -0.049517 -0.124626 0.148846 0.135518  
-0.000286 -0.016404 -0.001056 0.056590 -0.047237 0.013037 -0.054977 0.028923 -0.080294 -0.029597 -0.092902 -0.048821 -0.000067 0.056781  
0.025707 -0.088072 -0.042194 -0.129225 -0.023213 -0.088506 0.069101 0.104846 -0.031051 -0.010256 -0.169002 0.038820 -0.137758 -0.130930  
-0.053129 0.055534 0.073177 -0.043670 -0.026175 -0.048322 0.044254 0.030091 0.045178 -0.080907 -0.089040 -0.047544 -0.072858 0.039425  
0.105958 -0.147554 -0.048259 -0.091879 -0.144265 0.163136 -0.178314 -0.005251 0.115998 -0.028825 -0.097024 -0.101840 0.109258 0.092648  
-0.004875 -0.100580 0.083428 -0.122935 -0.049041 0.084769 -0.062896 -0.035274 -0.167923 -0.044352 -0.089241 0.025003 0.150904 -0.157838  
-0.013106 0.007200 -0.045927 0.181290 -0.038381 -0.089998 -0.087115 0.169394 -0.176471 0.076854 -0.053486 -0.009312 -0.094030 -0.041335  
-0.175102 -0.097422 -0.140009 -0.109435 0.116649 0.182888 0.144025 -0.005980 -0.100921 0.147942 -0.070756 0.042077 -0.149860 0.152323  
0.066592 -0.010568 -0.073903 -0.101034 -0.044858 0.148337 -0.063043 0.022497 -0.062636 -0.041641 0.043328 -0.018113 -0.006383 0.012691  
0.004724 -0.019819 -0.006665 0.033287 0.063533 -0.060722 -0.021415 0.022159 -0.046141 -0.082974 0.064151 -0.126048 0.068594 0.005926  
0.004414 -0.103232 0.078443 0.042340 0.048423 -0.125867 0.047720 -0.060397 0.022760 0.069128 -0.091102 -0.054306 -0.008390 0.018833  
0.030903 -0.070970 0.035269 -0.232799 0.042158 -0.044762 -0.004878 -0.009336 0.143226 -0.154268 0.012906 0.009544 -0.031058 0.027125  
-0.029281 -0.039239 0.034893 -0.056373 -0.046194 0.019499 0.031635 -0.031508 -0.038837 -0.060761 -0.064805 -0.042608 0.048227 -0.018218  
-0.101249 0.103708 -0.122908 0.182919 0.056774 -0.043641 -0.096581 0.032014 -0.219700 0.000288 0.030812 0.002463 -0.010582 -0.045807  
-0.014140 0.023139 0.121523 0.121345 -0.139931 0.030724 0.017294 -0.006057 -0.045868 -0.090712 0.065221 0.008419 -0.050705 0.077840  
0.019279 -0.080160 0.020795 -0.004388 0.093746 0.041511 -0.037442 0.001708 0.063212 -0.043530 0.047914 -0.089759 0.014049 0.004940  
-0.033360 0.048210 -0.141905 -0.078024 0.051149 0.027314 0.047630 0.034513 0.107039 0.038654 -0.053475 -0.121884 -0.045650 -0.019981  
-0.105367 0.041602 0.056942 0.109574 -0.033576 0.188471 -0.073825 -0.084251 0.053162 -0.022546 -0.050775 0.002876 0.069865 -0.026873  
0.050703 -0.049737 -0.159286 -0.099652 0.127743 -0.052245 0.036164 0.052486 -0.058357 -0.054795 -0.097675 -0.056474 0.031838 0.094593  
-0.085462 0.032515 0.145892 0.024799 0.137409 0.183608 -0.004350 -0.324642 0.112485 0.146808 -0.071667 -0.040896 0.051883 0.001770  
-0.160745 -0.045505 -0.031305 -0.030778 0.003681 0.012485 -0.054460 0.013400 0.017706 -0.036858 -0.043252 -0.037735 -0.034322 0.020714  
0.118821 -0.004989 -0.157482 0.018718 0.103909 -0.063496 -0.037292 -0.035139 0.042644 0.059019 0.004738 0.002285 0.035748 -0.068096  
-0.094615 -0.082894 -0.164952 -0.086171 0.067958 0.110281 0.134822 -0.075800 -0.127752 0.081755 0.094669 0.009151 -0.019966 -0.076551  
0.057714 -0.055079 -0.096531 -0.123670 -0.048772 -0.069344 -0.002251 -0.033814 0.072756 0.018982 -0.012887 0.012357 -0.036980 0.074527  
0.103288 -0.032974 0.091533 -0.121343 -0.188439 -0.126673 -0.082313 0.185472 -0.131449 -0.218651 -0.034732 -0.022447 -0.020375 0.019642  
-0.041036 -0.156584 -0.026148 -0.092417 0.008960 0.003193 -0.151704 -0.043275 0.037749 -0.030849 -0.018989 -0.020328 -0.014985 -0.019691  
0.026384 -0.036402 -0.075855 -0.135543 0.123508 0.068253 0.036368 -0.095449 0.133879 0.008011 -0.030523 0.115767 -0.090876 -0.034037  
-0.168874 -0.028672 -0.091481 0.082563 -0.039714 -0.117851 -0.038863 -0.141458 -0.098167 -0.084169 0.165676 0.047820 0.078308 0.126766  
-0.106427 0.006223 -0.165637 -0.171338 0.281701 -0.015934 0.009074 0.017567 -0.078541 0.084730 -0.176795 0.203316 0.016360 -0.121318  
0.066537 0.107168 -0.037486 -0.002309 -0.079237 -0.150402 -0.145374 -0.082614 -0.201483 0.007517 -0.105944 0.052752 0.065304 -0.047639  
0.194787 -0.127791 0.105355 -0.174695 0.155467 0.000733 -0.008704 0.120612 0.089121 0.037842 0.069855 -0.045215 -0.060033 -0.145731  
0.062713 0.090795 -0.091420 0.030109 0.124567 0.019994 0.105526 0.037587 -0.006289 0.136422 0.124245 -0.098514 -0.237326 0.086767  
-0.092072 -0.055784 -0.131463 -0.118975 -0.106569 -0.139716 -0.117220 -0.072077 -0.019619 -0.039344 -0.174325 0.191206 0.048130 0.176852  
-0.081878 -0.104257 -0.046436 -0.052945 -0.123565 -0.057085 -0.018750 -0.056634 -0.052085 0.018566 0.005156 0.034057 0.173755 -0.160275  
-0.135680 0.112093 0.077465 -0.167759 0.069714 0.036130 -0.068270 0.055883 -0.258032 -0.183617 0.101286 -0.084457 -0.052831 -0.117969  
-0.023249 -0.089471 -0.032143 -0.105226 -0.091598 0.028084 0.218038 -0.039032 0.038385 0.058640 0.062032 -0.090467 0.046798 -0.043152  
0.004627 0.001909 0.042221 -0.052398 0.068660 0.033108 -0.132718 -0.055175 0.030595 0.067958 -0.166892 0.038057 -0.003990 -0.005729  
0.004474 -0.054789 -0.021841 -0.001114 -0.061000 0.105060 0.045343 0.018518 -0.040629 0.005728 -0.038066 0.061623 -0.016344 -0.018656  
0.039609 0.019836 0.148908 -0.059656 -0.054434 -0.017865 0.049839 -0.040656 -0.035444 0.003427 -0.073801 0.052726 0.014681 -0.038297  
-0.012511 -0.036613 0.002906 0.019681 -0.064621 0.160401 -0.037401 -0.068893 -0.085761 -0.021335 0.001595 -0.061494 -0.064327 0.017481  
0.038271 -0.252614 -0.047959 0.203814 0.199465 0.025699 -0.192426 0.118040 0.130024 0.214922 -0.126668 -0.075163 0.086947 0.135133  
-0.119217 -0.037715 -0.072946 -0.043563 -0.123557 -0.082294 -0.006508 -0.065678 -0.082544 0.026178 0.104178 0.057938 0.072108 -0.130513  
0.100701 -0.008480 -0.093836 -0.087336 -0.029465 0.025575 0.137031 0.014585 0.034736 -0.186323 -0.078342 0.036152 0.009399 -0.038469  
-0.036302 -0.031995 -0.066212 -0.036539 -0.020042 -0.045620 -0.031590 0.046697 0.130990 0.108395 -0.072010 -0.003151 0.001124 -0.031570  
0.077058 -0.026832 0.042876 -0.037061 0.078033 -0.035435 -0.135193 0.107843 -0.115814 -0.050301 0.001243 -0.024787 -0.081409 -0.011032  
-0.136105 0.052738 -0.034914 -0.039721 0.001666 -0.024573 -0.089961 -0.106429 0.051553 -0.052098 -0.029755 0.028704 0.025838 -0.002248  
-0.111218 -0.156124 -0.014260 -0.159789 -0.055055 -0.076417 -0.076987 -0.081267 -0.095874 0.161431 -0.016762 -0.087628 0.093958 0.105024  
0.017304 -0.029010 0.064967 0.001506 -0.031168 0.002085 -0.023833 -0.026246 -0.070019 0.035817 0.005849 0.021289 0.037459 -0.006845  
0.047685 -0.198896 0.120446 0.094517 -0.092444 -0.163852 0.089867 -0.026802 -0.119040 -0.088534 -0.105189 -0.064593 0.083474 0.121240  
-0.008252 0.003309 -0.121141 -0.012960 0.082690 -0.059409 -0.080820 0.052721 -0.034447 -0.096723 -0.095117 0.018215 -0.015043 0.074862  
0.096088 -0.168796 0.043474 0.090093 -0.106807 -0.043847 -0.116158 -0.070295 -0.157871 0.111240 0.081454 -0.073977 0.098395 0.055270  
-0.215981 0.114979 -0.157149 -0.197675 0.175123 0.144406 0.034433 -0.093058 -0.114642 -0.041240 0.098998 0.046107 -0.125880 0.089904  
0.029394 -0.034826 0.004892 -0.013479 -0.034815 0.093830 -0.080928 0.065032 -0.009382 -0.027733 0.040974 -0.073277 -0.021503 -0.051773  
0.022101 -0.056627 -0.000717 0.003843 -0.086856 0.034004 0.032169 -0.106944 0.014350 -0.062347 -0.064886 0.044662 0.074751 -0.038578  
-0.082803 0.109062 -0.119873 -0.117460 -0.032992 -0.111286 0.026890 0.117517 0.103071 0.131905 0.106628 0.013400 -0.173021 0.040678  
-0.094114 0.083807 -0.074672 -0.042046 -0.118423 -0.058153 0.018620 -0.105639 -0.005477 -0.022784 -0.033000 0.038950 0.017480 -0.027088  
0.013777 -0.016546 0.043395 -0.032674 0.125708 0.130792 0.076656 -0.112314 0.015434 -0.146774 0.048655 -0.047050 -0.138014 -0.003677  
0.010154 -0.013019 -0.073102 -0.053390 -0.008277 -0.057054 -0.057542 -0.079268 0.012892 -0.030942 -0.057924 -0.001172 0.008430 -0.020854  
-0.096783 0.066524 -0.107148 -0.104539 -0.177243 -0.125311 0.070989 -0.116726 -0.089628 -0.098334 0.092160 0.097000 0.113653 0.049277  
-0.092795 -0.075459 -0.038918 -0.001203 0.124309 0.207908 0.060258 -0.093442 0.050902 -0.111540 -0.084520 -0.062633 0.010571 -0.016414  
0.002637 -0.067826 -0.039253 -0.069601 -0.037107 -0.000077 0.011778 0.010731 -0.018285 0.000452 -0.007534 0.028072 -0.000606 -0.064090  
0.051794 -0.137629 -0.073069 -0.187013 0.022158 0.036789 0.062006 0.021667 0.093319 0.087716 -0.007284 0.078644 -0.099869 -0.021101  
-0.095146 -0.163924 -0.107532 -0.094298 0.119383 -0.021423 -0.275091 0.032307 -0.183396 -0.192019 0.147653 0.032684 0.044710 0.183951  
-0.067877 -0.079218 -0.093288 0.038920 -0.093804 -0.124831 -0.069595 0.034415 -0.037347 -0.054609 -0.015161 -0.013140 -0.052383 -0.077068  
0.087386 -0.136232 0.030582 -0.152340 -0.014113 0.164875 -0.027833 -0.009795 0.022970 -0.054368 -0.015284 0.034567 -0.106694 -0.152649  
0.156417 0.004536 0.010271 -0.089468 -0.319615 0.139686 -0.160288 0.100136 -0.006610 0.022278 -0.172088 -0.121787 0.029439 -0.131743  
0.004684 0.129305 -0.079303 -0.002338 0.003126 -0.008215 -0.013268 -0.033048 -0.048764 0.001397 -0.047189 0.067624 -0.059121 -0.032230  
0.043612 -0.129180 -0.071940 0.093886 -0.098494 0.121268 -0.117961 0.061236 0.000336 0.009316 -0.147086 -0.066205 0.034579 0.065399  
0.007360 0.008477 -0.063379 -0.170381 0.070082 0.036987 -0.044331 -0.017275 0.049825 0.008926 0.012035 -0.024891 -0.095778 0.037580  
-0.084749 0.051108 0.002438 0.034030 -0.011816 -0.039821 0.018931 -0.076207 0.031921 0.006061 0.028975 -0.005688 -0.037755 -0.020590  
0.103919 -0.049437 -0.088652 -0.105299 -0.040246 0.231077 0.043962 0.044479 0.017795 -0.163901 -0.088489 0.015271 -0.088929 -0.114905  
-0.066062 0.068993 0.016789 -0.135974 0.010645 0.042821 0.006172 0.091894 0.059239 -0.095042 -0.078456 0.036098 -0.041668 -0.053210  
-0.024887 0.001713 0.042789 0.017048 0.017626 -0.000527 -0.153889 0.082113 -0.136394 -0.094069 -0.102107 -0.057068 -0.041643 0.066692  
-0.193893 0.130875 -0.151819 -0.014886 0.126166 -0.060665 0.230562 -0.035024 -0.149239 -0.134892 0.062386 0.036411 -0.174590 0.004669  
-0.128908 0.064696 -0.027533 -0.000339 0.012413 0.036101 -0.050582 0.046524 -0.106185 -0.034955 0.048062 0.025465 -0.090068 -0.022496  
-0.011318 0.005816 0.128426 0.076742 -0.057225 -0.000239 -0.172110 -0.004345 0.012861 0.039095 0.022973 0.032341 -0.023844 -0.014200  
0.006193 0.072822 0.078750 -0.029156 -0.002011 0.034925 -0.104568 0.079621 -0.055719 0.059568 0.097747 -0.102592 -0.059323 -0.016769  
-0.046425 0.091356 -0.032469 -0.062018 -0.046536 0.179436 -0.057951 0.165122 -0.077947 -0.221441 -0.052526 -0.060492 -0.075677 -0.002187  
0.018315 0.117463 0.019368 0.094768 -0.135978 -0.081978 -0.004747 0.053679 -0.175652 -0.032454 0.014943 -0.003483 0.077478 -0.058395  
-0.028192 -0.012875 0.031744 -0.011555 0.033891 0.068205 -0.102234 0.033628 0.023857 -0.102197 -0.099313 -0.100594 0.029909 -0.047285  
-0.090972 0.076792 0.022064 0.076064 -0.193881 -0.015350 0.149611 -0.078152 -0.126575 -0.123751 0.063813 -0.025286 0.007249 -0.064480  
-0.133849 0.092456 0.066079 0.184277 -0.148832 -0.063258 -0.135453 0.023525 -0.168097 -0.089660 -0.000701 -0.086700 -0.031604 0.020821  
0.054075 -0.008837 0.089485 0.127482 -0.168678 -0.036247 0.136014 0.107760 0.030103 -0.172721 -0.136708 -0.080942 -0.014200 0.116182  
-0.003272 -0.160459 0.175573 -0.116702 -0.069247 0.240046 -0.211862 0.045804 -0.095126 -0.124849 -0.056922 -0.013265 0.109230 -0.006865  
-0.225327 0.045335 0.062820 -0.158397 0.188851 0.013049 0.098934 -0.165585 -0.039023 -0.101106 -0.006146 -0.060303 0.023741 0.031386  
-0.080291 0.006105 0.036936 0.032619 -0.159862 -0.126608 0.045448 -0.154258 -0.189455 -0.157422 0.095194 -0.075068 -0.011871 0.081433  
-0.124805 0.204950 -0.047803 -0.183300 -0.003877 -0.187174 -0.071985 -0.017978 0.211933 -0.057382 0.014953 0.044126 0.019738 -0.065994  
-0.080782 0.048039 -0.056337 0.145478 0.015177 0.126025 -0.045053 -0.053449 -0.019191 0.021643 -0.044368 0.024657 -0.061476 -0.103667  
-0.072727 0.103995 -0.073031 -0.046205 -0.175181 -0.089096 0.001227 -0.023945 -0.146102 -0.024033 0.012496 0.008964 0.135736 0.066269  
-0.101717 -0.132345 -0.082905 0.073337 -0.137697 0.051699 -0.098443 0.118521 -0.037126 -0.063526 -0.153602 0.075908 -0.023476 -0.050468  
0.072550 -0.091828 0.069257 0.064637 -0.029109 0.012086 -0.025779 -0.178805 -0.059582 0.148230 -0.026428 0.053046 0.006824 0.023023  
-0.070638 -0.056230 -0.037715 -0.044022 -0.157470 -0.045925 -0.164678 -0.011766 -0.069082 -0.154756 0.182743 0.099119 -0.073950 -0.032264  
-0.080697 0.164772 0.193459 0.220448 -0.027255 -0.051470 -0.048285 0.020315 -0.051305 -0.061263 -0.174990 -0.028528 -0.070740 -0.078970  
0.004863 -0.120822 0.083540 0.059457 -0.003899 -0.172961 -0.009614 -0.102529 -0.012924 -0.129330 -0.005015 0.043693 0.027401 -0.006615  
0.137141 -0.046799 -0.114053 0.035537 -0.216914 -0.099770 0.027581 -0.010913 -0.071966 0.093144 0.041103 -0.030921 -0.021970 -0.111007  
0.070031 0.021676 -0.000565 -0.050927 -0.141587 0.114847 0.088138 -0.059775 0.135293 -0.104958 -0.039902 -0.184568 -0.129475 0.013127  
-0.033711 -0.000676 -0.024207 0.000373 0.072992 -0.193814 0.023263 -0.057122 0.052455 0.102702 0.052247 -0.160676 0.037208 -0.026675  
0.127261 -0.148103 -0.054882 -0.138647 0.084019 -0.113472 0.000465 0.074269 0.133025 0.151704 -0.130512 0.001040 0.048437 0.094456  
0.120614 -0.163514 0.158204 -0.032823 -0.182788 0.054166 -0.075025 -0.109371 0.033496 0.003467 -0.032555 -0.117340 0.169136 -0.088951  
-0.053972 0.049200 -0.001352 -0.005456 0.061820 -0.019155 0.079641 0.077022 0.022843 -0.018236 -0.017791 -0.052382 -0.096617 -0.047241  
-0.160348 0.025889 0.060523 0.066857 0.109851 0.229675 -0.062246 0.039936 0.056826 -0.195347 -0.087911 -0.049375 -0.119689 0.029602  
-0.035922 -0.082108 0.248242 0.034300 0.104573 -0.198496 -0.187662 0.062118 0.169909 -0.209152 0.073887 -0.052847 0.030180 0.094518  
-0.277855 0.065820 0.020703 0.100904 -0.078150 0.055964 0.064748 -0.143468 -0.032585 0.028791 -0.019255 0.032803 -0.105771 0.093324  
0.085974 -0.067972 -0.093865 -0.183210 -0.109619 0.155288 -0.019010 -0.063078 -0.020297 0.028346 0.063290 0.004916 -0.055096 -0.074762  
-0.004605 -0.022052 -0.035784 0.019294 -0.039592 -0.000368 0.042011 -0.025049 -0.125984 0.085414 -0.008282 0.103118 -0.024623 -0.075014  
-0.025255 -0.077614 0.043486 0.039145 0.022416 -0.099606 0.037499 0.027644 0.007283 -0.063266 -0.076861 -0.045230 -0.048963 -0.041996  
-0.012643 -0.060638 -0.040802 -0.133412 0.028500 -0.000865 -0.034743 0.000787 0.032449 -0.081052 0.025649 0.041878 -0.044668 0.036843  
-0.154826 -0.008830 0.077399 0.061346 0.044365 -0.116511 0.116289 -0.178091 -0.107520 -0.290102 0.020991 0.087200 -0.147532 0.091249  
-0.060019 -0.034606 0.030155 0.029485 -0.022041 -0.065980 0.000018 -0.104149 0.029044 -0.012719 -0.026182 0.006386 0.047704 -0.054675  
0.057646 -0.013256 0.087219 -0.010559 0.039605 -0.206555 -0.097815 -0.026441 0.095898 0.016632 0.022037 0.015505 -0.124935 0.038262  
-0.023229 0.041541 -0.003401 -0.032483 -0.000641 0.054116 0.036515 -0.013430 0.019479 -0.048722 -0.079333 -0.117933 -0.055660 -0.012163  
-0.007055 0.021076 -0.026279 0.043806 0.095067 0.028199 0.053262 -0.126551 0.048156 0.123136 0.001290 0.027699 -0.068057 -0.131538  
-0.086804 0.181199 -0.042832 -0.077009 0.015740 0.263447 -0.067730 -0.111877 -0.160493 0.100009 0.099140 -0.033040 -0.026726 0.012805  
-0.078610 -0.036901 -0.055792 -0.066123 -0.009029 -0.045708 -0.065032 -0.002289 -0.064843 -0.021369 -0.016590 -0.004890 -0.000283 -0.025393  
0.017258 0.134698 0.007189 0.071290 0.039357 -0.185085 -0.099463 0.078497 -0.028566 -0.010993 -0.029249 0.023988 -0.135390 0.062931  
-0.165471 -0.045330 0.015694 0.002393 0.028606 0.144838 -0.016396 0.006835 0.096214 -0.029807 -0.022389 -0.022599 -0.090603 -0.024620  
0.053342 -0.024634 -0.048642 -0.002068 -0.047431 -0.077020 -0.062533 -0.006784 0.051506 0.042741 -0.050431 0.064008 -0.027922 0.025887  
-0.031232 0.097055 0.089050 0.105039 0.201867 -0.174174 -0.087805 0.030763 0.088843 -0.124752 0.108322 -0.120682 -0.166089 -0.203384  
-0.075558 0.029388 0.089102 0.023347 0.052918 0.003227 -0.048954 -0.018304 -0.056233 -0.145507 -0.091266 -0.006237 -0.057070 0.031390  
-0.057563 -0.067812 0.017404 -0.118083 0.104231 -0.225523 -0.054390 0.097364 0.045966 0.104866 0.079949 0.059967 -0.000893 -0.025263  
-0.001945 0.005602 -0.043392 0.085458 0.103941 -0.071264 -0.026876 -0.132997 -0.007351 0.178696 -0.068591 0.031568 0.062619 0.026399  
-0.018811 -0.049218 0.024897 -0.062229 0.194603 -0.036699 -0.062812 -0.070173 -0.099421 -0.024090 -0.084429 0.126812 0.012158 0.161218  
0.015427 -0.036904 -0.033000 -0.061845 -0.074228 -0.044958 -0.051909 -0.042466 -0.028997 -0.035082 -0.032301 -0.061681 -0.000601 -0.054651  
0.043377 -0.047449 -0.028431 -0.035885 0.056842 0.052115 -0.022196 -0.040541 0.001951 0.003257 -0.040457 -0.093057 0.003825 -0.154125  
0.066590 0.046187 0.083784 -0.054324 -0.099286 -0.160100 0.135695 0.072820 -0.259665 -0.089196 0.096731 -0.015510 -0.033371 -0.173589  
-0.062129 -0.003941 -0.024269 -0.104561 0.022709 -0.045266 0.013592 -0.125647 -0.008338 -0.057784 -0.064576 0.002159 -0.044198 0.037634  
-0.002484 -0.088409 0.036906 0.024568 0.041961 -0.033300 -0.041305 -0.034582 -0.031639 -0.032892 0.001517 -0.000111 -0.085936 -0.025373  
0.021215 -0.093897 0.200621 -0.068806 0.089451 0.066411 -0.121680 -0.211375 0.151015 -0.117368 -0.153372 0.010330 -0.113269 0.025799  
-0.011748 -0.038411 -0.221623 0.075724 0.117813 0.055148 -0.113455 -0.002799 0.239567 -0.130930 -0.053430 -0.005166 -0.015024 0.057197  
-0.040811 0.026603 -0.010977 0.005287 -0.115118 -0.006376 -0.022370 -0.122429 0.014086 0.057367 0.013030 -0.011484 0.029024 0.050335  
0.017098 0.075486 -0.032095 -0.005365 -0.054257 -0.019839 -0.063967 0.035595 0.001696 0.029118 -0.053874 0.003031 -0.006039 -0.083442  
-0.002181 -0.051996 -0.220028 -0.161944 -0.089626 0.136071 0.065222 -0.002295 0.244216 0.045952 0.000379 -0.032556 0.007972 0.092653  
-0.180257 0.048780 -0.128746 -0.016920 0.046868 -0.033322 -0.080659 0.122100 -0.205194 -0.009010 -0.052265 0.010633 0.009520 0.023719  
-0.034016 -0.010525 -0.016904 -0.003614 -0.143015 -0.040243 -0.005981 0.144813 -0.148884 -0.124029 -0.104171 0.166134 -0.062557 -0.037748  
-0.069562 0.011809 0.185479 0.155801 -0.089740 -0.165632 -0.119856 0.025222 -0.173186 -0.132327 0.009591 -0.036364 -0.033413 -0.037790  
0.059812 0.012487 0.011899 0.035002 0.041016 -0.108395 -0.017804 0.079514 0.055873 -0.069835 -0.082717 0.008469 -0.012285 -0.102826  
0.050155 -0.190483 0.045205 -0.080603 0.101573 0.035739 0.113152 0.129177 -0.064597 0.071533 0.052115 -0.135523 -0.095531 -0.102338  
0.038908 0.004812 0.000001 0.086311 -0.064309 -0.073302 0.063424 -0.041119 -0.083938 -0.019554 -0.036305 0.022297 0.042941 0.068030  
0.074209 0.003428 0.042506 -0.088736 -0.041396 -0.123975 0.017402 -0.128467 0.037077 -0.118560 0.030045 0.024843 -0.008973 -0.078169  
-0.041374 -0.022178 -0.088257 -0.090990 0.003828 0.077441 -0.158465 -0.085859 0.104729 -0.107761 0.085035 -0.018528 0.105645 -0.194676  
-0.007873 -0.153145 -0.003368 -0.060404 0.116806 -0.141424 0.078203 -0.041417 0.071777 -0.150665 -0.073697 0.032346 0.014035 0.117994  
-0.035470 -0.075948 0.038509 0.015629 -0.015696 -0.043296 0.039887 -0.038556 -0.024603 0.080553 -0.109305 -0.005871 -0.012174 0.001537  
0.104494 -0.083326 -0.095623 0.039655 0.024251 -0.128060 -0.038962 0.097531 -0.123232 -0.179537 -0.094308 0.071867 -0.003645 -0.043820  
0.064367 0.067586 -0.036502 -0.150819 -0.044992 0.137616 -0.008803 -0.082099 -0.046965 -0.005289 -0.095900 -0.047805 0.109211 -0.104750  
0.097747 -0.037453 -0.062595 -0.084331 -0.095495 0.158482 -0.084257 0.002947 -0.182733 0.068641 0.020061 -0.029147 -0.041609 -0.035605  
-0.124456 0.007597 -0.015150 -0.062053 0.044981 0.123235 -0.014957 -0.017256 -0.075772 0.015754 -0.055545 -0.067780 0.032555 -0.049160  
-0.116887 0.028116 0.221668 0.062002 0.083144 0.025393 -0.144512 -0.145759 0.023418 0.068884 -0.007494 -0.094478 -0.024810 0.044580  
0.030829 -0.084097 0.096217 0.056835 0.037961 -0.066902 0.016795 -0.051687 -0.057058 0.004915 0.016005 0.033035 -0.004836 0.018818  
0.089209 -0.015268 -0.162058 -0.039701 -0.113381 -0.042024 0.111837 -0.025128 -0.103771 -0.044285 -0.075697 0.107912 -0.035921 -0.006849  
-0.025722 -0.041394 -0.042308 0.007943 0.036577 0.037525 0.020723 -0.062156 -0.014674 -0.050396 -0.087744 -0.130938 -0.022486 -0.017885  
0.008462 -0.014796 0.110000 0.069775 0.016215 -0.038444 0.000705 -0.013371 -0.018357 -0.001276 -0.013346 -0.010120 0.021734 -0.044170  
-0.000626 0.041347 0.034154 0.052259 -0.056304 -0.095798 -0.007371 -0.133477 -0.007885 0.059854 -0.042553 -0.041194 0.017560 -0.061473  
-0.053966 0.133929 -0.061287 -0.061808 -0.073764 0.053000 -0.049152 0.129540 0.037108 -0.153247 -0.152525 -0.025478 -0.045682 0.095362  
0.083690 -0.059883 -0.009939 0.057442 -0.117532 0.103263 -0.025126 0.120450 0.078274 -0.022437 -0.106708 -0.119210 0.001176 0.039814  
-0.126182 0.047859 -0.120271 -0.147447 -0.005206 0.025376 -0.067055 0.151252 -0.135515 -0.173382 0.041785 0.031414 -0.039028 -0.070873  
-0.058296 0.065521 -0.039195 -0.062133 0.026421 0.022431 0.027960 0.060674 0.017892 0.063277 -0.049342 0.010501 -0.006569 -0.041130  
0.080040 0.092603 -0.153014 -0.081878 -0.071457 0.093004 -0.012428 -0.086243 0.135964 -0.140869 -0.086413 -0.014904 0.052805 -0.046061  
-0.003056 -0.110089 0.089282 -0.139262 -0.052599 -0.071732 0.052569 -0.041528 0.172152 0.065461 -0.018186 -0.094247 0.048434 0.031464  
-0.242806 0.064276 0.182902 0.008963 0.068228 -0.104372 0.036928 -0.030322 0.176150 -0.127280 0.050926 -0.119434 -0.012666 -0.066894  
-0.101158 0.029980 0.076776 0.037440 0.093306 -0.068853 0.086731 -0.053932 -0.085625 -0.149121 0.074277 0.042949 -0.082960 -0.168614  
0.007791 0.006664 0.118620 -0.023846 -0.067277 -0.113311 -0.130906 -0.166713 -0.147707 0.110390 0.118232 -0.071239 0.056009 0.056399  
-0.027561 -0.101220 0.056740 -0.013139 -0.078838 0.116820 -0.053283 0.002425 -0.005015 -0.091634 -0.093203 -0.043179 0.017201 -0.003276  
0.011894 -0.020285 -0.050844 -0.071449 -0.006914 0.004398 0.007364 0.011444 -0.069467 -0.033839 -0.082530 -0.047093 -0.011985 -0.018361  
0.165018 -0.117573 0.115308 0.107272 -0.139878 -0.032065 -0.005255 -0.101455 -0.154113 0.038408 -0.051479 -0.073969 0.042003 0.015959  
-0.038145 -0.121102 -0.051148 0.063121 -0.044561 0.039008 -0.099363 0.026271 -0.121803 -0.230568 0.145405 0.109591 -0.049701 -0.040283  
-0.100666 -0.114046 -0.136852 -0.144285 0.004539 0.015175 0.133333 -0.147630 -0.081580 0.176310 0.048896 0.077034 -0.030841 -0.063348  
-0.021467 0.007379 -0.007412 0.008749 -0.005884 -0.087450 0.034180 -0.062155 0.054465 0.058963 0.077365 -0.130634 0.035587 -0.015440  
0.008466 -0.035488 -0.030251 0.032408 -0.041867 -0.027203 0.048536 -0.000133 0.001250 0.008947 -0.044828 -0.001972 -0.014351 0.019891  
0.129326 -0.001407 -0.134707 0.046648 0.081396 -0.101793 -0.121636 -0.007439 -0.049027 -0.121761 -0.087966 -0.020577 0.032268 0.075065  
-0.052757 -0.165234 -0.013098 0.040304 -0.052792 0.051105 -0.012267 -0.019755 0.108806 0.017016 -0.105188 0.021042 -0.084259 -0.004097  
0.012377 0.018855 -0.179744 0.141713 -0.031444 0.119593 -0.105202 0.090953 -0.097703 0.015729 0.094458 0.003493 -0.038700 -0.103799  
-0.027961 -0.031881 -0.263590 -0.033803 -0.123214 0.156126 0.125512 -0.205882 0.153435 0.099888 0.071579 0.013185 0.054140 -0.067777  
-0.075044 -0.002903 -0.009811 0.017618 -0.021371 -0.046063 0.074373 -0.010135 -0.027290 -0.017405 -0.005605 -0.003744 0.021202 -0.003062  
0.010180 -0.046458 0.045743 0.033342 0.067611 -0.054948 -0.016401 0.039184 -0.030089 -0.027182 -0.013891 -0.120145 0.081924 0.033364  
0.043483 -0.076621 -0.029943 0.031200 0.136551 -0.008017 -0.043609 0.185957 0.017185 -0.015534 -0.001582 0.009714 -0.061243 0.039385  
-0.065944 -0.054939 -0.118582 -0.162656 -0.086549 0.315045 0.045451 -0.101434 -0.032779 -0.034027 -0.134145 0.058101 -0.050777 -0.050017  
-0.043217 -0.023931 -0.054696 0.035209 -0.009330 0.032386 0.062669 -0.059482 -0.048429 -0.022462 -0.042777 -0.034729 -0.073985 0.020771  
0.111884 0.055830 -0.020827 -0.179940 -0.027484 0.094494 0.127922 -0.088805 -0.204916 -0.074817 -0.057226 0.115463 -0.054925 0.005842  
-0.042007 -0.007731 0.121244 -0.068618 -0.100915 -0.140198 -0.180596 -0.060782 -0.235476 0.062829 -0.099409 0.020127 0.037233 -0.004274  
-0.051064 0.067629 0.151694 -0.186379 -0.187194 -0.030503 -0.008277 -0.074769 -0.196095 -0.127407 -0.027607 -0.120383 0.057535 0.056944  
-0.119249 0.039752 -0.058782 -0.029559 -0.030483 0.088743 -0.049541 -0.109774 0.040563 0.009219 0.044251 -0.011623 -0.021898 0.007451  
-0.089081 -0.034167 -0.001063 0.007265 -0.119657 -0.036893 0.024665 0.024507 -0.039645 -0.072074 -0.045497 0.033653 -0.054247 0.049739  
0.031284 -0.038200 0.056006 -0.120833 -0.004655 -0.132715 0.063077 -0.119606 0.082851 0.068289 0.001899 0.064023 0.002042 -0.035432  
0.071960 -0.055399 0.018613 -0.152835 -0.023825 0.017557 -0.162250 0.216821 -0.202257 -0.167790 -0.060428 0.080851 -0.083903 0.090341  
0.055419 -0.093728 -0.034529 0.003530 -0.108363 -0.006764 -0.055215 0.039837 0.004793 0.094115 0.058651 -0.115462 -0.068805 0.039063  
-0.003735 -0.028133 -0.136119 0.020967 -0.127020 -0.009423 0.003965 -0.048224 0.002997 -0.016185 -0.084094 0.144340 -0.032685 0.013383  
0.059159 -0.192359 0.006967 0.106645 -0.031910 -0.117035 -0.126771 0.081090 -0.064831 0.080183 -0.082724 0.063489 0.010693 0.114055  
-0.029694 0.040694 0.067062 0.009833 -0.000051 -0.076530 -0.169524 -0.119228 0.018613 0.089475 0.038524 0.034494 -0.026389 0.041401  
0.040276 0.031498 0.028386 -0.083014 -0.126749 0.027273 -0.011146 -0.147224 0.117929 0.040093 -0.042396 -0.079163 0.002936 -0.014479  
0.018689 -0.147539 0.043164 0.008300 -0.102744 0.017527 -0.019448 -0.190466 0.140789 -0.031741 0.037476 -0.161466 0.104743 0.043352  
-0.169984 0.088237 -0.177830 -0.186885 -0.022070 -0.056829 -0.177531 0.072947 0.087783 0.035159 0.030906 0.008823 0.028079 -0.041273  
-0.073721 -0.159639 0.099821 -0.015565 0.015924 -0.314524 0.068715 0.087455 0.206131 0.086682 0.100678 -0.057093 -0.077925 0.015050  
-0.020629 -0.051105 0.140910 -0.096599 0.060281 -0.153622 0.022050 0.141816 -0.087001 -0.044671 0.054689 0.004306 -0.068122 -0.144689  
0.029829 -0.017282 -0.005533 0.027641 0.034262 0.052863 0.005132 -0.120104 -0.005056 -0.042003 -0.074751 -0.015445 -0.095261 0.100844  
-0.059946 0.113373 -0.005008 0.028332 0.035217 -0.103805 -0.022226 -0.104870 -0.076138 0.025880 0.063035 0.026461 -0.112467 0.073941  
-0.082492 -0.062819 0.072867 -0.092217 -0.127882 0.024695 0.144165 0.056945 -0.061156 -0.125839 -0.091620 -0.021477 0.057972 -0.124263  
-0.009889 -0.019230 -0.026033 -0.081396 0.118175 0.043478 -0.002663 0.054935 -0.069418 0.008302 -0.086083 0.112194 -0.060470 -0.078559  
-0.043616 -0.000832 -0.042070 -0.020342 -0.174131 0.004158 -0.030252 0.112247 -0.059962 -0.091452 -0.222913 0.206430 -0.059721 -0.042374  
-0.158448 0.012510 0.186645 0.003035 0.064593 -0.169351 0.059454 0.121635 -0.129502 0.117315 0.174174 -0.143322 -0.093317 -0.091645  
-0.095849 0.026087 0.119431 0.083750 -0.140311 0.052081 0.111876 -0.222501 0.166390 0.111091 0.030393 -0.087611 0.035048 -0.078733  
-0.078109 -0.016399 -0.051335 0.040607 0.056778 0.007222 -0.046144 -0.023815 0.069343 -0.011801 0.086000 -0.070288 0.005422 0.094756  
0.009652 0.036511 0.052783 0.023071 -0.093917 0.026289 -0.076247 -0.098620 -0.071926 0.039024 0.030362 -0.043335 0.044472 -0.025057  
0.008409 -0.012060 0.016476 0.011742 -0.013525 0.078826 -0.016774 -0.224908 -0.022868 0.147778 0.147169 -0.120584 0.015183 0.014479  
0.074535 -0.085756 0.043520 -0.095291 -0.036067 0.017063 0.080890 -0.074047 0.017330 -0.084800 -0.023618 0.005494 -0.063414 -0.022643  
-0.074648 -0.114290 0.068820 -0.107074 -0.011943 -0.018373 0.034898 0.081074 0.027492 -0.000363 0.075094 -0.024675 -0.134244 0.010074  
-0.125457 0.086319 -0.081757 0.038244 -0.009414 -0.221979 -0.218770 -0.031563 -0.182589 0.025255 0.078907 0.063992 -0.008104 0.161149  
-0.012845 0.026253 0.071554 -0.036809 -0.100441 -0.065123 -0.067374 -0.080997 -0.047024 -0.192132 0.104622 0.152698 -0.021100 -0.086402  
-0.116056 0.002452 0.008993 -0.100593 0.051010 -0.056538 0.142803 0.058627 0.059798 0.083472 0.067536 -0.103326 -0.082820 0.015135  
-0.091162 0.022266 0.103823 -0.079400 -0.004301 -0.037530 -0.045380 0.110266 -0.023561 -0.141856 -0.070223 -0.039569 -0.071312 -0.015654  
-0.072525 -0.065617 -0.083916 0.064330 -0.027758 -0.000546 -0.025885 0.011812 -0.032831 0.038893 0.004601 -0.019427 0.041356 -0.015509  
0.073853 -0.051347 0.118231 -0.046084 -0.005665 -0.249802 -0.043263 0.062260 -0.157112 0.067131 0.038306 -0.025377 0.013105 -0.082051  
-0.088735 0.195829 -0.265667 -0.077965 -0.197210 0.181436 -0.072357 -0.112799 -0.176257 -0.061155 0.046861 0.160692 0.096659 0.038276  
0.116793 -0.165940 -0.049217 -0.042547 -0.095202 0.080579 0.057581 -0.132955 -0.043953 0.020449 -0.019143 0.020798 -0.092075 0.009077  
-0.126607 0.194897 -0.328072 0.116147 0.011256 0.021142 -0.150282 0.000254 -0.130026 0.008376 0.014514 -0.005418 -0.030909 0.168829  
0.032487 0.009714 0.019568 -0.090798 0.033697 0.054787 -0.072788 0.067484 0.067840 -0.089436 0.024761 0.027595 -0.044522 0.038700  
-0.049764 -0.160359 -0.002014 -0.167130 0.014051 0.048091 0.094778 0.022454 0.012104 0.077370 -0.005939 0.002238 -0.116382 0.095512  
-0.079178 -0.052125 -0.024746 0.003530 -0.057579 -0.039002 0.076313 -0.085298 -0.054763 -0.119157 -0.061860 -0.009007 0.044415 0.056559  
0.069701 -0.102483 -0.117177 0.038498 -0.077551 -0.059926 -0.076455 0.046363 -0.011051 0.042855 0.117492 -0.020360 0.000445 -0.125119  
0.030781 -0.083455 0.014475 -0.077949 -0.230767 0.033274 0.119257 0.002288 0.073061 -0.013559 -0.010728 -0.115986 0.017579 -0.010277  
0.060783 -0.095832 0.113908 0.070111 -0.097739 -0.081855 0.038293 -0.152064 -0.223567 -0.054087 -0.068953 -0.001201 0.020269 -0.051509  
0.018348 -0.066689 -0.002512 0.008349 0.024906 0.021156 0.113757 -0.021780 -0.012548 0.207485 0.065540 -0.123870 0.042811 -0.295942  
0.080898 0.073585 -0.146994 -0.042320 -0.098349 -0.057395 -0.100713 -0.044358 -0.202086 -0.050253 -0.129458 0.108742 0.143041 -0.090110  
0.000625 0.108082 -0.061750 -0.072087 -0.002101 -0.012162 0.012691 -0.022762 0.031621 0.032451 -0.069647 0.044157 0.011632 -0.010370  
-0.053104 0.079514 -0.120326 0.051283 0.238553 -0.009433 -0.041313 0.054391 -0.142838 -0.142887 -0.080878 -0.033540 0.010993 0.037024  
0.026270 -0.110229 0.124432 0.037651 0.001300 -0.029670 -0.189679 0.038365 -0.185250 0.144471 0.026683 -0.066159 0.149774 -0.065691  
-0.148278 -0.084189 0.066734 0.042985 0.047140 0.054006 0.034071 -0.097392 -0.079790 0.091085 -0.053980 -0.056037 -0.031048 0.054296  
0.057792 0.109666 0.048948 0.081519 0.261419 0.112585 0.057843 0.092646 0.143674 0.267027 -0.206619 -0.135852 -0.113571 -0.260914  
-0.069835 0.118593 -0.071459 -0.082899 -0.032191 -0.043318 0.109446 -0.040563 -0.077703 -0.076235 0.121643 0.078921 -0.048027 -0.080198  
-0.052829 0.001299 0.003366 -0.089933 0.014760 0.003800 -0.075707 0.127818 -0.086386 -0.054480 -0.046838 -0.024153 0.005182 -0.023645  
0.247077 -0.182184 0.147587 -0.114186 -0.101095 -0.198752 0.044031 -0.169486 -0.136008 0.174786 -0.035000 0.018210 0.128736 -0.055335  
0.026588 -0.022858 -0.090981 -0.187348 -0.037026 -0.082366 0.044935 -0.041562 0.009122 -0.027205 0.043245 0.026264 0.029084 -0.157069  
0.016985 0.025189 -0.027235 -0.049962 0.013150 0.088403 -0.016578 -0.015038 -0.046234 -0.017609 0.044229 -0.028161 0.016969 -0.003838  
0.207412 -0.086343 -0.085180 0.219018 -0.308052 0.068632 -0.296007 0.231763 0.249822 -0.034020 -0.072856 0.011391 -0.106560 -0.123672  
-0.095294 0.010253 -0.020600 0.073987 -0.150413 -0.099173 0.039385 -0.068183 -0.089401 -0.098227 0.049545 -0.001455 0.068257 0.089215  
-0.056700 0.089532 -0.146707 0.213494 -0.127570 0.012076 -0.186520 -0.114265 -0.162497 -0.073537 0.187730 0.033516 0.096782 -0.079476  
-0.139728 0.012427 -0.031813 -0.114659 0.036862 0.199949 -0.053627 0.024303 -0.021114 -0.088660 0.004537 -0.040970 0.045497 -0.093012  
0.024811 0.021313 -0.040159 -0.005863 -0.078280 0.099052 0.085685 0.013066 -0.082706 -0.101085 0.027769 -0.112350 0.059701 -0.097838  
-0.185127 0.035143 -0.111202 -0.128286 0.104569 -0.187903 0.086152 0.019337 -0.194904 0.119493 0.117240 -0.012854 -0.087713 -0.090368  
-0.082770 0.015636 0.002266 0.020640 -0.006523 -0.084386 0.049742 -0.077293 -0.111337 0.097479 0.118259 0.060140 -0.012591 -0.136770  
-0.099428 0.023772 0.077692 -0.022808 -0.156106 -0.051700 -0.036877 0.346531 -0.135100 -0.182786 -0.021315 -0.051438 -0.068364 0.018612  
-0.002811 -0.034282 -0.078446 -0.086014 -0.004680 0.006583 -0.064936 -0.040392 -0.018708 -0.040152 0.016388 -0.021690 -0.008903 -0.060307  
-0.022087 0.059579 -0.056885 -0.097859 0.133773 -0.200049 0.064388 -0.050455 0.081528 0.038304 -0.024732 -0.038578 -0.137632 0.021067  
-0.134112 -0.072033 -0.083654 -0.156367 0.186205 0.106863 0.139997 -0.005040 0.001394 0.125939 -0.075365 0.079526 -0.135842 0.065942  
0.008833 -0.022546 0.172724 -0.047902 -0.015826 0.115786 -0.074205 0.064976 -0.219966 -0.213961 -0.113038 -0.017232 -0.029978 -0.058052  
-0.077769 0.003584 -0.074616 -0.086473 0.023730 -0.072830 -0.022745 0.008779 0.016937 0.029227 -0.022317 -0.066337 -0.029396 -0.044940  
0.024056 -0.028889 -0.105131 -0.026161 -0.213813 -0.049055 -0.101341 -0.023489 0.167073 0.120264 -0.008730 -0.113184 0.017805 0.045311  
0.103915 0.031751 0.110765 -0.145528 -0.178775 -0.210828 0.063481 0.096693 0.033802 0.160956 -0.133877 0.017363 0.006798 -0.009063  
0.010798 -0.074609 -0.016442 -0.051158 0.074000 0.008012 -0.053284 0.083559 0.024704 -0.020222 -0.031031 0.021686 -0.069489 0.034804  
-0.079606 0.008214 -0.142191 -0.113042 -0.202470 -0.081874 0.242009 -0.036315 -0.220896 -0.110246 0.051052 0.084052 0.126555 0.099280  
-0.056405 -0.023649 -0.054540 -0.054579 -0.032912 0.007413 -0.028113 0.027189 -0.026302 0.046441 0.119039 -0.204089 -0.015890 0.047646  
0.045670 -0.017742 -0.034778 -0.151201 -0.023361 0.000097 0.048719 -0.149210 0.107846 0.029217 -0.071884 0.001850 0.005982 0.066010  
-0.063880 -0.046970 0.001891 -0.016853 -0.038965 0.065820 -0.014501 -0.084629 0.072092 0.058994 0.030269 0.027312 -0.013066 -0.152730  
0.017932 0.014953 -0.024462 0.011706 0.037966 -0.080816 -0.069756 0.035401 -0.057706 0.034770 -0.075686 -0.023945 0.082472 -0.110602  
0.098348 0.038560 -0.085488 0.010805 -0.109035 0.099325 -0.034289 0.110607 -0.155903 -0.141253 -0.049956 -0.025703 0.028827 0.018815  
0.088942 0.018436 -0.021479 0.259369 -0.056176 -0.034788 -0.050312 -0.001578 -0.137334 -0.083128 0.006454 0.064573 -0.006463 -0.086082  
-0.001549 -0.011728 -0.024615 0.081077 0.054742 -0.241278 0.096707 -0.089738 -0.025411 0.026299 0.081683 0.018203 0.015598 -0.050789  
-0.068637 0.097321 -0.031746 0.194521 -0.030664 0.051405 -0.002549 -0.089252 0.135573 0.127226 0.019022 -0.017046 0.095137 -0.143166  
0.045864 0.026042 -0.024036 0.073708 -0.023294 0.152323 0.031374 0.100721 0.215579 -0.266679 -0.308934 -0.041679 -0.009497 -0.051595  
0.034644 0.002050 0.102575 0.065979 -0.091668 -0.082706 -0.179182 -0.084691 0.216990 -0.121947 0.077706 -0.053288 0.086685 -0.159616  
-0.071883 -0.059541 -0.068323 -0.015225 0.018530 0.011732 0.145673 -0.023876 -0.092386 -0.022353 -0.050291 0.088308 -0.055157 0.014253  
-0.087429 0.008773 -0.002332 -0.202066 0.078887 0.100067 -0.103474 -0.095751 0.012581 -0.184298 -0.058648 0.107979 0.183836 -0.054767  
-0.098623 -0.079747 -0.155946 -0.099945 0.161695 -0.042682 0.119434 -0.220569 -0.015609 0.131876 0.136648 0.092071 0.012302 -0.193594  
0.089778 -0.060349 -0.097374 -0.051045 0.081444 -0.066943 -0.024964 0.018444 -0.166560 0.026477 -0.033703 0.029677 0.030540 0.064011  
-0.078490 0.233189 -0.192236 -0.211406 0.022510 0.097067 0.199675 -0.064917 -0.130184 0.039000 0.132139 -0.104050 0.029631 -0.104717  
0.035256 0.092052 0.001995 0.053365 -0.049507 -0.020933 0.016121 -0.054674 -0.094261 -0.002597 -0.077628 0.100913 -0.037494 0.008008  
0.000365 0.026058 0.066146 0.006952 -0.030326 -0.126016 0.003098 -0.126857 0.059753 -0.090789 -0.102937 0.083218 -0.041794 0.011499  
-0.018559 -0.178399 0.151675 0.053992 -0.021259 0.076799 -0.076536 -0.034062 0.027439 0.226209 -0.107123 -0.100566 0.002959 0.054616  
-0.019328 0.114972 -0.105393 -0.001525 0.063415 0.175113 -0.019795 -0.141733 0.140657 -0.189109 0.039665 -0.036611 0.059780 -0.055973  
-0.093318 0.017676 -0.077739 -0.066130 -0.014828 0.038358 -0.031512 -0.084613 0.027375 -0.043046 -0.059028 0.033825 -0.057386 0.013422  
-0.175881 0.148024 0.126793 -0.151783 0.033799 -0.008957 0.178910 0.029589 -0.069429 0.061765 -0.102086 -0.014540 -0.083102 -0.068232  
-0.155951 0.033873 -0.088189 -0.000510 0.052977 0.013060 -0.171499 0.130305 -0.087931 0.236129 -0.062878 -0.014355 -0.093321 -0.056309  
-0.039957 0.010548 0.022876 0.090513 -0.019511 -0.118083 0.029367 -0.015819 -0.116945 0.031786 -0.062051 0.050863 -0.048404 -0.018447  
0.005543 -0.064533 0.052520 -0.092822 0.102698 0.002279 0.034124 0.000429 0.015406 -0.003483 0.018436 -0.152934 0.008244 0.033496  
0.068800 -0.053449 -0.225729 -0.117655 -0.071108 -0.176261 0.267673 -0.029091 -0.177916 -0.084914 0.107424 0.105008 -0.006209 -0.125440  
0.028743 -0.072175 0.008257 0.020405 0.052865 -0.000755 -0.057597 0.037991 -0.046147 -0.006752 -0.027395 -0.142233 0.011274 -0.008256  
-0.019596 0.007674 -0.067949 -0.015216 -0.063621 0.057420 0.001109 0.009664 -0.032535 0.080658 -0.104084 0.106641 -0.030005 -0.092852  
-0.084165 0.060361 -0.057898 0.073139 -0.002638 -0.150945 -0.112029 0.033268 -0.153754 0.122660 0.000341 0.043437 0.071192 -0.044984  
0.104657 -0.047280 0.007867 0.099063 -0.043248 -0.017032 -0.018544 0.092104 -0.148669 0.082456 -0.095072 0.007516 -0.119394 0.020706  
0.034075 0.007804 -0.095872 -0.013619 0.090768 -0.123207 -0.026458 -0.041489 -0.105559 -0.177693 -0.152320 0.077718 0.077623 -0.081053  
0.032404 -0.101330 -0.202521 0.170455 -0.062049 0.073687 -0.158022 0.078566 0.019066 0.083270 -0.015704 0.064036 0.024895 -0.021288  
-0.131431 0.009888 -0.001002 -0.101558 -0.169131 -0.137513 0.043205 0.097131 -0.169472 0.019550 0.078767 0.006999 0.059109 0.068786  
-0.032969 -0.046201 -0.046067 -0.093461 0.152762 0.043065 -0.144015 -0.004745 0.074690 -0.061570 -0.027376 0.063138 0.012781 -0.090016  
0.169171 -0.057048 0.019610 -0.157504 -0.051673 -0.182890 -0.196072 -0.038327 -0.112967 0.118724 -0.029693 0.058786 0.179463 -0.121441  
0.002182 -0.050281 -0.061376 -0.000463 -0.055576 0.048610 -0.009657 -0.032952 -0.056875 -0.090363 0.033226 -0.043903 -0.053020 0.020500  
0.047821 0.050676 -0.014265 -0.033641 0.016306 -0.044624 0.056018 0.055638 -0.043054 0.036146 0.013650 0.039508 -0.206145 0.012729  
-0.097981 -0.141207 0.112544 0.052725 -0.139576 -0.089909 -0.020862 -0.091481 -0.067240 0.069099 0.047994 0.013854 0.006170 -0.099812  
0.025513 0.075246 0.080588 -0.064641 -0.116070 0.041506 0.100305 0.149419 0.004045 -0.220196 -0.203910 -0.068820 -0.071375 0.037759  
-0.066433 -0.080825 -0.146558 -0.016489 -0.085999 -0.025592 -0.065562 0.052501 -0.075337 0.096599 -0.016543 0.048493 0.072793 0.027241  
-0.033896 0.145972 -0.167882 -0.136746 0.001840 0.058691 0.032283 0.030233 0.111696 -0.091683 -0.085671 0.052778 -0.057803 -0.009910  
0.197673 -0.028425 -0.059974 0.005789 0.035852 -0.017185 -0.159140 -0.009667 -0.191881 0.137878 -0.052725 0.031565 0.021646 -0.013618  
-0.077178 -0.060438 -0.122105 -0.060163 -0.003406 0.008470 -0.049456 -0.093631 -0.031204 0.056935 -0.001416 -0.012195 -0.008062 -0.014069  
-0.071391 0.051205 -0.056274 -0.000813 0.028366 0.000881 -0.048500 -0.049966 0.030823 -0.029814 0.016516 0.018101 -0.077030 -0.043411  
0.012604 -0.009830 -0.006890 -0.013264 -0.118802 -0.038840 0.005314 -0.080055 0.023371 -0.056584 -0.108169 0.201680 -0.022939 -0.074115  
0.029537 -0.025537 -0.084236 0.105646 -0.016379 -0.052151 -0.132842 0.119379 -0.153103 -0.051911 -0.069099 0.031889 -0.027286 -0.111884  
-0.166229 0.017434 -0.141743 0.231345 -0.179049 -0.037914 -0.169857 0.204063 -0.214010 0.095304 0.074421 0.023967 -0.086219 -0.032644  
0.190402 -0.044529 -0.080706 -0.155073 0.120366 -0.046340 -0.021791 0.099136 -0.318974 -0.070802 -0.126434 -0.011369 -0.002839 -0.011961  
-0.013986 -0.042758 -0.025805 -0.099499 -0.072858 -0.094854 0.088589 -0.023449 -0.043005 -0.043894 0.108770 0.085722 0.039306 -0.005565  
-0.088306 -0.068063 -0.042258 -0.014234 0.126774 0.000959 -0.023135 -0.145189 0.030121 -0.013260 0.026925 0.087166 0.065324 -0.084180  
0.053040 -0.066052 0.059518 0.053496 0.009948 0.039878 0.013130 0.035505 0.064485 0.003547 -0.113189 -0.076521 -0.114707 0.048680  
0.115420 0.128165 -0.180193 0.064959 -0.202163 -0.132948 0.092809 0.015019 0.148786 0.203088 0.061196 -0.001051 -0.139033 -0.037831  
-0.068970 -0.016092 -0.038658 0.001260 -0.040716 0.185902 -0.046135 0.073681 -0.072717 -0.168768 -0.053039 -0.027003 -0.052381 0.057378  
-0.118703 0.033141 0.031612 0.047949 -0.196388 0.232109 -0.042673 -0.063511 -0.164186 0.039528 0.128298 -0.189222 -0.047378 0.020849  
-0.019760 -0.026921 -0.009829 -0.018888 -0.085592 0.080838 0.092712 -0.004439 0.082419 -0.066139 -0.155453 -0.102655 -0.090443 0.080821  
-0.033261 -0.044804 -0.053803 -0.094643 -0.081207 -0.010108 0.082474 -0.168018 0.111243 0.095128 0.049499 -0.043781 0.005103 -0.049055  
0.049215 -0.035746 -0.014130 0.101025 0.175489 0.219246 0.009313 -0.181793 0.049209 -0.186561 -0.100857 -0.046127 0.016768 -0.031212  
0.051771 0.027767 0.072466 -0.069628 -0.011707 -0.073002 -0.086158 0.039133 -0.031848 -0.061937 0.006340 -0.019284 -0.031655 0.034653  
-0.066931 0.001487 -0.004932 0.018512 -0.095166 -0.082134 -0.030819 0.091849 -0.040203 0.011361 0.051277 -0.073818 -0.013712 -0.003317  
-0.023567 -0.026617 -0.098768 -0.057371 0.035394 0.076902 -0.030888 0.046235 -0.088496 0.050534 -0.046349 0.020367 0.018906 -0.035690  
-0.046624 0.060770 -0.061536 0.022417 0.049475 -0.019132 -0.088733 -0.025390 -0.054923 -0.020449 0.027543 0.014298 0.049428 0.128946  
0.015887 -0.016947 -0.036606 0.154533 0.015999 0.035181 -0.111426 -0.022185 -0.167541 -0.054799 -0.101433 -0.024634 0.001483 -0.093204  
0.098848 0.027946 -0.046495 -0.187555 -0.036733 0.163092 0.062080 0.046398 0.080671 -0.131525 -0.166245 0.096505 -0.013146 -0.075677  
0.181870 0.077802 -0.083288 -0.032158 -0.075956 0.201631 0.129923 -0.071772 -0.136053 -0.033751 -0.126035 -0.068305 0.009667 -0.060140  
-0.190204 0.078875 -0.080578 -0.168532 -0.024782 0.044372 0.040092 -0.024466 0.180917 -0.069607 0.036593 0.036126 -0.125775 0.135384  
0.029539 0.077827 0.042921 -0.045756 0.148686 -0.011356 -0.175326 -0.040695 -0.154968 -0.157199 -0.036986 0.053294 0.056968 -0.177482  
0.054724 -0.062329 -0.148738 -0.091189 0.034453 0.207167 -0.146176 -0.052981 -0.092609 -0.086002 0.027049 0.107267 -0.092302 0.015780  
-0.053579 0.061516 0.027235 -0.012489 -0.068874 -0.095804 -0.060021 0.026655 -0.049514 -0.044324 0.019629 -0.041367 -0.061024 0.046365  
0.097228 -0.115379 0.176287 0.099105 -0.111946 -0.112016 -0.043062 -0.112775 0.142541 -0.190905 -0.088162 -0.010921 0.087052 0.038724  
-0.010613 -0.033184 -0.034585 -0.006670 -0.040804 0.009286 0.026909 -0.032398 -0.060235 -0.128783 -0.010182 -0.056819 -0.031748 0.020742  
-0.158188 0.023782 0.182882 0.125077 -0.062544 -0.166461 -0.027942 0.107466 0.089273 -0.191078 0.071336 -0.149029 0.066489 0.002170  
0.085973 -0.043594 -0.119145 -0.095886 0.044717 0.030922 0.126513 -0.043837 -0.076729 0.039163 -0.098152 0.029926 -0.047202 -0.062467  
0.043732 0.117342 -0.073920 -0.012610 0.014974 0.030631 -0.000673 -0.135696 -0.060967 0.071992 0.017492 0.008392 -0.036505 -0.066345  
-0.085908 -0.016606 0.049949 -0.079494 -0.096394 0.003519 -0.043563 0.047824 -0.025422 -0.050376 -0.021192 0.012849 0.032210 0.062783  
0.088072 -0.191722 -0.048193 0.150270 0.010383 0.242456 0.225164 0.034030 0.172445 -0.286381 -0.140320 -0.112833 0.007786 -0.166524  
-0.095708 0.034029 0.005004 -0.080491 -0.134023 -0.019730 0.024507 0.019234 0.013085 -0.082917 0.040754 -0.108866 -0.055434 0.026903  
-0.102900 -0.045528 0.151792 0.093619 -0.079180 0.090357 -0.128641 -0.004870 -0.123757 -0.020042 0.003891 -0.059410 0.007349 -0.058768  
-0.036918 0.089090 0.076619 -0.061912 -0.004228 -0.096832 -0.085923 0.066592 -0.088387 -0.008642 -0.003255 0.005281 0.002530 -0.069609  
0.042621 0.026611 0.051016 0.069251 -0.080619 0.067252 -0.018254 -0.057777 -0.082057 -0.094874 -0.042139 0.003259 0.018549 -0.029443  
-0.028799 -0.026118 -0.040976 -0.080769 0.073485 0.030433 -0.067305 -0.006468 -0.006348 0.006498 0.096169 -0.121471 0.046708 0.016528  
0.048396 -0.000344 0.100082 0.090986 -0.133676 0.092765 -0.150860 -0.166465 0.015699 -0.121985 0.012364 -0.078498 0.115354 -0.028477  
-0.116784 0.183684 -0.071973 -0.196209 -0.076553 -0.127950 0.094633 0.014382 0.104097 -0.050933 0.005177 -0.016365 0.028796 -0.076035  
-0.231716 0.094631 -0.231422 -0.008683 0.177562 0.066028 -0.217008 0.141164 0.036438 0.131232 -0.010457 -0.039708 0.017782 0.072806  
-0.087959 0.000906 -0.179291 -0.030125 0.026838 0.049741 0.002639 -0.046268 0.037139 0.082522 -0.050088 0.080962 0.031742 0.035954  
0.101014 -0.068541 0.067496 0.024566 0.056704 -0.020925 -0.085325 -0.094968 0.055378 -0.004940 -0.084188 -0.016891 0.088100 -0.162161  
-0.053442 -0.032955 -0.044124 -0.018359 0.007908 -0.030373 -0.027394 -0.013769 -0.084253 0.062321 -0.052569 0.056384 -0.039240 -0.036705  
0.037057 -0.026366 -0.003602 -0.059193 0.045597 0.105833 0.022688 -0.194331 0.110706 0.034258 -0.003708 -0.009586 0.016479 0.081436  
0.133510 -0.030979 0.174232 0.081663 -0.069256 -0.106501 -0.027355 0.102774 -0.146848 0.030520 0.037317 0.014161 -0.044785 -0.084542  
-0.020368 0.078928 0.036561 -0.041127 -0.093686 -0.096000 0.045475 -0.092838 -0.209636 -0.016915 -0.049996 -0.095955 0.071896 0.000506  
-0.050286 -0.137155 -0.199564 -0.123559 0.061270 0.034246 0.031396 0.095917 0.099350 0.128866 -0.004809 0.050578 -0.036257 -0.090379  
-0.005984 -0.037964 -0.042159 -0.046902 -0.092541 -0.016856 -0.052502 -0.014498 -0.044932 0.016128 -0.064480 -0.025944 0.046154 -0.004202  
-0.065528 -0.034937 -0.031397 -0.109261 -0.074585 0.033938 -0.065923 0.180385 -0.147491 -0.201903 -0.031381 -0.006171 0.027324 0.156671  
-0.028928 -0.006313 0.081118 0.027866 -0.043484 -0.017130 -0.025874 -0.051325 -0.027619 0.115926 0.047332 -0.131874 0.052857 -0.014496  
-0.098042 0.014291 -0.076685 0.204277 -0.177756 0.018931 0.004892 -0.024630 -0.138511 -0.044033 0.024266 -0.064727 0.090961 0.075474  
0.024686 -0.000107 -0.114308 0.003744 -0.053575 -0.117642 0.121695 -0.107828 -0.063149 -0.018850 -0.050319 0.087033 0.027563 -0.134171  
-0.051622 -0.228056 -0.012348 -0.051225 0.035386 0.073894 0.083232 0.043611 0.082317 0.106981 -0.107525 0.026533 -0.071930 0.028504  
0.058867 -0.268372 -0.160370 -0.113139 0.030055 0.164797 0.059006 -0.146685 0.026085 0.034477 0.091427 -0.068362 0.006716 0.087300  
0.127469 0.043976 0.065611 0.036071 0.045046 0.118179 0.108926 -0.030706 0.138329 -0.227678 -0.231650 -0.109638 -0.056347 -0.028031  
-0.007201 -0.082207 0.048006 -0.044368 -0.045890 -0.153938 -0.066490 -0.098313 0.072036 0.033582 0.007505 -0.000649 0.037838 -0.024313  
0.043348 0.079911 0.018942 0.039189 -0.310130 0.086382 0.013768 0.036679 -0.005297 0.019193 -0.218939 -0.092548 -0.018237 0.001986  
-0.062033 0.095941 -0.077950 -0.036547 -0.211424 -0.084182 -0.039431 -0.032482 -0.147018 -0.217516 0.045021 0.063381 0.182652 -0.163193  
0.245446 -0.034806 -0.046601 -0.034569 0.021493 -0.122624 -0.103895 0.037579 -0.021186 0.008491 -0.013300 -0.006228 -0.002826 -0.098967  
-0.039191 -0.016487 -0.044658 -0.075801 -0.004775 0.030764 0.030270 0.010889 -0.045886 -0.068438 -0.024613 0.011443 0.014726 0.016161  
-0.161797 0.159337 -0.095223 -0.110215 -0.109916 -0.048913 -0.161757 -0.096811 -0.067221 -0.050523 0.065805 0.098601 0.015315 -0.051292  
-0.047670 -0.053742 -0.023097 0.042363 -0.018301 0.079359 -0.126130 -0.147493 0.043260 -0.099021 -0.086622 -0.009099 0.030976 -0.030648  
-0.078953 0.021906 0.032574 -0.021816 0.059473 -0.147105 0.014165 0.026551 -0.045186 0.041004 0.069904 -0.009180 -0.077557 -0.039861  
-0.190460 0.030689 -0.058511 0.068435 0.017534 0.054967 -0.095444 -0.027800 0.104079 0.086581 0.011348 -0.047838 -0.069725 0.027194  
-0.197748 -0.118966 0.153557 -0.037846 0.079239 0.042552 -0.018861 -0.108546 0.005718 -0.221502 -0.035177 0.081246 -0.056243 -0.174216  
-0.066908 -0.038849 -0.072412 -0.085460 0.159047 0.019951 -0.082432 0.051709 0.025648 -0.127001 -0.092935 0.157446 -0.044015 -0.081028  
0.037670 0.044065 0.015616 0.005031 0.017749 -0.032528 0.045967 -0.009629 -0.030648 0.036750 0.011867 -0.036787 0.039395 0.047380  
-0.098345 -0.104585 0.078019 -0.074438 -0.174007 -0.025047 -0.044167 -0.096646 0.189195 0.072897 -0.108824 0.025769 -0.111575 0.081947  
0.054271 -0.033532 0.031201 -0.046080 0.034818 -0.033913 -0.011338 0.005748 0.005796 0.069621 -0.016474 0.006006 0.073617 -0.021153  
0.066154 -0.018435 -0.069884 0.042710 0.105105 -0.094015 -0.126413 -0.031681 0.061600 0.033618 0.050154 -0.073758 -0.049121 -0.020601  
-0.092892 0.156367 -0.103631 -0.214080 0.065988 -0.002003 0.027680 -0.032140 0.153416 -0.193710 0.039620 0.087421 -0.131762 0.039755  
0.078110 -0.052197 0.055932 -0.087578 -0.077396 0.099323 -0.018725 -0.050503 -0.073178 0.012255 -0.074985 -0.005609 -0.016328 -0.043876  
-0.033914 -0.043670 -0.027253 -0.201886 0.002345 -0.017483 0.124291 -0.086855 0.044647 0.015194 -0.053552 -0.027186 0.000686 -0.082363  
-0.055305 0.140898 -0.126755 -0.139226 -0.008091 0.049087 0.052249 -0.054709 0.065748 0.083997 0.040710 0.047331 0.033878 -0.043673  
-0.036185 -0.069246 -0.075376 0.120445 -0.062619 -0.121231 -0.104327 -0.067972 -0.050002 -0.061933 0.207062 0.073245 0.023251 -0.073457  
-0.023411 -0.042832 0.109906 0.076209 -0.003258 -0.097860 -0.103623 -0.093056 -0.027997 0.007588 -0.109904 -0.063167 0.048488 0.076692  
0.028204 -0.109854 -0.008762 -0.064529 -0.015589 0.073465 0.014023 -0.096604 -0.064129 0.025838 -0.025542 -0.003436 0.003411 0.017441  
0.029786 0.049726 0.001215 -0.059231 0.007238 0.023259 -0.056915 0.041487 0.001226 -0.081740 -0.054440 -0.051008 -0.029175 -0.076950  
-0.017988 -0.000461 -0.011617 -0.039294 0.173581 0.043509 0.057670 0.019274 0.010731 -0.031481 0.190142 -0.211293 -0.007954 0.025638  
-0.031527 -0.077604 -0.012282 0.065442 0.000705 0.072725 -0.100559 -0.042445 -0.001548 0.019291 -0.129318 -0.005107 0.053306 -0.010572  
0.025740 0.074537 0.086422 0.032424 0.020402 -0.131173 -0.035918 0.086724 -0.156970 -0.012813 -0.002347 -0.160532 -0.007023 0.077309  
-0.060634 0.049405 -0.034818 0.018854 -0.029075 0.021494 -0.114067 -0.030411 -0.088290 -0.039566 -0.082879 -0.054752 0.010745 -0.050913  
0.028413 0.050663 0.077548 -0.101304 -0.087166 -0.067002 0.050906 -0.054749 0.087598 0.063555 0.150412 -0.044610 -0.025084 0.000388  
0.069510 -0.159086 0.115283 0.070482 -0.002736 -0.066132 0.005904 -0.039632 0.120715 0.039360 0.028683 -0.065501 -0.123602 -0.125579  
0.039865 -0.044530 -0.024165 -0.062185 -0.117878 0.028986 -0.031487 -0.107501 -0.001876 -0.019364 0.014997 -0.036228 -0.026913 0.023872  
0.141121 -0.058373 -0.030188 -0.000161 -0.065722 -0.101162 -0.068931 -0.011168 -0.050362 -0.063455 -0.065068 -0.003451 -0.004623 -0.043612  
-0.050719 0.026831 -0.035254 0.012290 -0.046283 0.052580 -0.011109 -0.029100 0.020884 -0.006037 -0.116083 0.121532 -0.042256 -0.011767  
0.033415 0.098709 -0.035997 0.026214 -0.068125 -0.062183 0.040743 0.065622 0.098744 -0.059929 -0.014734 -0.108308 -0.069736 0.054331  
-0.186793 0.042501 0.160885 0.011126 0.233392 0.062733 0.150284 -0.159545 0.136853 -0.338637 -0.090406 0.004916 -0.133726 0.015975  
-0.037747 -0.016238 -0.029510 -0.143504 -0.095541 0.260603 -0.073496 -0.066814 0.025120 -0.082790 -0.090764 0.145662 -0.070023 -0.017351  
0.010241 0.033436 -0.054587 -0.077885 0.006979 0.069242 -0.059053 0.039527 -0.023698 -0.139749 -0.093389 -0.007868 -0.159273 -0.037252  
0.105924 0.072764 -0.100539 -0.096228 -0.061278 -0.208428 -0.172019 0.010917 0.069256 -0.002715 -0.142141 0.121583 0.046487 -0.098084  
-0.155411 0.065548 0.023557 -0.198867 0.057315 -0.096010 0.031363 0.119369 -0.137060 -0.000179 0.071333 0.021008 -0.007779 -0.060231  
-0.017460 -0.008534 0.131825 0.142817 -0.209667 -0.155112 -0.163243 0.071900 0.044856 -0.005361 0.156888 -0.110737 0.116856 -0.053831  
-0.015832 0.093918 0.035118 0.153398 -0.217041 -0.045536 -0.020951 -0.023992 -0.023089 0.059301 0.010428 -0.076606 -0.018063 -0.002159  
0.002331 -0.199075 -0.156464 -0.072435 0.015184 -0.064690 0.189877 -0.180837 0.068071 0.196214 0.184724 0.035188 -0.027174 0.021353  
0.123231 -0.078134 0.003985 0.078273 -0.120765 -0.226792 0.153255 -0.054216 -0.031255 -0.210545 0.038842 0.017337 0.103577 0.134706  
-0.183132 -0.052558 0.328275 -0.131933 0.211145 -0.015879 0.116579 -0.085283 -0.136166 0.047231 -0.106884 -0.042135 -0.107826 0.069103  
-0.062276 -0.099659 0.011357 -0.054272 0.026246 0.061252 -0.045091 0.042000 0.069608 0.070361 0.052732 -0.169056 0.022709 0.007434  
0.092402 -0.048897 -0.069265 -0.151231 0.115612 0.232061 0.215290 0.049517 0.032236 0.018571 -0.057994 -0.074158 -0.011007 -0.063768  
-0.060030 -0.129498 -0.167184 -0.241461 0.149246 0.065679 -0.015359 0.151440 -0.330301 0.067212 -0.131018 0.133113 -0.095147 0.071463  
0.044500 0.001281 0.064393 -0.105634 0.146318 0.127708 -0.051617 -0.107385 0.035793 -0.139252 -0.011977 -0.055591 0.111821 0.060577  
-0.028866 -0.012339 0.001942 -0.008987 -0.055870 -0.038317 -0.004144 0.066409 -0.056277 -0.124725 -0.005524 0.105315 -0.023745 -0.017140  
0.038908 -0.014361 -0.116505 0.027456 -0.073990 0.073787 -0.068909 0.071366 -0.006167 0.048467 -0.020888 -0.081695 0.047633 0.072610  
-0.041616 -0.033380 -0.103584 -0.129112 -0.112998 -0.048868 -0.008169 0.021073 -0.020787 0.082795 -0.035899 0.055016 0.016061 0.128235  
0.027594 0.112963 -0.112407 -0.031638 -0.133887 -0.024019 -0.049882 -0.029599 -0.046767 -0.092165 -0.136544 0.154973 -0.025696 -0.080490  
-0.062266 -0.065482 -0.006341 -0.014232 0.025596 -0.037788 0.029104 -0.045832 -0.055651 0.037025 -0.003318 -0.014451 0.155402 -0.067080  
-0.034093 -0.021983 -0.051255 0.015263 -0.025251 -0.031743 -0.057980 0.022795 -0.013312 0.032023 0.007609 0.102327 -0.031918 -0.023086  
0.064501 0.045625 0.061490 -0.121082 -0.061615 -0.153089 -0.079123 -0.010955 0.114324 -0.065106 -0.064687 -0.075525 0.049283 -0.103973  
0.155996 -0.018069 -0.010665 -0.103171 -0.077584 0.175530 0.034995 -0.041221 -0.087954 0.077187 -0.043247 -0.028454 0.024506 -0.038301  
-0.034643 -0.106132 0.073475 0.030158 -0.084758 -0.137818 -0.061932 -0.003777 0.131469 0.005519 0.026436 -0.046375 0.059383 -0.079901  
-0.017180 0.145149 -0.147820 -0.049637 -0.157120 -0.141906 -0.122421 -0.060239 -0.062015 -0.132106 0.102043 0.145993 0.073488 -0.107151  
0.051574 -0.104103 -0.072820 0.037558 0.043880 0.090373 -0.115920 -0.092199 -0.058318 -0.002469 -0.109350 0.113237 0.080239 0.026975  
0.009180 -0.047148 0.212481 0.038592 -0.171904 -0.102380 -0.194939 0.024024 -0.047557 0.040546 -0.026709 0.063819 -0.058327 -0.100748  
-0.135586 0.014585 0.023407 -0.012150 0.054367 -0.137837 0.056270 -0.048475 -0.106469 0.023379 -0.021402 -0.038117 0.027634 -0.107023  
-0.072212 0.033800 0.008035 -0.144164 0.023305 -0.039479 0.061870 0.048871 0.066727 -0.059812 -0.071673 -0.080835 -0.067378 0.035807  
-0.047118 0.028349 -0.131772 0.131013 -0.067491 0.050622 0.009833 0.176782 -0.196901 -0.236357 -0.069357 0.092353 -0.118429 0.010497  
-0.025864 0.119592 0.112264 0.038508 -0.034292 0.018149 0.042601 0.072959 0.044794 -0.006198 -0.015303 -0.026863 -0.056744 -0.067200  
-0.091221 0.058889 -0.104651 -0.119664 -0.167882 0.052827 -0.050548 0.080318 -0.037437 0.016702 -0.060600 -0.015101 -0.015170 -0.009429  
-0.276123 0.110250 0.041637 0.039342 0.055883 -0.173775 0.180117 0.000755 0.100443 0.148010 0.056080 -0.030553 -0.191318 0.061368  
0.128041 0.032557 0.045442 0.132493 -0.105903 0.203717 0.103365 -0.124628 0.102496 -0.176977 -0.024192 -0.111480 -0.033793 -0.139977  
0.117165 -0.002966 0.112088 -0.043313 -0.120205 0.042411 0.012205 0.023339 0.052507 -0.075318 0.040150 -0.148368 -0.137311 -0.154055  
-0.114437 0.029149 0.064353 -0.013603 -0.036673 0.055107 -0.049275 -0.075280 0.007313 0.048567 -0.076577 -0.020113 -0.040948 -0.046299  
0.023777 0.021941 0.119947 0.127466 -0.149925 0.231026 -0.095154 -0.228784 0.135207 -0.078784 -0.041668 -0.053582 0.072151 0.036001  
0.009824 -0.038461 -0.018009 -0.021491 -0.123900 -0.004338 -0.019566 0.002172 0.014491 0.002049 -0.118385 0.098721 0.031746 -0.017679  
0.004687 0.156019 0.022365 0.135784 -0.240247 -0.152694 -0.203863 0.210852 -0.073575 -0.034803 -0.142217 -0.023221 -0.015640 -0.051558  
-0.110433 -0.064137 0.044531 -0.101443 -0.112660 -0.080540 0.075197 -0.044354 -0.039246 0.083375 -0.081635 -0.007918 -0.004380 0.021575  
0.010874 0.052774 0.030901 0.010722 -0.082704 0.029172 -0.049860 -0.077876 -0.069322 -0.071957 0.026243 0.018346 0.047943 0.031625  
-0.056199 0.064537 -0.137594 0.038459 0.012811 0.158045 0.151824 0.056210 0.100639 -0.175480 -0.055259 -0.042736 -0.116402 -0.071566  
-0.006388 -0.080630 0.073944 -0.085452 0.088433 -0.124616 0.015848 -0.044804 -0.051017 -0.081456 -0.216100 0.101220 -0.007447 0.014928  
-0.089213 0.015768 -0.061866 0.001447 -0.006719 0.016744 -0.002752 -0.008597 -0.024867 -0.040504 0.014144 -0.016144 0.104403 -0.052695  
-0.018660 0.185110 -0.124011 -0.004330 -0.069696 0.151968 0.008000 -0.062171 -0.113278 -0.003260 -0.036475 0.113138 -0.083745 -0.054900  
-0.051442 -0.103897 -0.164081 -0.158013 -0.033821 -0.064686 0.089949 0.029558 -0.077568 0.136575 -0.024064 -0.058714 -0.104523 0.069397  
0.117015 0.095223 0.083033 -0.091666 -0.128993 -0.154920 -0.064134 -0.085810 -0.065136 -0.157133 -0.077129 0.046071 0.017146 -0.149508  
0.327973 -0.025984 0.143671 -0.058052 -0.098189 -0.120330 -0.070923 -0.088962 -0.162121 -0.077694 -0.054664 -0.038081 -0.053387 -0.054250  
0.057886 0.043229 0.014243 -0.089302 -0.037264 -0.039202 0.037289 -0.053198 0.088529 -0.002051 0.009611 -0.066827 0.048949 0.036369  
-0.058025 0.117161 0.153189 -0.074989 -0.077850 -0.063508 -0.003686 -0.083722 -0.033015 -0.105189 -0.088398 -0.046541 0.063989 0.154483  
-0.023675 -0.132550 -0.006539 0.058636 0.001432 0.095601 -0.239748 -0.043861 -0.002945 0.043270 -0.183323 -0.076880 0.019931 -0.176449  
0.023814 -0.031301 -0.068683 0.067235 0.080274 -0.029165 0.025191 -0.008173 -0.124061 -0.070247 -0.058421 -0.015754 -0.060303 0.059435  
0.030018 0.065463 0.152430 -0.253433 0.088319 -0.165917 0.014584 -0.074925 0.094691 0.029983 0.013345 -0.105772 0.070142 -0.126647  
0.076430 -0.079666 -0.043233 -0.092041 0.061016 0.131280 -0.034672 0.006322 -0.046932 -0.053201 -0.065237 -0.038845 0.092615 -0.047239  
0.047749 0.116874 -0.280028 0.012127 -0.061384 -0.108119 0.159074 -0.048061 -0.205995 0.128504 0.033277 0.039285 0.069413 -0.175268  
0.121099 0.006707 0.221084 0.038858 -0.155534 -0.027996 0.171153 0.030829 -0.112609 0.121909 -0.157481 0.034631 -0.071158 -0.153824  
-0.040041 -0.015044 0.107293 0.033081 0.027169 0.028984 0.069761 -0.006147 0.016238 0.016332 -0.093232 -0.021975 -0.015989 0.002682  
-0.121726 0.178303 0.076927 -0.096828 0.056517 -0.036423 0.216292 -0.018349 0.060595 -0.136816 -0.149563 0.014419 -0.140074 -0.158337  
0.088410 -0.122992 -0.009435 0.093940 0.106407 0.091177 -0.010136 -0.028606 0.158551 0.126110 -0.084359 0.109608 -0.189481 -0.350826  
0.047898 -0.075667 0.086203 0.109729 -0.165269 -0.115087 0.090877 -0.090133 -0.054247 -0.175859 -0.009772 -0.070214 0.162252 -0.162753  
0.034675 0.039403 -0.156564 0.032820 -0.141825 -0.067796 -0.131843 0.015168 -0.070026 0.030200 0.070066 -0.033071 0.027135 0.004700  
-0.058559 0.150563 -0.017604 0.000319 0.008100 -0.154153 -0.017559 -0.047677 -0.061019 -0.053249 -0.061230 0.089280 0.108845 -0.065411  
-0.111997 0.179085 -0.215275 -0.183042 -0.079195 -0.062230 -0.097054 0.080847 0.145876 0.042677 0.154326 -0.001284 -0.023631 0.034178  
0.048457 -0.084910 -0.028055 -0.021347 -0.077746 0.067638 -0.093481 0.061908 -0.034505 -0.113489 0.021454 -0.066277 -0.011186 0.012140  
-0.000890 -0.039999 -0.075429 -0.053265 -0.072441 -0.022869 -0.013085 -0.084234 -0.061389 -0.025446 -0.038280 -0.031501 -0.054639 -0.063226  
-0.103491 -0.117045 0.092013 0.026711 -0.051036 0.013119 -0.027695 0.116439 -0.094922 -0.133859 -0.059741 -0.097685 -0.075839 -0.058803  
0.045149 0.005241 0.126892 -0.218652 0.056997 0.016257 0.122064 0.003608 0.154719 0.068388 0.044611 -0.051984 -0.074183 0.012689  
-0.133044 0.106378 0.193862 -0.203046 -0.090763 -0.065627 0.110939 -0.096691 -0.167055 -0.237466 0.064896 -0.072993 -0.017356 -0.031188  
0.058059 -0.002194 0.046685 -0.029532 0.234796 -0.078962 0.019637 -0.190242 0.121838 0.006337 -0.055106 -0.098043 -0.021966 0.027271  
-0.045020 -0.077446 0.127441 -0.018729 0.122047 0.055308 0.020622 0.035421 -0.078467 -0.179164 0.020462 0.002081 -0.145118 0.026667  
0.021772 -0.088506 -0.015276 0.078008 0.092840 -0.153925 0.135205 0.046554 0.088607 -0.045373 -0.018221 -0.031733 -0.064078 -0.136276  
0.067504 0.033668 -0.115085 -0.142693 0.048050 0.089957 0.057148 -0.073808 0.056083 -0.001535 -0.078571 0.048523 -0.243343 0.051274  
-0.194696 0.092596 0.103617 0.182776 0.049941 -0.214414 -0.147485 0.024780 0.201418 0.215839 0.044419 -0.063419 -0.053820 -0.135446  
0.007479 0.028387 -0.176816 -0.045741 0.084854 -0.015716 -0.001813 -0.044563 0.003863 -0.024044 -0.119237 -0.005419 0.010132 0.087739  
-0.087937 -0.018923 0.105728 0.006962 -0.024169 0.014484 0.056449 -0.093883 -0.063974 -0.088327 -0.009904 0.041646 -0.064479 0.016477  
-0.061736 0.042319 -0.167258 -0.148239 -0.280250 -0.048750 0.136632 0.042173 0.152659 0.186241 0.073054 -0.059212 -0.085112 0.067039  
-0.022040 -0.111936 -0.020219 -0.047679 -0.139072 -0.017443 -0.027135 -0.045122 0.055435 0.008306 0.100062 0.000891 0.006370 -0.026111  
-0.031346 0.053658 -0.029788 -0.035700 -0.022036 0.012476 0.065051 0.028776 -0.054711 -0.012473 0.012006 0.012698 -0.003572 0.039088  
0.144567 -0.114670 0.000408 -0.107579 -0.036101 0.066003 -0.043525 -0.134349 0.003807 0.074600 0.028728 0.019063 0.080554 0.034130  
0.056680 -0.052868 -0.021364 0.029098 -0.014735 0.008250 -0.124233 -0.046912 -0.010683 0.081462 -0.052507 -0.007190 0.053023 0.034309  
-0.056122 -0.133751 -0.087375 0.073678 0.011720 -0.146524 -0.152714 -0.089821 -0.071261 -0.008152 0.122016 0.068151 0.055360 0.151636  
-0.059201 -0.050763 -0.044908 0.013649 0.225979 -0.108989 -0.100603 0.224289 -0.216968 0.000149 -0.012521 0.000027 -0.024956 -0.001233  
-0.108474 -0.209971 -0.005490 -0.244693 0.211769 -0.116297 0.136885 -0.027941 0.078325 0.198666 0.070152 -0.000741 -0.054858 -0.125193  
-0.053371 0.014929 0.006316 -0.025895 0.033862 -0.009639 -0.011397 -0.015752 0.011641 -0.112533 -0.111520 -0.098287 0.041473 -0.055353  
0.005494 0.054804 -0.049137 0.044508 -0.026227 -0.073643 -0.027734 -0.038692 -0.056079 -0.045740 0.049123 0.001994 0.072490 -0.119405  
0.100938 -0.111004 -0.004255 0.058100 0.006514 0.056462 0.027300 -0.100869 0.005882 -0.156193 -0.151692 0.037065 -0.079061 -0.049371  
0.079047 -0.095229 -0.129578 -0.049707 -0.093561 0.368555 -0.095764 0.029234 -0.202454 -0.084925 -0.027131 -0.091519 -0.101255 0.093383  
0.034855 -0.056423 -0.082586 0.051927 -0.056459 -0.106966 0.011567 -0.070564 -0.097537 -0.033593 0.016238 -0.050586 -0.069573 0.060597  
0.023311 0.100537 0.069266 -0.149164 -0.090572 -0.071543 0.092688 -0.040827 0.051090 -0.118481 0.009038 -0.002768 -0.055928 -0.063240  
0.064125 -0.056003 0.048465 0.006984 -0.033609 0.086469 0.078599 -0.017973 -0.168891 -0.074258 0.060957 -0.121974 -0.093038 -0.005145  
0.132124 -0.114837 0.261394 -0.073623 -0.199341 0.072176 0.058257 -0.153444 -0.121072 -0.078163 -0.162661 0.047684 0.093956 -0.093680  
-0.149863 -0.038062 0.080260 0.112716 -0.060663 -0.193335 0.042815 -0.067081 0.161731 0.028734 0.162563 -0.095185 0.069297 -0.056030  
0.140748 -0.091402 -0.150284 -0.129382 0.105147 0.042213 0.075314 -0.088791 0.066913 -0.087678 -0.122454 0.066172 -0.066620 0.001931  
0.066738 -0.074656 -0.082057 -0.003629 -0.032381 -0.181690 -0.153964 0.045545 0.015333 -0.071781 0.055170 0.031291 -0.049032 0.119310  
-0.075305 0.059039 -0.038517 0.074971 0.095519 -0.065680 0.173535 -0.124499 -0.166466 -0.056048 -0.031900 0.018636 -0.141684 -0.042618  
0.100656 -0.053283 -0.060016 0.032481 -0.042216 0.190601 -0.135209 0.021202 0.164911 0.006154 -0.040147 0.034563 -0.097453 0.025971  
-0.023975 -0.004169 -0.108751 -0.064619 0.027183 -0.070742 -0.049139 0.179435 -0.033898 -0.167487 -0.166136 0.050078 -0.064774 0.023251  
-0.080126 0.144389 -0.083146 -0.197465 -0.098409 0.078612 0.083117 0.176834 -0.112086 -0.148857 -0.001867 0.053665 -0.090201 -0.050996  
0.046348 -0.180959 -0.068126 0.090013 0.064769 0.132237 0.114957 0.032254 0.094356 0.009013 0.057923 -0.045837 -0.166793 0.004795  
-0.126371 -0.024144 0.042841 -0.106003 -0.026651 0.028302 -0.000860 -0.026565 0.113622 0.066393 -0.025626 0.031267 -0.049690 -0.021136  
0.177349 -0.066310 -0.055126 -0.097421 -0.124507 0.132031 -0.015416 -0.100150 -0.001579 -0.027973 -0.026339 -0.016608 0.054923 0.016319  
-0.025522 -0.004196 -0.006268 0.007626 0.023809 0.020646 -0.004513 -0.080797 -0.008292 -0.042587 -0.007179 -0.014469 0.013014 0.025165  
-0.012093 0.170014 0.105721 -0.053959 -0.201737 -0.206017 -0.187908 0.115268 0.136626 0.154944 -0.145138 0.058536 -0.035249 -0.012259  
-0.111277 0.127787 0.269287 -0.138634 -0.151936 -0.135020 -0.172689 0.092970 0.338168 -0.307227 -0.206789 0.069237 0.074113 -0.120299  
0.008451 -0.050621 -0.033539 -0.014925 -0.091342 -0.120891 0.065354 -0.135919 0.094456 -0.026837 0.045933 0.044287 0.032841 -0.016213  
-0.005951 0.002313 -0.072317 -0.040320 0.019872 -0.004194 0.017088 -0.145610 0.048301 0.106872 -0.035624 -0.068042 -0.016223 0.020012  
-0.023311 -0.001613 -0.116577 0.014982 -0.076515 0.016107 -0.028805 -0.028448 -0.055505 -0.043969 -0.018212 -0.045563 -0.062111 -0.024498  
0.079077 0.010514 -0.007097 0.114884 -0.004883 -0.047740 -0.120056 0.147160 -0.227072 0.045524 -0.082510 -0.109528 0.013907 0.016606  
-0.013716 -0.058270 -0.034766 -0.155351 -0.160515 0.047182 0.115555 -0.100852 0.122919 -0.016796 -0.010868 -0.050455 -0.005469 -0.098714  
-0.128411 -0.072378 0.047102 0.037406 0.028959 -0.030959 0.062393 -0.102446 -0.051971 -0.074339 -0.080713 0.090789 -0.055487 0.078004  
-0.046900 -0.052407 -0.011294 0.021062 -0.102837 -0.071581 -0.031363 -0.042646 -0.138202 0.020998 -0.054033 -0.033794 0.073375 -0.020286  
0.085755 -0.061178 -0.166943 0.040269 0.064156 -0.028698 -0.016692 -0.018580 -0.144699 0.074909 0.112705 0.060999 -0.028376 -0.061761  
-0.015461 -0.006592 -0.015675 0.098877 -0.061425 0.043288 -0.032026 -0.092160 -0.021026 0.013742 0.030145 0.064595 -0.023538 -0.006755  
-0.054748 0.046059 -0.067725 0.158829 -0.075852 0.244478 -0.050110 0.007757 -0.283354 -0.066388 -0.085358 -0.053906 -0.034114 -0.087701  
-0.019606 -0.037074 -0.005388 -0.005718 -0.059625 0.032949 0.025972 -0.034801 -0.038046 -0.043739 0.017449 0.016538 -0.012618 0.016127  
-0.049664 -0.117604 0.019416 -0.020098 -0.037659 -0.054149 -0.016772 0.019689 -0.036105 0.044114 -0.032782 -0.042670 -0.037747 0.005898  
-0.045769 -0.056614 -0.095991 0.030609 0.143073 0.021285 -0.033382 0.068195 -0.139506 -0.067301 0.028028 0.019960 -0.014151 0.006070  
0.093051 -0.133551 -0.010351 -0.138922 -0.029735 0.081524 -0.024494 -0.070217 0.028362 -0.006783 0.029749 0.021420 -0.006091 -0.066836  
-0.094673 0.029321 0.167775 0.043496 -0.087855 -0.028702 -0.063138 0.019319 -0.156515 -0.104283 0.049978 -0.030786 0.054886 0.122519  
-0.025907 -0.046159 -0.062895 -0.052904 -0.012640 -0.031881 -0.001918 -0.030396 -0.042478 -0.037250 -0.013901 -0.023842 -0.009107 -0.037532  
-0.094473 -0.014189 -0.032744 0.088384 0.094348 -0.063831 0.077555 -0.039042 -0.186090 -0.119304 0.000994 0.016579 -0.013429 0.038718  
-0.081648 -0.056224 0.046005 -0.012879 0.089221 -0.101989 -0.027037 0.205268 -0.146485 -0.049825 -0.126016 0.028389 -0.004874 0.010047  
0.034525 -0.087572 0.031491 -0.089973 0.062867 0.021287 0.061793 0.056267 -0.068712 -0.073099 -0.072197 -0.055171 0.024648 0.020561  
-0.010049 -0.103898 0.018623 -0.060364 0.021071 -0.025871 -0.027984 0.030954 -0.022959 -0.064991 -0.068108 0.027739 -0.056402 0.056707  
0.027602 0.074362 -0.128698 -0.006532 0.081978 0.126135 -0.066134 -0.030457 -0.018596 -0.052671 -0.045774 0.087023 -0.046942 -0.038658  
-0.056692 -0.018371 -0.091726 -0.064783 -0.036961 0.047300 -0.060971 -0.047935 -0.032540 0.039830 -0.052443 -0.000139 0.022428 0.022647  
-0.014315 -0.056814 -0.062138 -0.035783 0.167345 0.136838 0.040582 0.005314 0.014143 0.008323 -0.113162 -0.076715 -0.142659 -0.025684  
-0.057208 -0.103538 -0.063138 -0.069330 0.041686 0.026385 -0.011900 0.013708 -0.026473 -0.011563 -0.013276 0.009547 0.038146 -0.006199  
-0.089909 0.082180 0.109168 -0.035696 -0.064909 0.002116 -0.012613 0.104990 0.000629 -0.029986 -0.019467 -0.037383 -0.010193 0.015250  
-0.104369 -0.070817 0.044081 0.015663 0.042711 0.116123 0.034821 -0.008189 0.106141 0.046722 0.034112 -0.068890 -0.082961 -0.080315  
0.036842 -0.001419 0.052234 0.041360 -0.088119 -0.115347 -0.146721 0.016036 -0.069018 -0.052950 -0.054575 -0.053419 0.030506 -0.008806  
0.043273 -0.042850 0.011749 0.141687 -0.100905 0.069724 -0.003596 -0.061377 -0.086027 -0.061327 -0.004526 -0.081620 -0.064814 -0.048196  
-0.052566 0.047358 0.119066 -0.295307 0.055802 0.070034 -0.006079 -0.068484 0.039479 -0.160772 0.042978 -0.081662 -0.002746 0.028253  
-0.030895 0.027668 0.036597 -0.053770 0.010239 -0.079047 0.045169 0.121326 -0.081098 0.021330 -0.010405 -0.100463 -0.003201 -0.203837  
0.030518 -0.011449 -0.155715 -0.013469 -0.113740 0.082843 -0.004891 0.083422 -0.205095 0.012329 -0.094940 0.101160 -0.022060 0.024193  
0.083795 -0.090980 0.016528 0.060238 -0.060063 -0.025248 -0.084794 -0.070497 0.089076 -0.023093 -0.051166 -0.006671 0.000759 0.016676  
-0.000692 0.053079 0.033795 -0.059476 -0.046263 -0.006662 0.061902 0.061534 -0.023114 -0.149636 -0.036348 0.013903 -0.022853 0.082353  
0.030811 -0.007556 -0.095042 0.081270 -0.172190 0.034276 -0.063432 0.099834 -0.117316 -0.010342 -0.133958 0.059067 -0.078731 -0.076877  
-0.032980 -0.063813 0.030101 -0.007158 0.055243 0.092899 -0.092871 0.012648 0.013369 -0.017208 -0.063584 -0.066963 0.015972 0.061289  
0.016718 -0.123355 0.019308 0.172193 -0.024393 0.024361 -0.015499 -0.024604 -0.004333 -0.039940 -0.165742 0.052539 0.035232 0.008374  
0.128550 -0.205555 -0.234833 -0.247424 0.075110 0.137231 0.177136 -0.139047 0.206685 0.261201 0.093076 -0.078237 -0.069592 0.088082  
0.030499 -0.049037 0.082906 -0.009213 -0.165329 -0.031786 -0.072304 0.109028 -0.091574 -0.148654 -0.053333 -0.122479 -0.072020 -0.029044  
-0.079006 0.063294 0.002524 0.052207 -0.080261 -0.005214 -0.051987 -0.108560 0.013249 -0.084046 -0.066514 0.086655 0.074139 0.011780  
0.014178 0.016574 -0.095085 0.205795 -0.057794 0.111638 -0.031469 -0.013466 -0.089450 -0.085821 -0.030705 0.055602 0.046457 0.047928  
-0.057614 -0.054698 -0.117245 -0.006552 0.031712 0.065205 0.034571 -0.033804 -0.043111 0.011296 -0.034247 0.030378 -0.040718 -0.048849  
0.094395 -0.036267 0.040915 -0.070287 0.072583 -0.116511 -0.011508 -0.091300 -0.095326 -0.044869 0.012822 0.052888 0.035576 0.053160  
-0.044362 0.041969 -0.104041 -0.069697 0.039307 -0.045156 -0.048971 0.005831 0.031229 0.076978 0.045824 -0.049296 -0.114157 -0.080434  
0.113863 -0.013718 0.128289 -0.103700 -0.176181 0.078606 0.050928 0.014350 0.117162 -0.148377 -0.044178 -0.017141 0.033249 -0.104107  
-0.128974 0.022197 -0.013155 -0.039247 0.040328 0.038655 -0.021787 0.200214 -0.144530 -0.287812 -0.112110 -0.012990 -0.028259 -0.045342  
-0.072969 -0.113472 -0.027802 -0.104795 0.003586 -0.091110 0.076812 0.043527 0.035836 0.014343 -0.022238 -0.026145 0.023364 0.049539  
-0.046093 -0.288968 0.058108 0.057768 -0.124857 0.024501 0.027704 0.004348 0.090139 0.115160 0.096267 -0.082180 0.010687 -0.023139  
-0.244970 0.155207 0.066651 0.277662 -0.167712 0.022238 -0.020640 -0.085418 0.019732 -0.211511 -0.197607 -0.015069 0.076582 0.209826  
-0.034237 0.028316 0.004843 0.030497 0.051672 -0.002051 0.001190 -0.011709 -0.053598 0.029001 0.009316 0.052578 -0.058245 0.034126  
