0.031238 0.001801 -0.056231 -0.031204 0.012939 0.039459 0.054200 0.055311 0.006101 0.013835 -0.034272 -0.016386 -0.039969 0.022519  
-0.004088 -0.032062 0.043375 0.004140 -0.056828 -0.007273 -0.045376 0.037741 0.013426 0.007923 -0.029240 0.027442 -0.012884 -0.042390  
-0.168286 0.110993 0.112060 -0.264823 0.134821 0.019603 0.030485 0.192635 -0.256361 -0.287173 0.008688 -0.018434 -0.056368 -0.010433  
-0.034370 -0.095606 -0.145804 -0.163021 0.087437 0.148886 0.111211 0.043605 0.073322 0.093679 -0.027154 0.007824 0.029548 0.008544  
0.011108 -0.027446 -0.010162 -0.041478 -0.120263 -0.105468 -0.034136 -0.021413 0.070447 0.031387 -0.075125 -0.057159 -0.053689 0.016051  
-0.143620 0.146848 -0.060964 -0.152168 -0.006836 0.071442 0.105482 0.354366 -0.243290 -0.238724 -0.004099 -0.007654 0.007933 0.018747  
0.058507 0.012315 -0.156537 0.049970 -0.002043 -0.067895 0.106254 -0.037920 -0.251936 0.106913 -0.060716 -0.044010 -0.041803 0.031101  
-0.038778 0.028092 -0.049261 -0.001369 0.030059 -0.126720 -0.034385 -0.123337 -0.023428 0.058232 -0.064263 0.006259 0.017987 0.018806  
0.150128 -0.023108 -0.151309 -0.006707 -0.020254 -0.127724 0.026272 -0.009692 -0.042674 0.007639 -0.002603 -0.019195 -0.003607 0.011781  
-0.082313 -0.051183 0.127791 -0.006697 0.011189 -0.098362 -0.016188 -0.094618 0.023286 0.158218 0.016709 -0.012517 -0.040793 -0.013135  
-0.115023 0.083921 -0.058144 0.078519 0.002259 0.097042 -0.111180 0.024390 -0.081800 -0.081856 0.011429 -0.014819 -0.000740 -0.015142  
0.027241 -0.010167 -0.041273 0.103118 0.004779 -0.269241 0.014386 0.006175 0.121191 0.074063 -0.061373 -0.000657 -0.003606 -0.030711  
-0.037979 -0.042246 0.025300 -0.013258 -0.036381 0.110687 0.003261 -0.009438 -0.040958 -0.033890 0.036199 -0.027964 -0.017991 0.038092  
0.171042 -0.096032 -0.127186 0.053632 0.122604 0.074071 0.164398 -0.016751 -0.222166 -0.238391 0.019400 0.027800 0.004508 -0.045152  
-0.013397 -0.071182 -0.052801 0.032123 -0.054172 0.042831 -0.014306 0.061356 0.015170 -0.111999 0.011100 -0.054504 -0.010315 -0.001809  
-0.088097 0.073116 -0.080354 -0.036379 0.050346 -0.037204 -0.074584 -0.008026 -0.058158 0.098701 -0.059712 0.013729 -0.017376 0.026668  
-0.024896 0.026193 0.103723 -0.128905 -0.057319 0.004147 0.090210 -0.075324 -0.035257 -0.000504 -0.031630 -0.064567 -0.024529 0.026473  
-0.064427 -0.118738 0.070105 0.048835 -0.013896 -0.268540 0.137991 -0.091455 0.169924 0.044537 -0.013620 -0.056276 -0.029142 -0.007502  
-0.061414 -0.037760 -0.123375 -0.041082 0.044873 0.052433 0.099019 -0.070770 -0.107788 -0.108651 0.039532 -0.012729 0.009463 -0.001977  
-0.014117 -0.061122 0.042292 -0.027044 -0.071988 0.002143 -0.057430 -0.076214 -0.095955 0.007362 -0.041830 -0.023331 -0.037175 -0.021190  
0.065963 0.108582 -0.096170 0.041151 -0.020151 -0.032197 -0.175360 0.045874 -0.005059 -0.095620 -0.033969 -0.032286 0.031169 0.000911  
-0.002727 -0.044678 0.005158 0.002433 -0.038508 0.025151 -0.009237 0.015468 0.037413 -0.046378 0.002897 0.040554 0.008596 0.042602  
0.067049 -0.132679 0.141541 0.115871 -0.093751 -0.205932 -0.146589 0.081380 -0.084518 0.042785 -0.005537 -0.041186 -0.059881 -0.010759  
-0.085840 -0.214186 0.027939 -0.057899 0.054319 0.018734 0.078140 -0.031767 0.102979 -0.052797 -0.039194 -0.036169 -0.055520 -0.004810  
-0.009331 0.049002 0.005000 0.004967 -0.019112 0.042102 -0.084518 0.013870 0.085007 0.028136 0.002792 0.000211 -0.026687 -0.023124  
0.184960 0.167164 0.102138 0.073288 -0.238116 -0.007899 0.118010 -0.144620 0.152465 -0.220398 -0.022756 -0.027662 0.009923 -0.053196  
-0.076027 0.118301 -0.166290 -0.194343 0.067843 -0.056779 -0.028553 0.066371 0.179130 -0.111314 -0.061992 -0.004799 -0.061449 -0.048052  
0.089633 -0.010031 -0.131906 0.164058 -0.036828 -0.121680 -0.053622 0.027988 -0.054417 0.036217 -0.009400 -0.015635 -0.052015 0.039825  
-0.256713 0.121409 -0.066208 0.110174 -0.228583 0.220373 -0.300872 0.147151 0.142918 0.128940 -0.048196 0.011602 -0.018725 -0.011229  
-0.244105 0.069355 0.043682 0.101786 0.048546 0.114786 -0.065365 0.058204 0.040411 -0.014366 0.009760 -0.003906 -0.043117 0.000621  
-0.048426 -0.057853 -0.077184 0.054450 0.013649 0.041280 0.016889 0.010301 0.053765 0.008982 0.009929 -0.035262 -0.049648 0.029932  
0.126687 -0.047088 -0.052605 0.048096 -0.027010 -0.033563 0.016698 -0.039015 -0.184720 -0.067606 -0.031377 0.034816 -0.010866 0.029364  
-0.130807 -0.074868 0.167283 0.081151 -0.017718 -0.256444 0.105035 -0.076069 0.143427 0.063182 0.025875 -0.046785 0.014195 -0.053834  
-0.015104 -0.168402 0.240987 -0.102925 -0.052609 -0.154904 0.101219 0.100278 0.085099 -0.002525 -0.013254 -0.066599 0.003425 -0.038914  
-0.009646 0.012545 0.012315 -0.147699 0.074764 0.075163 0.018543 -0.049838 0.037754 -0.025764 -0.030645 -0.006247 0.000933 -0.010280  
-0.160115 0.131105 -0.090404 -0.201677 0.095591 0.021108 0.171837 -0.054686 -0.302371 0.017040 0.003410 -0.015400 -0.033690 -0.035675  
-0.025660 -0.042973 0.004947 0.108834 -0.065731 -0.065728 -0.148740 0.050441 0.021376 0.000125 0.009788 0.013361 -0.067406 -0.042408  
0.091646 0.067616 -0.219454 0.008932 0.223409 -0.017050 0.165076 -0.013796 -0.061926 -0.090580 0.000599 0.005434 -0.026215 -0.018558  
0.081471 -0.006707 0.013888 -0.179583 -0.100841 -0.240255 0.140694 -0.056329 -0.080377 0.062299 -0.059816 -0.007284 -0.008654 0.027432  
0.069723 0.058607 -0.044333 0.113735 -0.076787 -0.036542 0.002550 -0.157928 0.071723 0.200206 0.009815 0.015709 0.015627 -0.028997  
-0.086528 0.050587 -0.078717 -0.171895 -0.021619 0.094138 -0.040753 0.078490 0.052082 -0.051634 -0.007179 -0.003547 -0.045301 -0.005961  
-0.051369 -0.068751 -0.012564 -0.083740 -0.084745 0.122300 -0.011448 0.010883 -0.001395 0.006359 0.025748 0.022117 -0.046755 -0.034869  
0.013413 -0.087204 0.082476 -0.127953 -0.179773 -0.096756 0.057278 0.047568 -0.114036 -0.036434 0.017461 0.007461 0.008648 -0.044333  
0.025250 -0.057656 -0.011592 0.034855 -0.024044 -0.062149 -0.011878 -0.006198 0.023685 0.040248 0.012815 -0.003796 0.030820 -0.020348  
0.093986 -0.066570 0.032966 -0.199592 0.108297 0.103892 -0.103387 -0.040217 -0.071106 -0.105038 -0.037715 -0.046221 0.020412 -0.054439  
0.066095 -0.148509 -0.113061 -0.141216 0.183543 0.159629 -0.051336 0.076245 0.031321 -0.227307 -0.051712 -0.014016 -0.004064 -0.004371  
0.090443 -0.021198 -0.010691 -0.012916 -0.070328 0.019984 -0.032683 0.002663 0.007375 -0.012552 -0.002974 -0.040231 -0.013833 -0.035140  
0.018657 -0.099123 -0.010926 -0.010205 0.095414 -0.015630 0.025728 0.042396 -0.085212 -0.119629 -0.008835 -0.047292 -0.017591 -0.033109  
-0.082872 -0.069040 0.020945 0.116030 -0.019639 -0.031640 -0.108235 -0.060384 0.034433 -0.106437 0.003312 0.035884 -0.030871 -0.006657  
0.215156 -0.088772 -0.078397 0.002368 -0.068909 -0.276677 -0.035563 0.014003 -0.058892 0.124216 -0.028914 -0.031054 -0.021383 -0.021114  
0.129234 -0.162266 -0.341781 -0.102316 0.096712 0.005420 0.096206 -0.157392 0.131319 0.203089 0.013324 -0.015127 -0.026273 -0.064478  
-0.197241 0.150239 -0.270897 -0.141465 0.070524 0.025626 -0.123664 0.086275 0.249879 0.106772 0.012676 0.008210 -0.004645 -0.031554  
0.003913 -0.013986 0.035974 0.058605 0.028888 -0.314268 -0.038425 0.058621 0.044858 -0.029946 -0.007026 -0.004792 0.018334 0.001119  
0.096958 -0.156282 -0.126548 -0.086124 0.026038 -0.123785 0.059722 0.087757 -0.085422 0.068669 -0.043683 0.017402 0.010220 -0.009708  
-0.123121 -0.069290 -0.056577 -0.020886 0.167218 -0.045515 0.169640 -0.035310 -0.075717 -0.081952 -0.018683 -0.033001 -0.016169 -0.048913  
0.030924 -0.007186 0.037166 0.001435 0.008862 0.012231 0.002290 -0.042201 0.035258 -0.030751 0.038891 0.014473 0.026110 0.046022  
-0.092298 0.131693 -0.185505 0.168255 -0.093875 0.021413 -0.125583 0.136626 0.077047 -0.080830 -0.039800 0.020428 0.032046 0.024542  
0.028983 -0.110743 0.012769 0.094086 -0.032313 -0.104432 -0.071186 0.008475 0.001632 -0.124133 0.010846 -0.032377 0.024847 -0.056126  
0.053526 -0.067339 0.076685 0.096994 -0.016201 -0.281386 -0.153168 -0.038920 0.143869 0.001018 -0.042842 -0.046047 -0.006426 -0.068605  
0.063610 -0.117893 0.114594 0.093535 -0.025661 -0.124942 0.065494 -0.092277 -0.064437 -0.139484 -0.026981 0.008206 -0.062097 -0.053442  
-0.215478 0.153009 0.160658 -0.040415 0.194428 -0.247854 0.134327 -0.188938 -0.150433 -0.023296 -0.040158 0.026921 -0.025945 0.018890  
0.091396 0.011086 -0.045178 -0.038390 0.014465 0.024961 0.011209 -0.039116 -0.070070 0.019813 0.034157 0.017539 -0.032293 0.018298  
-0.050871 -0.016162 -0.077904 -0.065383 -0.043534 -0.012987 -0.021990 0.005739 -0.056982 -0.004062 0.000694 -0.052939 -0.049168 -0.009432  
-0.069695 0.031604 -0.135838 -0.001690 -0.076307 0.101915 -0.113910 0.155821 -0.050326 -0.145314 -0.041179 -0.032014 -0.035512 -0.050061  
0.056864 -0.022025 0.068264 -0.125986 -0.091827 0.204231 -0.159603 -0.105370 -0.241775 -0.097314 0.012106 -0.040092 -0.030588 0.024490  
0.160115 -0.026662 -0.003431 0.130645 -0.149889 -0.099726 -0.120207 0.127866 -0.144373 -0.109882 0.021517 0.041187 0.034693 0.042867  
-0.231059 0.203762 -0.206184 0.203804 0.031338 0.063310 -0.135521 -0.154515 0.113632 0.042479 -0.024650 0.007662 -0.057398 0.011960  
0.249811 -0.174333 -0.175328 0.095953 0.173818 0.097428 -0.283141 -0.078885 0.207760 -0.006026 -0.019566 -0.035531 0.006019 -0.047102  
-0.048630 -0.130362 0.041889 -0.104813 -0.001475 -0.010143 0.032935 0.048461 0.099881 -0.003099 -0.020942 -0.002942 -0.038472 0.019033  
0.029189 -0.016797 -0.017526 0.022512 -0.197286 -0.068857 0.041945 0.027948 -0.030590 0.028761 -0.061679 0.000021 0.028749 -0.004583  
-0.007593 -0.044243 -0.095264 -0.016379 0.017482 -0.045863 -0.066273 0.007800 -0.063194 -0.011061 0.001801 -0.050147 -0.057225 -0.040329  
-0.018261 -0.004505 -0.045475 0.153142 -0.015140 -0.001260 -0.174594 -0.037180 -0.098493 -0.093283 0.014530 -0.034821 0.004470 -0.046089  
-0.076439 -0.013470 -0.017799 -0.071726 -0.019963 0.035268 0.004827 -0.001150 0.013857 -0.002303 -0.044268 -0.067549 -0.030495 -0.006172  
-0.108412 0.039784 0.001136 -0.039804 -0.003573 -0.035317 -0.013742 0.023392 -0.047953 0.027106 -0.002041 -0.056407 -0.058535 -0.024878  
0.025098 -0.064519 0.012574 0.012459 0.057482 -0.065984 0.019961 -0.006122 -0.119318 -0.121601 -0.039252 -0.054014 -0.021166 -0.037703  
0.025197 -0.048584 -0.002454 -0.027782 -0.020940 -0.035421 -0.043600 -0.143373 0.028522 0.053390 -0.067296 0.000529 0.008512 -0.055783  
0.190957 -0.212490 0.186968 -0.233031 -0.167137 -0.103828 0.062328 0.182508 0.019474 -0.046010 -0.005664 0.034847 -0.038598 0.000852  
0.045864 -0.059551 -0.072939 -0.086085 -0.124838 -0.034068 -0.076067 -0.054928 0.038117 0.235482 -0.006534 -0.050485 -0.010760 0.016792  
-0.110084 -0.036697 -0.069435 0.031174 0.005360 0.010046 0.021656 -0.069000 -0.068530 0.076589 -0.070805 -0.005577 -0.013232 -0.007596  
-0.016112 0.015373 -0.061611 -0.054298 0.047978 0.051415 -0.024758 -0.015616 -0.045923 0.020071 -0.055611 0.010762 0.006965 -0.055656  
-0.027186 -0.044668 -0.016357 -0.031044 0.007907 0.012061 -0.010602 -0.013696 0.018001 -0.004961 0.020788 0.013246 -0.049222 0.003484  
0.000156 -0.013642 -0.062461 -0.025667 0.034806 0.002701 -0.012467 -0.016928 0.019989 0.054659 -0.040350 -0.034102 0.021670 0.027257  
0.032987 0.007687 0.028620 0.028668 -0.001798 -0.028410 -0.013918 0.012243 -0.020348 -0.034941 0.023880 0.012763 0.025674 -0.026834  
-0.109664 0.111229 0.067939 0.072626 -0.050803 -0.155767 -0.011468 -0.070967 0.083338 0.073672 0.033902 -0.053050 -0.012767 0.024602  
0.166218 0.091215 0.093136 -0.078330 -0.072812 -0.145317 -0.169680 -0.117958 -0.086112 -0.115004 0.025894 -0.044362 -0.024458 -0.014063  
-0.027213 -0.196636 0.045421 -0.054439 0.052406 0.070953 0.029406 0.077735 0.061416 -0.088330 0.016768 -0.010332 0.019293 0.027802  
-0.098971 0.192304 -0.157213 -0.085778 0.049292 -0.082494 -0.003180 0.054202 0.072943 -0.116942 -0.032425 -0.044702 -0.002846 -0.025172  
0.083125 0.034314 -0.033534 -0.054086 -0.134324 0.177426 -0.008437 -0.061276 -0.153050 -0.091446 -0.051873 -0.030346 -0.065494 -0.014293  
-0.010174 0.013506 -0.070715 -0.109289 0.021300 0.001916 -0.090284 0.033791 -0.011009 -0.042270 -0.039194 0.010514 0.005866 -0.001226  
-0.112223 -0.048272 0.066754 -0.120799 0.047534 -0.129175 -0.053548 0.072325 0.077829 -0.042012 -0.064467 -0.006340 -0.036434 0.001781  
0.027089 0.011485 -0.016001 -0.053839 -0.005884 -0.057368 -0.015635 -0.017425 0.031169 0.066628 -0.000338 0.000326 -0.019490 -0.036920  
0.007471 -0.058085 -0.053275 0.106727 0.062107 -0.152773 -0.103548 0.089148 -0.214764 -0.077057 -0.023874 -0.018885 -0.010140 0.003966  
0.009073 0.036433 0.072370 0.119545 0.082160 -0.300601 0.006947 0.043117 0.013929 0.100093 0.030344 -0.018463 0.012675 -0.004566  
-0.105998 0.087364 -0.250869 0.006235 -0.136952 0.183316 -0.023738 0.065171 0.122269 0.045837 -0.028622 -0.015948 0.001992 -0.004737  
-0.067924 0.057399 -0.032563 0.023383 -0.274162 0.047051 -0.066212 0.052782 -0.167675 0.242260 -0.003467 0.001895 -0.047041 0.022333  
0.000223 -0.012686 0.000700 -0.033735 -0.115549 -0.091606 -0.011540 0.149059 0.010369 0.031416 -0.016806 -0.025669 -0.007274 0.028176  
-0.103811 0.135799 -0.084799 0.118733 -0.130357 -0.091194 -0.170142 0.091487 0.090899 0.098657 0.025909 0.029510 -0.043868 -0.053352  
-0.112451 0.010646 0.059637 -0.099012 0.034994 0.115820 -0.088721 0.029296 0.014864 -0.056024 0.012343 0.017251 -0.004461 -0.070767  
0.160308 -0.124056 -0.065878 -0.132588 -0.206368 0.006475 0.247465 -0.171803 -0.115644 -0.061038 0.023808 -0.003594 0.009109 -0.055964  
-0.107315 -0.087480 0.155460 0.014480 0.018946 -0.051773 -0.095714 -0.012556 -0.112714 0.109381 0.006135 -0.020165 -0.043702 -0.007773  
-0.103342 0.004046 -0.000399 0.050272 0.136760 -0.115368 0.085478 0.170402 -0.137955 -0.241831 -0.046968 -0.002607 0.021663 0.003068  
-0.104317 -0.054521 0.059388 -0.143869 -0.011871 0.087256 0.081323 -0.047886 -0.015076 0.074438 -0.025095 0.015899 -0.044186 -0.031139  
-0.002018 -0.042011 0.022491 -0.035429 0.118272 -0.004467 -0.051840 0.042590 -0.027597 -0.042035 -0.031209 -0.041280 0.028791 0.006719  
-0.028423 -0.016277 -0.101579 -0.004127 0.036428 0.107963 0.005125 -0.076020 -0.058927 -0.028654 0.003892 -0.024572 0.029790 -0.052275  
-0.025212 0.033816 -0.003175 0.118434 -0.013229 -0.062389 -0.046144 0.018989 -0.127658 -0.045210 -0.030129 -0.018844 -0.031376 -0.007093  
0.072952 -0.168814 0.247677 0.177710 -0.151239 0.123721 -0.271682 -0.067487 -0.131501 -0.106026 -0.002076 0.035298 0.009459 -0.054232  
-0.029514 0.055302 -0.146093 -0.051121 0.187196 0.065139 -0.081295 0.038540 -0.077119 -0.074377 -0.019917 -0.039660 0.042567 -0.030346  
-0.110519 -0.061404 -0.068929 0.008740 0.038861 0.040210 0.042795 -0.003106 0.119540 0.104104 -0.019393 -0.003989 0.017775 -0.038590  
-0.074814 0.048453 -0.143352 0.156405 -0.192641 -0.045542 -0.028547 0.063980 -0.054685 0.044252 -0.018924 -0.051544 -0.018997 -0.031611  
-0.063053 -0.060800 -0.060309 -0.011212 -0.050984 0.008384 0.008348 -0.002024 -0.036160 -0.036534 -0.013431 -0.007782 -0.066231 -0.049363  
0.123282 0.032624 0.088016 0.129264 -0.187574 0.108001 0.119962 -0.257411 0.160700 -0.055249 -0.036320 -0.012368 -0.051774 0.007805  
0.037500 -0.044001 -0.059137 0.068445 0.038201 -0.005319 -0.005546 -0.044364 -0.076825 -0.004405 -0.055569 0.019849 -0.002027 0.029657  
0.046324 0.031738 -0.024808 -0.019928 -0.094517 0.159949 -0.002132 -0.095728 -0.074686 -0.078487 0.032814 -0.051522 -0.019789 -0.063163  
0.024468 -0.028361 -0.013526 0.047252 -0.095357 0.081604 -0.186557 0.037672 -0.000227 0.109687 -0.006846 0.025336 -0.002990 0.022093  
-0.036030 -0.003522 -0.011090 0.044252 0.005937 0.035035 0.019407 -0.002688 -0.055460 0.001602 0.012981 0.020472 0.026473 -0.024170  
-0.076484 0.022118 -0.067521 0.149879 -0.125383 0.089920 0.004334 -0.119998 -0.004007 -0.082715 -0.024874 0.018855 -0.022886 -0.044102  
0.010826 -0.020156 0.036886 0.035799 -0.031942 -0.020472 0.045046 -0.042144 -0.033349 0.008867 -0.035961 0.033853 0.046704 0.042247  
-0.041061 -0.113885 -0.027550 0.032062 -0.139603 -0.081770 -0.081337 0.183598 -0.018840 -0.036523 -0.050851 -0.011780 0.014067 0.016529  
-0.047913 -0.051367 0.062094 0.021805 -0.177908 -0.002240 0.012186 -0.031378 0.005569 0.081042 -0.044561 0.005224 -0.007145 -0.069541  
-0.047765 -0.019794 0.006810 -0.068142 -0.080729 0.010153 0.001934 0.052227 0.000565 -0.055597 0.016462 0.020224 -0.033141 -0.043284  
-0.014262 -0.002861 0.045027 0.011414 0.012021 -0.096895 -0.092677 -0.037472 -0.161751 0.004041 0.027667 0.019903 -0.002325 0.033472  
-0.061222 -0.057948 -0.096387 -0.096491 0.025162 0.092198 -0.137590 -0.000176 0.177441 0.118352 -0.006792 -0.052956 -0.050305 -0.035331  
0.019544 0.048573 -0.035084 -0.075665 -0.051321 -0.007305 -0.062398 0.000275 -0.074811 0.012133 0.025047 -0.008740 -0.004228 -0.049944  
0.029403 -0.004902 0.036216 -0.036728 -0.085700 -0.073667 -0.125897 0.047218 0.061464 -0.041302 -0.051980 0.022842 -0.049563 -0.050752  
-0.118717 0.080900 -0.015767 -0.060524 0.142174 -0.113981 -0.009053 -0.141619 -0.102310 0.060788 -0.055002 0.026347 0.012006 -0.002190  
-0.028042 -0.047656 -0.084816 -0.063072 0.058815 0.002315 0.046233 0.018638 0.013972 -0.070205 0.000627 -0.010458 -0.014042 0.029146  
-0.080268 -0.002992 -0.050061 -0.067215 0.021216 -0.020309 0.066303 0.045143 -0.054136 -0.007003 0.033630 -0.028586 0.003374 0.033767  
0.022568 -0.061638 -0.059839 -0.048550 -0.043655 -0.064981 0.061827 0.078580 -0.134631 0.007039 -0.038666 -0.045447 0.025003 -0.034708  
-0.086166 -0.041270 0.049609 0.011225 0.010596 0.075536 0.044887 -0.167339 0.041617 -0.031517 -0.032030 -0.062149 0.017765 -0.058281  
-0.010870 0.037532 0.108819 0.068652 -0.066168 -0.029855 -0.044674 0.089790 -0.143268 -0.162541 0.013624 -0.058623 -0.021940 -0.042256  
-0.022516 0.070851 0.052464 0.003913 -0.110576 -0.009034 -0.072832 -0.047901 0.065756 -0.078081 -0.054741 0.011957 -0.023582 -0.021203  
-0.190910 0.179137 0.185990 -0.143605 -0.255066 0.055594 0.251498 -0.106339 -0.396376 -0.186561 -0.058969 -0.019401 -0.025076 0.009271  
0.032713 -0.036877 -0.044071 -0.021071 0.024257 -0.037354 -0.011075 0.015800 -0.062543 0.059259 0.009472 -0.046586 -0.004325 0.023448  
-0.026213 -0.026395 0.024323 -0.073535 0.086551 -0.063516 -0.103878 -0.042227 0.068000 0.201853 -0.002109 -0.014408 -0.046125 0.032350  
0.037480 -0.091443 -0.027349 0.046956 -0.010582 0.066773 0.019174 -0.105132 0.019421 -0.128100 -0.032071 -0.050221 -0.025123 -0.044250  
0.107111 -0.053444 0.077082 -0.159019 -0.101376 -0.134906 -0.068919 -0.047564 -0.012186 0.170660 0.001657 -0.009388 0.012987 0.011743  
0.007250 -0.004925 0.089416 0.133666 -0.130153 0.067303 0.009540 -0.086140 -0.188887 -0.098623 0.017986 -0.041611 -0.011681 -0.059148  
0.084428 -0.112449 0.201555 -0.141683 -0.108814 -0.146251 0.017707 0.141278 0.092072 -0.156192 0.009571 -0.000622 -0.025232 -0.034870  
-0.031626 -0.031094 -0.038869 0.052506 -0.010464 -0.027286 -0.027607 -0.015495 0.013990 0.100919 -0.048191 -0.042124 -0.016449 0.027117  
-0.075861 -0.040431 -0.060108 -0.054208 -0.002610 0.030771 -0.050822 -0.005370 -0.061209 -0.028107 -0.070151 0.021328 -0.007581 -0.072993  
-0.091534 -0.058048 -0.066643 -0.081167 -0.119115 -0.053481 0.219365 -0.056421 -0.013876 0.011583 -0.005334 0.043538 -0.044899 0.007085  
0.009553 -0.023878 -0.031821 -0.098516 -0.170592 0.071512 -0.040798 0.211637 -0.122227 -0.192847 0.020883 -0.038433 -0.002014 -0.017496  
0.024177 0.168525 -0.062562 -0.125397 0.054077 -0.079465 -0.084979 0.312230 -0.240314 -0.099230 0.013221 0.021902 0.037712 0.018219  
0.011555 0.016341 -0.038830 -0.030587 0.006612 -0.054816 0.008250 -0.051046 -0.039104 0.043706 -0.008543 -0.015541 -0.020949 -0.056006  
-0.061855 0.104875 0.001755 0.045332 -0.000392 0.003145 -0.023452 -0.000328 -0.064141 0.002983 0.027656 0.032539 0.033065 0.010867  
-0.009774 -0.068297 0.011147 -0.071768 -0.067335 -0.010483 -0.012704 0.172121 -0.030679 -0.048147 0.018815 -0.043318 0.019478 -0.053647  
-0.069702 0.054449 -0.186631 0.210248 0.107119 0.030782 0.171255 -0.140658 -0.206419 -0.046430 -0.017545 -0.025686 -0.054462 -0.047853  
0.090363 -0.049786 -0.053812 -0.074952 -0.007014 -0.164605 -0.076582 -0.054548 -0.135778 0.074276 0.014544 -0.063236 0.004569 0.005402  
0.019374 -0.068215 -0.121093 0.207015 -0.090953 0.249625 0.016500 -0.036214 -0.202662 -0.013898 -0.029317 -0.007243 -0.051846 0.034812  
0.006203 0.039618 -0.073141 0.161886 -0.139617 -0.001208 -0.049902 0.064779 -0.059062 0.052856 -0.043104 -0.047603 -0.045602 0.004861  
-0.031849 -0.066256 -0.190407 0.004098 0.041676 0.070231 -0.069646 -0.035962 -0.058074 -0.032425 -0.012324 -0.003319 0.021445 -0.045304  
-0.127538 -0.063003 -0.083184 -0.134154 0.267767 0.053746 0.061487 -0.078220 -0.166944 0.206950 0.004361 -0.006257 -0.031158 -0.033013  
-0.022315 -0.052637 -0.035354 -0.061794 0.180603 0.082848 -0.149757 0.006436 -0.159361 0.048291 -0.010129 -0.025025 0.018443 0.019459  
-0.102648 0.119399 -0.006131 0.053439 -0.050451 -0.024051 -0.082722 0.016107 -0.021252 0.003718 -0.016699 0.012825 -0.000088 -0.053072  
0.102785 0.001663 0.000995 0.051098 -0.110411 0.062330 -0.039608 0.054287 0.013951 -0.084263 -0.056106 -0.045438 -0.019976 -0.029738  
0.157972 0.136476 0.018308 -0.147615 0.072298 -0.124643 -0.125304 -0.014165 -0.250927 0.042331 -0.011469 0.017691 -0.043362 0.013174  
0.156965 -0.084056 0.267924 0.117773 -0.127894 -0.130802 -0.280237 0.130665 -0.267954 -0.267569 -0.010798 -0.039565 -0.038737 0.020964  
0.121468 -0.177053 -0.111264 -0.264507 0.056535 -0.127633 0.088165 0.132000 -0.004101 0.179046 -0.001574 -0.031623 0.016321 -0.030178  
0.045722 -0.107581 -0.146273 -0.068540 0.123596 -0.066655 0.102574 0.104719 -0.221871 -0.216184 -0.061844 -0.028847 -0.013325 -0.037440  
-0.068977 -0.157844 -0.035244 -0.074217 0.031413 0.031816 -0.100927 -0.025453 0.105998 0.031076 -0.009735 -0.051038 -0.041164 -0.002375  
-0.096171 0.001125 -0.031604 -0.102538 0.307487 -0.078099 -0.110296 -0.070044 -0.331406 0.254024 -0.059832 -0.030660 -0.045725 0.027777  
0.011354 0.006132 -0.094100 0.020528 -0.043685 0.050924 -0.013132 -0.060041 0.017827 -0.012953 0.030074 -0.037561 0.022420 0.026469  
-0.097668 -0.006608 -0.083175 -0.030805 0.041558 -0.117645 0.035013 0.034551 -0.050799 -0.022096 -0.049154 -0.028410 -0.051693 -0.023778  
0.093853 -0.089553 -0.196004 -0.153428 0.007270 0.057816 0.026720 0.033955 -0.168589 -0.002528 -0.028175 -0.052701 -0.048586 -0.009702  
0.064064 -0.047976 0.001050 -0.003349 0.123698 -0.039470 -0.084285 -0.097438 0.002039 -0.171171 -0.043626 -0.032688 -0.059058 -0.048863  
-0.091210 -0.017478 -0.038634 -0.050624 -0.027177 0.023197 0.032732 -0.003272 -0.053411 0.020997 0.028681 -0.023680 -0.050822 -0.028633  
-0.043277 -0.199035 -0.015095 -0.027701 -0.033979 0.155399 -0.026463 0.041884 0.130043 -0.047107 0.020950 0.009430 0.024865 -0.047375  
-0.077223 0.000117 -0.066633 0.151444 -0.221777 -0.040643 0.197206 0.212277 -0.192817 0.054619 -0.049953 -0.024017 -0.051914 0.033442  
-0.013956 0.004855 0.025955 -0.103034 -0.118194 0.241211 -0.017584 -0.004700 -0.049668 -0.033181 -0.005848 -0.023521 0.007810 -0.043673  
-0.051879 -0.115504 0.101424 -0.001987 0.064966 -0.291376 -0.057153 -0.011303 0.089020 -0.007191 -0.067095 -0.069943 0.013193 -0.017640  
-0.015726 -0.050956 0.000370 0.269841 -0.157050 -0.075910 -0.162708 0.166704 -0.171104 -0.015728 -0.057990 -0.053496 -0.024893 -0.002267  
0.032778 -0.077530 -0.000614 -0.031824 0.019782 -0.068515 -0.008741 0.029570 0.003815 -0.015245 -0.064115 -0.053913 -0.056566 -0.056741  
-0.114597 0.102033 0.220776 -0.204646 -0.067469 -0.082718 -0.120480 0.128620 -0.114176 -0.144576 -0.028364 -0.041373 -0.030172 0.014668  
0.069604 -0.107308 -0.019081 -0.019992 -0.050271 0.045094 -0.114120 0.038361 0.059437 0.053328 -0.061117 -0.042606 0.019411 -0.013205  
0.024849 -0.036638 -0.054541 -0.075228 0.008096 0.052377 -0.055072 -0.057507 -0.046935 -0.067586 -0.073346 0.018838 0.013688 -0.070151  
-0.036230 -0.006537 -0.048705 0.094270 -0.076057 -0.038741 -0.043633 0.153382 -0.072661 -0.012525 0.005653 -0.027094 -0.039439 0.016764  
-0.249007 -0.158459 0.036918 -0.106220 0.196861 0.079612 0.194746 -0.072073 0.139848 0.221841 -0.039911 -0.035350 -0.058476 -0.015192  
-0.070666 0.111744 -0.100117 -0.149402 -0.107340 0.062123 -0.032196 0.127145 -0.018859 -0.095260 0.024456 0.003356 -0.009928 0.032446  
0.017079 0.046663 -0.103520 0.140586 -0.053684 -0.114726 -0.116108 0.151811 -0.041293 -0.065114 0.035217 -0.026372 0.030770 0.012185  
-0.030259 -0.138645 0.143831 0.076985 -0.012473 -0.030442 0.035331 -0.104320 0.019454 0.026737 -0.047833 -0.040937 0.020107 -0.013682  
-0.013947 0.004568 0.078051 -0.121895 0.145145 -0.026171 -0.128767 -0.038756 -0.009041 0.007731 0.013040 -0.029252 -0.030531 -0.013327  
-0.081535 0.091580 -0.046370 0.092529 -0.171349 0.113707 0.045621 -0.083833 -0.141592 -0.120764 -0.049068 0.001680 0.029136 -0.029004  
-0.227949 0.078249 0.027420 0.129452 0.044225 0.032339 -0.037874 -0.039621 -0.005336 0.006358 -0.033652 -0.017745 0.015234 -0.002318  
-0.080804 -0.007797 0.026102 0.030131 -0.034202 -0.044154 -0.031857 -0.015878 -0.013518 0.070622 0.000348 -0.007007 -0.026123 -0.019899  
0.071267 -0.099914 0.066940 -0.015658 0.118550 0.076943 -0.157716 0.010708 -0.013886 -0.313236 0.032317 -0.028403 0.024280 0.002940  
-0.100403 0.084242 -0.042997 -0.115802 -0.043200 0.146330 -0.045211 0.058321 -0.056499 -0.055333 -0.053996 -0.059354 -0.065512 -0.053530  
0.048772 0.107771 -0.027190 0.067950 -0.089183 0.189662 -0.067718 -0.217567 0.213357 -0.163251 -0.027452 -0.006638 -0.001491 -0.029986  
0.244079 -0.028314 -0.112827 -0.068622 0.057130 -0.133178 -0.064451 0.064163 -0.090532 -0.087668 -0.027033 -0.016239 -0.005250 0.025654  
-0.090054 0.039247 0.157839 0.025476 0.147235 0.209003 -0.088342 -0.309440 0.110824 0.168459 -0.044631 -0.003518 -0.001447 -0.048284  
-0.086300 -0.036324 -0.071772 -0.056510 0.012229 -0.037622 -0.073688 0.027237 -0.008323 -0.035094 -0.032192 -0.058622 -0.042229 0.016375  
0.124270 0.044802 -0.241189 0.007191 0.154276 -0.102895 -0.186862 0.041110 0.085521 0.094543 -0.003853 -0.018813 0.008676 -0.049289  
-0.102413 -0.073789 -0.111293 -0.098914 0.341315 -0.010374 0.118655 -0.008584 -0.190413 -0.245344 0.009733 -0.037793 -0.043284 -0.052283  
0.029182 -0.049221 -0.072748 -0.083436 -0.022550 -0.064936 -0.035161 -0.012094 -0.014159 0.021303 -0.001371 -0.017579 -0.056529 0.029043  
0.058759 0.026788 0.027593 0.053569 -0.069385 -0.115846 -0.177661 0.094125 0.041105 0.092841 -0.021296 -0.051586 -0.041540 0.027342  
-0.037641 -0.168932 -0.033111 -0.018664 0.042093 0.048533 -0.161524 -0.068482 0.071948 -0.065864 -0.012847 -0.033982 -0.029799 -0.049139  
-0.020294 -0.034761 -0.069576 -0.323107 0.119075 0.123439 0.158984 -0.091707 0.233328 0.125839 -0.034344 0.027341 -0.058561 -0.003344  
-0.075161 -0.055856 -0.011696 -0.133890 -0.057665 0.135012 0.000148 -0.051255 -0.161867 0.020674 0.031615 0.018024 0.024781 0.009273  
-0.026715 0.032943 -0.033023 -0.086865 0.178302 -0.002813 -0.032289 0.008487 -0.064025 -0.138231 -0.030912 0.042811 0.021585 -0.038725  
0.126034 0.118160 0.031121 0.042264 -0.034624 0.036475 -0.050861 -0.170205 -0.220857 0.029044 -0.050234 -0.013273 0.020494 0.003701  
0.193647 -0.054759 0.150852 -0.152508 0.060645 -0.129528 0.026516 0.030941 0.004696 -0.027508 -0.001142 -0.036586 -0.067693 -0.024109  
-0.041553 0.007041 -0.070845 -0.000247 -0.028226 -0.025815 0.002681 0.040133 -0.066013 0.037703 0.002750 -0.015882 -0.035169 0.024382  
-0.062907 -0.020194 -0.086875 -0.113278 0.077942 -0.032568 -0.078220 0.019800 0.052755 0.031047 -0.044190 0.034263 -0.012172 0.015008  
-0.026935 -0.050921 -0.015592 -0.014640 -0.028339 -0.031809 0.035342 -0.047807 -0.031198 0.027802 0.020991 -0.016198 0.000947 -0.049824  
-0.086930 0.003052 0.007050 -0.031694 0.024016 0.020010 -0.062143 -0.032333 -0.053953 -0.034682 -0.037890 -0.073241 -0.059504 -0.064294  
-0.019056 -0.013275 0.099704 -0.202841 -0.195125 -0.067911 0.219924 -0.009056 0.104508 0.064809 0.012861 -0.038453 -0.007797 -0.005888  
0.009852 0.002079 0.018936 -0.077524 0.034994 -0.007637 -0.096709 -0.046340 0.007659 0.041358 -0.073349 -0.010491 -0.000923 -0.031563  
-0.003357 -0.095382 -0.048034 -0.065674 -0.003089 0.219419 0.088422 -0.010433 -0.070882 0.037266 -0.019309 0.040882 -0.013493 -0.026042  
-0.039195 -0.011391 0.252440 -0.055962 -0.095192 -0.013353 0.008304 -0.085154 -0.038345 -0.048144 -0.031075 0.026654 0.031098 -0.041758  
-0.087098 -0.025618 0.032056 -0.004459 -0.218898 0.201980 -0.057091 0.207491 -0.243255 -0.403297 0.011023 -0.016024 -0.021347 0.006358  
-0.140298 -0.099678 0.101004 -0.017505 -0.003199 -0.078808 0.023438 0.125228 0.148410 0.085624 -0.016859 -0.013412 0.027941 0.008445  
-0.049045 -0.076054 -0.013300 0.007883 -0.052414 -0.081455 0.054687 -0.017765 -0.071227 0.063136 0.030982 -0.023369 -0.032960 -0.042167  
0.110837 0.046341 -0.090507 -0.067638 0.020039 -0.053554 0.065405 0.019325 0.033112 -0.209089 -0.055208 0.022563 0.031795 0.010152  
0.084926 -0.143489 -0.187073 -0.060667 0.013157 -0.097258 -0.091355 0.078358 0.177585 0.153574 -0.004446 -0.014448 0.004950 0.004961  
-0.059171 -0.012934 0.077600 -0.084607 -0.000245 -0.028094 -0.149946 0.141088 -0.172605 -0.106923 0.006812 -0.011597 -0.010875 -0.008104  
-0.095588 0.032111 -0.046310 -0.067606 -0.010105 -0.014544 -0.059783 -0.065790 0.024542 -0.046764 -0.040424 0.009551 0.004760 -0.011113  
0.053481 -0.076369 0.025667 -0.185512 0.078694 -0.053173 0.070852 -0.081640 -0.070115 0.068586 -0.039920 -0.050019 -0.007954 0.009513  
-0.015524 0.018259 0.271807 -0.008853 -0.072257 -0.076947 -0.130259 -0.005490 -0.105825 0.032112 0.009532 0.024380 0.041997 -0.004149  
-0.040245 -0.121557 0.265538 0.012889 -0.087931 -0.049472 0.032039 -0.024371 -0.018079 -0.150848 0.007713 -0.032825 0.020631 0.015657  
-0.007159 -0.038654 -0.078480 -0.090457 0.203951 0.084701 -0.140359 0.146742 -0.109616 -0.270521 -0.033301 -0.027897 -0.019234 0.031519  
0.143488 -0.154742 0.030211 0.024228 -0.185205 0.186378 -0.100025 -0.047234 -0.223999 0.057368 0.014441 -0.048215 0.026832 0.016360  
-0.088274 0.219538 -0.156126 -0.118181 0.026665 0.024791 -0.047832 0.011179 -0.183052 0.010342 0.020772 0.020694 -0.048010 -0.012589  
0.084119 -0.027630 -0.021408 -0.016131 -0.076851 0.107269 -0.170962 0.082788 -0.071549 -0.134420 -0.042835 -0.014862 -0.014808 -0.005060  
0.066543 -0.084662 -0.094440 -0.052985 -0.123627 -0.000590 0.067296 -0.082132 0.152839 0.096533 -0.041214 0.009146 0.011523 -0.025252  
-0.085205 0.042013 0.001502 -0.055798 -0.155997 -0.077550 -0.023662 0.042477 0.082727 0.130237 0.032801 -0.022082 -0.063375 0.024233  
-0.043980 0.050689 -0.080740 -0.063386 -0.048297 -0.099351 0.013960 -0.073079 -0.005269 -0.015392 -0.014309 0.024311 -0.012320 -0.042598  
0.025343 0.008415 0.060300 -0.044908 0.086019 0.116924 0.075961 -0.036240 -0.013122 -0.297516 0.022507 -0.014502 -0.052898 -0.015154  
0.020096 0.282999 -0.124312 -0.107739 0.041037 -0.084851 0.001702 -0.053069 -0.175728 -0.062511 -0.037826 -0.002643 0.020122 -0.011205  
-0.025479 0.196466 -0.129069 -0.116296 -0.046880 -0.056234 0.164315 -0.056898 -0.162369 -0.075240 -0.002993 0.006544 0.041003 0.038214  
-0.141174 -0.040996 -0.110112 -0.129288 0.140794 0.105164 0.023819 -0.063002 0.180269 -0.117345 -0.027693 -0.029327 0.010800 -0.003095  
0.101780 -0.075670 -0.142270 -0.194785 -0.056095 0.060909 -0.045996 0.199058 -0.165372 -0.101511 0.015694 0.027509 0.010216 -0.053402  
-0.015411 -0.130445 -0.120400 -0.110619 0.113935 -0.127331 0.156088 0.044133 -0.129962 0.075213 -0.011598 0.011619 -0.028989 -0.021339  
0.002752 -0.080344 -0.146764 0.085175 0.072917 0.055075 -0.143732 0.090518 -0.149656 0.103001 -0.047627 -0.015698 0.001446 0.012361  
-0.026256 -0.052193 -0.052502 0.064453 -0.150655 -0.131902 0.002231 0.041547 -0.104969 0.173954 -0.030480 -0.027312 -0.059738 -0.057124  
-0.014245 -0.203906 0.083133 -0.045749 -0.060371 0.080628 -0.053549 -0.042003 0.025565 -0.078921 -0.002783 -0.003313 -0.046254 -0.025450  
0.133091 0.016394 -0.031656 -0.204672 -0.156976 0.228404 -0.040134 -0.037875 -0.208902 -0.163583 -0.058413 -0.063704 0.002012 -0.061678  
0.011953 0.026520 -0.039360 0.026227 0.007919 -0.012509 -0.010684 0.002516 0.023809 0.015954 -0.034162 0.022932 -0.037505 -0.017692  
0.070724 -0.150108 0.013086 0.190062 -0.124411 0.062240 -0.163288 0.123533 -0.127790 -0.074673 -0.053073 -0.060217 0.030165 0.001381  
-0.023477 0.021324 -0.090354 -0.087594 0.043195 0.035801 -0.042293 -0.041967 -0.012344 0.058075 0.011718 -0.041847 -0.044156 -0.025267  
-0.194706 0.079971 -0.005917 0.156973 -0.029102 -0.080837 0.084654 -0.137540 0.197040 0.134915 0.013644 -0.026043 -0.017151 0.006482  
-0.007430 0.012219 -0.030312 -0.238126 -0.036467 0.168913 -0.061435 0.112938 0.186624 -0.173338 -0.001182 -0.002932 -0.052493 -0.053729  
-0.037710 -0.001254 0.038643 -0.134387 0.009649 0.038682 0.027688 0.018631 0.062110 -0.087395 -0.055127 0.029080 -0.010953 -0.039695  
-0.041408 -0.008445 0.079615 0.034752 -0.018762 0.012448 -0.171491 0.031468 -0.176251 -0.069057 -0.047876 -0.060087 -0.062185 0.021313  
-0.035964 -0.035729 -0.131289 0.180137 0.183429 -0.001541 0.135659 -0.091718 -0.275288 -0.007850 0.009933 -0.033300 -0.060891 0.002782  
-0.145479 0.073801 -0.021602 -0.067079 -0.014791 0.089996 -0.076064 0.082310 -0.142596 -0.075444 0.029894 0.028754 -0.044862 -0.041454  
0.019306 0.006967 0.014188 0.052401 -0.029987 0.021952 -0.037944 0.024234 0.005453 0.039730 0.005154 -0.004779 -0.040017 -0.013877  
0.081001 0.040543 0.084402 -0.043599 -0.098789 -0.072077 -0.059626 0.111476 -0.092108 -0.080608 0.006296 -0.013439 -0.015892 -0.002629  
-0.037239 0.176550 -0.155140 -0.076574 -0.077691 0.138722 -0.057907 0.129203 -0.089733 -0.145251 -0.037219 -0.047125 -0.039038 0.007622  
0.035646 0.217214 -0.172362 -0.158427 -0.092247 -0.031046 -0.022032 0.146543 -0.195997 -0.079088 -0.015013 0.005444 0.035129 -0.018045  
-0.066806 -0.033547 0.053417 0.063903 0.083393 0.045137 -0.161034 -0.032357 -0.053346 -0.129271 -0.054296 -0.063498 0.003432 -0.059956  
-0.037648 0.028463 -0.005468 0.002435 -0.046566 -0.047811 0.031488 -0.066190 -0.053516 0.001354 -0.021665 -0.036348 0.005065 -0.060331  
-0.078531 0.077559 -0.022648 0.003174 -0.081780 -0.045473 0.012298 0.028013 -0.084856 -0.020172 0.024365 -0.004482 -0.057866 0.014464  
0.008010 0.028404 -0.013811 0.050713 0.009728 0.001913 0.017260 0.040059 -0.008624 -0.061375 0.026686 -0.031140 0.007346 0.032796  
-0.001702 -0.053501 0.043285 -0.126931 -0.087541 0.249931 -0.144307 0.013325 0.010990 -0.030922 -0.025196 -0.024970 0.035518 -0.044031  
-0.295934 -0.076375 0.105742 0.033764 0.270129 -0.061494 0.270079 -0.196856 -0.083396 -0.147690 -0.049682 -0.023444 0.009098 -0.021598  
0.037360 -0.036473 0.090896 0.063299 -0.088712 -0.152399 0.032364 -0.087780 -0.093576 -0.155134 -0.016541 -0.049972 -0.036653 -0.010043  
-0.137669 0.178191 -0.079277 -0.163684 -0.008487 -0.021094 -0.058087 0.019072 0.154606 -0.032392 -0.015580 -0.009746 -0.032884 -0.028733  
-0.265737 0.050404 -0.131588 0.222492 0.179934 0.137894 -0.104242 -0.139713 -0.030965 0.007544 0.023706 0.002925 -0.042097 -0.055751  
-0.011279 0.136414 -0.056997 0.004341 -0.026221 -0.017149 0.023339 0.013692 -0.070861 0.021197 0.024836 0.024064 0.013205 0.015622  
-0.024073 -0.182575 -0.109871 0.080116 -0.046085 0.104769 -0.064310 0.085262 0.169741 0.097587 -0.050742 -0.012893 -0.040206 -0.036295  
0.014290 0.006848 -0.008449 0.001344 -0.006008 0.042513 -0.054370 -0.173702 -0.039714 0.080037 -0.065836 0.022166 -0.020535 0.003211  
-0.032089 -0.012705 -0.063269 -0.029413 0.007274 0.023916 -0.052482 -0.058336 -0.054699 0.090151 -0.015742 0.040866 -0.039543 0.031739  
-0.066370 0.030394 0.079452 0.076461 0.035745 -0.037869 -0.110218 -0.106564 0.015972 0.157441 -0.057034 -0.018428 -0.044233 -0.020837  
-0.098900 -0.033785 0.098960 0.065538 0.029188 -0.081548 0.065689 -0.103746 -0.001227 -0.182146 0.009223 0.015696 0.011593 -0.038637  
0.037475 -0.041258 -0.052416 -0.018080 -0.028773 -0.047502 -0.049726 -0.041519 -0.008788 -0.037125 0.004204 -0.028206 -0.045959 -0.025020  
0.144732 0.044850 -0.009898 -0.039364 -0.181805 0.164458 0.145334 -0.240781 0.077534 -0.264756 -0.041217 -0.066600 -0.071625 -0.071160  
-0.068453 -0.003387 -0.062801 -0.005939 -0.025937 -0.006727 -0.014639 -0.049037 -0.033299 0.044438 0.003906 -0.036563 0.009056 -0.054438  
0.029394 -0.086316 -0.090570 -0.066228 0.070164 -0.028386 0.005986 0.046671 0.101662 0.069248 -0.017847 -0.015975 0.016194 0.022546  
0.182691 -0.083266 0.162777 0.148364 -0.310156 0.170274 -0.035916 -0.194712 0.296373 -0.292631 -0.030750 -0.056470 0.033446 -0.033020  
-0.072220 0.022049 0.004752 -0.041345 0.047954 -0.062711 -0.011381 0.039162 0.092403 -0.057918 -0.013154 -0.021165 -0.020200 -0.043262  
-0.180364 -0.042993 -0.028016 -0.005496 -0.104631 0.175753 0.143507 -0.074679 -0.127275 -0.175990 -0.055718 -0.026718 -0.024090 0.012655  
-0.013348 -0.016816 0.053574 -0.113283 0.069242 -0.179969 0.002558 0.045891 0.085093 -0.031449 -0.012406 -0.037546 -0.012204 0.004945  
-0.279616 0.070469 0.267799 -0.020579 -0.234832 -0.104237 0.143342 -0.017807 0.065852 0.013222 -0.053680 0.009378 -0.022684 0.021995  
0.238180 -0.111884 -0.159708 -0.249419 -0.298295 0.285361 0.156135 -0.025736 -0.263320 0.181450 0.014554 -0.016302 -0.047803 -0.045559  
0.047174 -0.101318 0.116999 0.033822 -0.082580 -0.083095 0.125135 -0.148194 -0.223178 0.033498 0.004301 0.024822 0.021876 -0.026072  
0.027938 -0.095398 0.129220 0.178169 -0.007668 -0.152117 0.011504 0.096179 0.097207 -0.178972 -0.025957 -0.041746 -0.060608 -0.058012  
0.000195 -0.005813 -0.043378 -0.091317 0.083992 -0.000231 0.017889 0.019741 0.043582 -0.067068 0.030665 0.037130 -0.051264 0.008572  
-0.020105 0.023979 0.065351 0.049553 0.082557 -0.034531 -0.024219 -0.111034 -0.038187 -0.059039 0.018384 0.031180 -0.055552 -0.014272  
-0.049849 -0.054516 0.093359 0.077670 -0.034406 -0.030111 0.019149 -0.103656 0.026203 -0.028507 -0.035057 0.018351 0.008365 -0.040662  
0.005286 -0.051965 -0.000870 -0.068516 0.016158 -0.072418 -0.066223 -0.025878 0.011446 -0.006477 0.003719 -0.022354 -0.060788 -0.016995  
-0.025832 0.097022 0.042844 -0.068815 -0.000325 0.012099 0.059440 -0.084168 -0.003657 -0.114246 -0.058806 -0.054442 -0.052785 -0.056564  
-0.022967 0.033922 0.021207 -0.038797 0.007978 -0.010794 0.014964 -0.178800 -0.048654 0.119662 -0.018093 0.018269 -0.017162 -0.042243  
-0.143463 0.161233 0.016060 0.076464 0.093768 0.124395 -0.029715 -0.136211 -0.052966 -0.046808 0.016953 -0.019850 0.010365 -0.001691  
-0.090955 -0.057938 -0.058661 -0.064474 0.067939 -0.061516 -0.083880 0.077560 0.011990 0.061578 -0.003008 -0.010955 0.003533 -0.021402  
-0.015064 0.152965 0.021621 -0.039713 -0.023439 -0.060769 -0.079610 -0.005202 -0.127890 0.000356 -0.010603 0.023139 -0.053809 0.028401  
-0.000456 -0.161466 0.099654 -0.050535 0.078062 0.208148 -0.059752 -0.016648 0.160141 -0.156573 -0.020376 -0.039496 -0.057267 0.002422  
0.072251 0.053330 -0.013370 -0.016319 -0.053035 -0.132556 -0.024440 0.005992 0.082406 -0.015388 0.035469 0.005017 -0.034887 0.022532  
-0.041906 0.055177 0.036327 -0.017791 0.271960 -0.002660 -0.225380 -0.048118 -0.093294 -0.176968 0.038589 -0.041012 -0.039167 -0.009958  
-0.148645 0.098782 0.177982 0.131536 -0.039432 -0.049879 -0.206625 0.112770 -0.178182 -0.150919 -0.061783 -0.033789 -0.025903 -0.014451  
-0.085769 -0.091854 0.021993 -0.038357 0.009539 -0.134680 -0.082361 0.159824 -0.046583 0.129646 -0.010283 0.012069 0.015442 0.006024  
-0.089401 0.000960 -0.096481 0.017609 0.080321 -0.044863 -0.000971 -0.046610 -0.013387 0.153758 -0.039278 0.002633 0.037511 0.009700  
-0.040540 0.005506 0.017345 0.010287 0.119133 -0.035008 -0.026532 -0.012247 -0.035352 -0.090029 0.009774 0.041016 0.003427 0.041419  
0.079048 -0.029519 -0.036348 -0.050433 -0.078750 -0.050248 -0.048375 0.036897 -0.023441 -0.087090 -0.008531 -0.059218 0.010365 -0.043150  
0.004991 -0.007399 -0.094236 -0.013574 0.016410 0.005445 -0.126239 0.027831 -0.032451 -0.113297 -0.056238 -0.022621 0.010924 -0.064595  
-0.133646 0.123524 0.150468 -0.152137 -0.142119 -0.110222 0.269984 -0.010805 -0.316526 -0.117001 0.034504 -0.024315 -0.012172 -0.052651  
-0.109430 0.065380 0.055851 -0.038146 0.253959 -0.146300 0.025712 -0.089072 0.075191 -0.155725 -0.055433 0.001543 -0.050016 0.018285  
-0.007474 -0.142628 0.047226 0.034709 0.058276 -0.016777 0.031725 -0.061870 -0.045910 -0.028537 -0.013730 -0.004790 -0.066088 -0.038023  
0.121717 0.004654 0.023628 0.039830 0.076255 0.058973 -0.046330 -0.282257 -0.028776 0.029132 -0.066268 -0.018564 -0.062412 -0.021433  
0.021695 -0.191533 -0.233131 0.119848 0.072882 0.115950 0.019860 -0.000384 0.078837 0.021383 -0.033085 -0.039122 0.013103 -0.000622  
-0.025380 0.076355 -0.054770 -0.015431 -0.132689 -0.031172 0.031108 -0.174748 0.075112 0.141390 -0.007981 -0.045678 0.011923 0.034480  
-0.005545 0.126283 -0.111872 -0.053463 0.013660 -0.010380 -0.212214 0.093877 0.111975 0.139076 -0.058469 -0.017297 0.003065 -0.053787  
-0.005265 -0.031796 -0.205782 -0.155734 -0.055534 0.106808 0.075724 0.001541 0.154806 0.067491 -0.004509 -0.023672 -0.018457 -0.003927  
-0.162130 0.008439 -0.093608 0.010506 0.090208 -0.006301 0.024929 0.044174 -0.155981 -0.017697 -0.071250 -0.054366 0.011856 -0.066000  
-0.062441 0.067526 -0.106474 -0.121675 -0.081214 -0.021691 0.097251 0.049859 -0.004476 0.088437 -0.048042 0.039509 -0.050524 0.004149  
-0.082386 0.001682 0.017158 0.179863 -0.074409 -0.156133 -0.086124 0.102347 -0.066031 -0.114122 0.014821 -0.013562 -0.010359 -0.017855  
0.056445 0.004871 0.093916 0.135629 -0.017882 -0.223982 -0.093171 0.119480 0.038626 -0.113736 -0.036553 0.016437 -0.028964 -0.017017  
-0.003192 -0.086478 -0.083430 -0.081236 0.029221 0.023510 0.039579 0.020738 -0.059648 0.035962 0.030644 -0.039225 -0.057004 -0.038687  
0.152396 0.001154 0.052963 0.118754 -0.081846 -0.085339 0.022594 -0.050756 -0.123396 -0.031216 -0.017393 0.003541 0.002502 0.018420  
0.081108 -0.011003 0.028276 -0.094699 -0.053749 -0.131921 0.016854 -0.049842 0.041329 -0.060117 0.013184 0.004711 -0.006613 -0.020887  
-0.002570 0.020713 0.115416 0.091266 -0.079686 0.018008 -0.256942 -0.028480 0.045527 -0.067453 0.018992 0.001196 -0.019174 -0.061195  
0.141081 -0.086231 0.134057 -0.186828 0.086095 -0.208682 0.130163 -0.037145 -0.007613 -0.083925 -0.034381 -0.012691 0.008321 0.018154  
-0.017612 -0.119201 0.088002 0.023078 0.073483 -0.107355 0.045063 -0.065975 -0.076273 0.099847 -0.045110 -0.015978 -0.034756 0.006775  
0.043436 -0.098107 -0.067288 -0.056677 0.084975 -0.091420 0.064197 0.142739 -0.025547 -0.194956 -0.014272 -0.009185 0.026175 -0.025652  
0.005292 0.011749 0.000319 -0.035731 0.028398 -0.001760 0.003368 -0.040340 0.020538 -0.002166 -0.025470 -0.044079 0.035620 -0.031722  
0.087414 -0.020037 -0.025850 -0.084046 -0.057320 0.020346 -0.058810 0.023489 -0.120665 0.036655 0.038535 -0.013931 -0.015609 -0.023646  
-0.196056 0.047312 0.041777 -0.010624 -0.072075 0.203054 -0.068684 -0.017959 -0.011333 0.019194 -0.061623 -0.017496 0.028040 -0.059816  
-0.093169 0.108347 0.080420 -0.082262 0.032790 0.079443 -0.094651 -0.044233 -0.159193 0.075481 -0.009945 -0.032464 -0.056652 -0.010210  
-0.002723 -0.083684 0.142285 0.075794 0.008575 -0.066585 -0.054170 -0.037653 -0.094144 0.024461 0.024911 0.041334 -0.009645 0.030251  
0.138732 -0.047275 0.110872 -0.047548 -0.164014 -0.109570 0.153194 -0.122820 -0.160546 -0.028515 -0.041773 0.031667 -0.026768 0.019439  
-0.030914 -0.048535 -0.071927 0.008598 -0.007063 0.031651 -0.019967 -0.050812 -0.026969 -0.067345 -0.066913 -0.053877 -0.041961 -0.046868  
-0.065686 0.050296 0.076683 0.164466 -0.073066 -0.052905 -0.070370 -0.028884 -0.106317 -0.050502 -0.009104 -0.023257 0.022790 -0.038213  
0.079184 0.073909 0.090662 0.098508 -0.084236 -0.211249 0.039442 -0.202406 0.046886 0.122990 -0.022775 -0.035597 -0.013320 -0.070469  
0.010943 0.035564 -0.138079 0.025872 -0.168901 0.097462 0.007430 0.068826 0.073295 0.043565 -0.014477 -0.011647 -0.006450 0.006478  
0.028239 -0.033577 -0.037013 -0.049047 -0.027085 -0.074991 -0.068419 0.056276 -0.003452 -0.081912 0.021462 -0.048655 0.024465 0.008904  
-0.199641 0.037141 -0.087652 -0.130460 0.219777 -0.044848 -0.165650 0.055452 0.174157 0.078940 -0.008948 -0.025090 -0.035315 -0.031675  
-0.088351 0.069065 -0.060045 -0.100348 0.009998 0.030853 0.016584 0.013425 0.003103 0.057373 -0.043512 0.009181 -0.006550 -0.034430  
0.087645 0.110860 -0.102352 -0.137934 -0.068148 0.027991 0.012699 -0.105206 -0.090269 -0.165374 -0.009112 -0.054003 0.013077 -0.000785  
-0.022211 -0.025671 0.014328 -0.042083 -0.045386 -0.018015 -0.013965 -0.049367 -0.022391 0.038282 -0.057587 -0.046598 0.007593 -0.003939  
-0.144630 0.046527 0.252056 -0.093493 -0.020703 0.015518 -0.001165 -0.134891 0.027374 -0.185405 -0.012453 -0.049266 -0.037346 -0.019568  
-0.156589 0.068150 0.022652 0.158708 -0.014772 -0.041742 0.158854 -0.040989 -0.011000 -0.273032 0.025070 0.012206 -0.045502 -0.041434  
0.095244 -0.004912 0.139110 -0.006005 0.016827 -0.137295 -0.023020 -0.232940 0.061948 0.190197 0.024853 -0.041201 -0.006749 -0.015597  
-0.039523 -0.012606 -0.002746 -0.046458 -0.014889 -0.010194 -0.057855 0.029934 -0.002328 -0.118997 -0.075715 -0.061726 0.008963 -0.008660  
0.005224 -0.010345 -0.046771 -0.067874 0.006620 0.011516 0.006884 0.024321 -0.069336 -0.026051 -0.076412 -0.061476 -0.014113 -0.020963  
0.052626 -0.104127 0.194418 -0.024893 -0.147858 -0.026026 -0.010974 -0.019888 -0.107651 0.044088 -0.055989 -0.029923 -0.019299 -0.004000  
-0.019900 -0.054189 -0.041096 -0.022342 -0.007941 0.003179 -0.026989 -0.024352 -0.027046 -0.021747 -0.014858 0.000854 -0.004382 -0.035354  
-0.085866 -0.081523 -0.057973 -0.093746 0.020946 0.086525 0.085888 -0.083020 -0.057548 0.057829 -0.003246 -0.027336 -0.015900 -0.020854  
-0.061469 0.021070 0.197726 0.189818 0.114910 -0.235247 -0.178619 0.021443 0.191864 -0.122737 0.015385 -0.051989 0.025828 -0.047940  
0.008370 -0.039768 -0.165313 0.001464 -0.051329 -0.114968 0.123281 0.004574 -0.066489 0.071815 -0.044684 -0.000578 -0.014118 0.022023  
0.120308 0.003265 -0.140622 -0.089096 0.098701 -0.078104 -0.101216 0.066347 -0.068471 -0.053089 -0.005838 0.005175 -0.031411 -0.028921  
-0.060063 -0.083993 -0.112118 0.090995 -0.080244 0.041438 0.024728 -0.013494 -0.089590 -0.014077 -0.062804 -0.039663 -0.046618 -0.031386  
-0.042549 0.006757 -0.084295 0.226227 -0.038827 0.004328 -0.088930 0.053217 -0.086897 0.009325 0.024842 0.002195 -0.015095 -0.035587  
-0.135092 0.065078 -0.265590 -0.029785 -0.023240 0.055811 0.169648 -0.131667 -0.015430 -0.008331 0.020127 -0.025904 -0.025704 -0.034609  
-0.164692 0.023691 0.053432 0.028292 0.021533 0.083721 0.115284 0.024231 -0.052643 -0.051960 0.019688 -0.000238 -0.006411 0.003401  
0.038102 -0.117441 0.070097 0.190835 -0.050855 -0.049316 -0.117682 0.011424 -0.087287 -0.205400 -0.017671 -0.020460 0.027555 0.016411  
-0.005989 -0.131228 -0.012190 0.067717 0.006083 0.012749 -0.054993 0.078153 0.028808 0.042712 0.000264 0.019517 -0.010709 -0.021354  
-0.086665 -0.121361 -0.074102 -0.038627 -0.002107 0.042275 0.011170 -0.025649 0.016909 -0.086218 -0.040371 -0.027420 -0.033949 -0.018454  
-0.318604 0.038601 -0.041954 0.094967 0.086990 0.113283 0.138826 -0.159059 0.039027 0.029811 -0.052403 -0.040179 -0.065168 0.017564  
0.135340 0.038150 -0.091135 -0.025676 -0.013713 -0.058215 0.048586 -0.017406 -0.154873 -0.096869 0.016041 0.043115 -0.013879 0.033495  
-0.022065 0.000921 -0.051745 -0.069133 -0.017806 0.006139 -0.047892 -0.099650 -0.065884 0.033072 -0.059755 -0.012023 -0.032810 0.005806  
-0.060446 -0.012987 -0.056498 -0.076097 -0.061480 0.001808 -0.014971 -0.010987 -0.044373 0.021039 -0.003292 -0.051016 -0.011654 -0.003357  
-0.117315 0.045233 -0.076706 -0.045436 0.028402 0.091840 0.019760 -0.135556 0.071135 0.051317 0.011842 0.014284 -0.035764 -0.028692  
-0.139615 -0.054714 0.118592 -0.029895 -0.141516 -0.102339 0.045475 0.038392 0.002376 -0.010013 -0.039003 -0.040677 -0.050229 0.015988  
0.040049 0.024244 -0.107711 -0.119425 0.051108 -0.043967 0.041409 -0.090441 0.066582 0.094727 -0.037290 0.020015 -0.026938 -0.023424  
0.079113 -0.123838 0.013257 -0.067319 -0.063090 0.176619 -0.117548 0.137043 -0.095265 -0.161909 -0.001176 0.020999 -0.005385 0.002931  
0.072630 -0.025357 -0.150680 0.044847 0.037055 -0.052417 -0.032999 0.194612 -0.196201 0.059027 0.002241 -0.060868 -0.060531 0.013081  
0.045289 -0.022101 -0.144336 0.030079 -0.051179 0.118434 -0.032789 -0.037640 -0.065215 -0.121690 0.033519 0.027089 0.009731 0.018195  
0.124154 -0.160891 -0.208319 0.070725 0.135775 0.013752 -0.137177 0.044817 -0.051495 0.184561 0.010498 -0.005439 0.004825 0.000339  
-0.011518 0.019974 0.026348 0.043025 0.010591 -0.103276 -0.075192 -0.080772 -0.020958 0.112979 0.024701 0.001186 0.010831 0.005905  
0.057162 -0.000996 0.050698 -0.063029 -0.133533 0.091101 -0.046951 -0.049450 0.060098 -0.028432 -0.058971 -0.055116 -0.023539 0.000762  
-0.054879 -0.023006 0.019793 -0.027596 -0.035522 -0.020178 -0.086848 0.010922 -0.046221 -0.162956 0.002022 -0.066300 0.012855 -0.025855  
-0.152458 0.026864 0.002888 -0.067847 -0.042313 0.049399 -0.064962 0.010380 0.049166 -0.022375 -0.044865 -0.032089 -0.021178 -0.066158  
0.015514 -0.077819 0.049057 0.096361 -0.003177 -0.248142 0.066195 0.047244 0.226322 -0.161380 0.029758 -0.031994 -0.024956 -0.020114  
0.012121 0.010506 -0.028094 -0.019416 0.044298 -0.060924 -0.002035 0.078588 0.101117 -0.083212 0.016180 0.004317 -0.029973 -0.073769  
-0.073958 -0.012936 0.033300 0.029343 0.031105 0.033790 -0.029244 -0.136793 -0.007608 0.042287 -0.058121 -0.025509 -0.064810 0.017446  
-0.029048 0.038888 -0.122943 0.155084 0.052463 0.093759 -0.107409 -0.109773 -0.239989 -0.075167 0.017492 0.011622 -0.055205 0.038498  
0.062851 -0.126173 -0.027955 -0.266339 -0.076038 -0.013096 0.231181 0.016529 -0.004007 -0.068341 -0.043966 -0.055105 -0.000742 -0.045119  
0.009763 -0.004374 -0.008170 -0.011938 0.043542 0.012191 -0.027893 0.032313 -0.004429 -0.021506 -0.029257 0.032343 -0.017790 -0.009907  
-0.038649 -0.005361 -0.160297 -0.014154 0.005348 0.039790 0.068531 0.170065 -0.117960 -0.203920 -0.030550 0.001719 -0.042444 0.014271  
-0.190098 0.025584 0.232573 0.053713 -0.142195 -0.052866 -0.103897 0.174526 -0.163638 0.202319 0.030942 -0.037582 -0.027907 -0.052799  
0.031552 0.031543 0.057264 0.032178 -0.001335 0.040232 0.064681 -0.286788 0.090802 -0.024805 -0.026957 -0.025462 0.000120 -0.045498  
-0.000266 -0.050767 -0.031387 0.133575 0.155263 -0.030215 -0.043157 -0.014414 0.118910 -0.208958 0.011676 -0.047873 -0.021189 0.038539  
0.051461 0.071958 0.107228 0.177436 -0.107634 -0.009921 -0.093187 -0.142859 -0.060350 0.171071 0.006992 -0.029514 -0.033631 -0.019887  
-0.019309 -0.063416 0.007304 0.034983 -0.017010 0.071645 0.028876 -0.187234 -0.106444 -0.057266 0.016756 -0.001576 0.001870 -0.044287  
0.085753 -0.051306 0.068488 -0.132129 0.012156 0.104203 0.073884 -0.060263 0.067607 -0.186300 0.013195 0.006779 -0.049586 0.003971  
-0.080998 -0.090779 0.160414 -0.149965 0.053113 0.065755 -0.050143 0.173711 -0.078963 -0.157961 0.031755 -0.022848 -0.054253 -0.046552  
-0.127416 0.122711 -0.230462 0.294050 0.068488 -0.112265 -0.258920 0.100953 -0.191502 0.113302 -0.031991 -0.002881 -0.020943 -0.016393  
0.155076 0.018007 0.112310 0.085319 0.144719 -0.408516 0.008089 -0.061363 0.225708 -0.031150 0.019598 -0.000327 -0.016481 -0.027211  
-0.090373 -0.012613 0.055788 -0.054910 0.050748 -0.012029 0.125338 -0.016717 -0.071758 -0.003412 -0.005552 -0.005856 -0.026812 0.014933  
-0.139819 0.005383 0.279670 -0.033238 0.082794 -0.106170 -0.133502 0.106365 0.056281 -0.129138 -0.057780 -0.038784 -0.046439 -0.009218  
-0.128002 -0.035141 -0.065083 0.210822 0.028705 -0.111297 -0.084285 0.173428 -0.091653 0.045936 0.013674 -0.020743 0.034500 -0.029174  
0.109830 -0.079420 0.120710 -0.083595 0.084317 -0.167397 -0.064913 0.079017 -0.202216 0.170969 0.006005 -0.029755 0.024612 -0.033991  
-0.127294 0.117832 -0.167448 0.183107 -0.197650 0.182181 0.051478 -0.129689 0.207686 -0.128179 -0.018950 0.023037 0.004334 -0.042549  
0.027582 -0.054924 -0.099953 -0.009278 -0.068706 0.066791 -0.014707 -0.040650 -0.083315 -0.031561 -0.069888 -0.047560 -0.054962 -0.004258  
-0.028305 0.044305 -0.115188 -0.044102 0.027860 -0.042755 -0.086092 0.007589 -0.013469 0.009986 -0.062131 -0.067484 -0.040458 0.009512  
0.004044 -0.006800 0.053113 -0.121507 0.017865 0.079170 -0.073988 0.034284 0.040597 -0.060493 0.032049 0.024018 0.012426 -0.004454  
-0.102654 -0.083965 -0.084931 -0.057198 0.049500 0.011739 0.014104 0.049448 -0.062556 0.060283 -0.046100 -0.009389 -0.030489 -0.000219  
-0.147530 -0.036824 0.032095 -0.002631 0.070769 0.027099 0.117776 -0.118613 -0.029110 -0.170615 -0.039911 -0.040465 -0.005927 0.023032  
0.195223 -0.118672 -0.108051 0.014159 -0.133165 -0.011870 0.004177 0.108554 -0.122491 0.078467 0.026982 -0.008913 -0.024231 -0.050643  
-0.026932 -0.064887 -0.007489 -0.067693 -0.072331 -0.029868 -0.003675 -0.028171 0.013282 -0.021877 -0.001541 -0.038862 -0.030880 -0.009849  
0.170850 -0.031124 0.123682 0.090317 -0.100932 -0.131308 -0.009390 -0.100041 -0.282192 -0.032890 -0.021292 0.002330 -0.044897 -0.047313  
0.068282 0.006278 0.160265 0.087264 -0.161330 -0.138445 -0.019807 0.010147 -0.203831 0.157267 0.022627 -0.052005 -0.043359 -0.016034  
-0.017641 0.019162 -0.035277 -0.011408 -0.071802 0.040911 -0.022803 0.078695 -0.049518 -0.011148 -0.024876 0.016402 0.046930 -0.005803  
-0.035399 0.101293 -0.229820 -0.150413 0.070819 0.044723 0.110760 0.063146 0.190235 0.133933 -0.046307 0.010813 -0.002912 0.002634  
-0.079254 0.041830 -0.048310 0.183071 0.143604 0.020741 -0.101719 0.084451 -0.054517 -0.139943 -0.030335 -0.052816 -0.018836 0.037856  
-0.023914 -0.030716 -0.004287 -0.034637 -0.119006 0.090986 -0.030355 0.050362 -0.052775 0.042198 0.010808 -0.051560 0.031541 -0.017060  
-0.117802 -0.069009 0.042775 0.047384 0.084257 0.056308 0.036705 -0.049612 -0.142364 0.035102 -0.059499 -0.049514 -0.046741 0.035568  
-0.028301 0.029643 0.164041 0.067349 0.051364 -0.121556 -0.065719 0.060887 0.002068 -0.057110 -0.032531 -0.040682 0.003752 -0.062797  
-0.094003 0.126540 -0.174238 -0.134889 0.149449 -0.019423 0.111294 -0.111513 -0.000971 0.176937 0.039857 0.001773 -0.017701 -0.023929  
0.139226 -0.027143 -0.085888 -0.089407 -0.071382 0.135687 -0.158080 0.122624 -0.061864 0.011554 -0.033931 -0.016873 0.005701 -0.012556  
0.138748 -0.089701 0.029187 -0.064943 -0.137746 -0.146325 -0.013933 -0.082991 -0.054727 0.220882 -0.003878 0.022542 -0.000661 -0.036546  
0.050605 -0.011033 -0.002019 -0.187051 -0.020600 -0.031307 -0.006948 0.036234 0.084592 -0.101625 -0.010183 0.010817 0.018058 -0.007275  
0.019352 0.036371 -0.020335 0.026459 0.027394 0.008706 -0.014801 -0.025332 -0.051400 -0.022795 0.043617 -0.027610 0.029924 -0.002094  
0.039390 -0.024806 -0.060469 0.070187 -0.087962 -0.036744 -0.166254 0.152571 0.069686 -0.068837 -0.001260 -0.016513 -0.019449 -0.049289  
0.040884 0.130976 0.068465 0.192186 -0.219498 -0.109727 0.038205 -0.108650 0.087863 -0.275091 0.032343 -0.000283 0.025782 0.025208  
-0.033467 0.017517 -0.038163 0.074042 -0.062488 -0.002707 -0.061307 -0.079331 -0.040394 0.004408 0.033868 -0.002720 0.022198 0.009359  
-0.108479 0.008403 -0.076725 -0.077035 0.026791 0.050234 -0.019773 0.021285 0.002231 0.004472 -0.003875 -0.005602 0.031304 -0.018249  
-0.035626 0.015352 -0.085362 -0.027121 -0.045343 0.048721 0.013661 0.009962 -0.077282 -0.067482 0.009000 -0.051849 -0.001131 -0.033716  
-0.124213 0.029465 -0.039248 -0.094821 0.103595 -0.146269 -0.002457 -0.039044 -0.193772 0.226511 -0.025658 -0.060425 -0.047626 0.005145  
-0.116837 0.141882 0.006970 0.064836 -0.002229 -0.017954 -0.030123 -0.055218 -0.045169 0.067913 0.003709 0.008930 0.007657 -0.059862  
-0.117350 -0.025512 0.024067 -0.037962 -0.154876 -0.052077 -0.033718 0.363432 -0.092958 -0.058605 0.013318 -0.048255 -0.054867 0.009531  
0.006721 -0.022542 -0.084986 -0.084869 -0.001544 0.006978 -0.070941 -0.031561 -0.015331 -0.034742 0.021138 -0.030231 -0.017194 -0.062761  
0.000152 0.021735 -0.084017 -0.022799 -0.009536 -0.015886 0.026447 -0.025765 0.042674 0.046999 -0.040722 -0.000927 -0.059681 -0.006885  
-0.042329 -0.042534 -0.116917 -0.063517 0.079005 0.065252 0.057539 -0.021103 0.031023 0.044290 -0.051042 0.014731 -0.010824 0.028459  
-0.108423 0.030271 -0.000088 0.029237 0.029836 -0.046824 -0.008866 -0.026194 0.060250 0.038800 -0.052298 -0.001526 -0.022548 -0.062366  
-0.076570 0.011667 -0.076568 -0.081474 0.032314 -0.046521 -0.028484 0.011131 0.009567 0.031962 -0.046894 -0.064638 -0.039621 -0.054017  
0.029234 -0.026838 -0.058597 -0.024161 -0.094818 -0.038919 -0.095754 0.005810 0.011960 0.045239 -0.048508 -0.066470 -0.007757 -0.017440  
0.058326 0.076208 0.138991 -0.155116 -0.219930 -0.152480 0.028156 0.079314 -0.014847 0.128919 -0.051062 0.032023 -0.005225 -0.016471  
-0.028195 -0.079662 -0.004663 -0.093301 0.138017 0.030139 -0.101862 0.093507 0.005136 -0.095080 -0.016811 0.007728 -0.056509 -0.019091  
0.083813 -0.029272 -0.028852 -0.067364 -0.031369 -0.078583 0.233416 0.008169 -0.270759 0.158039 -0.013694 0.015109 0.030678 0.011096  
-0.070533 -0.016564 -0.057174 -0.063130 -0.064748 -0.002366 -0.045285 0.009306 -0.036081 0.020130 -0.003413 -0.071100 -0.042906 0.016503  
0.166436 0.051548 -0.141340 -0.094672 -0.195718 0.172895 0.170213 -0.164134 0.236474 -0.153219 -0.046592 -0.016127 -0.020852 0.018574  
-0.018888 -0.021141 -0.018943 0.065739 0.084479 -0.118014 -0.108917 0.080102 -0.229788 -0.099640 0.017267 -0.019668 -0.011760 -0.060839  
-0.135251 -0.018957 -0.049792 -0.167694 0.173633 -0.104773 -0.072415 0.004954 -0.188319 0.076835 -0.024922 -0.038988 0.025649 -0.028144  
0.064275 -0.011305 -0.066924 0.016675 -0.113801 0.009519 -0.054076 0.092133 -0.056256 -0.016785 -0.027725 0.010054 0.034762 0.040474  
-0.003275 0.022422 -0.016969 0.215310 -0.086774 -0.042779 -0.000876 0.048617 -0.039591 -0.121472 0.008610 0.017913 -0.036359 -0.049767  
-0.078000 -0.010682 -0.013548 0.001542 -0.011123 -0.061790 0.029068 0.035866 -0.077111 -0.013918 0.036096 0.025343 0.005798 -0.039871  
-0.047021 0.130655 0.030455 0.243220 0.033813 0.002328 -0.032642 -0.120712 -0.009553 -0.116073 0.002086 0.006686 0.031864 -0.038334  
0.117713 -0.021529 0.066540 0.103117 -0.139805 0.193005 -0.296014 -0.082718 0.133145 -0.330088 -0.054529 0.022731 -0.009998 -0.023561  
-0.050649 0.081295 -0.068296 -0.001488 -0.181854 -0.051872 -0.013728 0.065972 -0.014818 -0.131769 0.002292 -0.016071 0.023432 -0.063430  
-0.092724 -0.055429 0.008063 -0.013107 0.037014 0.033282 0.018530 0.033732 -0.099055 0.000141 -0.013955 0.033074 -0.036606 0.021161  
0.014702 -0.037967 0.022125 -0.070322 0.040808 0.062006 -0.026244 -0.057743 0.054684 -0.048297 -0.014720 0.026777 0.028856 0.023521  
-0.146766 -0.059401 0.026982 -0.018746 0.066474 -0.285777 0.011410 -0.136023 0.158056 0.252072 -0.055288 0.033182 -0.004976 -0.048929  
0.076570 -0.159335 -0.036232 0.054510 0.027357 -0.078150 0.052646 0.023669 -0.035413 0.041068 -0.011160 -0.010635 0.016640 0.016571  
-0.030723 0.159896 -0.237924 -0.209319 0.010703 0.138502 0.231071 -0.059503 0.069719 -0.059503 0.031915 -0.049472 -0.028004 -0.057250  
-0.002007 0.165223 -0.002037 0.043105 0.017000 -0.063636 -0.022350 -0.051017 -0.136964 -0.006428 -0.035197 0.033645 0.025362 0.022976  
-0.013863 0.056580 -0.058605 -0.049886 0.044868 -0.050872 -0.027763 -0.080919 0.025527 0.014546 -0.050739 0.024162 -0.048536 -0.032418  
0.002831 -0.057432 0.014167 0.002232 -0.013740 0.076932 -0.005804 -0.070855 -0.136898 0.135207 -0.027600 -0.035017 -0.013372 0.006699  
-0.027996 0.064225 -0.042608 -0.022286 0.073975 0.053971 -0.043912 -0.099499 0.054625 -0.099550 0.019418 -0.038455 0.014508 -0.007702  
-0.108917 0.033722 -0.037294 -0.011021 0.031228 0.061035 -0.016850 -0.098115 0.051425 0.042463 -0.052687 0.021710 -0.060158 0.009152  
-0.229026 0.156831 0.172223 -0.160372 0.106689 -0.082651 0.006214 -0.100829 -0.004886 0.046814 -0.020055 0.000826 -0.050820 -0.019227  
-0.152756 -0.020165 -0.138643 -0.064257 0.101801 0.095280 -0.183933 0.023891 -0.076954 0.220872 -0.054010 -0.052052 -0.044692 -0.028601  
-0.045612 0.082047 0.090643 0.115833 -0.041370 -0.137588 0.024964 -0.039671 -0.128599 0.081856 -0.043221 -0.023579 -0.036623 -0.027132  
0.004454 -0.074828 0.003553 -0.084985 -0.046426 0.033502 -0.010363 0.023568 0.003202 -0.020749 -0.003418 -0.013369 -0.013779 -0.025499  
0.004353 0.024716 -0.096928 -0.094668 0.104729 -0.108054 0.047973 0.023540 -0.194848 0.091653 0.039252 0.006989 0.035150 -0.028081  
0.032782 -0.046703 -0.012520 0.161623 -0.120681 -0.063980 -0.125909 0.287577 -0.182859 -0.112406 0.002730 -0.037414 -0.021568 -0.059009  
-0.070793 -0.016567 -0.076236 -0.014614 -0.018021 0.099981 0.025293 0.020265 -0.066830 0.035073 -0.034395 0.033122 -0.024423 -0.049709  
-0.171061 -0.036386 -0.064891 0.129420 -0.193421 -0.145210 -0.119628 0.320496 -0.229978 0.219060 -0.050300 0.009517 0.026261 -0.001878  
0.058994 -0.053268 -0.058123 -0.034900 -0.048502 -0.100715 -0.066659 0.128218 -0.156683 -0.090364 -0.050519 0.009593 0.005646 -0.056519  
0.051543 0.011078 -0.108255 0.064976 -0.018142 -0.014364 0.020830 -0.012671 -0.142440 -0.022292 -0.043714 -0.039963 -0.006348 -0.021968  
0.074390 -0.182869 -0.152822 0.128649 0.043725 0.136940 -0.164914 0.064527 0.040480 0.050444 0.009479 0.017719 0.011516 -0.031825  
-0.227113 -0.081033 0.042725 -0.050797 -0.104652 -0.119064 0.121415 0.213836 -0.205309 -0.113977 0.022185 0.010751 0.026134 0.031612  
-0.006083 -0.010080 -0.020998 -0.031131 0.069382 0.048294 -0.110534 0.014089 0.025208 -0.062009 0.007111 -0.012550 -0.020658 -0.043328  
0.340279 -0.031908 0.144029 -0.220111 0.082314 -0.364630 -0.143214 0.004364 -0.095187 0.053416 -0.021489 0.009806 0.021444 -0.043868  
-0.006467 -0.035874 -0.075758 -0.002057 -0.059607 0.039777 -0.021349 -0.014399 -0.071640 -0.057682 0.017982 -0.028553 -0.064039 -0.008823  
-0.077289 -0.019280 0.075117 -0.013889 0.034206 -0.263987 0.031761 0.021300 0.017080 -0.056478 0.017140 0.000423 -0.053934 -0.051349  
-0.002809 -0.079110 0.012460 0.028006 -0.068909 -0.069997 -0.038611 -0.137122 0.054937 0.097644 -0.011973 -0.024411 -0.016989 -0.028519  
0.069699 -0.050385 0.244033 -0.149792 -0.088837 -0.244452 -0.034535 0.242008 -0.251704 -0.135384 -0.046479 -0.065328 -0.047373 -0.022350  
-0.025472 -0.026428 -0.196140 0.035742 0.096558 -0.046157 -0.055252 0.146372 -0.043985 0.014675 -0.032873 0.020907 0.011352 -0.007401  
0.002303 0.076729 -0.093100 -0.052789 -0.000736 0.027617 0.014042 -0.001159 0.044848 0.026020 -0.049969 -0.006774 -0.058248 -0.009978  
0.061013 0.022507 0.008815 0.008169 0.034908 -0.008651 -0.073826 0.007983 -0.103770 0.039899 -0.031841 -0.006825 0.014036 0.014512  
-0.051916 -0.058246 -0.107094 -0.083689 -0.013332 -0.010198 -0.017291 -0.100577 0.038876 0.070535 -0.012302 -0.064721 -0.021950 -0.014327  
-0.097584 0.108709 -0.112915 -0.086349 0.250271 0.008399 -0.011259 -0.046510 0.085279 -0.152044 0.026850 0.000350 -0.051933 -0.021790  
0.019468 -0.006053 -0.003755 -0.003732 -0.019189 -0.028487 0.023958 -0.045952 0.029818 0.001700 0.027193 0.030762 -0.029416 -0.040938  
-0.069648 -0.033367 -0.113063 0.030043 -0.030650 -0.051074 -0.108910 0.207770 -0.165918 -0.214605 0.012901 0.026134 -0.047962 -0.034270  
-0.081468 0.106360 -0.101558 0.047755 -0.002580 0.049350 -0.035207 0.023768 -0.109681 -0.042792 0.001882 -0.029020 -0.035930 0.010192  
0.037664 -0.048596 -0.070057 -0.041386 0.074346 -0.003437 -0.019861 0.033247 -0.101670 -0.057036 -0.070268 -0.031689 0.025064 0.015837  
0.064652 -0.007092 0.035866 -0.088389 -0.001599 -0.085877 0.036677 0.000243 0.020839 -0.089360 0.033424 0.034558 0.006784 -0.042059  
-0.083131 -0.024164 -0.012652 -0.053204 0.024227 0.012954 -0.031698 -0.068410 0.017588 -0.015965 -0.002223 -0.010278 0.006497 -0.035099  
0.050962 -0.087963 0.127881 0.057149 -0.033428 0.014035 -0.099710 0.045847 -0.128698 -0.108489 -0.046719 -0.056952 -0.053015 -0.024086  
-0.041470 0.178223 -0.033125 0.184034 -0.175235 -0.218149 0.009115 0.012572 -0.011099 -0.000419 0.005265 0.030987 -0.051075 0.012232  
-0.115226 0.001770 -0.036465 0.009577 0.153107 0.299229 -0.127927 -0.090505 -0.184002 -0.054425 -0.026217 -0.036343 -0.043408 0.046584  
-0.100148 0.088296 -0.027662 0.277667 -0.203010 -0.082111 -0.161419 0.053708 -0.208595 -0.032345 0.010510 -0.061606 -0.063509 0.008857  
-0.045655 -0.092857 -0.043555 -0.089810 -0.114623 0.122156 0.073036 -0.045308 0.016484 -0.020358 -0.059795 -0.061642 -0.064654 0.022585  
-0.109618 -0.106675 -0.132572 -0.063140 -0.090917 -0.073642 0.240453 -0.149593 0.003293 -0.009115 -0.000323 -0.044378 -0.005682 -0.049062  
0.037381 -0.114441 0.019718 0.069465 -0.009334 0.083436 -0.124341 -0.065566 0.065334 -0.005659 -0.011222 -0.033007 0.014589 -0.040223  
-0.077919 0.133863 -0.031474 -0.085386 0.172532 -0.055348 -0.081690 -0.030137 -0.088540 0.139437 0.002783 -0.059946 -0.032849 0.009704  
-0.059392 0.053422 -0.048874 0.009237 -0.002645 -0.069477 -0.049775 0.096521 0.010567 0.002275 -0.010280 -0.034071 0.002683 -0.011150  
-0.037802 -0.022728 -0.128526 -0.124499 -0.022921 0.021408 0.076734 0.063024 -0.238836 0.185833 -0.044597 -0.006357 -0.001856 -0.058486  
-0.054615 0.125727 -0.018520 0.049991 0.117677 -0.121015 -0.056865 -0.003921 -0.070291 -0.095928 0.047130 0.014432 0.023691 0.044993  
-0.022850 -0.036767 -0.029455 0.109308 0.060275 -0.071625 -0.169944 0.024878 -0.150540 -0.125223 -0.052483 -0.028425 -0.052001 -0.065738  
0.057368 -0.042896 0.041961 -0.266136 0.095161 0.124558 0.135275 -0.138161 -0.004723 -0.073434 -0.059928 0.017467 0.015905 -0.037468  
0.135463 0.008317 -0.008462 -0.071069 0.018812 0.086667 0.065693 -0.190955 0.032754 0.108939 -0.041520 -0.030594 -0.055041 -0.019818  
-0.253868 -0.018900 0.085196 0.067935 -0.109495 0.083986 0.032445 -0.138141 0.067656 0.076918 -0.044287 -0.010406 -0.036516 0.014326  
0.016241 0.000026 0.022926 0.009338 0.111149 0.006095 -0.091645 -0.005829 -0.059518 -0.122568 0.019033 0.002745 -0.011453 -0.037469  
-0.002532 -0.060492 -0.115258 -0.050321 0.022174 0.077473 -0.070671 -0.023801 -0.003419 -0.009009 0.027125 0.020208 -0.043605 -0.017142  
-0.050638 0.009864 0.010323 -0.093539 -0.061956 -0.049240 -0.050189 -0.024262 -0.045266 0.001050 0.012045 -0.035974 -0.040895 -0.053437  
0.076877 -0.026794 0.043723 0.017583 -0.043056 0.050676 -0.020278 -0.015208 0.075049 -0.132412 0.009245 -0.016765 0.020947 0.008870  
0.001452 -0.041968 -0.016860 -0.051046 -0.073486 0.079341 0.096223 -0.054060 -0.009185 -0.149502 -0.004817 -0.057187 -0.039055 0.006217  
-0.179105 0.029308 0.131508 -0.024251 -0.112216 -0.124210 -0.026771 0.081123 0.167050 -0.120976 -0.026353 -0.065431 0.026730 -0.034427  
0.018312 -0.031569 -0.089185 -0.035185 0.046349 0.044475 0.064752 -0.055320 -0.049913 0.027580 -0.048956 -0.003806 -0.025229 -0.019332  
-0.098494 0.105580 -0.117954 -0.059774 0.312313 -0.085768 0.198831 -0.100569 -0.123001 -0.298092 0.026342 -0.049689 -0.010036 -0.044739  
-0.086944 0.016123 0.103364 -0.127993 -0.065537 -0.039940 -0.209874 0.076261 0.153874 0.086017 -0.004711 0.002794 0.024283 0.020553  
0.075968 -0.196210 -0.156393 0.127183 -0.032259 0.177117 0.067341 0.006689 0.061337 -0.129832 -0.042144 -0.048239 0.027601 -0.061636  
-0.079004 0.052326 -0.066680 -0.020355 -0.087533 -0.067052 -0.038730 -0.018134 -0.013598 -0.077144 -0.021201 -0.040738 -0.060022 0.017525  
-0.115173 -0.008829 -0.052913 0.000609 -0.063103 0.234786 -0.001474 0.003737 -0.131907 0.043663 -0.035199 -0.053499 0.029488 0.002630  
-0.033145 0.050682 0.008308 -0.048493 -0.010576 -0.142846 -0.070830 0.152673 -0.153647 0.057554 -0.019273 0.030044 0.014580 -0.041243  
0.097690 0.001719 0.012860 0.071479 -0.015061 -0.043979 -0.005614 -0.038304 -0.039237 -0.038277 -0.024311 -0.001275 0.003324 0.022836  
-0.055521 -0.005697 -0.033903 -0.218416 0.123119 -0.058229 -0.180595 0.115569 0.102127 0.017894 -0.013630 -0.054900 0.016627 0.002467  
-0.018106 0.020594 -0.012589 0.069583 -0.110939 0.008101 -0.069062 -0.034627 -0.078207 0.019707 -0.060661 -0.005719 0.028282 0.025957  
-0.131510 0.071680 0.052637 -0.108817 -0.133271 -0.116381 0.102552 -0.038341 0.105121 -0.225013 0.032613 -0.048843 -0.005401 -0.032959  
-0.163498 -0.055420 -0.141636 0.063114 0.218524 0.190965 -0.177374 0.026061 -0.345064 0.152467 -0.007254 -0.026484 0.017852 0.000831  
-0.210656 -0.007634 -0.220335 -0.152338 0.111164 0.153761 0.091063 -0.093717 -0.009641 0.132530 -0.017820 0.036535 0.012746 -0.009722  
0.115158 -0.118230 0.052081 -0.014977 0.039419 -0.025823 -0.011362 -0.083475 -0.017545 -0.079328 -0.029485 -0.030649 0.004921 -0.059742  
-0.059292 -0.048802 -0.054278 -0.018786 0.005074 -0.042001 -0.030634 -0.043147 -0.071510 0.023442 -0.071400 -0.000156 -0.012274 -0.071969  
0.019756 -0.014422 0.028853 -0.065752 -0.018912 0.055532 0.018024 -0.050331 0.059725 -0.091604 0.013070 0.011687 0.000624 0.025120  
0.031736 -0.002334 0.050053 -0.057209 -0.039019 0.048710 -0.080523 0.033078 -0.111645 0.027833 0.025081 0.024376 -0.067938 0.002628  
-0.122039 0.059378 -0.046292 0.008302 0.003537 -0.098372 0.008285 0.063084 -0.170291 0.231283 -0.054462 -0.022840 0.023828 -0.002955  
-0.026894 -0.050612 -0.315467 -0.079790 0.084217 0.001155 0.101718 0.140443 0.063108 0.088687 -0.065441 0.025383 0.002064 -0.063058  
-0.006232 -0.047969 -0.034661 -0.045673 -0.073302 -0.025547 -0.055383 -0.010097 -0.032994 0.017727 -0.035151 -0.045813 -0.005259 -0.000141  
-0.083665 0.099412 -0.062891 -0.198883 0.002628 0.057814 -0.058985 0.269134 -0.167630 -0.258940 -0.006881 -0.017182 -0.029489 0.025117  
-0.059822 -0.018855 0.157685 0.029771 -0.071122 -0.037046 -0.077791 -0.017202 -0.053639 -0.007205 -0.034522 -0.028972 0.031824 0.017948  
0.062812 0.014446 -0.154096 0.053513 -0.127036 -0.079737 0.146151 0.065485 0.021057 0.139459 0.012106 -0.021775 -0.007875 -0.008536  
0.057556 0.103406 -0.033128 -0.032324 -0.044817 -0.088053 0.053585 -0.030644 -0.098135 -0.045428 -0.021042 0.027848 0.004014 -0.024835  
-0.089854 -0.101466 0.028098 -0.119928 0.062767 0.069041 0.051724 0.017295 0.025181 0.041250 -0.052980 -0.007397 -0.022841 -0.013436  
0.158558 -0.168455 -0.091841 -0.077654 0.127133 0.068408 0.112235 -0.196553 -0.107487 0.195201 0.006594 -0.035455 -0.012212 0.008994  
0.030172 -0.103170 0.191952 0.165759 0.012246 -0.022397 0.001893 -0.055454 -0.096732 -0.314902 -0.049056 -0.053671 -0.017964 0.005563  
0.056378 -0.018346 0.129036 0.006070 -0.063013 -0.112603 -0.067332 -0.102884 0.116512 0.151659 -0.024220 -0.020273 -0.027614 0.016626  
-0.021727 0.003190 0.006010 0.011088 -0.191885 0.044750 0.040520 0.026354 -0.043206 0.108487 -0.015882 -0.041960 -0.065498 0.018796  
-0.019117 0.138941 -0.119368 -0.074231 -0.029626 -0.115861 0.179071 -0.006672 -0.107549 -0.178997 -0.015074 -0.033284 0.035352 -0.011976  
0.294328 -0.079821 0.049909 -0.180310 -0.075058 0.184288 -0.195772 0.022442 -0.108141 0.067929 -0.007861 0.006706 0.003128 -0.058589  
-0.113564 0.084965 0.094967 -0.274193 -0.160109 0.025656 0.154343 -0.057677 -0.118206 -0.230240 -0.011547 0.027235 0.013145 0.015732  
-0.167112 0.282734 -0.055857 -0.199402 0.118492 -0.148504 -0.180931 -0.012893 -0.155654 0.177464 -0.014747 0.008712 -0.033624 -0.011308  
0.032180 -0.109053 0.009670 0.029691 -0.061909 0.115011 -0.107205 -0.092769 0.064862 -0.072646 -0.037154 -0.024403 -0.018219 -0.008331  
-0.195717 0.073651 0.074627 0.200750 0.192293 -0.406731 -0.074126 0.035064 0.087655 0.232430 -0.006599 -0.048149 -0.046546 -0.010480  
-0.141962 0.041132 -0.122005 0.083881 0.029697 -0.045580 -0.168725 0.017610 0.107290 0.141269 -0.000434 -0.071789 -0.062455 -0.027736  
-0.056160 -0.130235 0.053022 0.043149 -0.019172 0.057489 0.011862 -0.025262 0.068509 -0.159814 -0.047430 0.022168 -0.039295 -0.063296  
-0.022466 -0.026055 0.030639 -0.093154 0.022175 0.085313 -0.036153 -0.011133 0.002905 -0.053506 -0.042263 0.037881 -0.038654 -0.005701  
0.027002 0.041343 0.008430 0.008563 0.008772 -0.031711 0.039841 -0.006290 -0.030811 0.026629 0.008391 -0.040254 0.035585 0.042426  
-0.105191 -0.032805 0.072343 0.012366 -0.115225 0.027889 -0.035991 -0.101548 0.125326 0.027126 -0.074631 0.005738 -0.053575 0.002678  
0.268873 -0.043835 0.193940 -0.048908 -0.051331 -0.228037 0.021883 -0.083670 -0.128817 0.003054 -0.011850 0.001623 0.039067 -0.018460  
0.038826 -0.004447 -0.062230 0.005770 0.016028 -0.097396 -0.125739 0.033665 0.021764 0.025211 0.012338 0.018040 -0.068389 -0.044071  
-0.020262 0.091361 -0.089584 -0.055492 -0.046728 0.036609 0.028718 -0.083432 0.005535 0.086515 0.030895 -0.013697 -0.055548 0.035929  
0.096612 -0.160854 -0.043193 0.113250 -0.120899 0.139222 0.042924 -0.095030 0.019538 0.071074 -0.047632 0.000735 -0.031499 -0.062352  
0.143711 -0.117080 -0.093658 -0.170487 0.150158 -0.043667 0.200636 -0.209141 -0.172729 0.205851 -0.038799 -0.050483 -0.059692 -0.054404  
0.000000 0.233561 -0.098723 -0.127972 -0.014745 0.109978 -0.044402 -0.032384 -0.126649 -0.026138 0.014002 0.015885 0.018930 -0.049499  
0.037643 -0.007650 0.005240 0.115574 -0.053128 -0.045218 -0.047057 -0.049301 -0.074098 -0.035977 0.043316 0.042392 -0.003951 -0.029617  
0.138681 -0.066204 0.187028 0.163102 0.040187 -0.251892 -0.248756 -0.136450 -0.057771 0.171411 -0.049583 -0.032026 -0.015318 -0.006781  
0.078837 -0.110060 0.048444 -0.141522 -0.016799 0.202197 0.029997 -0.185351 -0.084566 0.039399 -0.008356 -0.015961 -0.011578 -0.006980  
0.081111 -0.000025 0.121012 -0.215664 0.131119 -0.086412 -0.211277 0.053409 0.146212 0.056190 -0.039756 -0.033315 -0.034019 -0.064015  
-0.007004 0.012205 -0.035353 -0.031895 -0.033264 0.063126 0.035943 0.079909 -0.025586 -0.073579 0.029235 -0.032409 0.023242 -0.028077  
0.014363 -0.065714 0.045344 0.061668 -0.036411 0.135582 -0.121269 -0.068941 0.112446 -0.080650 -0.059030 -0.013207 -0.009320 -0.025812  
-0.009976 0.061237 0.053927 -0.027421 -0.082949 -0.082054 -0.058613 0.071907 -0.042524 -0.033825 -0.033160 -0.070093 -0.037580 0.010448  
-0.100062 0.096617 -0.266557 0.111726 -0.105263 0.224623 -0.115378 -0.119813 -0.204119 0.162296 -0.054675 -0.054424 -0.003327 -0.034438  
0.015797 0.054560 0.033399 -0.175978 -0.007981 -0.191410 0.044392 -0.072739 0.034194 0.100354 0.029525 0.007710 -0.010764 0.004991  
-0.001533 -0.030260 -0.015288 -0.033232 -0.061634 -0.024441 -0.006342 -0.060274 0.002749 -0.005135 -0.018281 -0.008278 -0.023770 -0.072470  
0.068966 -0.020043 0.052146 -0.042700 -0.211446 0.100934 -0.053115 -0.062677 0.104279 0.191276 0.008468 -0.058777 -0.047845 0.015043  
0.096837 -0.078201 -0.054506 -0.030026 -0.026965 -0.010488 -0.085895 0.010032 -0.058769 -0.096070 -0.041358 -0.008379 0.006444 -0.035237  
-0.076119 0.020812 -0.070239 0.014614 -0.005547 0.043212 0.052174 -0.037259 0.042817 0.056202 -0.047804 0.013699 -0.034452 0.002034  
0.008614 0.074218 -0.159465 -0.030417 -0.071483 -0.058046 0.068607 -0.045043 0.124557 -0.052115 -0.022621 -0.033323 -0.023031 -0.031131  
-0.102065 0.025284 0.087762 -0.022378 0.091496 0.192322 0.038080 -0.222292 -0.096984 -0.111933 -0.050892 -0.023839 -0.053945 0.031281  
-0.000137 0.004068 0.022044 0.004358 -0.018113 0.046310 -0.024790 -0.016643 0.009922 -0.028850 0.003697 0.014167 -0.021993 -0.014965  
-0.046563 0.004643 -0.024356 -0.085253 -0.011430 0.029639 -0.030309 -0.048507 -0.057283 -0.101287 -0.031967 -0.003895 -0.051276 -0.046096  
-0.004322 0.017871 -0.045287 -0.032591 0.064269 -0.069516 -0.087616 0.000442 0.031590 -0.033893 -0.052463 0.019177 0.004173 -0.009298  
-0.141708 0.080704 -0.062106 -0.150502 -0.022275 0.043152 0.047729 0.042405 -0.174775 -0.028929 -0.000908 0.026360 0.024783 -0.051704  
0.006784 -0.021231 0.032829 0.019929 -0.001133 0.021028 -0.032763 -0.003050 0.024653 0.034538 -0.003096 0.007280 0.047198 0.033992  
0.095693 0.095883 0.068507 0.192206 -0.211273 -0.079227 -0.032775 -0.237390 -0.000667 0.121329 -0.014118 -0.043687 -0.043703 -0.000019  
0.081021 -0.068442 -0.150463 -0.027554 0.013640 0.076107 0.070462 -0.108430 0.009971 0.078359 0.016255 -0.025113 -0.044659 -0.010068  
0.117729 -0.085071 0.085433 -0.091288 -0.006616 -0.088876 0.178714 -0.129569 0.025102 0.052572 -0.011106 0.000386 0.024873 0.035855  
-0.070079 -0.013146 0.088670 -0.050781 0.197611 -0.017084 0.021694 -0.062811 -0.085828 -0.052794 -0.048337 -0.061474 -0.057548 0.033461  
-0.068660 -0.234715 0.085123 -0.013697 -0.047882 0.059435 -0.019592 0.041589 0.168880 0.070851 -0.012200 -0.046948 0.005945 -0.032876  
0.040792 -0.047658 -0.112007 -0.106191 0.084190 0.118524 0.116144 -0.035281 0.010428 0.107135 -0.007567 -0.046350 -0.019400 -0.005295  
0.018218 -0.044667 -0.171896 -0.064218 0.140744 0.028474 0.064923 0.088116 -0.048667 -0.069647 -0.023897 0.005549 -0.038161 -0.000209  
0.008745 -0.019879 0.019052 -0.055475 0.153638 0.360322 -0.175671 -0.065397 -0.083255 -0.158132 0.030571 -0.054034 0.039973 -0.000968  
0.019423 -0.076150 0.123943 0.149735 -0.066170 -0.070852 -0.018603 0.007307 -0.236982 -0.104618 -0.000458 0.034939 -0.020508 -0.000392  
-0.008063 0.005795 0.036918 -0.023888 -0.025180 0.052016 -0.208033 0.030896 0.019854 -0.007588 -0.000014 -0.033295 0.003621 0.018163  
-0.016283 0.024901 -0.056765 -0.066866 -0.006935 -0.003605 0.036126 0.010148 -0.022796 0.071236 -0.014656 0.030246 -0.038813 0.032412  
0.011003 0.078447 -0.062075 -0.019706 -0.028213 -0.004407 -0.011094 -0.067438 0.001686 -0.035817 -0.020786 -0.009452 -0.042948 -0.017037  
0.013437 -0.019797 0.038349 0.010528 0.023095 0.005033 0.030304 -0.044103 -0.033069 0.040319 0.006862 -0.011857 0.015926 0.012768  
-0.152242 -0.036916 -0.015345 0.031967 0.045738 -0.053718 0.023349 0.015121 0.018433 0.070038 0.002401 0.012727 -0.018354 -0.024135  
0.072363 -0.012744 -0.011919 -0.073893 -0.034325 -0.090010 -0.068742 -0.039401 0.124687 -0.012042 -0.027052 -0.043176 0.020284 -0.041225  
0.182047 0.016611 -0.030905 -0.164083 -0.067402 0.045743 0.201043 -0.123040 -0.233251 -0.054323 -0.036054 -0.014711 0.013133 -0.023178  
-0.043673 -0.091158 0.002156 0.009061 0.017047 -0.004318 -0.002217 0.041602 0.070840 -0.027772 0.014039 -0.025366 0.002679 -0.069039  
-0.008261 0.113183 -0.105356 0.045722 -0.040194 -0.087526 -0.093310 -0.055204 0.025148 0.016133 -0.009882 0.008210 -0.026032 -0.015627  
0.121748 -0.177069 -0.044872 0.002595 0.169861 0.073598 -0.003686 -0.150867 -0.072960 -0.099522 -0.036745 0.016882 0.037090 0.000979  
-0.009792 -0.010332 0.116038 0.028221 -0.071064 0.045903 -0.063849 -0.004262 0.032966 0.110355 0.035991 0.029894 -0.042217 -0.031808  
-0.111844 0.032324 0.072955 -0.008136 -0.062778 -0.172850 0.127315 0.009459 -0.097420 -0.036530 -0.026642 -0.030978 -0.001091 -0.058699  
-0.166548 0.089962 0.074005 -0.244509 0.042885 -0.053538 0.056961 0.014212 0.083440 -0.141598 -0.062512 -0.062105 0.005372 0.019659  
0.015867 -0.021703 -0.078023 -0.056429 -0.050129 0.034689 0.012341 0.010358 -0.009385 -0.040448 -0.022019 0.020583 -0.068947 -0.000858  
-0.004111 0.050607 0.065876 0.008382 -0.031355 -0.000792 0.041699 0.044218 0.012596 -0.023231 -0.016577 0.013166 -0.017269 -0.044222  
-0.127197 -0.004013 0.065647 -0.040895 -0.035310 -0.098319 -0.067617 -0.010981 0.066099 0.019120 0.000990 -0.036106 0.005176 -0.057255  
-0.155383 0.050562 -0.080558 -0.019239 0.004991 -0.108637 0.048373 0.050236 0.066806 0.086298 0.014166 -0.045787 -0.059782 -0.005780  
0.074453 -0.061474 -0.027463 0.103054 -0.069396 0.125475 0.054656 -0.091981 -0.144451 -0.206641 -0.022535 -0.036557 -0.047223 -0.058612  
0.090797 -0.120825 0.108043 -0.108693 -0.136832 -0.000762 -0.029577 -0.007692 0.082982 0.059372 -0.011226 -0.049170 -0.061481 -0.033716  
-0.153776 0.057956 0.050782 0.089200 -0.023120 0.047213 -0.067549 -0.117902 -0.030507 0.093000 -0.046681 0.006949 -0.057443 -0.062659  
0.021240 -0.037874 -0.010773 0.119905 -0.074165 0.229829 -0.074786 -0.127509 0.014980 -0.130653 -0.001276 -0.020978 0.034917 0.019048  
0.017193 -0.160478 0.127531 -0.082379 -0.117646 -0.106913 0.056852 0.047421 0.077457 0.008667 -0.044266 0.010422 0.030094 -0.023531  
0.077257 0.134189 0.053642 0.105106 -0.079267 -0.119969 -0.309522 0.112728 0.095437 0.078674 -0.042995 -0.047624 -0.029146 0.004854  
-0.007623 -0.015394 0.045042 -0.091475 -0.050819 -0.097918 0.067969 -0.037229 0.029108 0.066344 -0.045462 -0.048726 -0.015438 -0.014216  
0.005922 0.033020 -0.002606 0.011872 -0.037338 0.071089 0.000782 -0.029594 -0.038363 -0.024339 0.039561 0.031563 0.037640 0.037680  
-0.070627 0.051113 -0.093840 -0.064207 0.236804 0.245809 -0.035639 0.043225 -0.009584 -0.351505 -0.044377 -0.021834 -0.031203 -0.043322  
-0.038594 -0.190179 0.033380 -0.129602 -0.006393 0.076642 -0.003346 -0.036216 0.104291 0.020185 -0.059592 0.000742 -0.032181 -0.022714  
-0.033453 0.021280 -0.046562 0.015465 0.002430 0.037113 0.004688 -0.006282 -0.012700 -0.034176 0.008018 0.013402 0.013957 0.005788  
-0.009642 0.078166 -0.238657 0.114584 0.006860 -0.017314 0.053234 -0.135378 0.181620 0.224877 -0.010675 0.014233 -0.030586 -0.023966  
-0.091504 -0.041386 -0.097736 -0.089955 -0.146748 -0.146082 -0.005924 -0.016281 -0.095057 0.233996 -0.029572 -0.062922 -0.040129 0.000928  
0.101243 0.020355 0.055378 -0.128166 -0.031926 -0.172059 0.007204 0.073794 0.087543 -0.164983 0.005442 -0.004007 -0.043698 -0.064306  
0.092851 -0.026237 0.062253 -0.093571 -0.090019 -0.080925 0.086099 -0.062032 -0.031230 -0.058867 -0.005243 -0.003351 -0.042678 -0.000888  
0.040044 0.155199 -0.015489 -0.202575 -0.060907 -0.014796 0.040328 -0.029538 -0.005666 -0.106069 0.007582 -0.034894 0.031857 0.042131  
-0.046506 0.169296 0.105660 -0.075088 -0.067873 0.011818 -0.048763 -0.073461 -0.092317 -0.076056 -0.043488 -0.027836 0.037527 0.043545  
-0.042925 -0.108020 0.027892 0.043435 -0.087403 0.052046 -0.195833 -0.086849 0.053290 0.054136 -0.045110 -0.060833 -0.023841 -0.068992  
-0.006284 0.024330 -0.065686 0.053388 0.042091 -0.112129 0.060899 0.074147 -0.077735 -0.109904 -0.019023 -0.000492 -0.053761 0.005952  
0.029335 0.076097 0.157856 -0.235524 0.129414 -0.160210 0.011471 -0.105220 0.232715 -0.091016 -0.004850 -0.047534 0.005462 -0.059100  
0.043014 -0.054509 -0.171159 -0.083311 0.065243 0.172222 -0.025176 0.036979 -0.078577 -0.018737 -0.027301 -0.035284 0.039765 0.014925  
-0.068948 0.155017 -0.143826 0.154886 -0.055845 -0.104831 -0.050410 0.049149 -0.182357 -0.035632 -0.052179 -0.040458 -0.003847 -0.017896  
-0.030378 0.071349 0.107039 0.116698 -0.154671 -0.126799 0.037043 -0.012394 -0.040747 0.097902 -0.049942 0.025821 -0.045725 -0.066425  
-0.069780 -0.039171 0.138933 -0.053143 -0.021575 0.018772 -0.008717 0.046327 -0.049067 -0.024645 0.004224 0.002069 0.003688 0.039299  
-0.081689 0.046083 0.039047 -0.131089 0.106190 -0.077915 0.117702 -0.039929 0.029281 -0.061991 -0.038412 -0.019295 -0.049804 -0.048032  
-0.039637 -0.088842 0.201086 0.163264 -0.009546 -0.050891 -0.156133 -0.141384 -0.126095 0.007003 -0.060073 0.028265 -0.059642 -0.032405  
0.000354 -0.081260 0.064505 -0.039796 -0.052070 0.024759 0.102917 -0.042313 -0.071319 -0.113203 0.011291 -0.032403 0.016441 -0.038951  
0.062232 0.040741 -0.191162 0.136159 -0.097251 -0.115955 -0.096672 0.041345 -0.163206 -0.023322 0.020418 -0.055087 0.009438 -0.015791  
0.004852 0.286658 -0.196391 -0.042799 0.025923 -0.061117 -0.040220 -0.065222 -0.189456 -0.016971 -0.018978 0.039410 -0.001752 -0.020082  
0.013230 0.043953 -0.047764 -0.029262 -0.004986 -0.169309 -0.010950 0.022186 0.100251 0.026628 0.023481 -0.041219 -0.049327 -0.003051  
0.012207 -0.074844 -0.053558 0.046617 -0.094992 0.088492 -0.102614 0.074533 -0.041772 -0.117599 0.034921 -0.015432 -0.015860 -0.027932  
0.007316 -0.037006 -0.068630 -0.034331 -0.041962 -0.006164 -0.031136 -0.071150 -0.039885 -0.024227 -0.029159 -0.041538 -0.056946 -0.062070  
-0.099507 -0.061841 -0.001064 0.052811 -0.027271 -0.070467 -0.012852 0.023899 0.018508 -0.074351 -0.064528 -0.047303 -0.068761 -0.061867  
0.019133 -0.017814 0.053234 -0.147470 0.042373 0.009532 0.078144 -0.002178 0.030208 0.098205 0.018917 -0.018661 -0.031857 0.007750  
-0.019219 0.013917 0.009759 -0.057466 -0.005782 -0.031594 0.002629 -0.026669 -0.090745 -0.075154 0.015242 -0.059765 -0.009783 -0.020944  
-0.056410 0.034161 0.034505 -0.042028 0.008052 -0.066017 -0.086153 -0.078868 0.120377 0.091044 -0.041582 -0.046133 -0.013553 -0.027011  
-0.201706 -0.032182 0.307890 -0.072831 -0.086735 0.145742 -0.080615 0.003053 -0.180117 -0.147871 0.011731 0.004439 -0.048196 -0.013747  
0.004730 -0.264799 0.002785 0.140156 -0.011508 -0.115057 0.168433 0.097945 0.165819 0.011505 -0.007386 -0.014639 -0.010600 -0.053535  
-0.001220 -0.117640 -0.126405 -0.149199 0.052340 0.059141 0.056752 -0.004813 0.145446 0.052043 -0.053216 -0.005022 -0.068111 -0.056302  
-0.071897 0.022447 -0.029808 0.079253 -0.029984 -0.061587 -0.071173 0.036471 0.043634 0.044615 0.029278 -0.054601 -0.043788 -0.016641  
0.005341 0.083779 -0.118305 -0.047610 0.012372 0.058153 -0.000178 -0.037323 -0.131397 -0.009512 -0.039938 -0.036151 -0.024847 0.028863  
-0.083601 0.003390 0.051811 -0.023328 0.024587 0.031967 0.105506 -0.086605 -0.039281 -0.099628 0.009251 0.004510 -0.012431 -0.043067  
0.000163 -0.018312 -0.150993 -0.079947 -0.267200 -0.085690 0.118832 -0.004423 0.154408 0.245447 0.008154 -0.049672 -0.056924 0.040462  
0.012946 0.200477 -0.037727 -0.132024 -0.031240 -0.031077 -0.078016 -0.063942 -0.123732 -0.053680 0.034056 0.011277 -0.000610 0.010433  
-0.028091 0.042792 -0.046565 -0.038148 -0.224265 -0.012157 0.105693 0.015070 -0.034021 0.113125 -0.012293 0.016126 -0.010359 0.022550  
0.070705 -0.079053 0.036323 -0.006578 0.036041 0.001528 -0.139607 -0.068436 -0.018690 0.080792 -0.002437 -0.013255 0.017966 0.008289  
0.033731 0.002764 -0.000495 0.024704 -0.040748 -0.005762 -0.054973 0.023240 0.002652 0.050650 -0.039779 -0.017871 -0.014673 0.037520  
0.034206 0.057526 -0.198525 0.033289 0.042371 -0.026101 0.025185 -0.143737 -0.034888 -0.018039 0.022886 0.000176 -0.003527 0.015463  
0.045495 -0.081643 0.015676 -0.056768 0.015993 -0.086933 -0.057016 0.123707 -0.217250 -0.071637 -0.017166 -0.018186 0.014337 -0.050332  
-0.089452 -0.174793 0.039526 -0.144801 0.155375 -0.145467 0.060121 -0.004045 -0.094952 0.074963 -0.049032 -0.039494 0.016963 -0.041825  
-0.043209 0.023952 -0.031520 -0.000988 0.028771 -0.033681 -0.070259 -0.008054 -0.023931 -0.168954 -0.074028 -0.063350 0.001948 -0.044584  
0.161348 0.121437 -0.175596 0.136555 -0.076923 -0.165051 -0.034999 -0.040887 0.130598 -0.042698 0.004725 0.007888 0.004369 -0.063729  
0.059352 -0.174181 -0.013759 0.143082 0.101245 0.065606 0.069852 -0.244876 0.135632 0.021951 -0.017241 -0.015741 -0.064724 -0.033822  
0.040282 -0.080994 -0.038958 0.025043 -0.031176 0.067521 -0.032015 0.052222 0.033474 0.052974 -0.002147 -0.058887 -0.060665 0.009482  
-0.004056 -0.027492 -0.103425 0.001539 -0.058343 -0.066704 0.031645 -0.027701 -0.073659 0.026174 0.008837 -0.046556 -0.069091 0.011368  
0.047559 0.038936 0.038252 -0.115687 -0.021359 -0.047364 0.012716 0.014358 0.019672 -0.029868 -0.041944 -0.045993 -0.042425 -0.031127  
0.100933 -0.033426 -0.073496 -0.003510 -0.034094 0.083288 0.001759 -0.018393 -0.160461 -0.099535 0.030763 -0.046734 -0.060331 0.021542  
0.064129 -0.079116 0.125034 -0.079963 -0.098798 0.038703 0.111548 -0.117024 -0.080623 -0.062610 -0.050103 0.018083 0.028646 -0.026992  
-0.049168 -0.041513 0.044695 -0.056989 -0.072734 0.129945 0.144457 -0.011225 -0.207318 -0.067968 0.037589 0.014797 0.044580 -0.035722  
0.155695 -0.026425 -0.152329 -0.009749 0.064254 0.034147 0.013778 -0.057144 0.102803 -0.078433 -0.044460 0.026172 -0.012353 -0.033288  
-0.015628 -0.011007 -0.101307 0.034635 -0.079299 -0.005377 -0.080415 0.108877 -0.092173 -0.196654 0.028350 -0.019660 -0.038078 0.013265  
-0.031916 0.033762 -0.053753 -0.123430 0.175548 -0.022614 0.239981 -0.137267 -0.164913 -0.101498 -0.027747 -0.052191 -0.065940 -0.018168  
-0.007935 -0.064877 0.010318 -0.022065 -0.031711 0.104804 -0.137995 0.061692 0.045408 -0.114894 -0.000182 0.042645 -0.039116 0.011224  
0.115752 -0.061780 -0.163567 -0.128500 0.011506 -0.011350 -0.031531 0.114264 -0.038940 -0.086373 -0.034648 -0.056868 -0.042767 0.006836  
-0.006746 -0.023546 -0.078936 -0.057858 -0.054054 0.022573 0.021153 0.014766 -0.027110 -0.027650 -0.008824 0.006799 -0.054053 0.017120  
0.020293 -0.209383 0.026496 0.096731 0.025583 0.057954 0.066692 -0.069077 -0.089807 0.031049 0.016936 -0.027510 -0.063228 -0.047128  
-0.092538 0.025790 0.084570 -0.036095 -0.007607 -0.037776 -0.022607 0.042936 0.078022 0.079091 -0.037772 0.019997 -0.023127 -0.046247  
0.090493 -0.028043 -0.068156 -0.005127 -0.107051 0.042898 0.002330 -0.070984 -0.074468 -0.055079 0.011918 0.019777 0.026362 0.033822  
-0.042068 0.005320 0.163256 0.113947 0.062773 -0.116645 -0.041097 -0.147439 0.022024 -0.193216 -0.005663 -0.021999 0.026879 -0.013896  
-0.082739 0.082837 0.123124 0.017647 -0.106116 -0.169604 -0.197570 0.089107 0.133782 0.232251 -0.036190 0.017816 0.015182 0.013209  
-0.062584 0.091274 0.073638 -0.035947 0.024645 -0.075209 -0.170777 -0.018436 0.141388 -0.045704 -0.050962 0.013614 -0.001141 -0.021303  
0.044926 -0.044537 0.095787 -0.043822 -0.111450 -0.086518 0.114835 -0.136115 0.047634 -0.040658 0.018875 0.019177 0.007371 -0.014078  
-0.039998 0.025763 -0.091416 -0.027949 0.040359 -0.005145 0.005854 -0.125280 0.105093 0.055233 -0.059089 -0.048421 0.011596 -0.015195  
0.090335 -0.068165 -0.083506 -0.039546 -0.162755 -0.033644 0.004183 0.047228 -0.112805 0.013242 -0.004887 -0.049825 -0.056494 -0.018326  
0.106762 -0.084437 -0.049177 0.125341 -0.144440 -0.045382 -0.136542 0.181753 -0.244311 -0.082408 -0.028747 -0.029549 0.022204 -0.004416  
-0.001369 0.019227 -0.093275 -0.057149 -0.185977 -0.042569 0.195096 -0.109884 0.042844 -0.111504 -0.025990 -0.052644 -0.009978 -0.046903  
-0.135908 -0.091791 0.075434 0.041004 0.135156 0.062495 0.174270 -0.188978 -0.058653 -0.085947 -0.046522 0.028977 -0.057073 -0.001928  
-0.061666 -0.070464 -0.054727 -0.015463 0.001872 -0.042120 0.008371 0.047901 -0.111154 -0.035388 -0.048356 -0.025586 0.029842 -0.059476  
0.037566 0.016888 -0.117078 -0.006732 0.052656 -0.014907 -0.009701 0.034412 -0.071593 0.058758 0.036232 0.034038 0.008310 -0.037314  
0.045237 -0.026141 -0.014335 0.256964 -0.096089 0.054005 -0.127341 -0.129036 -0.176385 0.026241 0.041366 -0.024068 -0.029495 0.017249  
-0.209717 -0.020057 -0.096130 0.231806 0.073620 0.173537 -0.181698 0.000269 -0.202509 -0.069729 -0.017526 -0.006900 -0.018676 -0.049228  
0.097628 -0.041353 0.074178 -0.237787 0.041097 0.210803 0.141988 -0.209728 0.234598 -0.236359 0.025492 -0.034404 -0.015683 0.025056  
0.008290 -0.155089 -0.139054 -0.083356 -0.028043 -0.026453 -0.113639 0.106168 0.023356 0.139519 -0.037419 -0.037334 -0.036739 0.028948  
-0.049338 0.011308 -0.104335 0.008732 0.120273 0.025950 -0.004107 0.065628 -0.157469 -0.088574 0.008284 0.026672 -0.008508 0.007297  
0.048871 -0.091410 -0.046076 -0.199477 0.176697 0.075874 0.006852 -0.174247 -0.024892 -0.070396 -0.004732 0.009582 0.026092 -0.023217  
0.005653 0.067322 0.199988 0.166512 -0.223236 -0.123475 -0.129876 -0.012057 0.007987 0.006771 0.023434 -0.009652 0.026876 0.020941  
0.100890 -0.032864 -0.050071 -0.124188 -0.034560 -0.088458 0.039641 -0.046493 0.029409 -0.102313 0.021522 -0.030957 -0.017818 -0.039268  
-0.186602 0.062816 -0.095701 0.079204 0.141251 -0.035949 -0.042354 0.061257 -0.218568 -0.182521 -0.008337 -0.016352 -0.017522 0.032343  
-0.042901 -0.064206 0.081868 0.167995 -0.059171 -0.094662 0.003884 0.151672 -0.089112 -0.149568 -0.048918 0.025556 0.028350 0.021075  
-0.000804 -0.094091 -0.015333 -0.047132 0.063180 0.061823 0.028543 0.055613 -0.018817 -0.040373 -0.034822 -0.050979 0.018990 0.008020  
0.015418 -0.118685 0.035350 -0.155006 0.073766 -0.015786 0.035461 0.043038 0.073317 -0.078800 -0.048250 0.024965 -0.030851 0.004843  
-0.027628 0.187369 -0.199947 -0.152623 -0.011645 0.351711 -0.103947 -0.117453 -0.108477 -0.141289 -0.018751 0.020632 -0.047497 -0.034253  
-0.060310 -0.013373 -0.129172 -0.046635 -0.032871 0.042570 -0.003310 -0.050717 -0.025979 0.042639 -0.038750 0.013881 0.001221 0.015964  
-0.105823 -0.088582 0.068400 -0.045559 0.193103 0.058206 -0.050408 -0.037322 0.113206 0.013540 -0.026033 -0.012529 -0.036593 -0.020259  
0.002514 -0.151673 -0.246899 -0.111672 0.143640 0.078519 0.155598 -0.077934 0.099574 0.176162 -0.032842 -0.016150 0.031532 -0.024825  
-0.152022 0.098603 0.091091 -0.153163 -0.090002 -0.072277 0.039328 0.134788 0.182535 0.075933 0.030090 -0.038785 -0.008432 -0.015195  
-0.015532 0.054351 0.034565 0.118604 0.007028 -0.099207 -0.046975 -0.039824 0.008690 0.013763 0.029108 -0.007694 -0.030643 0.000246  
-0.033765 -0.046013 -0.023730 -0.003754 -0.018714 -0.037256 -0.081227 -0.038719 -0.045119 -0.032938 -0.031018 -0.032949 -0.003962 -0.014293  
0.021257 -0.098767 0.041036 0.072576 -0.268933 -0.071874 0.229421 -0.166334 -0.298921 -0.116990 0.004755 -0.045329 -0.059655 -0.019789  
0.075535 -0.023719 0.296499 -0.127345 0.066395 0.000398 -0.033207 -0.098730 -0.110705 -0.174733 0.008165 -0.020332 -0.007672 -0.019781  
-0.060517 0.003350 -0.049539 0.010781 -0.005256 -0.227166 0.058967 0.060829 0.058546 0.071255 -0.065375 -0.060511 0.025382 -0.010466  
-0.022785 0.150748 -0.127775 -0.084363 -0.091311 0.081433 0.050729 0.089587 -0.159543 0.049957 -0.017700 0.023020 -0.035808 -0.036847  
0.213020 -0.176429 0.172165 0.132332 -0.163000 0.090046 -0.304045 -0.144152 0.318138 -0.181183 0.006669 -0.041873 -0.026189 0.009779  
-0.015129 -0.010997 0.088317 -0.173713 -0.054924 0.039520 0.049497 0.082115 -0.032960 -0.125958 -0.030761 0.035084 0.004149 0.022237  
0.035775 -0.010511 -0.121607 0.160027 -0.246719 0.139955 -0.219661 0.179912 -0.218147 -0.119383 -0.051845 -0.017749 -0.045760 -0.032948  
-0.036321 -0.009959 -0.038179 -0.016970 0.086020 0.205483 -0.046904 0.022833 -0.027244 -0.197038 -0.037989 0.005410 0.016389 0.032455  
0.153090 -0.109746 0.203501 0.217866 -0.136661 -0.141035 -0.161705 0.134696 -0.080071 -0.133756 -0.050492 -0.001179 0.037825 -0.001731  
0.126139 -0.105648 -0.225114 -0.262985 0.081367 0.235173 0.095172 -0.052777 0.060534 -0.025228 0.013940 -0.055587 -0.026484 -0.016840  
-0.153148 0.033819 0.220144 -0.012617 -0.058660 0.057425 -0.116515 0.091939 -0.000955 -0.170928 -0.041218 -0.052306 -0.055816 -0.055559  
-0.204189 0.140513 0.102772 0.037082 0.074546 -0.069611 -0.030056 -0.178009 0.094999 -0.010317 -0.025999 0.031821 0.018264 0.019444  
-0.050121 0.056307 -0.183158 0.135837 -0.062822 0.218869 -0.005226 -0.006833 -0.226421 -0.013016 -0.029290 0.034553 0.004091 0.014476  
-0.073696 -0.027733 -0.159062 0.025734 0.076320 0.153455 -0.003244 -0.049185 -0.121722 0.097345 -0.035413 0.015142 -0.026504 -0.056228  
-0.002178 0.028918 0.026756 -0.031852 0.204399 0.015548 0.002313 -0.085848 -0.039543 -0.055673 0.005955 0.029210 0.012023 0.021976  
-0.091359 0.043886 -0.175645 -0.087702 -0.085699 0.108668 -0.073608 0.042124 -0.063857 0.139269 0.015382 -0.034065 -0.063115 -0.033082  
0.020196 -0.137249 0.174441 -0.166652 -0.163836 0.087675 -0.080928 0.049365 0.157887 0.030958 -0.000156 0.014948 -0.025664 -0.063590  
-0.105156 -0.012242 -0.082699 0.187522 0.141039 0.021011 -0.105786 0.024109 -0.155857 0.026350 -0.050599 -0.024948 -0.028279 -0.003535  
0.046905 -0.188018 -0.221471 -0.139525 0.156629 0.069936 0.124789 -0.001924 0.241825 0.030597 -0.020327 -0.042285 -0.032409 0.019978  
0.075809 -0.171332 0.019761 0.093356 -0.241494 0.196902 -0.079406 0.033578 -0.219297 -0.008910 0.027052 -0.007594 -0.022237 -0.012029  
-0.129426 0.106133 0.014190 0.265361 -0.005846 -0.004421 -0.044224 -0.051406 -0.044800 -0.067007 -0.041054 0.022392 -0.004109 0.019224  
-0.085776 0.092415 -0.059000 0.080827 0.246691 0.058230 -0.028999 -0.051144 -0.161410 -0.219260 0.009188 0.039604 -0.043869 0.040119  
