-0.005706 0.003171 0.005286 0.010079 -0.057914 0.023416 0.029303 0.017472 0.027095 0.020748 -0.011043 -0.008478 -0.040967 0.041040  
-0.024646 -0.039114 0.036384 0.004624 -0.058067 -0.020109 -0.049198 0.038233 0.013177 0.001306 -0.060618 0.052187 0.040960 -0.109075  
-0.016918 0.021136 0.001723 -0.045338 0.039461 -0.007696 0.034643 0.020562 0.004612 -0.046521 0.088062 -0.067536 -0.070736 0.027019  
-0.019389 -0.042875 -0.043599 0.008919 0.016710 0.030988 0.005225 0.037292 -0.034969 0.037426 -0.011844 0.046113 0.028783 -0.006255  
0.004453 0.012653 -0.060593 0.017030 -0.064852 -0.067010 -0.058423 -0.033066 0.007394 -0.064996 -0.036957 -0.051809 -0.058025 0.056920  
-0.000155 0.016753 -0.001179 -0.004841 0.018590 -0.018215 0.029932 0.031761 -0.031784 0.007483 0.069098 -0.053883 -0.029215 0.063013  
0.017255 0.006887 -0.029900 0.043821 0.016873 -0.040079 -0.004480 -0.044915 -0.034409 0.001068 -0.056489 -0.061504 -0.053641 0.108212  
-0.048273 0.004429 -0.061142 -0.001057 0.004066 -0.049668 -0.047536 -0.058829 -0.065686 0.008003 -0.064710 -0.004971 0.068753 0.057830  
0.025908 0.026742 0.011207 0.045850 0.011678 -0.052003 0.000230 -0.023922 0.033555 0.006516 0.043878 -0.036940 -0.002039 0.011210  
-0.051099 -0.049606 0.029242 0.007097 0.020199 -0.042701 -0.017146 -0.013537 0.007690 0.017388 0.044063 -0.009191 -0.035201 -0.001462  
-0.037895 0.004237 -0.046979 0.021998 0.013425 0.025683 -0.038710 0.028980 -0.038726 -0.014942 0.023386 -0.000153 -0.016096 0.014226  
0.008731 -0.015766 -0.045161 0.015494 -0.016344 -0.010299 0.008518 0.036385 -0.004232 -0.002588 -0.049445 0.068123 0.020504 -0.060331  
-0.022614 -0.048919 0.026916 -0.004309 -0.029269 0.015402 -0.027929 -0.033339 -0.033371 -0.024610 0.056242 -0.069849 -0.026657 0.061430  
0.004782 -0.024224 -0.034768 0.015463 -0.013413 0.000563 0.006092 -0.027335 0.012469 -0.035067 0.025718 0.029567 0.031850 -0.061502  
-0.016944 -0.028543 -0.052562 0.022695 -0.005104 0.003829 -0.021100 0.019279 -0.005626 -0.012034 0.015103 -0.072703 -0.007236 0.062356  
-0.046402 0.003296 -0.058618 -0.032529 0.017262 -0.044636 -0.036567 -0.016944 -0.056293 0.028054 -0.060574 0.053232 -0.063890 0.059418  
0.005640 -0.028766 0.026231 -0.029949 -0.055225 0.010373 0.025803 -0.019114 -0.028070 -0.027828 0.027830 -0.119768 -0.030158 0.064342  
-0.010190 -0.045133 -0.038677 0.035305 0.030708 -0.034673 0.004666 0.010673 0.006144 0.033617 0.012008 -0.069854 -0.001147 -0.008684  
-0.045125 -0.053404 -0.019783 0.024165 0.008760 -0.013788 0.015234 0.001904 -0.040030 -0.042587 0.101530 0.016554 -0.032278 -0.036916  
-0.028884 -0.066372 -0.005553 -0.047126 -0.059008 0.005068 -0.052986 -0.073608 -0.054441 0.021914 -0.046223 0.001203 -0.018010 -0.008336  
0.013588 0.026440 -0.002454 -0.014826 -0.007629 -0.023504 -0.029365 -0.016382 -0.048487 -0.037750 -0.064835 -0.029954 0.107123 -0.020632  
-0.005472 -0.054147 -0.000973 0.015578 -0.047795 0.010346 -0.011338 0.011695 0.017786 -0.059572 -0.051900 0.100153 -0.044895 0.096408  
-0.048202 -0.038519 0.041233 0.014873 -0.033137 0.020757 -0.045312 0.018052 0.000782 0.027198 0.004825 -0.023397 -0.046338 0.001210  
-0.024073 -0.034162 -0.051008 -0.027705 0.022148 0.008610 0.000685 -0.049067 0.027315 -0.013044 -0.041793 0.002761 -0.064998 0.047781  
0.034205 0.032864 -0.009896 0.019078 0.016575 0.029995 -0.031635 -0.018308 0.033965 -0.000478 -0.002901 -0.023433 0.038148 -0.020922  
0.036257 0.037809 0.019932 0.002594 0.006099 -0.018821 -0.001412 0.019980 0.015496 0.021024 0.034061 -0.052313 0.007082 -0.055929  
-0.046722 -0.015626 -0.017333 -0.034528 0.019150 -0.030344 0.027025 0.031260 0.002997 -0.060123 -0.055863 0.074593 -0.063697 -0.092454  
0.030795 -0.001500 -0.046065 0.043038 -0.035177 -0.003546 -0.002692 -0.022638 -0.034478 -0.022291 -0.002206 -0.003984 -0.036546 0.043196  
-0.051421 0.029908 -0.052741 -0.026456 -0.020986 -0.017709 -0.051332 -0.011143 0.002005 -0.018578 -0.039297 0.041359 -0.016560 -0.007602  
-0.058243 0.029145 0.024377 0.024738 0.010364 0.029297 -0.044830 0.013610 0.008091 0.001810 0.028240 0.000640 -0.091042 0.055855  
-0.024165 -0.013556 -0.050162 0.037541 -0.006410 0.041789 0.021145 -0.022645 0.032613 0.033942 0.014613 -0.037603 -0.056402 0.065338  
0.019034 -0.008792 -0.034898 -0.024150 -0.000911 -0.026262 -0.048453 0.014113 -0.007893 -0.005666 -0.054962 0.047796 0.002664 0.051432  
-0.053602 -0.025900 0.027537 -0.003276 -0.058503 -0.037702 0.034969 -0.052362 0.002361 0.005969 0.020729 -0.048567 0.054312 -0.035349  
-0.060490 0.001133 -0.008819 -0.026186 -0.002392 -0.048902 -0.011983 0.000519 -0.060250 0.011668 -0.002582 -0.039393 0.005734 -0.035834  
0.010057 0.012399 0.009397 -0.036688 0.039456 -0.006070 0.012313 -0.026877 0.012935 -0.041625 -0.014162 0.011639 -0.015711 -0.008410  
-0.033413 0.014986 -0.014899 -0.003417 -0.020589 -0.001927 -0.032106 -0.053706 -0.045501 -0.023600 0.037084 0.041753 -0.046142 -0.060997  
0.004571 -0.036767 -0.031947 0.018875 -0.007607 -0.055160 -0.029186 -0.031456 -0.029457 0.016596 0.013289 0.010977 -0.089239 0.033991  
0.010968 0.017801 -0.037717 0.025303 0.030525 -0.026958 0.029967 0.006255 -0.003083 -0.012709 -0.063409 0.108731 -0.015617 -0.057950  
0.019180 0.036543 -0.020911 -0.046947 -0.053777 -0.063374 0.032441 -0.050010 -0.023410 0.000625 -0.078092 -0.000370 0.019699 0.055455  
0.029863 0.001470 -0.023745 0.033348 -0.045859 0.017877 0.035733 -0.011775 0.031813 0.008259 0.020697 0.077132 0.049067 -0.093301  
-0.044869 0.003855 -0.050846 -0.068537 -0.055396 0.019247 0.015707 -0.001855 -0.036792 -0.059521 0.026135 0.004213 -0.049032 0.011139  
-0.046891 -0.026156 -0.003520 -0.017712 -0.014798 0.027079 -0.001140 0.021808 -0.010038 0.013331 0.040963 0.037578 -0.039494 -0.028968  
-0.060006 -0.060935 0.014618 -0.044165 -0.046814 -0.063092 -0.010886 -0.067663 -0.067225 -0.038373 0.021256 0.037769 0.012763 -0.053228  
0.017538 -0.032418 -0.033779 -0.007641 -0.008639 -0.023124 -0.010569 -0.014615 -0.013941 0.004748 -0.023387 -0.001203 0.094184 -0.052744  
0.027304 -0.019918 0.038074 -0.035773 0.030152 0.008591 -0.048168 -0.034694 -0.052705 -0.018190 -0.004782 -0.075477 0.081229 -0.067533  
-0.002352 -0.049778 -0.031945 0.022848 0.039818 0.007869 0.037433 0.046085 0.040972 0.041047 -0.049600 0.024884 0.001615 0.002329  
0.021448 -0.017984 0.038356 0.003623 -0.041998 0.040047 -0.016924 0.032870 0.038460 -0.016009 -0.003255 0.001742 -0.012787 -0.029674  
0.035133 -0.030106 0.002321 0.016770 0.028473 -0.028607 0.049157 0.044351 -0.030591 -0.040021 0.007204 -0.040716 -0.011507 -0.025544  
-0.043127 -0.052481 0.004594 -0.008714 -0.027602 -0.046106 -0.058163 -0.016260 0.018449 -0.058644 0.005864 0.098923 -0.050971 -0.028168  
0.037141 -0.037681 0.022081 0.039342 -0.031483 -0.036755 -0.026338 -0.034967 -0.001627 0.015833 -0.092076 0.036971 -0.010202 -0.039818  
0.014013 -0.045693 -0.048126 -0.048910 0.006318 -0.035048 -0.021119 -0.058581 -0.000505 -0.030301 0.029226 0.052516 -0.033131 -0.080770  
-0.046910 0.020451 -0.066084 0.026740 -0.010649 -0.025886 -0.051604 0.021714 -0.016197 0.003751 0.022452 0.002577 0.023910 -0.036359  
0.006441 0.038054 0.012913 0.025911 0.018702 -0.035843 -0.039307 0.044581 -0.031451 -0.048299 0.010228 0.013041 0.039122 0.029246  
-0.012206 -0.062272 -0.063679 -0.052208 -0.030871 -0.067871 -0.022995 0.024189 0.013482 -0.062550 -0.051087 0.017918 0.025450 0.003369  
-0.057408 -0.044570 -0.020754 0.024346 0.029071 -0.037626 0.006285 -0.053174 -0.022675 -0.003095 -0.015675 -0.044981 0.001688 -0.033891  
0.038312 -0.009128 0.039919 -0.007058 0.013656 0.013253 0.006012 -0.041104 0.043896 -0.022184 0.045252 0.017627 0.027340 0.046737  
-0.009831 0.010076 -0.054195 0.029433 -0.048256 0.019856 -0.015187 0.031296 -0.032126 -0.049972 -0.057998 -0.004958 0.062746 0.044636  
-0.005121 -0.012500 0.038567 0.017339 0.025241 -0.003020 -0.046313 -0.017361 -0.007491 -0.045450 0.023029 0.012974 0.019644 -0.064916  
0.003946 -0.040692 0.005358 -0.043122 -0.039129 -0.068488 -0.067197 -0.054652 -0.025870 -0.024029 -0.025362 -0.026386 0.008015 -0.065273  
-0.040860 -0.047526 -0.020768 -0.022749 -0.059339 -0.028277 0.004812 -0.052896 -0.024017 -0.031441 -0.009566 0.049227 -0.035474 -0.056893  
-0.011347 0.027702 0.030208 -0.031924 0.007229 -0.059416 -0.043132 -0.055753 -0.017696 -0.036635 -0.023160 0.074381 -0.067153 0.058527  
0.001785 0.012757 0.039005 0.008136 0.036817 0.034315 0.007014 -0.044551 -0.021728 0.030876 -0.009053 0.065903 -0.036510 0.007420  
-0.041258 -0.028336 -0.043321 -0.062297 -0.037848 -0.035972 -0.022033 0.000686 -0.062383 -0.038857 0.014624 -0.038897 -0.034336 -0.001925  
-0.003665 0.011584 -0.033033 0.018892 -0.021698 -0.006643 0.008988 0.037090 -0.004519 -0.035494 -0.064471 0.021838 -0.034726 -0.051780  
-0.044806 -0.021377 -0.009028 -0.013696 -0.051518 -0.056517 -0.047508 -0.013491 -0.041218 0.028720 0.020560 -0.042442 0.000003 0.033971  
0.030515 -0.005559 0.033092 0.032581 -0.041374 0.001426 -0.041947 0.022295 0.041538 0.030589 0.006497 0.085740 0.028263 0.031359  
-0.017452 0.022852 0.006578 -0.056696 0.034484 -0.004720 -0.037247 -0.047027 0.017042 0.006381 0.024210 0.059322 -0.081023 -0.019465  
0.033002 -0.050593 -0.055026 0.000138 0.022289 0.033565 -0.030822 -0.044865 0.024050 -0.028470 -0.021200 -0.020696 0.083009 -0.080744  
-0.034428 -0.057179 -0.042735 -0.055430 -0.004182 0.008573 0.032559 0.023151 -0.000542 -0.028313 -0.016597 -0.006008 -0.000077 0.045439  
-0.016054 -0.053978 -0.053492 0.008052 -0.054286 -0.039667 0.020831 -0.021789 -0.022592 0.001424 -0.114533 0.016893 0.066698 0.040130  
0.020628 -0.039310 -0.058688 -0.008076 0.024599 -0.059930 -0.057626 0.005734 -0.049252 -0.017097 0.013145 0.038247 -0.020463 -0.086351  
0.028373 -0.043847 -0.016004 0.036782 0.007192 0.030146 -0.044997 -0.028685 0.004758 -0.041762 0.092716 -0.046342 0.013810 -0.048859  
-0.066693 -0.014016 0.009581 -0.050509 -0.028634 0.011854 0.004745 0.005942 0.013697 -0.012381 -0.058743 -0.018751 -0.001723 -0.001323  
-0.048844 0.036492 0.037519 -0.042777 0.000508 -0.012341 -0.012504 0.016868 -0.038451 0.024703 0.082996 -0.079515 -0.046611 -0.016458  
0.005462 -0.061422 0.005969 -0.010509 -0.004106 -0.012772 0.020166 -0.041312 -0.021304 -0.068027 -0.037078 -0.026973 -0.040638 -0.026811  
-0.000275 -0.049866 -0.017264 -0.021852 -0.039170 -0.043046 -0.028999 -0.044959 -0.014447 -0.033809 -0.030866 0.049068 0.046296 -0.130977  
0.019080 -0.050356 0.001901 -0.032447 -0.024949 -0.031542 0.015343 0.004638 -0.022808 0.038982 -0.020563 0.041827 -0.026379 0.011340  
-0.025232 -0.031800 -0.022297 -0.023179 -0.016605 -0.022407 -0.056011 -0.039765 0.033885 0.032234 0.042113 -0.089371 0.030632 -0.003481  
-0.055089 -0.070763 -0.005533 0.014811 -0.008155 -0.020840 -0.006869 -0.033755 -0.039827 0.021362 -0.069056 0.037602 -0.018374 0.006123  
-0.020287 0.011562 -0.049059 -0.051679 0.016718 0.039028 0.013279 -0.006561 -0.056335 0.010931 -0.141546 0.057562 0.087764 -0.104520  
-0.014973 -0.049281 0.008063 -0.010829 0.005043 -0.003246 -0.003120 -0.016863 0.027611 -0.012140 0.050683 0.023364 -0.035078 0.018120  
-0.001545 -0.029019 -0.061996 -0.043655 -0.016954 0.004563 -0.004231 -0.012132 0.010796 0.021318 -0.110427 0.039097 0.018018 0.012752  
0.025032 -0.011830 0.025676 0.031830 -0.001554 -0.046684 -0.033614 -0.002934 -0.028971 -0.040795 0.021732 -0.008900 0.066972 -0.047675  
-0.043488 0.019150 -0.009889 0.003035 0.036806 -0.062053 -0.054730 -0.045500 0.011592 0.022996 0.089153 -0.068573 -0.057650 0.041420  
0.016607 0.007781 -0.025037 -0.041553 -0.039265 -0.036884 -0.035793 -0.011236 0.002468 -0.051321 -0.017604 -0.046427 0.020707 0.021474  
-0.000879 -0.052981 -0.016592 -0.003877 0.028963 0.029557 0.021617 0.031206 -0.002172 -0.022241 -0.034713 0.020975 0.048319 0.062637  
0.007966 0.034152 -0.052849 0.031112 -0.027522 -0.023171 0.040766 0.016983 0.022996 -0.002879 -0.032349 -0.020504 0.031615 -0.045013  
-0.042021 -0.007400 -0.010340 0.006184 -0.022819 0.010470 -0.025689 0.005833 -0.052565 0.013504 -0.043611 -0.074442 -0.014698 0.006045  
-0.018370 0.035047 -0.031833 -0.050924 -0.000408 -0.020728 -0.062156 0.013611 -0.007219 -0.047600 -0.070210 0.057638 0.030868 0.016652  
-0.043145 -0.028261 -0.006142 -0.034920 -0.016772 -0.063401 -0.056599 0.023214 -0.001885 -0.048999 -0.063437 0.028730 -0.050964 0.019442  
0.012356 -0.002746 0.012651 -0.055674 0.034024 0.002091 -0.015686 -0.046740 0.029480 0.012274 0.034145 -0.023922 0.023342 -0.035143  
0.016723 -0.032871 0.011368 -0.000164 0.017724 -0.039014 -0.048553 -0.039821 -0.007873 0.011725 -0.075891 0.048369 -0.010478 -0.000260  
-0.003625 0.024626 0.036821 0.008239 -0.015886 -0.037170 0.019199 0.010726 0.029421 -0.012861 0.002039 0.070028 0.041346 -0.032763  
-0.026674 0.034215 -0.043045 0.042959 -0.029047 0.033728 0.017006 0.024534 0.041279 0.034535 -0.006804 0.002012 0.012365 0.001520  
-0.065334 0.020500 -0.026561 -0.020817 -0.026562 0.014908 -0.023357 0.024617 -0.028167 -0.030150 -0.004698 0.050696 -0.072563 0.031863  
0.036585 -0.005895 0.008548 -0.000798 -0.053037 -0.049095 -0.003465 0.044774 -0.002566 -0.045198 0.043890 -0.050973 0.002176 0.022357  
-0.035950 0.035470 -0.026726 0.011678 -0.047005 -0.053046 -0.056778 0.033036 -0.004361 -0.028999 0.096254 0.030922 -0.042342 -0.072160  
-0.002245 -0.003219 -0.022007 -0.053011 0.005457 0.023229 -0.051374 0.014486 -0.002590 0.005454 0.073731 0.002785 -0.017199 -0.020310  
0.013155 -0.030057 -0.022084 -0.013848 -0.041786 -0.056790 0.021663 -0.061442 -0.046172 0.010933 -0.010398 0.036744 0.027657 -0.067617  
-0.052269 -0.048390 0.011364 0.005438 -0.004961 0.031568 -0.053074 -0.010135 0.026925 0.009805 0.074966 -0.035711 -0.073524 0.010270  
-0.013695 0.038699 -0.014489 0.018651 0.003919 -0.052232 -0.005792 0.014985 0.006185 -0.058329 -0.015724 0.006824 -0.032742 0.084073  
-0.032691 -0.037142 -0.005425 -0.013223 -0.045862 -0.012377 0.023970 -0.006268 0.004112 0.015846 0.007633 0.038079 -0.092800 0.009581  
0.015826 -0.046668 0.046820 0.019155 0.043937 0.010294 -0.027495 0.013419 0.005389 0.034035 -0.023772 -0.038826 0.031549 0.009388  
-0.041589 -0.036919 -0.042152 0.020725 -0.008578 -0.024108 0.018353 -0.037608 -0.016532 0.015640 0.043269 -0.012002 0.040436 -0.080720  
-0.012711 -0.003513 -0.020173 0.024202 0.007671 -0.046537 -0.033545 0.029581 -0.063101 -0.041596 -0.051994 -0.041122 0.017967 0.031591  
-0.033982 -0.025013 0.021730 -0.023929 -0.049310 -0.013083 -0.055760 -0.053051 -0.020761 0.000740 -0.036126 0.049003 0.025788 -0.025386  
0.040913 -0.025206 -0.040963 -0.041476 0.032506 -0.002190 -0.033793 0.033174 0.038391 0.022910 -0.027875 -0.019028 0.077170 -0.058350  
-0.033053 -0.049314 -0.068312 -0.016399 0.026416 0.017207 0.006788 -0.021371 0.012194 0.008816 0.008726 0.011143 0.029124 -0.053685  
-0.032799 -0.021602 -0.044877 -0.008059 -0.028708 -0.039570 0.032591 -0.025873 -0.029133 -0.011897 -0.028525 -0.069380 -0.014016 0.040183  
-0.054038 -0.040915 -0.049057 0.005120 -0.052206 -0.014061 0.023776 0.004763 -0.032575 -0.051116 0.040497 0.042311 -0.085241 -0.062374  
0.026003 -0.034210 0.016112 0.024465 -0.046616 -0.030910 0.036325 -0.028860 -0.023159 -0.017219 0.003190 0.020819 -0.041927 -0.029385  
0.011478 -0.015436 -0.044576 0.033448 0.029604 -0.045630 -0.055754 -0.024956 0.002498 -0.004882 -0.079942 0.045925 -0.029101 0.091186  
0.001389 0.024090 -0.003970 -0.037030 -0.042225 0.036900 0.014745 -0.024136 -0.054544 -0.024567 0.077428 -0.063435 0.010066 -0.080482  
-0.002792 -0.034781 0.014042 0.030419 -0.026876 0.036430 -0.058751 0.023849 -0.007032 0.030767 0.001243 0.051450 0.017818 0.020525  
-0.024920 0.021902 0.011169 0.043379 0.022798 0.039967 0.044658 -0.001196 -0.036006 0.019770 0.043465 0.022047 0.055517 -0.017604  
-0.043879 -0.004385 0.009440 0.037736 -0.030052 0.008020 0.037819 -0.049293 0.014254 -0.019585 0.005743 0.053804 -0.023819 -0.038898  
0.009156 -0.025677 0.032918 0.029387 -0.028289 -0.024153 0.042213 -0.052508 -0.031847 0.003891 -0.068908 0.098346 0.049304 0.007098  
0.016011 -0.043569 -0.023467 0.018956 -0.052429 -0.047899 -0.026865 0.034712 -0.012785 -0.020778 -0.048155 0.019256 0.059923 -0.013950  
-0.058271 -0.003834 0.024433 -0.000212 -0.052817 0.001287 0.018508 -0.030927 -0.009125 0.009832 -0.043148 0.021927 0.058879 -0.097136  
0.008939 -0.017693 0.030317 -0.042811 -0.016112 -0.012859 -0.004820 0.025276 0.008751 -0.034882 0.081085 0.023338 -0.036935 -0.054723  
0.011953 -0.062736 0.020807 -0.045124 -0.010126 -0.025483 -0.062987 -0.015321 -0.055412 0.011332 0.046130 0.026249 0.001647 -0.016709  
-0.018200 -0.054835 -0.038037 -0.039946 -0.046116 -0.020843 -0.069978 0.001966 -0.035509 0.024479 -0.001801 -0.049124 -0.041240 -0.053072  
0.027164 -0.010088 -0.020027 -0.053044 -0.053663 0.025396 -0.062251 -0.004997 -0.037643 0.010884 0.043556 -0.008776 0.005153 -0.033221  
0.032121 -0.007482 0.020897 -0.020632 -0.038337 -0.005138 -0.026859 -0.011512 0.027729 -0.021052 0.033488 0.051647 -0.067742 -0.075905  
-0.073889 0.013580 -0.022479 -0.028508 -0.034978 -0.043644 -0.054526 -0.065530 -0.067680 -0.024565 -0.058132 0.053399 0.015457 0.000494  
-0.062404 -0.043416 -0.063638 -0.050183 0.025284 -0.019841 0.021636 -0.011077 -0.008644 -0.064383 -0.049502 0.028388 -0.004157 0.026616  
-0.055521 0.009331 -0.026047 -0.034130 -0.033877 0.003318 0.028927 0.004567 -0.029501 0.027611 0.061203 -0.002244 -0.016127 0.024773  
0.005462 -0.008891 -0.011479 -0.006232 -0.020398 -0.017885 -0.010544 -0.017187 -0.049271 -0.017854 -0.079836 -0.027134 0.063525 -0.024044  
-0.007195 -0.020370 -0.023208 -0.014462 -0.002037 0.031454 0.020343 -0.056381 -0.027240 -0.030839 0.046248 -0.094578 0.045188 -0.067740  
-0.009499 0.014390 -0.014105 0.025604 0.006008 0.000802 0.030156 0.021740 0.001684 -0.057400 0.045578 -0.085618 -0.020215 -0.024439  
-0.033003 0.025125 -0.030285 -0.036779 -0.050299 -0.028772 -0.029990 -0.032015 0.025883 0.017587 -0.111447 0.041249 0.006239 0.003342  
-0.026417 0.002095 0.027437 -0.006737 -0.051676 -0.029148 -0.007442 -0.014513 -0.052758 -0.054854 -0.068494 0.012439 -0.049338 0.040385  
0.026771 -0.059156 -0.037220 0.013530 0.017390 -0.019474 -0.043561 0.000020 -0.055523 0.015708 0.099339 -0.069448 0.032749 -0.012877  
0.020214 -0.053793 -0.006675 -0.038616 -0.008568 0.007489 -0.054876 -0.042783 0.006389 0.032669 -0.018623 0.063401 -0.083168 0.030407  
0.005060 -0.056874 0.002278 0.004837 -0.052440 -0.012641 0.001075 -0.050777 0.004395 -0.052904 -0.011714 -0.043804 -0.032268 -0.022316  
0.006953 -0.016380 -0.037211 -0.063293 -0.012728 -0.047049 -0.024278 -0.004196 -0.053917 -0.026803 -0.014276 0.030860 0.023304 -0.022768  
-0.007001 0.010135 0.016032 0.040315 -0.035427 0.015534 -0.014799 -0.007816 -0.028494 0.015723 0.016417 -0.048907 0.062147 -0.095867  
0.029361 0.030380 0.032686 -0.041451 0.046151 -0.035058 -0.021324 0.043561 0.033326 0.036982 -0.006432 0.026232 -0.017947 -0.038162  
-0.004812 -0.023140 -0.001886 0.000355 -0.015087 -0.038354 -0.008755 -0.017350 0.016997 0.026148 -0.086098 -0.045374 0.002738 0.059590  
-0.060764 -0.045169 -0.020030 -0.025963 -0.004237 0.026645 -0.044598 -0.005529 -0.043621 -0.038090 -0.024514 0.068655 -0.044047 -0.051024  
-0.028305 -0.019514 0.033954 -0.047464 -0.033918 -0.016372 0.016743 -0.016934 0.004399 0.038108 -0.011085 0.061640 -0.046198 0.003395  
0.039166 0.006690 0.007353 -0.041421 -0.050851 0.019189 0.006604 0.009522 -0.051608 -0.036634 0.034677 -0.065774 0.034967 -0.016487  
0.015365 0.029447 0.017937 -0.018882 0.019183 -0.031850 -0.028993 0.041827 0.029493 0.020875 0.057119 0.006675 0.042315 0.013959  
0.029806 0.022472 -0.018417 -0.012537 0.021827 -0.065531 0.018532 -0.055157 -0.034729 0.033061 0.050010 -0.062272 -0.015661 -0.002192  
-0.041464 0.026135 0.033425 0.015988 -0.007894 0.014018 -0.008824 0.005398 -0.028221 -0.005674 0.075539 0.075514 0.032921 -0.049978  
0.022863 -0.024118 0.026664 -0.028863 -0.041822 0.034958 0.035775 0.030196 -0.015040 -0.034403 0.029817 -0.027730 0.029008 -0.041158  
-0.011907 -0.043546 -0.056991 0.019505 0.029177 0.001309 0.029810 -0.061698 -0.025482 0.021527 0.010767 -0.037797 -0.066214 -0.034790  
0.024356 -0.052495 -0.005716 0.004112 -0.038750 -0.047599 -0.060523 -0.027959 -0.048426 0.018089 0.050634 -0.051422 -0.048495 0.052411  
-0.036962 0.005561 0.025541 0.025372 -0.052968 0.031198 0.032485 -0.004635 -0.002016 -0.030503 -0.072117 0.089037 -0.068194 0.004124  
-0.014675 0.031064 0.005615 0.037980 0.005839 0.001351 -0.034941 0.038887 -0.041629 0.019709 0.002816 -0.069973 -0.034311 0.017485  
-0.044846 -0.046868 -0.051556 0.008174 -0.029225 0.014725 -0.033257 -0.028665 -0.056276 -0.053671 -0.025455 0.074894 0.016712 -0.036529  
-0.055375 -0.033402 -0.011501 0.021394 0.028297 -0.000007 -0.005068 0.005460 0.016120 0.029753 0.059770 0.019954 -0.053132 -0.079609  
-0.016568 0.002360 0.005904 -0.009636 0.029261 0.013242 -0.010608 -0.009093 -0.059121 -0.031471 -0.004578 -0.047187 -0.002816 0.102270  
-0.049796 0.017074 0.004868 0.000109 -0.024478 0.010766 -0.037616 -0.009114 0.012828 -0.019590 0.026288 0.025792 -0.029698 -0.056087  
0.043157 0.039912 0.039621 0.027746 -0.001156 0.026116 -0.016854 0.028947 -0.008211 -0.055068 -0.089648 -0.001662 -0.001149 -0.045572  
0.029653 -0.026463 -0.006658 -0.031405 -0.021604 -0.060534 -0.041273 -0.001627 -0.007202 0.018044 0.003090 0.075140 -0.061876 -0.027354  
-0.004367 -0.020416 -0.014113 -0.052899 -0.042648 -0.029426 -0.038685 0.001469 -0.047053 -0.054052 -0.011005 -0.033411 -0.026683 0.024465  
0.034595 -0.058394 -0.035474 -0.052391 0.002553 -0.029755 -0.013891 -0.006489 -0.003832 -0.028640 0.030393 -0.059257 -0.005763 0.035778  
-0.011694 -0.040943 -0.051708 -0.019161 -0.001561 -0.042954 -0.020787 0.030784 -0.018378 -0.045926 -0.071810 -0.037501 0.022259 -0.003970  
-0.045786 -0.062350 -0.061418 -0.008047 -0.029223 -0.011054 -0.058647 -0.011688 0.005465 -0.001086 0.036607 -0.031421 -0.109029 0.029244  
-0.050892 -0.051006 -0.018016 0.023394 0.013160 -0.054137 0.014083 -0.015348 -0.053051 0.028412 -0.086484 0.004133 -0.005604 0.010219  
0.019100 0.025717 -0.058725 0.022374 -0.048374 -0.004153 -0.027185 -0.056266 0.019159 -0.050094 0.065285 -0.053393 0.028790 0.042314  
-0.069794 -0.040476 -0.044586 -0.040513 0.024504 -0.035957 -0.001392 -0.005021 -0.042333 -0.036675 -0.043208 0.012682 -0.052894 0.000764  
0.029209 -0.048115 0.009943 -0.025595 -0.020031 -0.037221 0.005439 0.014316 -0.040142 0.004340 -0.024701 -0.050658 -0.090392 0.048190  
0.009402 -0.057277 -0.060074 -0.029969 0.015737 -0.063572 -0.039282 -0.016573 -0.049852 -0.052093 -0.014394 -0.038760 -0.043285 -0.031664  
-0.042988 -0.035983 0.009756 -0.032075 -0.015306 0.021769 0.014252 -0.044067 -0.041318 -0.011721 0.114080 -0.012478 -0.077832 -0.062769  
-0.039030 -0.031058 -0.005487 -0.001112 0.016356 0.011894 -0.036218 -0.009889 0.028825 -0.043433 0.048082 0.062764 0.036551 -0.068304  
-0.022206 0.009355 0.000720 0.028046 -0.045086 -0.000783 0.010982 0.019172 -0.048470 -0.019661 -0.038459 -0.001739 -0.107704 0.085647  
0.005788 0.020871 -0.032242 -0.062748 -0.041058 0.026637 -0.002532 -0.004460 0.027174 -0.002389 0.040937 -0.052447 0.017133 -0.027223  
-0.049467 -0.032368 0.007419 -0.048257 0.016034 -0.023459 -0.058555 -0.005255 -0.047602 -0.033809 -0.038966 -0.099756 0.052508 0.009005  
-0.001833 0.015812 0.012315 0.028842 -0.043381 0.003686 -0.018558 0.037735 -0.052507 -0.012518 -0.081383 -0.045393 -0.002412 0.040550  
0.031437 -0.060998 0.023877 0.029177 0.002008 -0.053850 -0.014049 0.000647 -0.037275 -0.036692 -0.058394 0.029579 -0.118067 -0.016872  
-0.039022 0.001594 0.005538 0.034169 0.034105 0.008606 -0.002491 -0.010516 -0.004366 -0.039976 -0.019553 -0.051818 -0.020707 0.032850  
0.010979 -0.045234 -0.027859 -0.018800 -0.009691 -0.027411 -0.047373 0.007124 0.032068 0.015590 -0.076392 -0.055341 0.048605 0.030447  
0.021789 -0.051304 -0.029906 -0.064499 0.015126 0.026123 -0.064468 -0.053832 -0.024974 -0.071230 -0.050669 0.010566 0.045909 -0.064291  
-0.014720 0.010926 -0.032345 0.038944 -0.016887 -0.000581 0.014614 0.046788 -0.004872 0.016668 0.010588 -0.017923 -0.035133 0.020193  
-0.014467 -0.064663 0.004235 0.013452 0.004453 -0.048650 0.002192 -0.022109 -0.046973 0.018604 -0.070228 0.021649 -0.103081 0.008142  
-0.026310 0.010391 -0.021261 -0.028465 0.003424 0.017846 -0.049156 -0.007208 0.027750 -0.000502 0.037155 0.007320 0.003191 0.035920  
-0.012040 -0.024307 -0.008710 0.009640 0.020325 -0.043454 -0.013116 0.009101 -0.026763 -0.061371 0.051016 -0.048304 0.088803 -0.014098  
-0.020776 -0.054369 0.025787 0.039612 0.000645 -0.013690 0.036377 -0.060041 -0.000037 0.039573 -0.067144 -0.006985 0.029747 0.027103  
-0.041324 0.012449 0.008099 -0.049210 0.007788 -0.021803 -0.041227 -0.001902 0.017491 -0.020598 0.009145 -0.005647 -0.013942 -0.008547  
-0.013940 -0.033405 0.031246 -0.033515 -0.048950 0.023912 0.031603 -0.005701 -0.025116 -0.054146 -0.070247 0.055160 0.048684 -0.057702  
-0.047480 0.030558 -0.036558 -0.018104 0.026886 -0.041029 -0.049057 0.042082 -0.031812 -0.002255 0.001023 -0.016129 0.009785 -0.014950  
-0.035983 -0.020840 0.024958 0.022092 -0.034894 -0.020062 -0.058131 -0.008278 0.034321 0.034482 0.032437 -0.000403 -0.071632 0.058942  
0.007822 -0.053412 0.023231 -0.017490 0.041632 0.033583 -0.032171 0.038700 0.038357 -0.044500 0.031140 -0.025948 0.030522 0.009752  
-0.041315 0.034700 -0.041436 -0.005899 0.023718 0.031459 -0.022020 0.029163 -0.026585 -0.029765 -0.024003 -0.077039 -0.055856 0.006130  
-0.007164 -0.005539 0.003211 0.030439 -0.005563 0.031839 -0.009525 -0.018267 0.023482 -0.011029 -0.020148 0.005616 0.023918 -0.048867  
-0.019608 0.008726 -0.034693 -0.017226 0.020826 -0.008873 -0.011731 0.002061 -0.006200 0.004881 -0.083958 -0.013270 0.038235 0.064493  
0.002488 0.007133 0.029146 -0.014479 0.008842 -0.010818 -0.039480 -0.059766 -0.049185 0.004870 -0.063467 0.026065 0.071929 -0.076538  
-0.070002 -0.039757 -0.060793 -0.043669 0.010977 -0.054731 -0.066756 0.022337 0.000982 -0.045258 -0.021037 -0.042296 -0.024477 0.038659  
0.028089 0.021707 -0.044997 0.007842 0.038191 -0.039966 0.011883 -0.000457 0.014200 -0.017884 0.006145 0.012983 0.045068 -0.089272  
-0.045570 -0.023798 -0.013044 0.005799 -0.003778 -0.001505 0.009137 -0.027961 -0.044093 -0.025493 0.035685 0.000967 -0.050763 -0.088116  
0.023059 -0.059133 -0.042667 -0.052712 -0.055612 -0.061021 -0.029407 -0.050586 -0.009624 0.021102 -0.025043 0.004994 -0.036066 0.056740  
-0.016644 -0.007006 0.018687 0.023902 -0.062386 -0.049167 0.015126 0.025493 -0.040166 -0.022081 0.002477 -0.065458 -0.017981 0.050983  
-0.073431 -0.032894 -0.069798 -0.070285 -0.047700 0.015244 -0.051625 -0.053879 -0.001502 -0.072365 -0.007753 -0.013958 -0.022524 -0.049820  
0.025544 -0.034675 0.033428 -0.019353 0.029221 -0.011844 0.031469 -0.032647 0.037688 0.040128 -0.007240 0.050236 -0.057865 0.000034  
-0.044695 -0.039256 -0.021714 -0.034535 -0.000193 -0.021004 0.006986 -0.053411 0.015131 0.018659 0.070928 0.024288 0.016953 0.007862  
-0.000107 0.016874 0.008433 -0.048528 -0.010580 -0.040880 0.020888 0.023745 0.012531 -0.006650 -0.086920 0.149014 0.016031 -0.087442  
0.006879 0.030523 0.006740 -0.043425 0.003932 -0.024830 -0.038116 -0.037147 -0.025319 0.040150 -0.078381 0.022044 0.044148 0.009273  
0.018853 -0.033218 -0.012170 0.017666 0.032687 -0.001904 -0.051443 0.035188 -0.008439 0.021145 0.092305 -0.067405 -0.016175 -0.059750  
-0.009221 0.029198 -0.044289 0.029286 -0.020082 -0.016222 0.018298 0.044423 -0.050731 0.035373 0.041237 0.040423 -0.036237 0.031773  
-0.020554 -0.014685 -0.054964 -0.054132 -0.010449 -0.050414 -0.043118 -0.060542 0.028425 0.029298 -0.053453 0.047054 -0.011091 0.029430  
-0.021964 -0.043825 0.011966 -0.032067 -0.038396 -0.039155 -0.000337 -0.056511 -0.022810 0.035780 -0.005557 0.026423 0.028107 -0.086961  
-0.061888 0.000502 0.024073 -0.018234 0.026658 0.007211 -0.061978 -0.026119 -0.039756 -0.052711 0.045481 -0.115842 -0.050232 -0.034863  
-0.021657 -0.045013 -0.005813 -0.035165 -0.021454 -0.012967 0.028778 0.016483 0.034861 0.034353 0.017480 -0.043724 0.023698 -0.006952  
0.007860 0.004084 0.007649 -0.054203 0.000355 -0.023004 -0.050570 -0.059011 -0.009607 0.011237 -0.064507 0.016657 0.012986 -0.023452  
0.016345 -0.039776 0.037966 -0.033552 -0.014893 0.035746 0.018025 0.035426 -0.024468 0.032444 -0.009307 0.054337 -0.004431 -0.034286  
-0.002935 0.034106 0.045523 0.006845 -0.037180 0.024128 -0.026202 0.005173 -0.007026 0.006263 -0.057115 0.081191 0.025077 -0.023818  
-0.020054 -0.011059 0.032181 -0.040553 -0.060162 -0.001504 -0.050882 -0.012296 -0.045936 -0.041006 0.036463 -0.046421 -0.035421 0.065661  
-0.060460 -0.032488 0.011155 -0.000270 0.012191 0.013075 0.022300 0.026220 0.011147 -0.017464 -0.009996 -0.044360 0.041542 0.045842  
-0.059955 -0.012995 -0.034919 -0.028271 -0.030726 -0.003435 -0.015534 -0.005490 -0.013282 -0.023350 0.067088 -0.032714 0.022232 -0.087812  
0.026078 0.045612 -0.019797 -0.051593 0.011473 0.038826 0.024945 0.047587 -0.019355 -0.048408 -0.044355 0.038027 0.043808 0.018459  
-0.025308 0.003827 -0.038989 -0.039694 -0.036727 -0.046793 -0.024533 -0.000915 0.044336 0.038358 -0.001652 0.012546 0.030072 0.020918  
-0.000739 -0.032040 0.036430 0.001218 -0.027750 -0.003592 -0.043712 0.012622 -0.037557 -0.033172 0.037871 0.012222 -0.026081 -0.005368  
-0.062555 0.018308 -0.047898 -0.065185 -0.028026 -0.054885 -0.057381 -0.029287 0.017580 -0.055177 -0.021604 0.031435 0.015949 -0.005698  
-0.040706 -0.063342 -0.024736 -0.065124 0.014112 -0.045656 -0.018553 -0.002556 -0.025289 0.029129 0.013153 -0.111952 0.014973 0.028833  
0.029066 -0.028624 0.039187 0.014791 -0.005330 -0.013139 -0.015667 -0.007851 -0.027910 0.035513 0.022685 0.057440 0.038606 -0.007783  
-0.028621 -0.041169 -0.030613 0.022832 0.000107 -0.019581 -0.013180 -0.000172 -0.017025 -0.005890 -0.047865 -0.029380 0.078073 0.067410  
0.026492 -0.047754 -0.047218 -0.039549 0.012076 -0.009489 -0.054424 -0.012437 0.002263 -0.016433 -0.031426 -0.047083 -0.004330 0.044588  
0.016439 -0.039483 0.027386 -0.022319 -0.021040 0.017326 -0.014233 -0.023767 -0.020967 -0.001414 0.033007 -0.056695 0.080011 -0.007041  
-0.036199 0.015069 -0.056363 -0.052148 -0.011647 0.015868 -0.004754 -0.022099 -0.018135 0.005249 0.059865 0.021010 -0.097277 0.030015  
0.018275 -0.044067 0.027737 0.034753 -0.032791 0.012011 -0.017034 0.029951 -0.019895 -0.004714 -0.025968 0.025877 -0.025897 -0.010646  
-0.023460 -0.005901 0.026982 -0.004734 -0.059005 0.029302 -0.010803 -0.045893 0.028110 -0.029923 -0.058954 0.083002 0.020776 -0.051980  
-0.040291 0.003295 0.024447 -0.004351 0.000312 -0.031276 -0.009147 0.014889 -0.008765 0.014891 0.082887 0.008220 -0.082254 0.009890  
-0.039588 0.023390 -0.062137 -0.058005 -0.060812 -0.065798 -0.000988 -0.066494 0.002655 -0.028326 0.025006 0.013674 0.008118 -0.026398  
0.001983 -0.000258 0.004802 0.013277 -0.008227 0.009905 0.013684 -0.002552 -0.002561 -0.047813 0.063893 0.027122 -0.098459 -0.025570  
0.030624 0.029291 -0.059431 -0.029838 0.002051 -0.053373 -0.056085 -0.058505 0.007771 -0.033027 -0.062455 0.009153 0.015215 0.008117  
-0.039495 0.022748 -0.024143 -0.064305 -0.064986 -0.062460 0.002207 -0.048916 -0.038907 -0.071174 -0.008624 0.013070 0.045246 0.011824  
-0.056841 -0.043579 -0.047788 -0.018292 0.017097 0.007726 -0.047559 -0.033319 0.008998 -0.037755 -0.063742 -0.032050 0.026918 0.027864  
0.007022 -0.064514 -0.023404 -0.054236 -0.011813 -0.010814 0.025404 0.015915 -0.019411 0.003646 0.013813 0.040580 0.008273 -0.056447  
0.021763 -0.031677 -0.036916 -0.027180 -0.008989 -0.026359 0.011119 -0.053487 0.030252 0.011204 -0.056792 0.107625 -0.026633 -0.049312  
-0.024419 -0.043665 -0.043310 -0.036858 0.016910 -0.035858 -0.043438 0.019819 -0.033970 -0.039726 -0.031004 -0.005363 -0.031962 0.041739  
-0.033197 -0.050145 -0.042442 0.009335 -0.018239 -0.019860 -0.027819 0.015949 -0.022430 0.006603 0.032982 -0.027428 -0.046816 -0.045250  
-0.028184 -0.057299 0.016902 -0.056516 -0.039079 0.005005 -0.016740 -0.051154 -0.012368 -0.060073 0.053125 0.031324 -0.052075 -0.024626  
0.012473 0.000780 -0.056330 -0.045248 -0.060662 0.025975 -0.025398 -0.009288 0.008977 -0.003642 -0.006122 -0.117973 0.030829 -0.036822  
0.017923 0.020564 -0.038959 0.027466 0.012849 -0.028122 -0.011020 -0.003398 0.026700 0.013220 -0.049300 0.054767 -0.046318 -0.033852  
-0.055958 -0.045509 0.035426 0.003172 -0.059198 0.001626 -0.027657 -0.007279 -0.024486 -0.020926 -0.133223 -0.032982 0.071959 0.047958  
0.025255 0.026223 -0.048152 -0.022362 -0.005709 -0.021948 -0.043820 -0.034382 -0.018503 0.030475 0.033679 -0.038256 -0.079265 0.032306  
-0.051571 0.028784 0.016205 0.032633 0.010749 -0.030123 0.000200 -0.044906 0.030709 -0.023101 0.055309 -0.004882 0.010577 -0.043750  
0.008365 -0.026374 0.009127 -0.026865 -0.017351 0.027773 0.034740 0.006086 -0.000180 -0.052170 0.002619 0.055169 -0.059918 -0.057048  
-0.005638 0.039767 0.034042 -0.039441 0.023117 -0.000760 0.030637 -0.012202 0.041251 -0.019576 -0.042902 0.046921 0.004860 -0.025911  
-0.005107 -0.009478 0.016880 -0.005684 -0.049355 -0.031261 -0.006358 -0.008775 -0.025294 -0.013686 -0.072004 -0.066852 -0.029761 0.062049  
-0.051702 0.026213 -0.047621 0.036003 0.017867 0.003808 0.037039 -0.036792 -0.040793 -0.010323 0.044093 0.002967 -0.083586 -0.000431  
-0.051839 0.001344 -0.013540 0.005476 -0.028848 0.017449 -0.038177 0.015146 -0.067852 -0.013271 0.066516 0.056379 -0.092938 -0.012579  
0.003723 0.008158 0.006550 0.038609 -0.031687 0.003626 -0.035894 0.030706 0.008557 0.038535 -0.008812 0.037790 -0.043819 -0.037696  
0.017192 0.008562 0.012290 -0.012629 0.000693 -0.002733 -0.034893 0.025254 -0.017956 0.030203 0.071627 -0.053917 0.030591 -0.015225  
0.035402 0.042887 -0.026967 -0.001560 -0.011471 0.018174 -0.014052 0.023894 -0.008247 -0.002484 -0.017409 -0.039366 -0.048558 0.027854  
0.005868 0.024010 -0.028638 0.030714 -0.059431 -0.056636 -0.000103 0.025809 -0.057435 -0.030206 -0.016011 0.013664 0.064175 -0.049226  
-0.042728 -0.041101 0.013342 -0.023576 0.039421 0.039158 -0.049052 0.034811 -0.018035 0.037920 -0.065376 -0.068472 0.092493 -0.095818  
-0.024906 0.016482 0.002668 0.013201 -0.045520 -0.037603 0.032634 -0.060158 -0.050921 -0.026941 0.011827 -0.014773 0.005781 -0.067512  
-0.048232 0.031936 0.003903 0.042581 -0.020956 -0.038368 -0.000377 -0.008135 -0.040393 -0.014599 0.030485 0.007067 -0.041930 0.023195  
0.013917 0.030472 -0.020392 0.025100 0.004815 -0.002582 0.011514 0.015471 -0.015405 -0.058316 -0.002230 -0.043025 0.004562 0.075811  
-0.007995 -0.054715 0.037484 -0.025515 -0.025672 0.009250 -0.039626 -0.002921 0.032361 0.001506 -0.057240 -0.028640 0.069318 -0.013370  
-0.055111 0.021880 -0.008486 0.008156 0.012674 -0.030591 -0.003761 -0.060210 -0.020171 -0.018329 -0.032648 -0.023086 0.009078 -0.017486  
-0.016492 -0.062553 -0.034090 -0.020395 -0.051237 -0.050649 -0.053810 -0.065078 -0.037961 -0.064359 -0.012898 -0.033422 -0.032973 -0.013412  
-0.035975 0.012833 0.008931 -0.033313 -0.028712 -0.024408 -0.006002 -0.025787 -0.008519 -0.015145 -0.021598 0.004483 0.002007 -0.060737  
-0.035177 0.031995 0.009548 0.003049 0.037350 0.001291 0.013706 -0.026283 0.028774 -0.044236 -0.008933 0.075322 -0.048999 -0.057679  
-0.027635 0.033076 -0.021651 0.023079 -0.039706 -0.057525 0.022862 -0.010874 0.002639 0.004957 0.056277 -0.041024 0.031712 0.016124  
-0.027061 -0.042100 -0.024643 0.024423 -0.060661 0.016781 -0.061771 0.009200 0.007383 0.026405 -0.049394 0.008145 -0.090104 0.038068  
0.003652 -0.002148 -0.006935 -0.031247 -0.029293 0.004191 -0.054885 -0.046085 -0.060625 -0.034597 -0.068116 0.058018 -0.001033 0.013027  
-0.055789 -0.005234 -0.002220 -0.056780 0.006125 -0.014865 -0.036493 0.000365 -0.001631 -0.042036 0.013655 0.060802 -0.066271 0.027889  
-0.018973 0.022712 0.031350 0.042701 -0.014430 -0.012217 0.021123 -0.041248 0.035687 0.042139 -0.053456 0.026802 -0.032749 -0.018719  
-0.013447 -0.051126 0.030878 0.012377 -0.015337 -0.064123 -0.004842 -0.061731 -0.044384 -0.037912 -0.027716 0.065770 0.034537 -0.022727  
0.033708 -0.047462 -0.053614 -0.017116 -0.029783 -0.054913 -0.047626 -0.048362 -0.008876 -0.042614 0.005701 -0.005766 -0.053441 -0.054829  
0.020095 0.006101 -0.051543 -0.049261 -0.042947 0.010192 -0.020319 -0.044119 0.008321 -0.035499 -0.006743 -0.106339 -0.075038 -0.005976  
-0.051386 -0.005926 -0.047513 0.007651 -0.023229 -0.008740 -0.009848 -0.056725 -0.025203 0.026922 0.049700 -0.049796 0.008513 -0.028136  
0.025646 -0.008415 -0.044025 -0.024683 0.024559 -0.037135 0.003714 0.007355 0.030061 0.027004 -0.053680 0.005939 0.006991 0.088524  
0.034602 -0.032230 0.006498 -0.014275 -0.030923 0.009262 -0.039943 -0.012319 -0.010362 -0.019886 0.002255 -0.061997 0.096214 -0.087403  
-0.033325 0.025229 -0.021423 0.021899 0.041566 -0.049417 0.026884 0.024306 0.038308 0.002256 -0.021954 0.039195 -0.044174 -0.017365  
-0.016447 -0.020861 0.043188 0.032882 0.009936 0.034135 -0.006634 -0.039730 -0.017725 -0.015572 -0.044161 -0.011326 -0.015731 0.021158  
-0.006295 -0.043265 0.026580 -0.054950 0.021425 -0.031349 0.025107 0.032786 0.013528 -0.049241 -0.046397 -0.038491 0.045178 0.050326  
-0.057051 0.007070 -0.013075 -0.019047 -0.046507 0.018506 -0.014356 -0.061942 -0.058308 -0.015292 -0.046577 0.027317 -0.032966 0.024320  
0.021805 -0.022385 -0.048271 -0.039582 -0.041013 0.003131 -0.013449 -0.018464 -0.017319 -0.021829 0.027626 0.008776 -0.053452 -0.056130  
0.028683 0.009120 -0.011345 -0.000948 -0.008780 0.020192 0.030654 -0.044007 -0.036071 0.043006 -0.000557 0.085180 0.012608 -0.034237  
-0.038087 -0.047587 0.037478 0.022002 -0.001152 -0.042965 0.026759 0.009786 0.012525 -0.051774 -0.067154 -0.041543 -0.013173 -0.021125  
-0.012062 -0.059636 0.001904 -0.048965 0.020655 -0.025820 -0.004628 0.001005 0.001689 -0.031177 0.023479 0.049618 -0.050793 0.003734  
-0.035407 0.019354 0.021448 0.005574 0.000858 -0.036256 -0.014378 -0.059652 -0.026013 -0.025133 -0.003697 0.078977 -0.100678 0.031636  
-0.053066 -0.071064 0.008752 0.027512 0.019477 -0.020877 0.015152 -0.062787 0.017396 -0.031561 -0.027037 0.027020 0.023927 -0.056961  
0.023063 -0.055192 0.014241 -0.066996 0.027736 -0.065933 -0.058054 -0.019537 0.016628 -0.027195 0.037923 -0.019073 -0.059081 0.019627  
-0.023378 0.041057 -0.005018 0.000244 0.009017 0.037249 0.023081 -0.028164 0.035857 -0.043278 -0.050847 -0.055115 -0.051112 -0.011147  
-0.041053 -0.004721 -0.053817 0.023348 -0.049509 0.015991 0.027557 -0.016704 -0.004801 0.012993 0.030859 0.065824 -0.034380 -0.060439  
-0.025412 0.014261 0.036260 0.001809 0.023082 0.035417 0.000714 -0.025937 -0.025760 0.023112 0.069676 -0.027946 -0.014200 -0.003139  
-0.068827 -0.031934 -0.035399 -0.059541 0.000562 -0.042938 -0.058735 0.004605 -0.062109 -0.026711 0.006360 0.005726 0.012710 -0.017335  
0.008873 0.004834 0.000883 0.012335 0.008625 -0.036292 -0.020442 -0.015849 -0.021776 0.034944 -0.007355 0.049064 -0.061058 0.016395  
-0.008381 -0.063869 0.005989 -0.037964 0.012842 0.002394 -0.025172 0.014061 0.022936 -0.049515 -0.032120 -0.008201 -0.045391 -0.005735  
0.024386 0.032391 -0.000960 -0.037783 -0.059892 -0.050033 -0.027121 0.007516 0.012487 -0.004390 -0.071319 0.070630 -0.028239 0.034759  
-0.012888 0.038902 0.031465 0.021516 0.018787 -0.051641 -0.051335 -0.023364 0.014072 -0.040197 0.105253 -0.050678 -0.053564 -0.018320  
-0.020951 -0.025377 0.031284 -0.012086 -0.011518 0.001659 -0.042111 0.002899 -0.051761 -0.056277 -0.058321 -0.027020 -0.020275 -0.005286  
-0.058596 -0.044061 0.020124 -0.002072 0.008096 -0.038711 -0.026140 0.000269 -0.017919 0.010974 0.022361 0.031716 0.008139 -0.016457  
-0.018295 0.007476 -0.021691 -0.001034 0.042816 -0.031022 0.018590 -0.050508 0.037984 0.043425 -0.037803 -0.004624 0.061162 0.003458  
0.007092 -0.036505 0.006922 -0.049790 0.020745 0.003804 -0.016575 -0.019385 -0.002715 -0.008360 -0.059755 0.079080 0.006056 0.071250  
0.027618 -0.024343 -0.019438 -0.048189 -0.036350 -0.042354 -0.046511 -0.031374 -0.019328 -0.049296 0.023389 -0.119034 0.047591 -0.032645  
0.028910 -0.043400 -0.057610 -0.018412 -0.001562 0.017048 -0.038205 -0.037373 0.002348 -0.036634 -0.018312 -0.023323 0.015920 -0.028104  
0.027049 0.016746 0.028918 -0.048502 -0.020367 -0.044581 0.000862 -0.007689 -0.058358 -0.023221 0.076731 0.002634 0.003947 -0.108429  
-0.037176 0.002357 -0.018245 -0.046969 -0.002685 -0.063802 -0.045677 -0.067677 -0.038044 -0.062933 -0.055745 0.029022 -0.038547 0.021687  
-0.004389 -0.042320 0.015517 0.019732 0.037070 -0.016829 -0.057898 -0.053095 -0.050563 -0.025339 -0.020098 0.042358 -0.064273 -0.021429  
0.022167 0.022239 0.012046 -0.015466 -0.023645 0.011483 -0.044327 -0.043420 -0.053099 -0.046054 -0.005454 -0.021775 -0.095245 0.013188  
0.019786 -0.025247 -0.066067 0.012226 0.023250 0.019473 -0.064972 -0.030002 -0.027181 -0.028752 -0.018897 -0.023123 0.025578 0.007246  
-0.019720 0.016161 -0.014876 -0.007219 -0.052549 -0.012678 -0.017241 -0.048668 -0.022022 0.021332 0.049047 -0.061854 0.012081 0.027593  
0.034425 0.030388 -0.011441 0.027993 -0.042035 0.007954 -0.040435 0.012179 -0.001973 0.019208 -0.067168 0.068205 -0.004746 -0.090273  
-0.031657 -0.025954 -0.014246 -0.068369 -0.021529 0.004477 0.002143 -0.012006 0.024726 -0.012463 0.011480 -0.039627 0.011366 0.014556  
-0.052132 -0.044569 -0.034688 -0.023142 -0.024348 0.015431 -0.001166 0.009463 -0.072123 -0.040838 -0.070552 -0.022324 0.016740 -0.055722  
-0.003992 0.005416 0.014009 0.012760 -0.026706 -0.008460 0.009861 -0.017986 -0.056122 -0.057950 -0.041126 0.089116 -0.071955 -0.018807  
-0.013460 -0.021675 0.030002 -0.009874 -0.050698 -0.044247 -0.054229 -0.025930 -0.007762 -0.033429 0.048317 0.010948 -0.082065 -0.006542  
0.006959 -0.003683 0.003227 0.015858 -0.020183 -0.026044 0.000732 0.027743 -0.016647 -0.030701 -0.042134 0.080299 -0.011185 -0.015587  
0.006146 -0.050215 -0.033158 -0.037565 0.015620 0.015308 0.024599 0.039744 -0.047891 0.031763 0.078072 -0.048002 -0.053929 -0.034230  
0.030654 0.031885 -0.008467 0.029661 -0.028402 -0.057503 0.017877 -0.019598 -0.045436 -0.000570 -0.085192 0.023424 0.023061 0.057719  
0.042470 -0.022405 0.000355 -0.033408 0.020264 -0.024639 -0.024274 -0.051281 0.009002 -0.001753 0.066261 -0.022944 0.000693 -0.037662  
-0.038520 0.006715 -0.042976 0.025128 -0.041716 -0.051833 -0.047857 -0.016149 -0.042575 -0.060596 0.065065 -0.021342 0.051165 -0.100044  
0.023761 -0.051622 0.024122 -0.031192 -0.018843 -0.050728 -0.012202 -0.028517 -0.036765 -0.043619 -0.052714 0.021257 -0.009569 0.066282  
-0.043581 -0.017300 0.009149 0.005973 -0.011578 -0.030303 0.024742 -0.018325 -0.070088 0.020816 -0.043367 0.010771 -0.019285 0.008278  
0.040193 -0.046058 0.004905 0.013108 0.026008 -0.046239 -0.004042 0.011749 -0.044105 -0.027589 -0.050055 0.045204 0.024806 -0.022403  
-0.001275 0.007646 -0.002274 -0.050994 0.026063 -0.019190 -0.004011 -0.055347 0.018635 -0.006103 0.009475 -0.052690 0.042489 -0.083582  
0.032516 0.017355 0.033422 -0.029497 -0.039548 -0.037555 -0.054703 -0.015719 -0.040626 0.017532 0.081870 -0.020338 -0.052386 0.019013  
-0.053275 -0.017667 0.014317 -0.015201 0.000390 0.039480 -0.052671 -0.008995 -0.048620 -0.006986 -0.038623 -0.007177 0.041243 -0.067125  
-0.035481 -0.016573 0.034647 0.013456 -0.040375 -0.014783 -0.045113 0.011075 -0.024245 -0.046231 0.034128 -0.073667 -0.039001 0.007893  
-0.001422 -0.026093 0.009727 0.029506 0.019013 -0.009747 -0.029052 -0.004185 -0.009304 0.029427 0.053225 0.027718 0.008234 0.023130  
0.000385 -0.001962 -0.008236 -0.010344 -0.050651 0.017198 0.011695 -0.047708 -0.032765 -0.013101 -0.058385 0.069802 0.001924 0.000380  
-0.016342 -0.046369 -0.048626 0.028086 -0.000070 0.026246 -0.007937 -0.050578 -0.013251 -0.057419 -0.044603 -0.043590 -0.066060 0.035182  
0.014369 -0.014194 0.030211 0.025862 0.025483 -0.048355 0.012304 -0.028877 0.008805 -0.001887 -0.005594 -0.028857 0.061793 -0.074965  
-0.010803 0.024546 0.024340 0.011431 -0.066511 -0.049421 -0.013672 -0.067223 -0.003367 0.013772 -0.008179 -0.047954 0.012438 -0.049290  
-0.027705 0.016387 0.020585 -0.036859 -0.013498 0.024707 0.004687 -0.008394 -0.005150 0.002232 -0.075877 0.014106 -0.003639 0.076719  
0.016091 -0.033542 -0.026511 -0.034069 -0.000745 -0.005827 -0.052230 0.033161 0.027945 -0.043627 -0.019671 -0.079482 0.051967 0.070713  
-0.045750 -0.049462 -0.035733 -0.058813 0.025910 -0.034985 -0.035472 0.025255 -0.004916 -0.056208 0.017691 -0.020865 -0.024549 -0.043395  
-0.044484 0.040905 -0.029120 -0.044749 0.039851 -0.016458 0.048509 0.023021 0.041148 0.027469 -0.032757 0.020479 0.003978 -0.021102  
-0.024765 0.030443 -0.055082 -0.002490 -0.044444 -0.012289 -0.042244 -0.028331 -0.029441 -0.062469 0.002068 -0.067876 0.034266 0.020453  
-0.008594 -0.033335 0.016881 -0.025193 -0.050872 -0.019971 -0.012758 -0.019212 -0.029302 0.010982 -0.089678 -0.013111 0.025414 0.037447  
-0.042524 0.033890 0.018894 -0.000732 -0.001171 0.014012 0.026555 -0.033608 0.002364 -0.042949 0.025551 -0.058768 -0.005409 -0.033944  
-0.047546 -0.012903 -0.015186 0.036830 0.010059 0.025449 0.035626 -0.050962 -0.013735 -0.039081 0.112411 0.036848 -0.067155 -0.072254  
0.019535 0.000308 -0.018926 -0.039420 -0.030161 -0.021438 -0.051269 -0.036104 -0.030894 0.023093 0.052125 -0.027539 0.002774 -0.047974  
-0.027656 -0.010298 0.002104 -0.033018 -0.028969 -0.025093 -0.043025 0.027474 0.011716 -0.060951 -0.055867 -0.043609 0.029330 0.006523  
0.018631 -0.012563 -0.036616 -0.052837 0.004898 -0.003547 0.017147 0.020434 -0.061229 -0.036449 -0.057821 -0.031569 -0.002701 -0.008894  
0.021028 -0.045024 0.011782 0.028732 -0.001608 -0.018519 0.028824 -0.019648 -0.001108 -0.020774 -0.065121 -0.069497 0.039630 0.022775  
-0.011895 -0.036047 -0.026451 -0.036542 -0.019118 0.011942 -0.034292 -0.039737 -0.009542 -0.041173 0.010216 -0.002473 -0.010768 0.016062  
-0.040547 -0.053479 -0.038458 -0.054622 -0.017106 0.001725 -0.032783 -0.026044 -0.046806 0.003301 -0.008853 0.020000 -0.016433 -0.034005  
0.009749 0.024690 -0.017161 -0.026787 -0.022669 -0.004404 0.004431 -0.021796 0.013492 0.022668 0.055997 -0.054848 0.065387 -0.062566  
0.010103 -0.035023 -0.025124 0.037831 -0.045654 -0.030490 0.039063 0.007249 0.006166 0.007737 -0.040692 -0.001130 -0.014494 0.022443  
-0.024000 0.012170 -0.046853 0.002570 0.032731 -0.013470 -0.046582 -0.018764 -0.015080 -0.026303 -0.037598 0.028327 0.003066 -0.027665  
-0.050860 -0.038088 -0.029132 0.010992 -0.057009 0.027488 -0.046236 0.006446 -0.001838 0.001290 -0.059544 0.016574 -0.076678 -0.005534  
-0.000222 -0.024074 -0.021533 0.031200 -0.013270 0.019904 -0.004360 0.024847 -0.044760 0.010186 0.079140 -0.004244 -0.000738 -0.065355  
-0.061529 -0.041651 -0.059903 -0.051234 -0.025490 -0.032144 0.029295 -0.029320 -0.061671 -0.037312 0.022511 -0.043818 0.005679 -0.035784  
-0.041272 0.029064 -0.020254 0.044974 -0.002109 -0.036317 0.031486 0.026367 -0.007118 -0.002766 -0.001653 0.013439 0.021496 0.002749  
0.027713 -0.040778 -0.021901 0.041047 0.018578 -0.048235 -0.009787 0.026379 -0.016465 -0.027291 -0.031372 -0.055322 0.095394 0.034768  
0.025348 -0.006162 -0.040177 0.029540 0.004675 0.003933 0.025883 0.004823 0.022151 0.008550 -0.017670 0.026057 -0.033089 0.053265  
-0.064261 -0.021677 -0.054976 -0.034214 -0.034990 0.009226 -0.025667 -0.059221 0.003942 -0.047014 -0.034818 0.026320 -0.083796 0.031215  
-0.010644 -0.038987 -0.015992 0.032493 0.006367 0.015156 0.034840 -0.007427 -0.065129 -0.063637 -0.017316 -0.005464 -0.108757 0.038064  
-0.012252 0.025678 -0.010034 0.030454 -0.007135 -0.018372 0.008062 -0.012314 -0.022423 -0.015372 0.010322 0.083307 -0.029843 0.021487  
-0.030108 -0.003633 -0.038655 -0.056651 -0.032347 -0.011076 -0.047710 -0.063087 -0.060777 0.014833 -0.055298 0.016267 -0.010559 0.014242  
-0.040989 -0.016102 -0.039309 -0.060210 -0.062287 -0.010864 -0.008163 -0.020937 -0.039058 0.011855 0.082764 -0.110069 0.014023 0.027441  
-0.057441 0.002645 -0.044029 0.004762 -0.000380 0.023016 -0.028256 -0.053645 -0.018481 -0.036445 0.028707 0.006492 -0.056994 -0.002682  
-0.053649 -0.011227 0.031782 0.015854 -0.047220 -0.041785 0.019925 0.030166 0.013109 -0.045499 -0.043263 -0.022690 -0.074854 0.064051  
-0.017803 0.032439 -0.001090 -0.043754 0.026056 -0.055158 0.021400 -0.046515 0.035673 0.029050 -0.073042 0.084472 0.008163 -0.055223  
0.007917 -0.000756 -0.017264 -0.002985 -0.023049 0.010364 -0.048587 0.016294 -0.032712 -0.032562 -0.003884 0.051234 -0.023143 0.037575  
0.025290 -0.056709 -0.035825 -0.012501 0.024893 -0.050426 -0.041549 0.011829 -0.040451 -0.002874 0.034992 -0.067594 -0.067359 0.035808  
-0.004314 -0.014256 -0.055410 0.011483 -0.045529 -0.045045 0.035244 -0.056700 0.036186 -0.004696 0.002992 0.090020 -0.027546 0.022391  
-0.000034 -0.024201 -0.045233 0.016102 0.022490 -0.007051 -0.002784 0.021172 -0.039015 0.023877 -0.041588 0.023701 0.028101 0.011903  
-0.026872 0.011159 -0.002635 -0.013338 -0.010083 -0.040595 -0.042511 -0.053142 -0.017317 0.023523 0.047545 0.019562 -0.017766 0.034598  
-0.036126 -0.014198 0.019583 -0.036697 -0.061335 -0.036507 -0.014874 0.024098 0.019848 -0.008130 -0.045259 -0.052607 -0.014042 -0.016510  
-0.067526 -0.031118 0.000581 -0.015811 -0.051784 -0.024540 -0.036939 -0.018640 -0.059749 -0.063603 0.021908 -0.090005 0.065901 0.005841  
-0.056511 0.001169 0.007204 -0.071290 -0.067767 -0.011125 -0.069723 -0.010330 -0.013335 -0.059818 -0.033682 -0.006291 -0.009152 -0.062583  
0.028230 -0.060251 -0.006325 0.030523 -0.050559 -0.032492 0.003644 -0.034745 0.021285 0.032137 0.080996 -0.087407 -0.035598 0.047552  
0.001420 0.019609 -0.020418 -0.044377 0.013166 -0.004796 -0.015922 0.016226 0.019882 -0.057505 0.064903 0.029022 -0.016124 -0.074319  
-0.009014 -0.030700 -0.021103 0.025927 -0.001345 0.003295 -0.024330 -0.069834 -0.045080 -0.041180 -0.042658 0.001340 -0.064171 0.039611  
0.036003 0.018319 -0.046671 0.001285 0.017013 -0.011601 -0.019196 -0.028378 -0.003416 -0.022052 0.029242 0.033847 -0.073818 0.040131  
-0.026027 -0.032571 0.028236 -0.041708 -0.045648 -0.010301 0.035428 0.022184 0.025146 -0.036289 -0.035805 -0.053057 0.064130 -0.065810  
0.010952 -0.002277 -0.014870 -0.017724 -0.000596 0.037186 -0.052173 0.032708 -0.000892 0.010887 -0.050110 0.094888 -0.014462 -0.040392  
0.009848 0.004427 -0.040196 -0.008110 -0.049371 0.011284 -0.019634 0.046064 -0.050490 -0.041133 -0.078084 0.085301 -0.058111 -0.011052  
-0.032468 0.026096 0.040049 -0.005564 0.022195 0.021663 0.021057 0.032124 0.016399 0.046349 0.044151 -0.036123 -0.029102 -0.021013  
0.026838 0.010872 0.044025 -0.026747 -0.020736 0.005611 0.035295 -0.039457 0.041992 0.024005 -0.020118 0.032612 0.015380 -0.049043  
-0.063849 -0.002808 -0.045683 0.036939 0.021829 -0.031930 -0.025691 0.001347 0.031298 0.001144 -0.032656 -0.055628 0.018734 0.067797  
0.002074 0.021834 0.033048 -0.015752 -0.035634 0.009297 0.009521 -0.033618 -0.058798 0.005329 -0.027116 -0.026976 0.015386 -0.009127  
-0.058572 -0.016756 0.008451 -0.022992 -0.029038 0.028458 -0.037672 -0.048258 -0.048211 0.014940 0.074152 -0.049679 0.025918 -0.021353  
0.044462 -0.039664 0.043423 -0.051010 -0.005867 0.021803 0.031712 -0.003297 0.025526 -0.037981 0.030694 0.019548 -0.037819 0.014199  
-0.051594 -0.048512 0.032164 -0.044751 -0.004514 0.006499 -0.001900 0.031606 -0.032690 -0.027661 0.009800 0.019517 -0.074228 -0.017181  
-0.044517 0.002567 0.000738 -0.036004 -0.047436 -0.037352 -0.066621 0.025644 -0.041003 0.005345 -0.036949 0.025058 -0.026023 0.007050  
0.018947 -0.005480 0.033962 -0.021345 0.006342 -0.038258 -0.053819 -0.047782 0.018322 0.005366 0.015739 0.049927 -0.019481 -0.042574  
-0.048315 -0.032851 0.000856 -0.024143 0.027800 -0.033872 0.026512 0.004215 0.002579 0.025831 0.054300 -0.072084 -0.010381 0.032435  
-0.050551 0.001088 0.017240 -0.026500 -0.021488 -0.020387 -0.030890 0.026008 0.019826 -0.040042 -0.047787 -0.023573 -0.041584 -0.004315  
-0.042237 0.024241 -0.019323 0.034720 -0.026113 -0.019146 -0.042475 0.004613 -0.004885 0.035439 0.013683 -0.013262 0.045200 -0.027228  
0.010590 -0.024486 0.028844 -0.066656 0.030167 -0.056871 -0.012260 -0.003027 -0.065910 -0.011188 0.012867 -0.070656 0.049724 -0.006056  
-0.034835 -0.003175 -0.053432 0.026770 -0.040134 0.024681 0.015666 -0.025786 -0.029139 -0.023992 -0.021589 0.033063 0.006863 -0.047869  
0.002093 -0.046043 -0.028194 -0.013438 -0.035904 0.019517 -0.017778 -0.041649 -0.037344 -0.027722 -0.042647 -0.029778 -0.074863 0.025809  
-0.035328 0.026175 -0.060514 -0.054192 0.022604 -0.070267 -0.063967 0.002885 -0.013064 -0.017232 -0.046859 -0.067826 -0.034713 0.032659  
0.012604 -0.009119 0.026274 -0.039708 0.015465 0.030639 -0.034096 0.032594 0.040311 -0.041877 0.038346 0.004087 -0.013763 0.086050  
-0.047760 -0.055224 -0.052991 -0.027691 -0.027627 0.009878 0.027045 0.016227 -0.015652 0.017547 -0.006239 0.012779 -0.110373 0.048566  
-0.045259 -0.028617 -0.024947 0.030697 -0.054521 -0.053330 0.011808 -0.032103 -0.054474 -0.055445 -0.078451 -0.052044 0.027534 0.064408  
0.012450 -0.054355 -0.040304 -0.006469 -0.046035 -0.025559 -0.019590 -0.000617 0.015954 0.015408 0.065025 -0.022202 -0.001492 -0.105838  
-0.021237 -0.051633 0.007322 -0.036194 -0.059069 -0.041933 -0.007432 -0.042212 0.009073 -0.039802 0.020111 -0.058905 0.017832 0.004106  
-0.018764 -0.011927 -0.021104 0.004058 -0.038583 -0.056441 0.009474 -0.046304 -0.046111 0.003593 -0.019174 0.016762 -0.035613 -0.044229  
0.007178 -0.058393 0.006183 0.021721 -0.026807 -0.058529 0.019656 -0.011205 -0.044573 0.004019 0.097556 -0.048740 -0.011248 -0.058456  
-0.005061 0.022156 -0.031246 0.001587 -0.050650 0.017317 -0.002621 0.010149 -0.033040 0.017165 -0.071886 0.073102 0.063847 -0.049807  
0.016479 0.037483 -0.045566 -0.048021 -0.000633 -0.025507 0.020196 -0.016613 0.036449 0.029045 -0.066612 0.078638 -0.011208 0.015762  
-0.028741 0.038438 -0.033076 0.044488 0.011389 0.025361 0.014811 0.035889 -0.017544 -0.005182 -0.025924 -0.039169 -0.007015 0.047046  
-0.007392 -0.046796 0.009205 -0.021895 -0.036774 0.001013 -0.026563 0.032838 -0.023798 0.007485 -0.002630 -0.059290 0.115689 -0.045519  
-0.062597 -0.062133 0.031230 -0.000059 0.029032 0.000285 0.020112 -0.053528 -0.059870 0.020402 -0.081936 -0.038251 -0.062431 0.085323  
0.009980 0.036786 0.041099 -0.006727 0.033210 -0.000518 0.019010 0.044179 0.013020 0.013541 0.032587 -0.046356 0.026384 -0.043917  
0.001220 0.030132 0.010917 -0.015470 -0.008908 -0.006023 0.022553 0.015726 -0.022716 -0.058462 0.100087 0.010316 -0.045795 -0.046526  
-0.036676 0.002851 0.002774 -0.027598 0.030199 0.026852 -0.049300 0.018763 -0.022193 0.009766 -0.022412 -0.009279 0.015933 -0.004781  
0.024646 -0.046637 -0.008370 0.011084 -0.045759 -0.052300 -0.005186 -0.044499 0.012173 -0.010251 -0.016157 0.023575 0.068159 -0.059308  
-0.021576 -0.038005 -0.048230 -0.061370 -0.028675 -0.041038 -0.030142 0.003608 -0.010490 -0.038345 0.039392 0.031221 0.062100 -0.085139  
0.035198 0.034390 0.002239 0.043404 0.034430 0.011516 -0.032372 -0.025224 -0.040307 -0.022792 0.055590 -0.023201 0.029068 0.002791  
0.015938 -0.028992 -0.014907 0.032590 -0.032770 -0.031426 -0.056054 0.025403 0.033067 0.029686 0.043520 -0.017367 0.001710 -0.060845  
-0.024483 0.004269 0.001693 0.026148 -0.038912 -0.046556 0.024301 -0.052127 -0.000203 -0.016774 0.041221 -0.027937 0.037707 0.064096  
-0.029972 -0.006622 -0.011151 -0.005664 -0.049878 0.021459 -0.048796 -0.050359 -0.002006 -0.010139 0.086858 0.007225 0.026854 -0.022040  
-0.063266 -0.009651 -0.045325 -0.018581 0.011960 0.035464 -0.007531 0.020000 -0.001701 -0.024228 0.054805 -0.024700 0.058171 -0.058564  
-0.051648 0.010575 -0.021254 -0.031391 -0.015610 0.012907 -0.018823 0.006941 -0.057674 -0.030835 0.028695 -0.074133 0.049734 -0.012936  
-0.024327 0.025282 -0.030826 -0.019557 -0.010836 -0.060796 0.010329 -0.019896 -0.050629 0.012899 0.034249 -0.063897 -0.059338 0.007024  
-0.028784 0.031908 -0.013616 0.022653 -0.060864 -0.016741 0.013222 -0.038947 -0.035400 -0.008339 0.054751 0.046281 -0.011443 -0.089583  
-0.008299 0.026112 0.032438 0.007399 -0.025646 -0.001588 0.026681 0.035150 -0.037503 0.003958 0.015581 -0.043603 -0.056061 0.016827  
0.018031 -0.029262 -0.069448 -0.069290 -0.004365 -0.005584 -0.062221 -0.030981 -0.016130 -0.046613 0.036558 -0.014914 -0.000286 -0.043986  
-0.006737 0.015640 -0.034125 -0.042891 0.044193 0.009054 0.020509 -0.011128 0.028766 0.015732 -0.011328 0.018797 -0.045416 -0.002476  
-0.046523 -0.055174 -0.034646 -0.021653 0.037531 0.027376 0.037160 0.018477 0.000878 -0.020647 -0.053526 0.073783 -0.042528 0.022024  
-0.030788 -0.019725 0.019965 -0.037128 0.015766 -0.000218 0.020957 -0.002369 -0.037454 -0.015102 -0.070774 0.013065 0.040645 -0.079226  
-0.057257 0.001904 -0.068780 -0.068482 0.024716 -0.064617 -0.021223 0.022603 0.015005 0.022935 -0.016302 -0.063999 -0.036460 -0.028621  
0.029688 -0.016699 -0.013584 -0.039708 -0.059857 -0.066171 -0.058862 -0.018106 -0.005893 0.005735 0.004769 -0.094223 -0.014184 0.011938  
0.026217 -0.013750 0.029957 -0.034249 -0.042339 -0.057233 -0.019706 0.030397 -0.038355 0.026721 -0.045148 0.071053 0.021339 -0.061402  
0.002405 -0.049358 0.001810 -0.032248 0.037365 0.002867 -0.052182 0.037674 0.020934 -0.046056 -0.025080 0.040572 -0.109640 0.056739  
-0.001558 0.002779 0.043318 -0.038308 -0.043379 -0.017756 0.039818 0.011299 0.026839 -0.000661 -0.037255 0.046012 0.046391 -0.000933  
-0.068534 -0.002728 -0.049076 -0.051111 -0.067413 -0.014195 -0.042349 0.008794 -0.031600 0.011659 0.016012 -0.047770 -0.024512 0.028905  
0.027724 0.037961 -0.047701 -0.045787 0.002877 -0.015321 0.040355 -0.042945 0.043998 0.028272 -0.076391 -0.030560 0.014703 0.037796  
-0.042971 -0.054626 -0.012437 -0.014562 -0.050268 -0.024537 -0.006020 -0.015617 -0.037007 -0.003878 0.027141 0.035088 -0.019626 -0.078194  
-0.033972 0.033631 -0.046111 -0.025485 -0.004296 -0.052447 -0.024978 -0.012668 -0.013737 0.003953 -0.053088 0.026123 0.059195 -0.063382  
0.043086 0.022769 -0.022951 0.023674 -0.049113 0.003755 -0.020283 0.002926 -0.031628 -0.044637 -0.015811 0.018979 0.044629 0.049711  
0.032674 0.038806 0.005915 0.033008 0.010902 -0.030703 -0.039866 0.018133 0.002189 -0.044097 -0.000328 0.055830 -0.028785 -0.057668  
-0.037604 -0.001698 -0.024190 0.018820 0.005526 -0.008089 0.043256 -0.021764 -0.044672 0.031295 0.035456 0.034915 0.002384 -0.041909  
-0.009631 0.021310 0.028040 0.035758 0.005218 0.013677 0.019522 -0.014332 0.022533 -0.000815 0.037242 0.001778 0.083861 -0.100851  
-0.021576 -0.029722 -0.045685 0.027476 -0.000512 0.034567 -0.058123 -0.027131 0.000964 -0.013686 -0.096553 0.029467 0.057744 -0.000536  
-0.023427 -0.034910 -0.026966 0.023872 0.004880 -0.026745 -0.017853 -0.043484 0.018287 -0.028566 0.094022 -0.029465 0.010862 -0.076785  
-0.049953 -0.022701 -0.027135 -0.033787 -0.015380 0.028126 0.007907 -0.010153 -0.052621 0.013901 -0.057271 0.092107 -0.065791 0.031079  
-0.000608 -0.042746 0.024722 -0.045346 0.022113 0.015013 0.000393 -0.047469 0.031322 -0.048248 -0.038895 0.047080 0.091885 -0.019908  
-0.034985 -0.002592 -0.025113 0.012068 0.029579 0.008395 0.000356 -0.050960 -0.015261 -0.007097 -0.059267 0.098505 -0.007063 -0.070352  
0.027430 -0.013019 -0.055512 -0.000645 0.019643 -0.026390 0.008870 0.024868 -0.057291 0.007197 -0.041306 0.017175 0.052135 0.011279  
0.012664 0.027763 -0.046788 -0.043674 0.019046 -0.002295 0.006563 -0.042189 -0.025597 0.008855 0.121951 -0.123595 -0.027218 -0.036728  
0.043455 0.037582 0.005558 0.043295 -0.020802 -0.017417 0.031585 -0.027073 -0.049161 0.020470 -0.036903 0.092868 0.011401 0.007675  
-0.011350 0.011989 -0.024501 -0.013954 -0.009375 -0.038748 -0.021041 -0.046169 0.028450 -0.012198 -0.076487 0.082785 -0.031621 -0.023017  
-0.007198 -0.011427 0.018799 -0.022428 -0.045721 -0.000884 0.013692 -0.024159 -0.039094 0.032275 -0.075961 -0.023590 0.024418 0.035368  
-0.029150 0.042364 -0.030939 0.026853 0.017131 0.016272 -0.047355 -0.024874 0.036361 -0.047915 0.015045 -0.017128 0.058251 -0.018240  
-0.061745 0.019524 -0.070881 -0.065755 0.003752 0.024677 -0.030448 -0.059906 0.025446 -0.067342 -0.037524 0.045912 -0.054805 0.016033  
-0.037940 0.045906 0.021386 -0.029041 -0.004069 -0.051816 0.031005 0.001819 -0.032559 -0.000848 -0.029452 0.026177 -0.011371 -0.021842  
-0.028643 -0.000567 -0.000214 -0.003384 -0.051462 -0.028714 -0.053065 0.006243 0.015032 -0.002960 -0.031394 -0.002482 -0.088466 -0.029441  
0.004782 0.034289 -0.033501 0.018576 -0.010550 0.006630 -0.011708 0.000937 -0.021175 -0.002518 -0.039478 0.027816 -0.056382 -0.015174  
0.021753 -0.025531 0.028490 -0.019429 -0.005710 -0.017310 -0.025694 0.010686 -0.010536 -0.051915 0.005582 -0.026830 -0.001825 0.032606  
0.024085 0.024119 -0.048655 -0.059811 0.003534 -0.043681 0.021173 0.011286 -0.039402 -0.028530 0.092721 0.060390 -0.005763 -0.080771  
0.016965 -0.050490 0.024335 0.028982 -0.014835 -0.027291 -0.044708 0.020929 -0.057598 -0.028937 0.009319 -0.079314 0.003875 -0.032830  
-0.006458 0.014944 -0.050890 -0.014037 0.010666 0.017919 0.008990 0.017519 -0.017654 0.037331 -0.052336 0.063887 -0.011682 -0.061873  
-0.026722 0.000976 -0.008686 0.025713 -0.009165 -0.049493 0.003572 -0.002535 -0.056629 0.014740 -0.039940 0.008414 0.028759 0.000382  
-0.033493 0.023668 -0.026763 0.023184 0.018871 0.002258 -0.044100 0.008591 -0.045887 -0.010781 -0.044031 0.045451 0.007079 -0.048573  
0.000111 -0.007383 -0.053732 0.021154 -0.026904 -0.029751 0.024551 -0.055714 -0.053990 -0.054324 -0.036847 -0.031275 0.013326 -0.008804  
0.003595 -0.056428 -0.013710 0.007852 -0.006933 0.034578 -0.054231 0.016259 0.034760 -0.018153 -0.016037 0.041605 0.045371 -0.015325  
-0.026094 -0.025469 -0.045524 -0.027279 -0.042931 -0.015826 -0.017271 0.020593 -0.044497 -0.007272 0.089275 -0.023294 0.039373 0.009213  
-0.052213 -0.010578 -0.036412 -0.002920 0.008924 -0.009284 -0.036999 0.014257 0.010278 -0.058591 -0.015800 0.024567 -0.007104 -0.062413  
0.024759 -0.007692 0.004941 -0.053182 -0.021855 0.005369 -0.043603 -0.004569 -0.051143 -0.006985 -0.003981 0.013286 0.062925 -0.080449  
0.000418 -0.037568 -0.066377 0.014533 -0.064288 0.024952 -0.004755 -0.008035 -0.059494 -0.068538 0.055728 -0.051111 -0.045192 0.032898  
-0.044962 0.012468 -0.008567 -0.039072 -0.009887 -0.038721 0.029805 0.033381 -0.040614 0.027382 0.057821 0.035420 -0.083489 -0.004751  
-0.017539 -0.059003 -0.009932 0.029867 -0.026546 -0.039216 -0.056243 -0.049491 0.036204 -0.052535 0.019755 -0.007695 0.026573 -0.057333  
-0.041607 0.034472 0.018311 -0.025573 -0.036857 -0.010648 0.030171 0.014479 -0.036720 -0.039329 -0.076364 -0.042548 -0.018823 0.016185  
-0.033110 -0.016278 -0.040627 -0.045687 -0.035397 0.002983 0.004180 -0.000491 -0.010084 -0.009412 -0.076731 0.054773 0.043666 -0.006701  
-0.017412 0.022567 -0.060583 -0.041636 -0.033348 0.007595 0.009387 0.032624 0.028351 0.006047 -0.082130 0.067031 -0.038297 -0.054341  
0.033333 0.029654 0.032608 0.032133 0.024845 -0.036460 -0.035869 0.001791 -0.055134 0.031685 -0.037285 0.037922 0.024152 -0.000251  
-0.034051 -0.066756 -0.058313 -0.040961 -0.057105 -0.062253 -0.006189 -0.067179 -0.008216 0.010957 0.012087 -0.031042 -0.017174 -0.005347  
-0.024841 0.031590 -0.007573 0.011247 -0.001959 -0.007983 -0.013616 -0.061750 -0.005226 -0.014515 0.007896 0.090872 -0.090152 -0.024020  
0.019587 -0.007197 -0.003121 -0.000771 -0.032102 -0.035496 0.022792 -0.045512 0.028961 0.008570 0.003752 0.065142 -0.022282 -0.056708  
-0.004411 -0.042370 -0.002316 -0.008735 0.006140 -0.059556 -0.053886 0.029861 -0.043674 -0.033598 0.056102 0.030457 -0.036875 -0.055312  
-0.032697 0.038589 -0.029665 0.010735 0.001579 0.031269 -0.032292 0.029717 -0.021568 -0.010657 0.048153 -0.026085 -0.062701 -0.010274  
-0.007531 -0.013044 -0.010683 -0.047660 0.028100 0.009213 -0.020323 0.028963 -0.051189 -0.004264 -0.095658 0.011901 0.065997 0.033387  
0.022464 0.000498 -0.008320 -0.032060 -0.026750 -0.067169 -0.041440 0.018681 -0.024365 -0.014929 0.000249 0.069055 0.036408 -0.067442  
-0.057921 -0.037655 -0.003109 -0.040269 0.012351 0.006615 -0.018158 -0.064888 0.022198 -0.026886 -0.000348 0.025889 0.010861 -0.028178  
0.018778 -0.033128 0.029029 0.041162 0.013175 0.021613 -0.008865 0.008041 0.032189 0.037859 -0.062356 -0.057841 -0.031925 -0.004191  
0.011357 0.032316 -0.005005 0.015186 -0.018894 -0.008122 -0.011499 -0.055191 -0.018768 0.012080 0.035869 0.019778 -0.069485 0.044571  
-0.024879 -0.003209 -0.007393 0.037305 0.017316 0.012643 -0.041622 -0.003379 0.011495 -0.039806 -0.070521 -0.036259 -0.014563 0.050931  
-0.046909 -0.002275 0.021495 -0.012072 -0.028372 0.036602 -0.027056 0.002757 -0.008801 0.004953 0.079116 -0.112442 -0.056972 0.021215  
-0.011177 -0.051224 -0.038411 -0.052158 -0.009877 0.038762 0.005679 0.006740 0.038010 -0.031323 -0.030689 -0.083545 -0.041919 0.055675  
-0.024598 -0.062400 -0.038008 -0.038605 -0.049901 -0.020757 0.017616 -0.046134 0.014460 -0.001870 0.005187 -0.007140 -0.030372 -0.075876  
0.047867 -0.041655 -0.028455 0.010171 -0.011632 0.027358 -0.026718 -0.033241 -0.008109 -0.027170 -0.000680 -0.004585 0.029430 -0.031330  
-0.047083 0.023646 0.016310 -0.069167 0.009011 -0.021546 -0.034532 0.015432 -0.017446 -0.016941 -0.000885 -0.044867 -0.031031 0.005034  
-0.028247 0.018888 -0.018557 -0.009276 -0.007486 -0.048322 -0.004386 0.025739 0.037069 -0.027907 0.049122 -0.079115 -0.014790 0.019851  
0.012943 -0.059293 -0.069215 -0.063794 -0.009609 -0.001648 -0.006777 0.005250 -0.059206 0.011700 -0.047751 0.015120 0.005713 -0.057889  
-0.027039 0.035233 -0.044777 0.014680 0.024372 -0.012732 -0.030543 0.035259 -0.023520 -0.032044 0.036519 0.038172 -0.019792 0.075069  
-0.017837 -0.041615 0.023927 -0.037596 0.003520 -0.025831 -0.052097 -0.037104 -0.047084 -0.018370 -0.096039 0.011092 0.009260 -0.085691  
-0.000671 -0.008115 0.025135 -0.036480 0.028088 0.002477 0.038413 -0.007623 -0.015876 0.026157 -0.075892 0.044279 0.041943 -0.047107  
0.038367 0.008102 0.041928 0.026449 0.022263 0.014400 0.031854 -0.052828 -0.000946 0.036662 -0.065542 -0.022153 -0.003959 -0.040479  
-0.066278 -0.041068 -0.024723 -0.009891 -0.067152 0.016108 -0.054298 -0.039304 -0.041249 -0.045911 -0.005607 0.036119 -0.113196 0.075340  
-0.027544 0.017414 0.008285 0.033925 -0.000605 -0.009442 -0.038663 -0.010086 -0.060267 -0.054424 0.017404 0.047482 0.025717 -0.082795  
-0.010972 -0.018455 -0.049666 -0.029808 -0.012180 0.030680 -0.045170 -0.031093 -0.014674 -0.037108 0.049211 0.044154 -0.045692 -0.000468  
-0.041516 0.009587 0.023328 -0.056998 -0.061631 -0.063066 -0.044732 -0.027401 -0.035288 -0.023031 0.037390 -0.019522 -0.018094 -0.029914  
-0.004584 0.002944 0.029482 0.027669 -0.017412 0.001895 -0.009161 -0.058174 0.011974 0.004364 -0.011491 -0.028597 0.061429 0.011975  
-0.000138 -0.023848 -0.028578 -0.014897 -0.040798 -0.019333 0.016637 -0.038897 -0.053885 -0.046462 0.001699 -0.073244 -0.013224 0.035645  
-0.052548 -0.032214 0.030623 -0.034550 -0.041200 -0.044474 0.004616 0.024606 0.017579 -0.053936 0.048501 -0.109995 0.043979 -0.026547  
0.000123 -0.003288 -0.051696 0.014770 0.026128 -0.013232 0.023962 -0.032992 -0.016148 0.034253 -0.058044 0.011324 -0.025385 0.019887  
0.022298 -0.011920 -0.054399 0.012491 0.029868 0.005181 -0.001275 -0.038921 -0.008578 0.007963 0.066707 -0.042460 -0.026321 -0.063253  
-0.031943 -0.030753 0.002419 -0.059221 -0.015730 0.022511 -0.034469 -0.012412 0.005783 -0.020222 0.030695 -0.012725 0.034462 0.042238  
0.029767 -0.035701 -0.032280 0.019547 0.011436 0.038939 0.045805 -0.011665 0.020994 -0.035812 -0.028551 -0.027227 0.048152 -0.038808  
-0.061050 -0.004947 -0.058280 -0.005327 -0.059869 -0.051511 -0.055611 -0.000907 -0.009098 -0.061625 0.054822 -0.090253 -0.041920 0.041380  
-0.037405 -0.019125 -0.023099 -0.005657 -0.023365 0.032578 0.001116 0.034326 -0.043626 0.016967 -0.006227 -0.050165 0.036431 -0.034901  
-0.005095 -0.015480 0.037440 -0.007711 0.041263 -0.052420 -0.047348 0.040403 -0.054742 0.023047 0.035288 0.043256 -0.023063 -0.075419  
0.015433 0.000216 0.033930 0.026243 -0.001553 0.010843 -0.003033 -0.011919 -0.012281 -0.024389 0.005184 0.001991 0.000481 0.011354  
-0.005375 -0.037605 -0.039182 -0.059150 0.017857 0.013218 -0.020029 0.031467 -0.046891 -0.025132 0.014450 -0.064459 0.055370 -0.002049  
0.002131 0.019126 -0.030102 0.030642 -0.042786 0.015877 -0.024546 -0.048887 -0.049189 0.029607 -0.039466 0.017617 0.038427 0.029054  
-0.036283 -0.008535 -0.007962 -0.048242 -0.049542 -0.054512 0.030989 0.014104 0.016826 -0.037092 0.024852 -0.038735 0.030996 -0.043103  
-0.049894 -0.021588 -0.061038 -0.007395 -0.002946 0.029077 -0.020977 0.007011 -0.032494 0.005450 0.021818 -0.068100 0.051171 0.025655  
-0.052130 -0.011282 -0.028865 -0.059092 0.020566 0.034044 0.009443 -0.026845 -0.047245 0.021061 -0.057753 0.087765 -0.019014 0.017669  
0.014060 -0.032728 -0.015885 0.042376 0.010556 -0.022168 0.010858 -0.053683 -0.010862 -0.005223 -0.053864 0.000639 0.068336 -0.084088  
-0.040936 -0.041887 -0.035894 0.015775 0.016648 -0.046621 -0.013523 -0.027768 -0.056400 0.025676 -0.035887 0.036550 -0.011418 -0.044874  
0.022318 -0.020411 0.019811 -0.056913 -0.043006 0.019292 0.027208 -0.031283 0.035916 -0.015727 0.001182 -0.011883 0.037134 0.087337  
0.023036 0.012213 0.039169 -0.037641 -0.044686 0.000719 0.003219 0.027525 -0.032309 -0.004592 0.056044 0.083402 -0.055490 -0.029539  
-0.033737 0.023845 -0.060117 0.005473 0.002816 -0.033739 -0.036770 -0.024828 -0.041140 0.028912 -0.049864 -0.053268 0.063293 0.021767  
0.002173 -0.033544 -0.031108 -0.026237 0.010454 -0.052555 0.006381 0.009853 -0.041237 0.020483 -0.023997 0.051150 -0.025618 -0.066859  
0.001879 -0.052960 -0.023497 -0.034224 -0.070118 -0.043337 -0.050533 -0.002010 -0.021318 0.005273 -0.027114 -0.052955 0.031329 0.021946  
0.010449 0.024407 -0.043327 -0.057667 -0.027946 -0.039250 -0.039866 0.019002 -0.024311 -0.009463 -0.002226 -0.033479 -0.018105 0.023875  
-0.050653 -0.003543 0.015502 0.008239 -0.039278 -0.035452 -0.019827 0.000450 -0.003258 0.044567 -0.016097 -0.055618 0.061913 0.005171  
0.006890 0.010928 -0.032279 0.003182 -0.037166 0.013521 0.018409 0.025554 0.015104 0.034297 0.020237 -0.028136 0.059434 -0.019159  
0.015667 0.004254 -0.038432 -0.007549 -0.001214 -0.030030 0.010882 -0.068598 -0.011698 -0.064356 -0.012105 0.044615 0.013717 -0.041013  
-0.072850 -0.064652 0.017776 -0.054253 -0.003139 0.023303 0.019028 0.002500 -0.043393 0.015722 -0.055515 0.034197 -0.014784 -0.025495  
-0.014007 -0.059376 -0.064883 -0.007630 -0.025741 -0.015939 -0.011195 -0.015286 -0.071736 -0.057137 0.018184 -0.045740 0.012624 0.018935  
0.037617 -0.014933 -0.030192 0.031331 0.008243 0.009956 0.017672 -0.001563 0.046107 -0.025057 -0.046503 -0.016252 -0.013393 0.004342  
-0.013963 -0.041986 -0.000960 -0.037166 -0.043851 0.001541 -0.046987 -0.047043 0.007696 0.021904 -0.010346 -0.011619 -0.013293 0.023414  
-0.014506 -0.012728 -0.012255 -0.002608 0.007252 -0.006684 0.007331 -0.008486 -0.058760 -0.001510 -0.006184 -0.072579 -0.000418 0.073799  
-0.008895 -0.018078 -0.020812 0.000673 -0.030826 0.004322 0.001242 0.029707 -0.007101 -0.060611 0.007858 -0.022235 0.089155 -0.101493  
0.032752 -0.021127 0.005765 0.029533 0.016041 -0.013963 -0.055741 0.019385 0.030071 -0.001307 0.009478 0.016956 0.042217 -0.109885  
-0.030263 -0.006195 -0.019241 -0.042091 0.015683 0.023405 0.036913 0.027801 -0.029638 -0.053813 -0.045109 0.054363 0.102736 -0.051083  
-0.060072 0.008029 -0.009804 -0.048364 -0.038804 -0.017708 -0.050876 -0.005380 0.002660 -0.004699 0.003516 0.024832 -0.043966 -0.040592  
-0.052869 -0.052383 -0.031051 -0.006204 -0.031709 0.022953 -0.053509 -0.044370 -0.020373 -0.032484 -0.067271 -0.023753 0.083521 -0.068123  
-0.014270 -0.006591 0.007661 0.020495 0.023153 -0.018220 -0.033245 0.022161 -0.050185 0.002072 0.082410 -0.058862 -0.056976 -0.028108  
-0.053210 -0.058811 -0.028660 0.003532 -0.029905 0.027988 -0.035353 -0.030943 0.013130 0.007596 0.030423 -0.069299 -0.061062 0.004682  
-0.051789 -0.045620 0.025879 0.011414 -0.023034 -0.005727 -0.023800 -0.015465 0.034221 -0.034851 -0.026158 0.068413 -0.018267 -0.082887  
-0.054201 -0.008266 0.022795 -0.020077 0.038508 0.022927 -0.013508 -0.020236 0.039920 -0.045234 -0.061594 0.085472 -0.031517 -0.017155  
0.029199 0.038175 0.007382 -0.002556 0.009914 -0.041251 0.037878 -0.019519 -0.039913 0.030147 0.003201 -0.086420 0.050775 0.086176  
-0.039934 -0.068338 0.020299 0.007249 -0.060741 0.020539 -0.047604 -0.058912 -0.012553 -0.054051 -0.057787 0.030616 -0.049855 0.012330  
0.044355 -0.011750 0.034645 -0.025289 0.041419 -0.024089 -0.011587 0.008531 0.006462 0.001385 -0.024467 0.008643 0.070964 -0.018445  
0.001413 -0.027137 -0.038131 -0.036409 -0.002632 -0.044026 -0.048482 -0.034580 -0.002911 -0.007312 0.031192 -0.012036 -0.040967 -0.025822  
-0.034782 0.035446 -0.035774 -0.027305 -0.024113 -0.009966 0.041795 -0.037194 0.022616 0.005521 0.041344 0.013329 -0.047179 0.021920  
0.015738 -0.022405 -0.044691 -0.028363 -0.009669 0.000718 -0.019765 -0.019245 0.012860 0.035348 -0.077832 -0.005011 0.015002 -0.024397  
0.005580 -0.000432 -0.017171 0.001178 0.001269 -0.047992 0.022964 -0.031772 0.015187 -0.025279 -0.021565 -0.044472 -0.007850 -0.102415  
0.000646 0.007101 -0.057654 -0.030296 0.011864 0.030058 -0.012214 -0.016489 -0.060824 0.002113 0.014955 0.025028 0.016004 -0.068938  
0.028167 -0.037611 -0.022506 0.028698 -0.042409 -0.046550 -0.018306 -0.026332 -0.028174 -0.024426 0.111239 0.051406 -0.034993 -0.073401  
0.004536 -0.026700 0.003121 0.030374 -0.017761 -0.047483 -0.036845 -0.017628 -0.008947 0.007824 -0.112056 -0.023853 0.040909 0.011261  
0.005386 -0.051160 0.026743 -0.035023 -0.008982 0.030342 -0.001985 -0.041105 -0.037991 0.018537 -0.036469 -0.001270 0.006641 0.033279  
0.018064 -0.012132 0.018806 -0.047178 0.001457 -0.001545 -0.047767 -0.017595 0.018810 -0.058924 -0.016149 -0.045555 -0.014463 -0.040836  
0.010632 0.006057 -0.010895 -0.018282 0.047679 0.042871 0.022203 0.042234 0.020358 -0.006675 0.036616 0.000130 0.034800 -0.019382  
-0.022665 -0.038264 0.016361 0.035495 0.001215 0.033515 -0.011219 -0.030356 0.024797 -0.015253 -0.111555 -0.010399 0.034714 0.001668  
0.001385 0.033920 0.032325 -0.033382 -0.062311 -0.042126 -0.005126 0.025141 -0.023026 -0.034237 -0.010906 -0.097212 -0.002205 0.053005  
-0.028409 -0.016769 -0.043073 -0.025407 -0.029886 -0.021847 -0.058037 -0.039297 -0.058316 -0.057022 -0.069706 -0.033966 0.005192 -0.030494  
0.037760 0.030073 0.031096 -0.043454 -0.027425 -0.062768 0.032143 -0.010107 0.024135 0.005234 0.063794 0.020990 -0.000097 -0.026066  
0.006989 -0.012340 -0.023526 -0.017038 -0.035555 -0.028515 -0.024719 -0.033206 0.020259 -0.023709 0.062945 0.014707 -0.010004 -0.104334  
-0.015519 -0.045929 -0.026247 -0.063131 -0.040514 -0.005625 -0.007587 -0.004659 -0.007055 -0.039341 0.056728 -0.087166 -0.012282 0.011241  
0.005802 -0.034904 -0.018829 0.019561 -0.057367 0.020757 -0.053507 -0.004598 0.005783 -0.051744 -0.060281 0.000549 0.033760 -0.027736  
-0.052281 0.027952 -0.030605 0.027581 0.000867 0.030042 0.015613 -0.015974 0.042977 0.038696 -0.051082 0.046524 -0.030219 -0.010513  
-0.004960 0.032141 -0.037271 -0.013422 0.002450 -0.057119 0.038240 0.032262 0.037728 -0.050647 0.008223 -0.083066 0.013165 -0.041400  
-0.048927 0.001291 0.037728 0.010375 0.004512 -0.008771 0.021120 -0.038502 0.022769 -0.004981 -0.019216 0.006902 -0.113745 0.073300  
-0.002849 -0.003100 0.024184 0.002543 -0.010326 0.035280 -0.025799 -0.015602 0.008282 -0.031153 -0.028410 0.083347 -0.046542 -0.026126  
-0.034534 0.003044 -0.022462 -0.052979 -0.032117 0.024522 -0.027662 -0.055089 -0.044985 -0.067710 0.004259 0.058777 -0.100401 -0.023565  
-0.008834 0.024294 0.008775 -0.030348 0.011355 -0.049196 -0.055327 -0.040137 0.039518 -0.031228 -0.101547 0.104605 0.010311 -0.044148  
-0.051250 0.000017 0.009802 -0.040074 -0.024926 0.013101 -0.012533 -0.020278 -0.049589 0.015722 0.013359 0.020087 0.031526 -0.039886  
-0.001841 -0.032691 0.021790 0.019654 -0.007322 0.014705 -0.029894 -0.008262 0.020739 0.024756 0.066577 -0.050119 0.074702 -0.018781  
-0.004050 0.023014 -0.033284 0.017060 -0.060575 -0.043535 -0.046045 -0.045232 -0.001196 0.013703 0.038766 -0.069243 -0.013589 0.013551  
0.026376 -0.049523 -0.052251 -0.004114 -0.000489 0.012500 -0.009713 -0.051000 0.005086 -0.004713 0.039456 0.004503 -0.083011 -0.002222  
-0.035171 -0.051931 -0.010584 0.011106 -0.020531 -0.009853 0.004501 -0.000263 0.033701 -0.006713 -0.013404 0.029067 0.084410 -0.056432  
0.014901 0.023539 0.024258 0.004931 0.016359 -0.009397 0.019445 -0.039437 -0.013439 -0.013031 -0.047581 -0.032844 -0.114838 0.110028  
-0.043746 -0.036441 0.001741 -0.032081 0.007312 0.032094 -0.056168 0.030173 0.025559 0.027906 0.039901 -0.076257 0.046812 -0.022008  
0.003575 0.030478 -0.001931 -0.003952 0.024994 0.028231 0.022948 0.011372 -0.022829 0.034251 -0.010842 -0.067531 0.012126 0.022987  
0.000108 -0.040997 -0.045583 -0.056037 0.011279 0.020584 -0.006426 0.025267 -0.052157 0.033572 -0.087430 0.087161 -0.067211 0.009194  
0.033629 0.039024 -0.010723 0.039745 0.029433 0.030208 -0.045104 -0.033923 0.006425 -0.014213 -0.004652 -0.020465 0.082048 -0.048672  
0.000322 -0.007316 0.011283 0.005953 -0.015235 -0.048997 0.004003 -0.017931 -0.041580 -0.030335 0.002423 0.066575 -0.018327 -0.002251  
0.011616 -0.008253 -0.021353 -0.049009 -0.037638 0.001971 -0.066439 0.023108 -0.015796 0.003493 0.011837 -0.060975 0.035752 0.050475  
-0.021034 0.013956 -0.033743 -0.043248 0.000160 -0.030471 0.022191 0.024163 0.004399 0.009195 -0.048583 0.035894 -0.024928 0.063353  
0.037679 0.037816 -0.049309 -0.024486 -0.029070 -0.008089 0.018763 -0.045212 0.004206 -0.055583 -0.053334 0.040415 -0.042530 -0.003538  
0.011642 -0.020626 0.034377 0.007639 0.025257 -0.002835 0.027516 -0.044732 -0.031485 0.025375 -0.006305 -0.018407 0.053298 -0.020701  
-0.028653 -0.015248 -0.040724 0.016220 0.020176 -0.027052 -0.039644 0.022411 -0.006935 0.035411 0.001157 0.052375 -0.008000 -0.024115  
0.023452 0.002409 -0.027953 0.003352 -0.014962 -0.055294 -0.055873 -0.058554 0.031315 -0.042646 -0.047807 -0.050871 0.053958 -0.017318  
0.045444 0.028737 0.014134 -0.008377 0.035923 0.037386 0.047592 -0.031523 -0.045006 0.033349 -0.026614 -0.005925 0.022162 -0.014300  
-0.047311 0.005149 -0.009182 -0.004399 0.009906 -0.030976 0.008887 0.012594 0.023837 -0.050584 0.040241 -0.026957 0.036217 -0.072270  
0.013024 0.016088 -0.039281 -0.009193 -0.047292 -0.061134 -0.063623 0.011782 -0.009669 -0.031741 0.025740 0.041660 -0.013359 -0.062988  
0.040475 -0.057158 -0.012517 0.037279 0.040473 0.031502 -0.023404 -0.047095 0.016615 0.024978 -0.050878 0.067928 0.042097 -0.013496  
0.043904 -0.012175 -0.017894 -0.028958 -0.037626 0.005540 -0.039998 0.012524 0.006344 0.039532 0.032158 0.059829 -0.029855 -0.048268  
-0.041273 -0.008342 -0.033801 -0.058014 0.012871 -0.031068 0.020674 -0.023331 -0.052440 0.013602 0.012685 -0.066285 0.063488 -0.089909  
-0.037924 0.021802 0.006403 -0.035977 -0.039586 -0.004564 0.027040 0.011249 0.023586 -0.058294 -0.037418 -0.060043 -0.000288 0.043892  
0.036890 -0.014408 -0.054612 -0.032998 -0.040950 0.024184 0.030826 0.013289 0.023388 -0.042924 -0.039790 0.080071 -0.084766 0.027697  
-0.019306 0.044866 0.043961 0.038471 0.023509 0.023371 0.004684 0.045818 0.034326 0.009673 -0.013601 0.027133 -0.014818 -0.043394  
-0.051730 0.010609 -0.010326 -0.041125 -0.032398 -0.051204 -0.034564 -0.027680 0.029495 0.013107 0.002140 0.018427 -0.019434 0.001493  
-0.043730 0.013981 -0.009017 0.000574 -0.050378 -0.039319 0.025453 0.007476 0.009835 0.026834 0.040775 -0.014687 -0.095175 0.026962  
0.040388 0.013569 0.033069 0.019780 -0.041281 0.043191 0.034004 -0.044208 -0.018388 -0.049030 0.002951 -0.024066 -0.017648 -0.071179  
0.023294 -0.024785 0.035203 -0.016766 -0.043634 -0.007658 -0.040923 0.027677 0.020300 0.013648 0.073724 -0.047132 -0.074789 -0.054862  
-0.047148 0.041487 0.037717 -0.048551 -0.014337 0.036792 -0.030100 -0.033033 0.011701 0.018760 -0.073631 0.049567 -0.028641 -0.062438  
-0.020808 0.007318 -0.038646 0.039026 -0.040594 0.038096 -0.050910 -0.062031 0.019130 -0.005118 -0.042442 -0.026707 0.091278 0.030800  
0.007178 -0.038571 -0.019586 -0.031746 -0.064338 -0.013617 -0.016017 -0.008060 0.008584 0.016511 -0.074202 0.026439 0.035360 0.013936  
0.024025 -0.023907 0.015684 0.016325 -0.012985 -0.034483 -0.062819 0.014085 0.008583 -0.062061 0.007099 -0.087241 -0.001303 0.002100  
-0.031676 0.011917 0.011944 -0.047169 -0.005645 -0.049581 0.015500 -0.042333 0.023284 -0.001665 -0.062622 -0.023461 0.004305 -0.010711  
0.022914 0.018076 0.004492 -0.013529 -0.061909 0.006492 0.002688 -0.035934 -0.049177 -0.025318 0.041316 0.012713 0.021289 0.054803  
0.007969 0.039379 0.014738 0.010761 -0.011933 0.032663 0.008922 -0.001023 0.025589 -0.042084 -0.085236 0.044545 -0.043776 -0.057555  
-0.051500 -0.059078 0.007836 -0.018997 -0.003753 -0.043305 0.024127 -0.058087 0.032247 -0.025486 -0.119829 0.080099 -0.010381 0.009616  
-0.034092 0.020976 -0.047029 0.015332 0.002452 0.038517 0.004096 -0.006325 -0.012926 -0.036966 0.009553 0.008972 0.028090 -0.003956  
-0.014327 0.034441 -0.032472 0.004411 -0.025636 -0.007283 0.018954 -0.050613 0.013576 0.021725 -0.008279 0.040641 -0.016501 -0.052291  
-0.047892 -0.035542 -0.058028 -0.054106 -0.050672 -0.026805 -0.007125 0.003116 -0.040873 0.018815 -0.013167 -0.056622 -0.034884 0.016770  
-0.021262 0.020473 0.008086 -0.017106 -0.040115 -0.054005 0.005233 -0.024493 -0.035877 -0.045054 0.016274 0.025752 -0.021522 -0.084908  
0.044108 -0.011193 -0.031928 -0.051461 0.002778 -0.031907 0.017046 -0.011561 -0.001436 -0.019418 0.018867 -0.018627 -0.017416 0.020475  
0.033025 0.010660 0.004310 -0.033719 0.014323 -0.037294 0.001261 -0.019060 0.037898 -0.020968 0.028190 -0.078394 0.051769 0.065562  
-0.014182 0.033626 0.034536 -0.038490 -0.046901 -0.032417 0.028320 -0.059362 0.019335 -0.036719 -0.076094 -0.010420 0.030312 0.073844  
-0.058394 -0.052911 -0.012441 -0.016108 -0.042112 -0.004146 -0.060375 -0.011624 -0.016515 -0.031499 -0.053100 -0.031185 0.038947 -0.078937  
0.036356 0.032575 -0.057932 0.023969 -0.002883 -0.032414 0.034703 -0.014553 -0.019005 -0.017721 -0.031727 0.040820 -0.099993 0.034487  
0.021256 0.031781 0.031179 -0.046093 0.006859 -0.048796 -0.037936 -0.055769 -0.026514 0.013779 -0.029205 -0.026488 0.061556 -0.089096  
0.029820 -0.021523 -0.038676 -0.046549 0.041262 0.033183 -0.001613 0.014320 0.009548 0.009813 -0.028525 -0.031532 0.058269 0.007530  
-0.015901 0.004257 -0.051690 0.009325 0.016412 -0.030581 -0.022418 -0.001702 -0.050269 -0.012681 -0.023498 0.002278 -0.018299 -0.036745  
-0.009011 0.030150 0.034827 0.015529 -0.046259 -0.008415 0.037571 -0.036538 -0.020199 0.038829 -0.063482 0.060256 -0.040863 -0.011849  
-0.010540 -0.013505 0.000667 0.024838 0.015143 0.034068 0.015688 0.017180 0.014214 0.042329 0.006070 0.017656 -0.002720 0.035954  
-0.024073 0.039328 -0.013310 0.014145 0.038025 -0.030586 0.029960 -0.010621 0.027105 -0.038561 -0.028667 0.022539 -0.060757 -0.052739  
0.021738 -0.056902 -0.052662 0.025704 0.015886 0.008858 -0.049248 -0.039367 0.026965 0.030466 -0.047743 0.092629 -0.047935 -0.083444  
-0.005721 -0.058331 0.005574 -0.017259 -0.037016 -0.036637 0.022137 -0.021188 0.006608 -0.056716 0.070206 -0.081034 0.077710 -0.072205  
-0.005128 0.028940 -0.064092 -0.001436 -0.061636 -0.043994 -0.040791 0.008687 -0.045720 0.029676 0.035131 -0.062656 0.033892 -0.015117  
0.010100 0.034726 -0.045166 0.005480 0.025557 -0.035530 0.014781 -0.047954 -0.023611 -0.011661 -0.048220 0.050481 0.062842 -0.072347  
-0.004312 0.022065 -0.031859 -0.055146 -0.041845 -0.030704 -0.028138 -0.004831 -0.017753 -0.025739 0.028991 -0.020394 -0.044228 -0.004659  
-0.003463 -0.048377 -0.004347 0.031978 -0.039233 0.017233 -0.050122 0.011839 0.017435 -0.046126 0.047732 -0.014914 -0.020084 0.002586  
0.014878 -0.025414 -0.053045 -0.028483 -0.050723 -0.025984 -0.002603 -0.064025 -0.041062 -0.021353 -0.007529 -0.014688 0.012442 -0.116471  
-0.062584 -0.067604 -0.029262 0.025970 -0.063195 -0.014129 -0.015220 -0.014955 -0.040380 -0.059461 -0.038799 -0.041504 -0.061202 -0.048544  
0.033688 0.026404 0.041910 -0.030636 0.027128 0.014414 0.036193 -0.012254 0.009175 0.038741 0.062399 -0.024915 -0.044798 0.005340  
-0.024233 -0.001797 -0.008913 -0.001081 -0.017128 0.035796 -0.002894 -0.038731 -0.039575 -0.043694 0.061091 -0.049993 0.001815 -0.020982  
-0.049763 -0.004737 0.014767 -0.059182 0.002452 -0.018330 -0.045053 -0.047405 -0.015780 -0.001910 -0.051311 -0.055865 0.023868 0.019967  
-0.021856 -0.030717 0.022955 -0.064289 0.020142 -0.017063 -0.022392 0.002732 -0.004666 -0.061945 0.043877 0.013226 -0.072597 0.016279  
0.034557 -0.018346 0.022750 0.029756 0.015521 -0.050991 0.044813 0.019046 0.030086 -0.037273 0.047177 -0.011555 0.006135 -0.038836  
-0.015792 -0.002077 -0.050832 -0.015689 0.034909 -0.005561 -0.005571 -0.051150 0.011831 -0.025909 -0.053436 0.076258 -0.065741 -0.052199  
-0.023775 0.023257 -0.001295 0.042635 -0.016368 -0.050900 -0.039324 0.008080 0.041139 0.017125 0.030982 -0.040398 -0.011443 -0.024968  
-0.007824 -0.048815 -0.001312 -0.032008 0.010368 0.001272 0.004323 -0.041047 -0.041018 -0.010035 -0.078869 -0.018024 -0.019118 0.054510  
-0.046266 -0.000281 -0.003490 0.039820 -0.000334 0.024876 0.033023 -0.056237 -0.048968 -0.037259 0.007830 0.019462 -0.037225 -0.005479  
-0.055789 0.007165 -0.006981 -0.049803 -0.046497 -0.054385 -0.006412 -0.037738 -0.009203 0.024334 -0.001884 -0.003952 -0.062903 0.033408  
0.019663 -0.053052 -0.025033 -0.054347 -0.038808 0.004207 -0.018270 -0.039386 -0.030749 0.010157 0.078657 0.027244 -0.017870 -0.037132  
-0.046474 0.032289 -0.032589 -0.054567 -0.010050 0.010190 0.038896 0.026283 -0.055110 -0.024474 -0.017454 0.022428 -0.027253 0.094837  
-0.010913 -0.062386 -0.000928 0.000448 -0.044347 -0.027493 -0.063833 -0.022787 -0.056785 0.014568 0.010501 -0.018504 0.054871 0.037978  
0.030595 -0.003069 -0.015925 0.016310 -0.059069 -0.043622 -0.062253 0.019746 0.008660 0.032983 -0.075277 0.040937 -0.007422 0.011946  
-0.014781 -0.035058 -0.050746 -0.013045 0.013440 -0.023486 -0.049701 -0.051139 -0.011993 -0.056058 0.004594 0.031590 0.006513 0.019214  
0.000149 -0.017828 0.006007 -0.005706 -0.026038 -0.024000 -0.051793 0.042263 -0.029721 -0.047223 -0.004886 0.034678 0.010558 -0.026685  
-0.060223 -0.061107 -0.032548 -0.048117 0.038093 -0.049439 -0.015859 -0.000331 -0.019531 0.031283 -0.001843 0.005036 -0.011070 -0.055598  
-0.051941 0.014378 -0.018006 -0.015017 -0.007618 -0.026257 -0.025945 -0.004831 0.007408 -0.046089 -0.090016 -0.029106 0.093834 -0.074687  
0.006606 -0.021998 -0.038746 0.012733 0.031742 -0.029457 -0.028794 0.001393 0.012242 -0.018971 0.061136 -0.000620 0.069939 -0.123194  
0.021926 -0.040518 -0.052365 0.023239 0.024231 -0.008598 -0.011214 -0.061597 0.016684 -0.064413 -0.005858 -0.010246 -0.042903 -0.025151  
0.008758 -0.044805 -0.025178 0.025352 -0.039259 0.035105 -0.027859 0.023998 0.020003 0.031015 0.017030 -0.076377 -0.056695 0.030059  
-0.001200 -0.037074 -0.067844 -0.008512 -0.061201 -0.057406 0.024504 -0.051552 -0.036675 -0.009177 0.047258 -0.042395 -0.071816 0.052058  
0.035545 0.030808 0.024846 -0.060620 -0.029738 -0.029922 0.014215 0.022698 -0.012305 -0.043983 -0.024977 0.027177 -0.055595 -0.066931  
0.014827 -0.025231 -0.052129 -0.044654 -0.015373 -0.038318 -0.005201 -0.030428 -0.067984 -0.047299 0.035209 -0.072973 -0.041153 0.025519  
-0.012633 -0.026916 -0.011511 0.000026 -0.028961 0.024210 0.029097 -0.051957 0.035642 -0.008946 -0.076318 0.033998 0.075197 -0.040316  
-0.017451 -0.028250 0.021176 0.013626 -0.026708 0.023724 -0.003708 -0.003335 -0.040919 0.004690 0.031395 0.024758 0.085333 -0.090005  
0.040848 -0.037279 -0.005343 -0.051792 0.026968 0.004207 -0.018501 -0.033974 0.040262 -0.011204 -0.085240 0.074283 -0.042169 0.013514  
0.024282 -0.057808 -0.039423 -0.027090 -0.007879 -0.021210 -0.061256 -0.040744 -0.022261 -0.061359 0.006749 0.007974 -0.066173 0.025911  
-0.039428 -0.022898 -0.054689 -0.000733 -0.030750 -0.057336 -0.007945 -0.047538 -0.027138 -0.024011 -0.002965 -0.070219 -0.057003 -0.003257  
0.041800 -0.001076 -0.022452 -0.020801 -0.013263 0.017656 -0.020899 0.017232 0.000166 -0.043326 0.005592 0.054340 -0.033104 0.014844  
0.024266 0.008626 -0.045281 -0.033411 -0.028848 -0.056704 -0.060655 0.033665 0.011957 -0.041075 -0.089203 0.003558 -0.073074 0.071752  
0.023194 -0.022646 -0.054968 -0.046334 -0.026033 0.028135 0.029679 0.009516 -0.009132 -0.023904 0.063534 -0.003840 -0.026746 0.008131  
0.044524 0.013247 0.021864 -0.003330 0.035191 0.002868 0.013892 0.015729 -0.050292 -0.032563 0.027256 -0.004417 -0.046404 -0.032840  
-0.056938 0.011388 0.006243 -0.000136 -0.021424 -0.001613 -0.037032 0.014977 0.038078 0.016800 -0.041078 0.069508 -0.025745 -0.038287  
0.025197 0.006271 -0.022366 0.009050 0.000088 0.025775 -0.042802 -0.050029 0.001084 0.033121 0.004880 0.030098 0.048968 0.044855  
-0.016541 0.032577 -0.010242 0.023803 0.031520 0.029895 0.032849 -0.047208 0.001773 -0.046623 -0.011841 0.038158 0.054097 -0.037290  
-0.037326 -0.007209 0.038978 0.034020 -0.019914 -0.044519 -0.041664 -0.002004 0.034976 0.039049 -0.030944 0.046290 0.020691 0.017832  
0.009629 0.004169 0.002804 -0.006547 -0.003334 -0.014207 -0.048592 -0.008641 0.005042 -0.040924 -0.064226 0.060855 0.034832 -0.053400  
0.004093 -0.043305 0.007049 -0.042741 -0.029813 -0.059572 0.014626 -0.057705 0.008550 -0.041431 0.030550 0.058011 0.009456 -0.052064  
-0.002745 -0.014006 -0.010689 0.004794 0.001196 -0.045378 0.021719 -0.041699 0.026312 0.044924 -0.017886 -0.050020 0.007100 -0.021059  
-0.005506 -0.006916 -0.061505 0.031595 -0.064367 0.002166 -0.011581 -0.020722 -0.058114 -0.045038 0.038779 -0.035178 -0.105555 0.025290  
0.038573 0.014044 -0.023640 0.026841 0.037626 -0.011442 -0.048893 0.026490 -0.046112 0.016036 -0.022967 -0.023595 0.029560 0.001395  
-0.054307 -0.055947 -0.024591 0.001030 -0.047113 0.004281 0.001964 -0.040120 0.017950 -0.052850 -0.004550 -0.041125 -0.020290 -0.033160  
-0.062240 -0.025794 0.016459 -0.011165 0.012838 0.011824 0.000759 -0.036364 -0.008860 0.015063 -0.076900 0.074234 -0.092030 0.047325  
-0.070843 -0.035032 -0.022793 -0.005921 -0.031181 -0.044982 -0.037197 -0.045181 -0.072571 -0.030456 -0.046172 -0.008819 0.034734 -0.063707  
0.023848 0.004669 -0.024774 0.026429 0.006959 -0.029143 -0.030412 0.008197 -0.041581 0.010938 0.101586 0.086697 -0.029117 -0.080708  
-0.041433 -0.003268 -0.011975 0.037477 -0.044809 0.034750 -0.015802 -0.058899 0.007148 0.020117 0.072725 -0.048622 -0.012632 -0.005371  
-0.016211 -0.044658 -0.047828 0.014376 0.039280 0.040047 0.005830 -0.010309 -0.042005 0.021153 0.011374 -0.013233 -0.002857 -0.051002  
-0.003994 -0.038059 -0.006251 -0.004764 0.001849 -0.002318 0.037437 -0.026181 -0.001744 -0.013689 0.025653 -0.005421 -0.013014 0.019785  
-0.039651 -0.050662 -0.021396 -0.034053 -0.019150 -0.046997 -0.001195 0.010317 0.023721 0.040055 -0.024408 -0.004651 -0.032378 0.032107  
-0.039076 -0.012350 -0.040336 0.020350 0.034475 -0.016700 -0.012469 0.030318 -0.022310 -0.028714 0.026898 0.032873 -0.015843 -0.003615  
-0.001817 -0.047931 0.031389 -0.025454 -0.021089 -0.000710 -0.010495 -0.027000 -0.035010 -0.001247 -0.009480 0.043386 0.021097 -0.034565  
-0.037954 0.019465 -0.000048 0.008445 -0.036639 -0.009606 0.025428 -0.002806 -0.045828 -0.048057 0.049034 -0.065357 0.088201 0.036739  
-0.021160 -0.039142 -0.044635 -0.037528 0.017563 -0.048562 -0.003182 -0.006804 -0.037413 -0.035457 0.008354 -0.051792 0.030023 0.006393  
-0.059960 0.004085 -0.022074 -0.028147 0.015081 -0.056537 0.017172 -0.011757 -0.060853 -0.048824 -0.017481 -0.030591 0.016949 0.048901  
-0.019848 -0.028911 0.036290 0.004723 -0.015589 -0.050387 0.022577 0.036856 -0.010714 -0.005295 -0.091096 0.065709 0.024740 0.063681  
0.016123 -0.056358 0.016386 -0.034407 0.026275 0.019833 -0.001526 0.031645 -0.025062 -0.056772 -0.098559 -0.033775 0.034006 0.036753  
-0.033664 -0.062957 0.020221 -0.027138 -0.006989 -0.037809 -0.014985 0.028268 -0.040331 -0.051573 -0.098450 0.084523 -0.063528 0.040061  
0.019673 0.010439 -0.046557 -0.006861 0.025538 -0.000096 -0.034683 -0.032217 -0.001686 -0.045824 -0.036701 0.047905 -0.048151 -0.033952  
-0.065887 -0.019787 -0.057430 -0.059056 -0.032190 0.021185 0.001822 -0.049487 -0.041946 0.025896 -0.029272 0.010800 0.025948 0.032965  
-0.032112 0.013502 -0.019947 -0.013885 0.018132 0.030057 -0.007453 -0.036497 0.018635 0.010490 -0.044073 0.033018 -0.066318 0.033499  
-0.023738 -0.034622 0.017394 -0.045171 0.041059 0.037023 -0.029423 0.024238 -0.016960 -0.035401 -0.057656 0.051120 0.023445 -0.031678  
-0.013223 0.032638 0.035793 0.010772 -0.012800 -0.046613 -0.018912 0.018739 -0.000955 0.001163 0.019002 -0.041457 0.009090 0.009733  
-0.010264 -0.015838 0.024890 0.031719 0.033173 -0.017599 -0.015431 -0.017006 0.043170 0.041639 0.067353 -0.018696 -0.036423 -0.007976  
-0.021319 -0.056539 -0.022008 0.005499 -0.017387 -0.040347 -0.038440 -0.050454 -0.035149 -0.038691 -0.042282 -0.016572 0.032786 0.022613  
-0.030306 -0.047740 -0.059649 0.006125 -0.065814 0.001492 0.005538 -0.060417 -0.041345 -0.072200 0.008965 -0.038860 -0.048331 -0.019036  
0.025888 0.031570 0.034136 -0.055800 -0.023420 0.014186 0.012444 -0.029354 -0.039194 -0.057485 -0.041557 -0.018865 0.011512 0.013942  
-0.043784 0.019505 -0.028226 0.008981 -0.015128 -0.057477 0.004098 -0.018248 0.003860 -0.032052 -0.022136 -0.061970 0.053597 -0.030638  
-0.045859 0.037990 -0.032163 -0.014006 -0.046154 0.031409 0.034633 0.025283 -0.046506 -0.037824 -0.097148 0.071413 0.027568 -0.056103  
0.012288 -0.062772 -0.017402 0.003587 -0.057350 -0.043065 -0.048078 -0.066011 0.023906 0.002338 0.012152 -0.061657 -0.007621 0.016107  
-0.000326 -0.020674 -0.003412 -0.045566 0.043020 0.005675 0.025902 0.021296 -0.001792 -0.031022 0.005809 0.014605 0.004244 0.037543  
0.036493 -0.005188 -0.000201 0.006379 -0.041710 0.014387 -0.008440 0.027831 -0.023099 -0.016210 -0.037607 -0.015630 -0.046273 -0.002061  
-0.023300 -0.007788 0.017575 -0.043184 0.032202 0.016299 -0.021385 0.021740 -0.010157 -0.026450 0.001422 -0.000587 0.011755 0.043538  
-0.001057 -0.010103 0.034195 0.034005 0.032652 0.014462 0.006890 -0.033525 -0.048420 0.032791 -0.079928 0.071560 0.034047 -0.006712  
0.016499 -0.051614 -0.055735 -0.058344 0.011171 -0.020408 0.010952 -0.046634 0.032466 0.025234 0.021201 -0.044894 -0.047451 0.024121  
-0.020229 0.000178 0.044088 -0.051395 -0.016136 -0.043316 -0.000900 0.016328 -0.044504 -0.000582 -0.056108 -0.060317 -0.006573 -0.074400  
-0.029347 0.046810 0.011806 -0.013152 0.025903 -0.000198 -0.012807 -0.038670 0.035932 -0.038676 -0.021344 0.045055 0.054192 0.007906  
0.000758 -0.001171 -0.036646 0.031831 -0.044689 0.037539 -0.038577 0.031672 -0.017454 -0.006637 -0.023989 0.047501 0.013945 0.020151  
-0.016326 -0.027889 -0.039894 0.020825 0.038172 0.041532 0.044739 -0.014812 -0.035687 0.000602 -0.079089 0.081187 -0.024666 -0.057640  
0.004757 -0.003254 0.028558 0.002347 0.025180 -0.008500 0.023223 -0.064956 -0.066951 -0.046711 0.004403 0.057165 0.014825 0.028118  
-0.047887 0.022103 -0.044733 -0.028719 -0.000950 -0.054074 -0.056836 -0.051472 -0.035790 0.032442 0.069260 -0.046834 -0.105360 0.018968  
0.004810 -0.008698 -0.006725 -0.038596 -0.031260 0.016187 -0.017620 0.013781 0.025451 -0.041648 0.029959 -0.016705 0.001270 -0.042579  
-0.039051 0.044403 0.036289 0.038287 0.020930 -0.005170 0.034680 -0.008829 -0.041294 -0.001576 -0.041204 0.005254 -0.028527 0.005002  
-0.030830 -0.060294 -0.017313 -0.039542 -0.019668 -0.053418 0.021458 0.003225 0.028504 0.026014 -0.013195 -0.055491 0.010312 0.049760  
-0.054790 -0.065805 -0.021470 0.012013 -0.064309 0.023975 -0.036675 0.005524 -0.036965 -0.045671 0.035543 -0.025111 0.015487 -0.003631  
-0.035894 -0.014655 0.009257 0.030524 -0.038887 -0.025876 0.015920 -0.015567 0.006801 -0.025102 -0.087252 -0.005041 0.034423 0.066752  
-0.031071 0.027501 0.010318 0.026319 0.029886 -0.011260 0.012876 -0.030285 -0.052536 0.033621 -0.017261 0.096626 -0.069672 0.046005  
